[
  {
    "fold_id": 1,
    "fold_label": "subject=48",
    "model_name": "SignalJEPA_PreLocal",
    "strategy": "new",
    "warmup_epochs": 10,
    "n_train": 160,
    "n_test": 40,
    "train_class_counts": [
      80,
      80
    ],
    "test_class_counts": [
      20,
      20
    ],
    "pretrained_load": {
      "loading_path": "from_pretrained",
      "repo_id": "braindecode/signal-jepa_without-chans",
      "mode": "from_pretrained",
      "model_name": "SignalJEPA_PreLocal"
    },
    "phase_1_trainable_groups": [
      "spatial_conv.",
      "final_layer."
    ],
    "phase_1_trainable_params": 2302,
    "phase_1_trainable_names": [
      "spatial_conv.1.weight",
      "spatial_conv.1.bias",
      "final_layer.1.weight",
      "final_layer.1.bias"
    ],
    "phase_2_trainable_groups": null,
    "phase_2_trainable_params": null,
    "phase_2_trainable_names": null,
    "final_trainable_parameters": [
      {
        "name": "feature_encoder.1.0.weight",
        "shape": [
          8,
          1,
          32
        ],
        "num_params": 256,
        "requires_grad": false
      },
      {
        "name": "feature_encoder.1.2.weight",
        "shape": [
          8
        ],
        "num_params": 8,
        "requires_grad": false
      },
      {
        "name": "feature_encoder.1.2.bias",
        "shape": [
          8
        ],
        "num_params": 8,
        "requires_grad": false
      },
      {
        "name": "feature_encoder.2.0.weight",
        "shape": [
          16,
          8,
          2
        ],
        "num_params": 256,
        "requires_grad": false
      },
      {
        "name": "feature_encoder.3.0.weight",
        "shape": [
          32,
          16,
          2
        ],
        "num_params": 1024,
        "requires_grad": false
      },
      {
        "name": "feature_encoder.4.0.weight",
        "shape": [
          64,
          32,
          2
        ],
        "num_params": 4096,
        "requires_grad": false
      },
      {
        "name": "feature_encoder.5.0.weight",
        "shape": [
          64,
          64,
          2
        ],
        "num_params": 8192,
        "requires_grad": false
      },
      {
        "name": "spatial_conv.1.weight",
        "shape": [
          4,
          1,
          62,
          1
        ],
        "num_params": 248,
        "requires_grad": true
      },
      {
        "name": "spatial_conv.1.bias",
        "shape": [
          4
        ],
        "num_params": 4,
        "requires_grad": true
      },
      {
        "name": "final_layer.1.weight",
        "shape": [
          2,
          1024
        ],
        "num_params": 2048,
        "requires_grad": true
      },
      {
        "name": "final_layer.1.bias",
        "shape": [
          2
        ],
        "num_params": 2,
        "requires_grad": true
      }
    ],
    "n_trainable_params_final": 2302,
    "best_epoch": 406,
    "stopped_epoch": 436,
    "best_valid_loss": 0.37165966629981995,
    "accuracy": 0.6,
    "balanced_accuracy": 0.6000000000000001,
    "confusion_matrix": [
      [
        13,
        7
      ],
      [
        9,
        11
      ]
    ],
    "prediction_histogram": [
      22,
      18
    ],
    "collapse_diagnostics": {
      "prediction_histogram": [
        22,
        18
      ],
      "collapse_ratio": 0.55,
      "collapse_threshold": 0.9,
      "collapse_flag": false,
      "majority_predicted_class": 0
    },
    "probability_diagnostics": {
      "available": true,
      "probability_shape": [
        40,
        2
      ],
      "mean_probability_by_class": [
        0.51904834,
        0.48095165
      ],
      "std_probability_by_class": [
        0.32169573,
        0.32169573
      ],
      "mean_confidence": 0.79480897,
      "std_confidence": 0.13014856,
      "mean_prediction_entropy": 0.4526672,
      "mean_normalized_prediction_entropy": 0.65306072,
      "mean_predicted_class_probability": 0.79480897
    },
    "spatial_conv_initial": {
      "available": true,
      "parameter_name": "spatial_conv.1.weight",
      "raw_weight_shape": [
        4,
        1,
        62,
        1
      ],
      "weight_matrix_shape": [
        4,
        62
      ],
      "n_virtual_filters": 4,
      "n_input_channels": 62,
      "channel_names": [
        "Fp1",
        "Fp2",
        "F7",
        "F3",
        "Fz",
        "F4",
        "F8",
        "FC5",
        "FC1",
        "FC2",
        "FC6",
        "T7",
        "C3",
        "Cz",
        "C4",
        "T8",
        "TP9",
        "CP5",
        "CP1",
        "CP2",
        "CP6",
        "TP10",
        "P7",
        "P3",
        "Pz",
        "P4",
        "P8",
        "PO9",
        "O1",
        "Oz",
        "O2",
        "PO10",
        "FC3",
        "FC4",
        "C5",
        "C1",
        "C2",
        "C6",
        "CP3",
        "CPz",
        "CP4",
        "P1",
        "P2",
        "POz",
        "FT9",
        "FTT9h",
        "TTP7h",
        "TP7",
        "TPP9h",
        "FT10",
        "FTT10h",
        "TPP8h",
        "TP8",
        "TPP10h",
        "F9",
        "F10",
        "AF7",
        "AF3",
        "AF4",
        "AF8",
        "PO3",
        "PO4"
      ],
      "weight_matrix": [
        [
          0.0970002,
          0.02712272,
          -0.0044597,
          -0.04270323,
          0.0253418,
          0.06768984,
          0.09446312,
          0.04219673,
          -0.07159452,
          0.09003437,
          0.05154584,
          -0.08403189,
          0.0106964,
          0.12244297,
          -0.0864554,
          0.11107264,
          -0.05030493,
          0.00412857,
          0.00285639,
          0.029947,
          -0.10077134,
          0.11727665,
          -0.03847932,
          0.04160056,
          0.10163214,
          0.0825318,
          -0.01638145,
          0.01565349,
          -0.03069753,
          0.06187985,
          -0.09046975,
          0.09654227,
          0.01057336,
          0.00795345,
          -0.07256462,
          -0.10244475,
          -0.06187028,
          -0.05989738,
          -0.11985834,
          0.12691461,
          0.03422638,
          -0.07349131,
          0.05581906,
          0.12193684,
          -0.02859315,
          -0.05523446,
          -0.10225733,
          0.115186,
          -0.08518464,
          0.09343119,
          -0.02353349,
          -0.07115361,
          0.01388764,
          -0.11865959,
          -0.10820559,
          0.08156994,
          0.0614688,
          0.0614858,
          0.11832536,
          -0.07883889,
          0.00993504,
          0.00859906
        ],
        [
          -0.00961994,
          0.08284637,
          0.04479623,
          0.11149444,
          0.0894735,
          -0.11297967,
          -0.10838769,
          0.05100261,
          0.05162749,
          0.10821248,
          -0.00144883,
          0.10631429,
          -0.01639589,
          -0.03448214,
          -0.07869617,
          0.09159242,
          0.0274288,
          0.12150593,
          0.03030543,
          -0.09720602,
          0.02679599,
          -0.00462754,
          -0.04620754,
          0.0295734,
          0.10303921,
          0.03537157,
          -0.04597439,
          0.08359395,
          -0.04663016,
          0.06912294,
          0.02297874,
          0.03326157,
          0.0996354,
          0.09250669,
          0.12172657,
          0.06367785,
          -0.08985388,
          0.06811734,
          -0.0452649,
          -0.05752472,
          0.06368744,
          0.08170444,
          -0.07110018,
          0.11255095,
          -0.05892232,
          -0.07276721,
          -0.10548049,
          -0.0501478,
          0.06987166,
          0.05449231,
          0.02935196,
          -0.0886439,
          -0.02147903,
          -0.11634551,
          -0.10922088,
          -0.03440729,
          -0.12578967,
          -0.03145728,
          0.04632891,
          0.02872944,
          -0.05330809,
          0.10798416
        ],
        [
          -0.12453134,
          0.00864098,
          -0.04394992,
          -0.04171058,
          -0.00655776,
          0.10354438,
          -0.02900967,
          0.08066668,
          0.09277369,
          -0.06021849,
          -0.00173663,
          0.06797095,
          0.10818386,
          0.08041672,
          -0.02337856,
          -0.0783485,
          -0.07618801,
          0.01607187,
          0.11229982,
          -0.06183461,
          0.05614738,
          0.02511304,
          0.07380528,
          -0.0177706,
          -0.05606231,
          -0.06823809,
          -0.03172074,
          0.09633401,
          -0.01720512,
          -0.00401239,
          -0.0849321,
          -0.05626284,
          0.07802331,
          0.02243057,
          -0.04761197,
          0.01407614,
          0.07376445,
          -0.10650297,
          -0.05025148,
          0.00338947,
          -0.01276125,
          0.12697047,
          0.10264964,
          -0.02227112,
          -0.11481399,
          -0.09477223,
          0.04752334,
          0.08467504,
          -0.08725675,
          0.01631918,
          -0.08928274,
          0.06389439,
          0.11129081,
          -0.09682073,
          -0.0356286,
          0.0839499,
          0.1198219,
          -0.00594164,
          0.10915104,
          -0.12168517,
          0.1015652,
          -0.04350176
        ],
        [
          -0.06183563,
          -0.00301046,
          -0.12575965,
          0.03373678,
          -0.01791521,
          -0.0234253,
          -0.07105233,
          0.06402182,
          -0.10011858,
          0.01695577,
          -0.03342844,
          0.05219858,
          0.00358574,
          0.08338618,
          0.00768905,
          -0.10631032,
          -0.048823,
          0.03907646,
          -0.03547134,
          -0.05202759,
          0.09883633,
          -0.08313864,
          -0.0385101,
          -0.02316029,
          -0.07404593,
          -0.00426699,
          0.0143051,
          -0.02174987,
          -0.11077602,
          0.03047461,
          0.10276882,
          -0.05596357,
          -0.01802372,
          -0.08545911,
          0.07443803,
          -0.0541326,
          -0.08292483,
          0.11849996,
          -0.05488775,
          0.0439128,
          -0.0903004,
          0.07088789,
          -0.04330763,
          0.1079183,
          0.02062142,
          0.1003913,
          0.03652294,
          0.1028057,
          0.01429309,
          -0.0236725,
          -0.08144093,
          0.02251299,
          -0.1159828,
          0.06761714,
          0.02597472,
          -0.02515316,
          -0.0002902,
          -0.08435126,
          -0.01519481,
          -0.1017391,
          -0.11837864,
          0.06386445
        ]
      ],
      "weight_matrix_norm": [
        [
          0.76429498,
          0.21370842,
          -0.03513938,
          -0.33647212,
          0.19967602,
          0.53334945,
          0.7443046,
          0.33248127,
          -0.5641157,
          0.709409,
          0.40614581,
          -0.66211367,
          0.08428026,
          0.96476656,
          -0.68120921,
          0.87517613,
          -0.39636835,
          0.03253028,
          0.02250637,
          0.23596178,
          -0.79400897,
          0.92405951,
          -0.30319068,
          0.32778388,
          0.8007915,
          0.65029395,
          -0.12907459,
          0.12333878,
          -0.24187544,
          0.48757076,
          -0.71283954,
          0.76068681,
          0.08331079,
          0.06266773,
          -0.57175946,
          -0.80719429,
          -0.48749539,
          -0.47195026,
          -0.94440144,
          1.0,
          0.26968041,
          -0.57906109,
          0.43981591,
          0.96077859,
          -0.22529443,
          -0.43520966,
          -0.80571765,
          0.90758663,
          -0.67119652,
          0.73617369,
          -0.18542773,
          -0.56064165,
          0.10942508,
          -0.93495613,
          -0.85258579,
          0.64271516,
          0.48433197,
          0.48446593,
          0.93232262,
          -0.62119639,
          0.07828131,
          0.06775471
        ],
        [
          -0.0764764,
          0.65861028,
          0.35612008,
          0.88635606,
          0.71129447,
          -0.89816326,
          -0.8616581,
          0.40545946,
          0.41042706,
          0.8602652,
          -0.01151787,
          0.84517503,
          -0.13034372,
          -0.27412534,
          -0.62561709,
          0.72813946,
          0.21805285,
          0.96594518,
          0.24092142,
          -0.77276629,
          0.2130222,
          -0.0367879,
          -0.3673397,
          0.23510194,
          0.81913882,
          0.28119615,
          -0.36548623,
          0.66455334,
          -0.37069947,
          0.54951203,
          0.18267588,
          0.26442209,
          0.79207933,
          0.73540771,
          0.96769917,
          0.50622475,
          -0.71431839,
          0.54151773,
          -0.35984594,
          -0.4573088,
          0.50630105,
          0.64953214,
          -0.56523067,
          0.89475513,
          -0.46841934,
          -0.57848316,
          -0.83854651,
          -0.39866391,
          0.55546421,
          0.43320176,
          0.2333416,
          -0.70469934,
          -0.17075351,
          -0.92492098,
          -0.86828178,
          -0.2735303,
          -1.0,
          -0.25007835,
          0.36830458,
          0.22839266,
          -0.42378747,
          0.85845011
        ],
        [
          -0.98078984,
          0.06805507,
          -0.34614289,
          -0.32850617,
          -0.05164792,
          0.81549966,
          -0.22847575,
          0.63531846,
          0.73067141,
          -0.47427166,
          -0.01367745,
          0.53532887,
          0.85203952,
          0.63334984,
          -0.18412597,
          -0.61706078,
          -0.60004514,
          0.12657963,
          0.88445622,
          -0.48699996,
          0.4422082,
          0.1977865,
          0.5812791,
          -0.13995852,
          -0.44153818,
          -0.53743273,
          -0.24982765,
          0.75871193,
          -0.13550489,
          -0.03160094,
          -0.66891217,
          -0.4431175,
          0.61449963,
          0.1766597,
          -0.37498456,
          0.11086155,
          0.58095753,
          -0.83880115,
          -0.39577293,
          0.02669493,
          -0.10050569,
          1.0,
          0.8084529,
          -0.17540389,
          -0.90425742,
          -0.74641156,
          0.37428653,
          0.6668877,
          -0.68722081,
          0.12852736,
          -0.70317721,
          0.50322247,
          0.87650943,
          -0.76254529,
          -0.28060538,
          0.66117656,
          0.94369894,
          -0.04679545,
          0.85965693,
          -0.95837379,
          0.79991198,
          -0.34261322
        ],
        [
          -0.49169689,
          -0.02393823,
          -1.0,
          0.268264,
          -0.14245597,
          -0.18627039,
          -0.5649851,
          0.50908077,
          -0.79611051,
          0.13482679,
          -0.26581213,
          0.41506621,
          0.02851262,
          0.66305989,
          0.06114085,
          -0.84534526,
          -0.38822466,
          0.31072336,
          -0.28205663,
          -0.4137066,
          0.78591454,
          -0.66109157,
          -0.30621988,
          -0.18416315,
          -0.58878922,
          -0.03392972,
          0.11374953,
          -0.17294796,
          -0.88085508,
          0.24232423,
          0.81718445,
          -0.44500422,
          -0.14331877,
          -0.67954314,
          0.59190708,
          -0.43044493,
          -0.6593914,
          0.94227338,
          -0.43644965,
          0.3491804,
          -0.71803951,
          0.56367761,
          -0.34436825,
          0.85813141,
          0.16397482,
          0.79827911,
          0.2904186,
          0.8174777,
          0.11365405,
          -0.18823603,
          -0.64759195,
          0.17901598,
          -0.92225766,
          0.5376696,
          0.20654252,
          -0.20000982,
          -0.00230754,
          -0.67073393,
          -0.1208242,
          -0.80899638,
          -0.94130862,
          0.50782949
        ]
      ],
      "channel_abs_mean": [
        0.07324678,
        0.03040513,
        0.05474138,
        0.05741126,
        0.03482207,
        0.0769098,
        0.07572821,
        0.05947196,
        0.07902857,
        0.06885527,
        0.02203993,
        0.07762893,
        0.03471547,
        0.080182,
        0.0490548,
        0.09683096,
        0.05068619,
        0.04519571,
        0.04523324,
        0.06025381,
        0.07063776,
        0.05753897,
        0.04925056,
        0.02802621,
        0.0836949,
        0.04760211,
        0.02709542,
        0.05433283,
        0.05132721,
        0.04137245,
        0.07528736,
        0.06050756,
        0.05156394,
        0.05208746,
        0.0790853,
        0.05858283,
        0.07710336,
        0.08825441,
        0.06756561,
        0.0579354,
        0.05024387,
        0.08826353,
        0.06821913,
        0.0911693,
        0.05573772,
        0.08079129,
        0.07294603,
        0.08820364,
        0.06415154,
        0.04697879,
        0.05590228,
        0.06155122,
        0.06566007,
        0.09986074,
        0.06975745,
        0.05627007,
        0.07684264,
        0.04580899,
        0.07225003,
        0.08274815,
        0.07079674,
        0.05598736
      ],
      "channel_signed_mean": [
        -0.02474668,
        0.0288999,
        -0.03234326,
        0.01520435,
        0.02258558,
        0.00870731,
        -0.02849664,
        0.05947196,
        -0.00682798,
        0.03874603,
        0.00373298,
        0.03561298,
        0.02651753,
        0.06294093,
        -0.04521027,
        0.00450156,
        -0.03697179,
        0.04519571,
        0.02749757,
        -0.04528031,
        0.02025209,
        0.01365587,
        -0.01234792,
        0.00756077,
        0.01864078,
        0.01134957,
        -0.01994287,
        0.0434579,
        -0.05132721,
        0.03936625,
        -0.01241357,
        0.00439436,
        0.04255209,
        0.0093579,
        0.018997,
        -0.01970584,
        -0.04022113,
        0.00505424,
        -0.06756561,
        0.02917304,
        -0.00128696,
        0.05151787,
        0.01101522,
        0.08003374,
        -0.04542701,
        -0.03059565,
        -0.03092289,
        0.06312974,
        -0.02206916,
        0.03514255,
        -0.0412263,
        -0.01834754,
        -0.00307084,
        -0.06605217,
        -0.05677009,
        0.02648985,
        0.01380271,
        -0.01506609,
        0.06465263,
        -0.06838343,
        -0.01504662,
        0.03423648
      ],
      "channel_l2": [
        0.08490183,
        0.04382605,
        0.07030945,
        0.06544562,
        0.04746491,
        0.08458206,
        0.08148798,
        0.06121221,
        0.08127401,
        0.07702255,
        0.03073902,
        0.08016986,
        0.05499965,
        0.08602529,
        0.05973546,
        0.09768146,
        0.0535519,
        0.06435451,
        0.0608195,
        0.06495426,
        0.07712658,
        0.0730033,
        0.05134697,
        0.02939977,
        0.08598249,
        0.0564298,
        0.02997014,
        0.06516571,
        0.06261799,
        0.04886691,
        0.0813752,
        0.06466098,
        0.0641317,
        0.06408419,
        0.08350284,
        0.06647982,
        0.07781287,
        0.09166896,
        0.0740824,
        0.07306886,
        0.05819052,
        0.09113614,
        0.07173476,
        0.09959753,
        0.06688965,
        0.08277394,
        0.0793333,
        0.09154437,
        0.07063375,
        0.05595869,
        0.06328388,
        0.0661625,
        0.08138162,
        0.10193467,
        0.07997145,
        0.0622852,
        0.0921396,
        0.05459053,
        0.08410127,
        0.08972051,
        0.08256732,
        0.06653118
      ],
      "top_channels_by_abs_weight": [
        {
          "rank": 1,
          "channel_index": 53,
          "channel_name": "TPP10h",
          "abs_mean_weight": 0.09986074,
          "signed_mean_weight": -0.06605217,
          "l2_weight": 0.10193467
        },
        {
          "rank": 2,
          "channel_index": 15,
          "channel_name": "T8",
          "abs_mean_weight": 0.09683096,
          "signed_mean_weight": 0.00450156,
          "l2_weight": 0.09768146
        },
        {
          "rank": 3,
          "channel_index": 43,
          "channel_name": "POz",
          "abs_mean_weight": 0.0911693,
          "signed_mean_weight": 0.08003374,
          "l2_weight": 0.09959753
        },
        {
          "rank": 4,
          "channel_index": 41,
          "channel_name": "P1",
          "abs_mean_weight": 0.08826353,
          "signed_mean_weight": 0.05151787,
          "l2_weight": 0.09113614
        },
        {
          "rank": 5,
          "channel_index": 37,
          "channel_name": "C6",
          "abs_mean_weight": 0.08825441,
          "signed_mean_weight": 0.00505424,
          "l2_weight": 0.09166896
        },
        {
          "rank": 6,
          "channel_index": 47,
          "channel_name": "TP7",
          "abs_mean_weight": 0.08820364,
          "signed_mean_weight": 0.06312974,
          "l2_weight": 0.09154437
        },
        {
          "rank": 7,
          "channel_index": 24,
          "channel_name": "Pz",
          "abs_mean_weight": 0.0836949,
          "signed_mean_weight": 0.01864078,
          "l2_weight": 0.08598249
        },
        {
          "rank": 8,
          "channel_index": 59,
          "channel_name": "AF8",
          "abs_mean_weight": 0.08274815,
          "signed_mean_weight": -0.06838343,
          "l2_weight": 0.08972051
        },
        {
          "rank": 9,
          "channel_index": 45,
          "channel_name": "FTT9h",
          "abs_mean_weight": 0.08079129,
          "signed_mean_weight": -0.03059565,
          "l2_weight": 0.08277394
        },
        {
          "rank": 10,
          "channel_index": 13,
          "channel_name": "Cz",
          "abs_mean_weight": 0.080182,
          "signed_mean_weight": 0.06294093,
          "l2_weight": 0.08602529
        },
        {
          "rank": 11,
          "channel_index": 34,
          "channel_name": "C5",
          "abs_mean_weight": 0.0790853,
          "signed_mean_weight": 0.018997,
          "l2_weight": 0.08350284
        },
        {
          "rank": 12,
          "channel_index": 8,
          "channel_name": "FC1",
          "abs_mean_weight": 0.07902857,
          "signed_mean_weight": -0.00682798,
          "l2_weight": 0.08127401
        },
        {
          "rank": 13,
          "channel_index": 11,
          "channel_name": "T7",
          "abs_mean_weight": 0.07762893,
          "signed_mean_weight": 0.03561298,
          "l2_weight": 0.08016986
        },
        {
          "rank": 14,
          "channel_index": 36,
          "channel_name": "C2",
          "abs_mean_weight": 0.07710336,
          "signed_mean_weight": -0.04022113,
          "l2_weight": 0.07781287
        },
        {
          "rank": 15,
          "channel_index": 5,
          "channel_name": "F4",
          "abs_mean_weight": 0.0769098,
          "signed_mean_weight": 0.00870731,
          "l2_weight": 0.08458206
        }
      ]
    },
    "spatial_conv": {
      "available": true,
      "parameter_name": "spatial_conv.1.weight",
      "raw_weight_shape": [
        4,
        1,
        62,
        1
      ],
      "weight_matrix_shape": [
        4,
        62
      ],
      "n_virtual_filters": 4,
      "n_input_channels": 62,
      "channel_names": [
        "Fp1",
        "Fp2",
        "F7",
        "F3",
        "Fz",
        "F4",
        "F8",
        "FC5",
        "FC1",
        "FC2",
        "FC6",
        "T7",
        "C3",
        "Cz",
        "C4",
        "T8",
        "TP9",
        "CP5",
        "CP1",
        "CP2",
        "CP6",
        "TP10",
        "P7",
        "P3",
        "Pz",
        "P4",
        "P8",
        "PO9",
        "O1",
        "Oz",
        "O2",
        "PO10",
        "FC3",
        "FC4",
        "C5",
        "C1",
        "C2",
        "C6",
        "CP3",
        "CPz",
        "CP4",
        "P1",
        "P2",
        "POz",
        "FT9",
        "FTT9h",
        "TTP7h",
        "TP7",
        "TPP9h",
        "FT10",
        "FTT10h",
        "TPP8h",
        "TP8",
        "TPP10h",
        "F9",
        "F10",
        "AF7",
        "AF3",
        "AF4",
        "AF8",
        "PO3",
        "PO4"
      ],
      "weight_matrix": [
        [
          0.05126625,
          0.02340032,
          -0.07572693,
          0.04488523,
          0.0213005,
          -0.19224723,
          0.15582597,
          -0.07385112,
          0.02231199,
          0.19098341,
          0.12995593,
          0.04240725,
          0.01197946,
          0.01497084,
          0.09605549,
          0.07289569,
          0.0042097,
          -0.09238927,
          -0.12594599,
          -0.01096951,
          0.05848492,
          0.01812847,
          0.0773949,
          0.23166507,
          0.1079239,
          0.16631338,
          0.0163241,
          0.07790984,
          -0.06621177,
          -0.18779039,
          0.1244105,
          -0.02954027,
          0.21582904,
          0.03100062,
          0.16021951,
          -0.16068731,
          -0.07550764,
          -0.17180575,
          0.01350061,
          0.04994504,
          0.06204214,
          0.00622,
          -0.08833682,
          -0.02428922,
          0.02958322,
          0.01546003,
          -0.02288999,
          -0.02828464,
          0.02149035,
          -0.01054958,
          -0.0138952,
          -0.01919043,
          -0.03391609,
          -0.00764216,
          -0.02121622,
          0.12094207,
          0.00820098,
          -0.03441406,
          -0.05220706,
          -0.01925263,
          0.02871538,
          0.02701329
        ],
        [
          0.03202994,
          0.05555305,
          -0.01950639,
          -0.02284021,
          0.02243356,
          -0.11291468,
          0.01580841,
          0.05276335,
          0.03452377,
          0.22336015,
          0.01103523,
          0.06252132,
          -0.0420246,
          -0.0900216,
          0.21586971,
          0.06095595,
          0.0402795,
          0.04152634,
          -0.14015846,
          -0.26735073,
          0.05600494,
          0.12458225,
          0.05688252,
          0.11520401,
          0.05828605,
          0.15989026,
          0.04461405,
          0.00137874,
          0.03261378,
          0.00310335,
          0.02673838,
          -0.01749252,
          0.07635747,
          -0.03089054,
          0.05240709,
          0.19211976,
          -0.07686196,
          -0.04708833,
          -0.02244986,
          -0.07281364,
          0.05664559,
          0.25948644,
          -0.06512354,
          0.04520641,
          0.04191473,
          -0.03852383,
          -0.13058476,
          0.01365267,
          -0.02210897,
          0.05427083,
          0.03380304,
          -0.01015345,
          -0.07798636,
          -0.13045011,
          -0.03385738,
          -0.017174,
          -0.05888475,
          0.00344594,
          0.01452342,
          -0.04310995,
          -0.20516786,
          -0.01306158
        ],
        [
          -0.05606924,
          -0.02053549,
          -0.01353249,
          -0.1007076,
          -0.08843111,
          0.05221725,
          -0.04003249,
          0.0025403,
          0.18236078,
          0.03955982,
          -0.0335481,
          -0.03786775,
          -0.19287322,
          0.11197174,
          0.02016092,
          0.03303606,
          0.01515085,
          0.05310962,
          -0.15470862,
          -0.08553413,
          -0.0749173,
          0.05639619,
          -0.07374474,
          0.09496966,
          -0.14062242,
          0.15606801,
          -0.0494002,
          0.03313983,
          -0.05692481,
          -0.07406559,
          -0.04987403,
          -0.06865991,
          0.25800118,
          -0.21059085,
          -0.13565455,
          -0.1570552,
          -0.00647073,
          -0.11899365,
          -0.04634446,
          -0.01760002,
          -0.01920895,
          0.37225956,
          -0.02397081,
          0.03944355,
          -0.09739509,
          -0.02731831,
          0.10572755,
          0.12931336,
          -0.05605307,
          0.01014022,
          0.05436289,
          0.04133669,
          -0.00821093,
          0.0024652,
          0.01076617,
          0.17318706,
          0.03617425,
          0.0243939,
          0.0092866,
          -0.02149973,
          -0.02023633,
          -0.07581177
        ],
        [
          0.02507032,
          0.0124181,
          -0.05496236,
          -0.00950328,
          -0.03450005,
          0.14500453,
          -0.05963825,
          -0.08482788,
          -0.05440979,
          -0.01322112,
          0.02246017,
          -0.003503,
          -0.03691047,
          0.19744952,
          -0.05244957,
          -0.06052645,
          -0.03580838,
          -0.02192547,
          0.10261256,
          -0.01541547,
          0.01244624,
          -0.10779613,
          -0.04013464,
          0.08133505,
          -0.14902098,
          -0.02235047,
          -0.04855129,
          -0.06025177,
          0.04688504,
          0.00043174,
          -0.02286129,
          -0.0229961,
          0.02846001,
          -0.17450239,
          -0.07350212,
          -0.04304455,
          -0.24766263,
          0.14115019,
          -0.00232248,
          -0.01730216,
          0.11696622,
          0.0065347,
          -0.04972946,
          -0.01996412,
          0.05272057,
          -0.00351047,
          0.04623841,
          -0.025372,
          0.04270146,
          -0.02425909,
          0.0380118,
          -0.05136694,
          -0.10596104,
          0.11443251,
          0.04105103,
          -0.05355553,
          -0.03187028,
          -0.05081584,
          -0.02482137,
          -0.06510681,
          -0.24501228,
          0.11224945
        ]
      ],
      "weight_matrix_norm": [
        [
          0.2212947,
          0.10100928,
          -0.32688111,
          0.19375055,
          0.09194525,
          -0.82984984,
          0.67263472,
          -0.318784,
          0.09631141,
          0.82439452,
          0.5609647,
          0.18305413,
          0.05171024,
          0.06462277,
          0.41463083,
          0.31465983,
          0.01817149,
          -0.39880535,
          -0.54365546,
          -0.04735071,
          0.25245464,
          0.07825293,
          0.33408102,
          1.0,
          0.46586174,
          0.71790439,
          0.07046423,
          0.3363038,
          -0.28580815,
          -0.81061161,
          0.53702742,
          -0.12751286,
          0.93164259,
          0.13381656,
          0.69159973,
          -0.69361907,
          -0.3259345,
          -0.74161267,
          0.05827641,
          0.21559159,
          0.26780966,
          0.0268491,
          -0.38131264,
          -0.10484628,
          0.12769821,
          0.06673438,
          -0.09880638,
          -0.12209283,
          0.09276472,
          -0.04553808,
          -0.05997968,
          -0.08283696,
          -0.14640138,
          -0.03298797,
          -0.09158144,
          0.52205569,
          0.03540014,
          -0.14855091,
          -0.22535576,
          -0.08310546,
          0.12395214,
          0.11660492
        ],
        [
          0.11980494,
          0.2077909,
          -0.07296181,
          -0.08543163,
          0.08391061,
          -0.42234662,
          0.05912985,
          0.1973563,
          0.12913287,
          0.83545738,
          0.04127624,
          0.23385507,
          -0.15718904,
          -0.33671722,
          0.8074401,
          0.22799993,
          0.15066165,
          0.15532531,
          -0.52424937,
          -1.0,
          0.20948116,
          0.46598804,
          0.21276365,
          0.43090963,
          0.21801344,
          0.59805435,
          0.16687462,
          0.00515703,
          0.12198874,
          0.0116078,
          0.10001236,
          -0.06542909,
          0.28560784,
          -0.11554314,
          0.19602375,
          0.7186057,
          -0.28749484,
          -0.17612943,
          -0.08397156,
          -0.27235249,
          0.21187745,
          0.97058433,
          -0.24358839,
          0.16909026,
          0.15677808,
          -0.14409472,
          -0.48843989,
          0.0510665,
          -0.0826965,
          0.2029949,
          0.12643707,
          -0.037978,
          -0.29170057,
          -0.48793626,
          -0.12664032,
          -0.0642377,
          -0.2202528,
          0.01288922,
          0.05432348,
          -0.16124865,
          -0.76741087,
          -0.04885558
        ],
        [
          -0.15061869,
          -0.05516443,
          -0.03635228,
          -0.27053058,
          -0.2375523,
          0.14027107,
          -0.10753918,
          0.00682399,
          0.48987535,
          0.10626944,
          -0.09012019,
          -0.10172404,
          -0.51811492,
          0.30078945,
          0.05415823,
          0.08874471,
          0.0406997,
          0.14266825,
          -0.41559342,
          -0.22977015,
          -0.20125018,
          0.15149696,
          -0.19810031,
          0.25511679,
          -0.3777537,
          0.41924515,
          -0.13270365,
          0.08902346,
          -0.15291698,
          -0.19896223,
          -0.13397649,
          -0.18444096,
          0.69306797,
          -0.56570971,
          -0.36440852,
          -0.42189702,
          -0.01738231,
          -0.31965238,
          -0.12449501,
          -0.04727888,
          -0.05160097,
          1.0,
          -0.06439273,
          0.10595711,
          -0.2616322,
          -0.07338511,
          0.28401566,
          0.3473742,
          -0.15057524,
          0.02723964,
          0.14603491,
          0.11104266,
          -0.022057,
          0.00662227,
          0.02892113,
          0.46523201,
          0.09717482,
          0.06552927,
          0.02494658,
          -0.05775468,
          -0.0543608,
          -0.20365298
        ],
        [
          0.10122772,
          0.05014119,
          -0.22192432,
          -0.03837189,
          -0.1393026,
          0.58549213,
          -0.2408044,
          -0.34251383,
          -0.21969317,
          -0.0533836,
          0.09068856,
          -0.01414424,
          -0.14903526,
          0.79725194,
          -0.21177827,
          -0.24439074,
          -0.14458531,
          -0.08852957,
          0.41432396,
          -0.06224382,
          0.0502548,
          -0.43525392,
          -0.16205369,
          0.32841069,
          -0.6017096,
          -0.09024563,
          -0.19603804,
          -0.24328163,
          0.18931012,
          0.00174327,
          -0.09230819,
          -0.09285253,
          0.11491443,
          -0.70459718,
          -0.29678324,
          -0.17380317,
          -1.0,
          0.5699293,
          -0.00937761,
          -0.0698618,
          0.47228044,
          0.02638549,
          -0.20079516,
          -0.08061013,
          0.21287251,
          -0.01417441,
          0.18669917,
          -0.10244583,
          0.17241783,
          -0.09795215,
          0.15348218,
          -0.20740691,
          -0.42784429,
          0.46204996,
          0.16575384,
          -0.21624386,
          -0.12868424,
          -0.2051817,
          -0.1002225,
          -0.26288506,
          -0.98929852,
          0.4532353
        ]
      ],
      "channel_abs_mean": [
        0.04110894,
        0.02797674,
        0.04093204,
        0.04448408,
        0.04166631,
        0.12559591,
        0.06782628,
        0.05349566,
        0.07340159,
        0.11678112,
        0.04924986,
        0.03657483,
        0.07094694,
        0.10360342,
        0.09613392,
        0.05685354,
        0.02386211,
        0.05223767,
        0.13085641,
        0.09481746,
        0.05046335,
        0.07672576,
        0.0620392,
        0.13079345,
        0.11396334,
        0.12615554,
        0.03972241,
        0.04317005,
        0.05065885,
        0.06634777,
        0.05597105,
        0.0346722,
        0.14466193,
        0.1117461,
        0.10544582,
        0.13822672,
        0.10162574,
        0.11975949,
        0.02115435,
        0.03941521,
        0.06371573,
        0.16112518,
        0.05679016,
        0.03222582,
        0.0554034,
        0.02120316,
        0.07636018,
        0.04915567,
        0.03558846,
        0.02480493,
        0.03501823,
        0.03051188,
        0.0565186,
        0.0637475,
        0.0267227,
        0.09121466,
        0.03378256,
        0.02826743,
        0.02520961,
        0.03724228,
        0.12478296,
        0.05703402
      ],
      "channel_signed_mean": [
        0.01307432,
        0.017709,
        -0.04093204,
        -0.02204146,
        -0.01979927,
        -0.02698503,
        0.01799091,
        -0.02584384,
        0.04619669,
        0.11017057,
        0.03247581,
        0.01588945,
        -0.06495721,
        0.05859262,
        0.06990914,
        0.02659032,
        0.00595792,
        -0.0049197,
        -0.07955013,
        -0.09481746,
        0.0130047,
        0.02282769,
        0.00509951,
        0.13079345,
        -0.03085836,
        0.1149803,
        -0.00925334,
        0.01304416,
        -0.01090944,
        -0.06458022,
        0.01960339,
        -0.0346722,
        0.14466193,
        -0.0962458,
        0.00086748,
        -0.04216683,
        -0.10162574,
        -0.04918439,
        -0.01440405,
        -0.01444269,
        0.05411125,
        0.16112518,
        -0.05679016,
        0.01009915,
        0.00670586,
        -0.01347315,
        -0.0003772,
        0.02232734,
        -0.00349256,
        0.0074006,
        0.02807064,
        -0.00984353,
        -0.0565186,
        -0.00529864,
        -0.0008141,
        0.0558499,
        -0.01159495,
        -0.01434751,
        -0.0133046,
        -0.03724228,
        -0.11042527,
        0.01259735
      ],
      "channel_l2": [
        0.04308836,
        0.03244084,
        0.04826763,
        0.05649932,
        0.04991816,
        0.13551907,
        0.08615533,
        0.06212926,
        0.09734679,
        0.14841175,
        0.06826466,
        0.04228926,
        0.10058832,
        0.12232334,
        0.12143291,
        0.05870315,
        0.02807111,
        0.05822708,
        0.13226005,
        0.14066847,
        0.055508,
        0.08753558,
        0.0637861,
        0.14367959,
        0.11940137,
        0.13971561,
        0.04199553,
        0.05196241,
        0.05216871,
        0.10094647,
        0.06928739,
        0.04006751,
        0.17305146,
        0.13848723,
        0.11426013,
        0.14937335,
        0.13508129,
        0.1282745,
        0.02664332,
        0.04584064,
        0.07264302,
        0.22693159,
        0.06142493,
        0.03386718,
        0.06102719,
        0.02490839,
        0.08788151,
        0.06773496,
        0.03845778,
        0.03061023,
        0.037868,
        0.03470825,
        0.06805757,
        0.08685694,
        0.02914424,
        0.10929763,
        0.03827192,
        0.03306627,
        0.03016143,
        0.04162411,
        0.16074744,
        0.06936801
      ],
      "top_channels_by_abs_weight": [
        {
          "rank": 1,
          "channel_index": 41,
          "channel_name": "P1",
          "abs_mean_weight": 0.16112518,
          "signed_mean_weight": 0.16112518,
          "l2_weight": 0.22693159
        },
        {
          "rank": 2,
          "channel_index": 32,
          "channel_name": "FC3",
          "abs_mean_weight": 0.14466193,
          "signed_mean_weight": 0.14466193,
          "l2_weight": 0.17305146
        },
        {
          "rank": 3,
          "channel_index": 35,
          "channel_name": "C1",
          "abs_mean_weight": 0.13822672,
          "signed_mean_weight": -0.04216683,
          "l2_weight": 0.14937335
        },
        {
          "rank": 4,
          "channel_index": 18,
          "channel_name": "CP1",
          "abs_mean_weight": 0.13085641,
          "signed_mean_weight": -0.07955013,
          "l2_weight": 0.13226005
        },
        {
          "rank": 5,
          "channel_index": 23,
          "channel_name": "P3",
          "abs_mean_weight": 0.13079345,
          "signed_mean_weight": 0.13079345,
          "l2_weight": 0.14367959
        },
        {
          "rank": 6,
          "channel_index": 25,
          "channel_name": "P4",
          "abs_mean_weight": 0.12615554,
          "signed_mean_weight": 0.1149803,
          "l2_weight": 0.13971561
        },
        {
          "rank": 7,
          "channel_index": 5,
          "channel_name": "F4",
          "abs_mean_weight": 0.12559591,
          "signed_mean_weight": -0.02698503,
          "l2_weight": 0.13551907
        },
        {
          "rank": 8,
          "channel_index": 60,
          "channel_name": "PO3",
          "abs_mean_weight": 0.12478296,
          "signed_mean_weight": -0.11042527,
          "l2_weight": 0.16074744
        },
        {
          "rank": 9,
          "channel_index": 37,
          "channel_name": "C6",
          "abs_mean_weight": 0.11975949,
          "signed_mean_weight": -0.04918439,
          "l2_weight": 0.1282745
        },
        {
          "rank": 10,
          "channel_index": 9,
          "channel_name": "FC2",
          "abs_mean_weight": 0.11678112,
          "signed_mean_weight": 0.11017057,
          "l2_weight": 0.14841175
        },
        {
          "rank": 11,
          "channel_index": 24,
          "channel_name": "Pz",
          "abs_mean_weight": 0.11396334,
          "signed_mean_weight": -0.03085836,
          "l2_weight": 0.11940137
        },
        {
          "rank": 12,
          "channel_index": 33,
          "channel_name": "FC4",
          "abs_mean_weight": 0.1117461,
          "signed_mean_weight": -0.0962458,
          "l2_weight": 0.13848723
        },
        {
          "rank": 13,
          "channel_index": 34,
          "channel_name": "C5",
          "abs_mean_weight": 0.10544582,
          "signed_mean_weight": 0.00086748,
          "l2_weight": 0.11426013
        },
        {
          "rank": 14,
          "channel_index": 13,
          "channel_name": "Cz",
          "abs_mean_weight": 0.10360342,
          "signed_mean_weight": 0.05859262,
          "l2_weight": 0.12232334
        },
        {
          "rank": 15,
          "channel_index": 36,
          "channel_name": "C2",
          "abs_mean_weight": 0.10162574,
          "signed_mean_weight": -0.10162574,
          "l2_weight": 0.13508129
        }
      ]
    },
    "spatial_update_stats": {
      "available": true,
      "parameter_name": "spatial_conv.1.weight",
      "initial_shape": [
        4,
        62
      ],
      "final_shape": [
        4,
        62
      ],
      "initial_l2": 1.13739672,
      "final_l2": 1.44568768,
      "delta_l2": 1.52088915,
      "delta_max_abs": 0.30105709,
      "relative_delta": 1.33716681,
      "changed": true
    },
    "subject_id": "48"
  },
  {
    "fold_id": 2,
    "fold_label": "subject=48",
    "model_name": "SignalJEPA_PreLocal",
    "strategy": "new",
    "warmup_epochs": 10,
    "n_train": 160,
    "n_test": 40,
    "train_class_counts": [
      80,
      80
    ],
    "test_class_counts": [
      20,
      20
    ],
    "pretrained_load": {
      "loading_path": "from_pretrained",
      "repo_id": "braindecode/signal-jepa_without-chans",
      "mode": "from_pretrained",
      "model_name": "SignalJEPA_PreLocal"
    },
    "phase_1_trainable_groups": [
      "spatial_conv.",
      "final_layer."
    ],
    "phase_1_trainable_params": 2302,
    "phase_1_trainable_names": [
      "spatial_conv.1.weight",
      "spatial_conv.1.bias",
      "final_layer.1.weight",
      "final_layer.1.bias"
    ],
    "phase_2_trainable_groups": null,
    "phase_2_trainable_params": null,
    "phase_2_trainable_names": null,
    "final_trainable_parameters": [
      {
        "name": "feature_encoder.1.0.weight",
        "shape": [
          8,
          1,
          32
        ],
        "num_params": 256,
        "requires_grad": false
      },
      {
        "name": "feature_encoder.1.2.weight",
        "shape": [
          8
        ],
        "num_params": 8,
        "requires_grad": false
      },
      {
        "name": "feature_encoder.1.2.bias",
        "shape": [
          8
        ],
        "num_params": 8,
        "requires_grad": false
      },
      {
        "name": "feature_encoder.2.0.weight",
        "shape": [
          16,
          8,
          2
        ],
        "num_params": 256,
        "requires_grad": false
      },
      {
        "name": "feature_encoder.3.0.weight",
        "shape": [
          32,
          16,
          2
        ],
        "num_params": 1024,
        "requires_grad": false
      },
      {
        "name": "feature_encoder.4.0.weight",
        "shape": [
          64,
          32,
          2
        ],
        "num_params": 4096,
        "requires_grad": false
      },
      {
        "name": "feature_encoder.5.0.weight",
        "shape": [
          64,
          64,
          2
        ],
        "num_params": 8192,
        "requires_grad": false
      },
      {
        "name": "spatial_conv.1.weight",
        "shape": [
          4,
          1,
          62,
          1
        ],
        "num_params": 248,
        "requires_grad": true
      },
      {
        "name": "spatial_conv.1.bias",
        "shape": [
          4
        ],
        "num_params": 4,
        "requires_grad": true
      },
      {
        "name": "final_layer.1.weight",
        "shape": [
          2,
          1024
        ],
        "num_params": 2048,
        "requires_grad": true
      },
      {
        "name": "final_layer.1.bias",
        "shape": [
          2
        ],
        "num_params": 2,
        "requires_grad": true
      }
    ],
    "n_trainable_params_final": 2302,
    "best_epoch": 32,
    "stopped_epoch": 62,
    "best_valid_loss": 0.6746572256088257,
    "accuracy": 0.525,
    "balanced_accuracy": 0.525,
    "confusion_matrix": [
      [
        11,
        9
      ],
      [
        10,
        10
      ]
    ],
    "prediction_histogram": [
      21,
      19
    ],
    "collapse_diagnostics": {
      "prediction_histogram": [
        21,
        19
      ],
      "collapse_ratio": 0.525,
      "collapse_threshold": 0.9,
      "collapse_flag": false,
      "majority_predicted_class": 0
    },
    "probability_diagnostics": {
      "available": true,
      "probability_shape": [
        40,
        2
      ],
      "mean_probability_by_class": [
        0.50310437,
        0.49689564
      ],
      "std_probability_by_class": [
        0.05907942,
        0.05907941
      ],
      "mean_confidence": 0.54421067,
      "std_confidence": 0.03931198,
      "mean_prediction_entropy": 0.68608973,
      "mean_normalized_prediction_entropy": 0.98981826,
      "mean_predicted_class_probability": 0.54421067
    },
    "spatial_conv_initial": {
      "available": true,
      "parameter_name": "spatial_conv.1.weight",
      "raw_weight_shape": [
        4,
        1,
        62,
        1
      ],
      "weight_matrix_shape": [
        4,
        62
      ],
      "n_virtual_filters": 4,
      "n_input_channels": 62,
      "channel_names": [
        "Fp1",
        "Fp2",
        "F7",
        "F3",
        "Fz",
        "F4",
        "F8",
        "FC5",
        "FC1",
        "FC2",
        "FC6",
        "T7",
        "C3",
        "Cz",
        "C4",
        "T8",
        "TP9",
        "CP5",
        "CP1",
        "CP2",
        "CP6",
        "TP10",
        "P7",
        "P3",
        "Pz",
        "P4",
        "P8",
        "PO9",
        "O1",
        "Oz",
        "O2",
        "PO10",
        "FC3",
        "FC4",
        "C5",
        "C1",
        "C2",
        "C6",
        "CP3",
        "CPz",
        "CP4",
        "P1",
        "P2",
        "POz",
        "FT9",
        "FTT9h",
        "TTP7h",
        "TP7",
        "TPP9h",
        "FT10",
        "FTT10h",
        "TPP8h",
        "TP8",
        "TPP10h",
        "F9",
        "F10",
        "AF7",
        "AF3",
        "AF4",
        "AF8",
        "PO3",
        "PO4"
      ],
      "weight_matrix": [
        [
          0.0970002,
          0.02712272,
          -0.0044597,
          -0.04270323,
          0.0253418,
          0.06768984,
          0.09446312,
          0.04219673,
          -0.07159452,
          0.09003437,
          0.05154584,
          -0.08403189,
          0.0106964,
          0.12244297,
          -0.0864554,
          0.11107264,
          -0.05030493,
          0.00412857,
          0.00285639,
          0.029947,
          -0.10077134,
          0.11727665,
          -0.03847932,
          0.04160056,
          0.10163214,
          0.0825318,
          -0.01638145,
          0.01565349,
          -0.03069753,
          0.06187985,
          -0.09046975,
          0.09654227,
          0.01057336,
          0.00795345,
          -0.07256462,
          -0.10244475,
          -0.06187028,
          -0.05989738,
          -0.11985834,
          0.12691461,
          0.03422638,
          -0.07349131,
          0.05581906,
          0.12193684,
          -0.02859315,
          -0.05523446,
          -0.10225733,
          0.115186,
          -0.08518464,
          0.09343119,
          -0.02353349,
          -0.07115361,
          0.01388764,
          -0.11865959,
          -0.10820559,
          0.08156994,
          0.0614688,
          0.0614858,
          0.11832536,
          -0.07883889,
          0.00993504,
          0.00859906
        ],
        [
          -0.00961994,
          0.08284637,
          0.04479623,
          0.11149444,
          0.0894735,
          -0.11297967,
          -0.10838769,
          0.05100261,
          0.05162749,
          0.10821248,
          -0.00144883,
          0.10631429,
          -0.01639589,
          -0.03448214,
          -0.07869617,
          0.09159242,
          0.0274288,
          0.12150593,
          0.03030543,
          -0.09720602,
          0.02679599,
          -0.00462754,
          -0.04620754,
          0.0295734,
          0.10303921,
          0.03537157,
          -0.04597439,
          0.08359395,
          -0.04663016,
          0.06912294,
          0.02297874,
          0.03326157,
          0.0996354,
          0.09250669,
          0.12172657,
          0.06367785,
          -0.08985388,
          0.06811734,
          -0.0452649,
          -0.05752472,
          0.06368744,
          0.08170444,
          -0.07110018,
          0.11255095,
          -0.05892232,
          -0.07276721,
          -0.10548049,
          -0.0501478,
          0.06987166,
          0.05449231,
          0.02935196,
          -0.0886439,
          -0.02147903,
          -0.11634551,
          -0.10922088,
          -0.03440729,
          -0.12578967,
          -0.03145728,
          0.04632891,
          0.02872944,
          -0.05330809,
          0.10798416
        ],
        [
          -0.12453134,
          0.00864098,
          -0.04394992,
          -0.04171058,
          -0.00655776,
          0.10354438,
          -0.02900967,
          0.08066668,
          0.09277369,
          -0.06021849,
          -0.00173663,
          0.06797095,
          0.10818386,
          0.08041672,
          -0.02337856,
          -0.0783485,
          -0.07618801,
          0.01607187,
          0.11229982,
          -0.06183461,
          0.05614738,
          0.02511304,
          0.07380528,
          -0.0177706,
          -0.05606231,
          -0.06823809,
          -0.03172074,
          0.09633401,
          -0.01720512,
          -0.00401239,
          -0.0849321,
          -0.05626284,
          0.07802331,
          0.02243057,
          -0.04761197,
          0.01407614,
          0.07376445,
          -0.10650297,
          -0.05025148,
          0.00338947,
          -0.01276125,
          0.12697047,
          0.10264964,
          -0.02227112,
          -0.11481399,
          -0.09477223,
          0.04752334,
          0.08467504,
          -0.08725675,
          0.01631918,
          -0.08928274,
          0.06389439,
          0.11129081,
          -0.09682073,
          -0.0356286,
          0.0839499,
          0.1198219,
          -0.00594164,
          0.10915104,
          -0.12168517,
          0.1015652,
          -0.04350176
        ],
        [
          -0.06183563,
          -0.00301046,
          -0.12575965,
          0.03373678,
          -0.01791521,
          -0.0234253,
          -0.07105233,
          0.06402182,
          -0.10011858,
          0.01695577,
          -0.03342844,
          0.05219858,
          0.00358574,
          0.08338618,
          0.00768905,
          -0.10631032,
          -0.048823,
          0.03907646,
          -0.03547134,
          -0.05202759,
          0.09883633,
          -0.08313864,
          -0.0385101,
          -0.02316029,
          -0.07404593,
          -0.00426699,
          0.0143051,
          -0.02174987,
          -0.11077602,
          0.03047461,
          0.10276882,
          -0.05596357,
          -0.01802372,
          -0.08545911,
          0.07443803,
          -0.0541326,
          -0.08292483,
          0.11849996,
          -0.05488775,
          0.0439128,
          -0.0903004,
          0.07088789,
          -0.04330763,
          0.1079183,
          0.02062142,
          0.1003913,
          0.03652294,
          0.1028057,
          0.01429309,
          -0.0236725,
          -0.08144093,
          0.02251299,
          -0.1159828,
          0.06761714,
          0.02597472,
          -0.02515316,
          -0.0002902,
          -0.08435126,
          -0.01519481,
          -0.1017391,
          -0.11837864,
          0.06386445
        ]
      ],
      "weight_matrix_norm": [
        [
          0.76429498,
          0.21370842,
          -0.03513938,
          -0.33647212,
          0.19967602,
          0.53334945,
          0.7443046,
          0.33248127,
          -0.5641157,
          0.709409,
          0.40614581,
          -0.66211367,
          0.08428026,
          0.96476656,
          -0.68120921,
          0.87517613,
          -0.39636835,
          0.03253028,
          0.02250637,
          0.23596178,
          -0.79400897,
          0.92405951,
          -0.30319068,
          0.32778388,
          0.8007915,
          0.65029395,
          -0.12907459,
          0.12333878,
          -0.24187544,
          0.48757076,
          -0.71283954,
          0.76068681,
          0.08331079,
          0.06266773,
          -0.57175946,
          -0.80719429,
          -0.48749539,
          -0.47195026,
          -0.94440144,
          1.0,
          0.26968041,
          -0.57906109,
          0.43981591,
          0.96077859,
          -0.22529443,
          -0.43520966,
          -0.80571765,
          0.90758663,
          -0.67119652,
          0.73617369,
          -0.18542773,
          -0.56064165,
          0.10942508,
          -0.93495613,
          -0.85258579,
          0.64271516,
          0.48433197,
          0.48446593,
          0.93232262,
          -0.62119639,
          0.07828131,
          0.06775471
        ],
        [
          -0.0764764,
          0.65861028,
          0.35612008,
          0.88635606,
          0.71129447,
          -0.89816326,
          -0.8616581,
          0.40545946,
          0.41042706,
          0.8602652,
          -0.01151787,
          0.84517503,
          -0.13034372,
          -0.27412534,
          -0.62561709,
          0.72813946,
          0.21805285,
          0.96594518,
          0.24092142,
          -0.77276629,
          0.2130222,
          -0.0367879,
          -0.3673397,
          0.23510194,
          0.81913882,
          0.28119615,
          -0.36548623,
          0.66455334,
          -0.37069947,
          0.54951203,
          0.18267588,
          0.26442209,
          0.79207933,
          0.73540771,
          0.96769917,
          0.50622475,
          -0.71431839,
          0.54151773,
          -0.35984594,
          -0.4573088,
          0.50630105,
          0.64953214,
          -0.56523067,
          0.89475513,
          -0.46841934,
          -0.57848316,
          -0.83854651,
          -0.39866391,
          0.55546421,
          0.43320176,
          0.2333416,
          -0.70469934,
          -0.17075351,
          -0.92492098,
          -0.86828178,
          -0.2735303,
          -1.0,
          -0.25007835,
          0.36830458,
          0.22839266,
          -0.42378747,
          0.85845011
        ],
        [
          -0.98078984,
          0.06805507,
          -0.34614289,
          -0.32850617,
          -0.05164792,
          0.81549966,
          -0.22847575,
          0.63531846,
          0.73067141,
          -0.47427166,
          -0.01367745,
          0.53532887,
          0.85203952,
          0.63334984,
          -0.18412597,
          -0.61706078,
          -0.60004514,
          0.12657963,
          0.88445622,
          -0.48699996,
          0.4422082,
          0.1977865,
          0.5812791,
          -0.13995852,
          -0.44153818,
          -0.53743273,
          -0.24982765,
          0.75871193,
          -0.13550489,
          -0.03160094,
          -0.66891217,
          -0.4431175,
          0.61449963,
          0.1766597,
          -0.37498456,
          0.11086155,
          0.58095753,
          -0.83880115,
          -0.39577293,
          0.02669493,
          -0.10050569,
          1.0,
          0.8084529,
          -0.17540389,
          -0.90425742,
          -0.74641156,
          0.37428653,
          0.6668877,
          -0.68722081,
          0.12852736,
          -0.70317721,
          0.50322247,
          0.87650943,
          -0.76254529,
          -0.28060538,
          0.66117656,
          0.94369894,
          -0.04679545,
          0.85965693,
          -0.95837379,
          0.79991198,
          -0.34261322
        ],
        [
          -0.49169689,
          -0.02393823,
          -1.0,
          0.268264,
          -0.14245597,
          -0.18627039,
          -0.5649851,
          0.50908077,
          -0.79611051,
          0.13482679,
          -0.26581213,
          0.41506621,
          0.02851262,
          0.66305989,
          0.06114085,
          -0.84534526,
          -0.38822466,
          0.31072336,
          -0.28205663,
          -0.4137066,
          0.78591454,
          -0.66109157,
          -0.30621988,
          -0.18416315,
          -0.58878922,
          -0.03392972,
          0.11374953,
          -0.17294796,
          -0.88085508,
          0.24232423,
          0.81718445,
          -0.44500422,
          -0.14331877,
          -0.67954314,
          0.59190708,
          -0.43044493,
          -0.6593914,
          0.94227338,
          -0.43644965,
          0.3491804,
          -0.71803951,
          0.56367761,
          -0.34436825,
          0.85813141,
          0.16397482,
          0.79827911,
          0.2904186,
          0.8174777,
          0.11365405,
          -0.18823603,
          -0.64759195,
          0.17901598,
          -0.92225766,
          0.5376696,
          0.20654252,
          -0.20000982,
          -0.00230754,
          -0.67073393,
          -0.1208242,
          -0.80899638,
          -0.94130862,
          0.50782949
        ]
      ],
      "channel_abs_mean": [
        0.07324678,
        0.03040513,
        0.05474138,
        0.05741126,
        0.03482207,
        0.0769098,
        0.07572821,
        0.05947196,
        0.07902857,
        0.06885527,
        0.02203993,
        0.07762893,
        0.03471547,
        0.080182,
        0.0490548,
        0.09683096,
        0.05068619,
        0.04519571,
        0.04523324,
        0.06025381,
        0.07063776,
        0.05753897,
        0.04925056,
        0.02802621,
        0.0836949,
        0.04760211,
        0.02709542,
        0.05433283,
        0.05132721,
        0.04137245,
        0.07528736,
        0.06050756,
        0.05156394,
        0.05208746,
        0.0790853,
        0.05858283,
        0.07710336,
        0.08825441,
        0.06756561,
        0.0579354,
        0.05024387,
        0.08826353,
        0.06821913,
        0.0911693,
        0.05573772,
        0.08079129,
        0.07294603,
        0.08820364,
        0.06415154,
        0.04697879,
        0.05590228,
        0.06155122,
        0.06566007,
        0.09986074,
        0.06975745,
        0.05627007,
        0.07684264,
        0.04580899,
        0.07225003,
        0.08274815,
        0.07079674,
        0.05598736
      ],
      "channel_signed_mean": [
        -0.02474668,
        0.0288999,
        -0.03234326,
        0.01520435,
        0.02258558,
        0.00870731,
        -0.02849664,
        0.05947196,
        -0.00682798,
        0.03874603,
        0.00373298,
        0.03561298,
        0.02651753,
        0.06294093,
        -0.04521027,
        0.00450156,
        -0.03697179,
        0.04519571,
        0.02749757,
        -0.04528031,
        0.02025209,
        0.01365587,
        -0.01234792,
        0.00756077,
        0.01864078,
        0.01134957,
        -0.01994287,
        0.0434579,
        -0.05132721,
        0.03936625,
        -0.01241357,
        0.00439436,
        0.04255209,
        0.0093579,
        0.018997,
        -0.01970584,
        -0.04022113,
        0.00505424,
        -0.06756561,
        0.02917304,
        -0.00128696,
        0.05151787,
        0.01101522,
        0.08003374,
        -0.04542701,
        -0.03059565,
        -0.03092289,
        0.06312974,
        -0.02206916,
        0.03514255,
        -0.0412263,
        -0.01834754,
        -0.00307084,
        -0.06605217,
        -0.05677009,
        0.02648985,
        0.01380271,
        -0.01506609,
        0.06465263,
        -0.06838343,
        -0.01504662,
        0.03423648
      ],
      "channel_l2": [
        0.08490183,
        0.04382605,
        0.07030945,
        0.06544562,
        0.04746491,
        0.08458206,
        0.08148798,
        0.06121221,
        0.08127401,
        0.07702255,
        0.03073902,
        0.08016986,
        0.05499965,
        0.08602529,
        0.05973546,
        0.09768146,
        0.0535519,
        0.06435451,
        0.0608195,
        0.06495426,
        0.07712658,
        0.0730033,
        0.05134697,
        0.02939977,
        0.08598249,
        0.0564298,
        0.02997014,
        0.06516571,
        0.06261799,
        0.04886691,
        0.0813752,
        0.06466098,
        0.0641317,
        0.06408419,
        0.08350284,
        0.06647982,
        0.07781287,
        0.09166896,
        0.0740824,
        0.07306886,
        0.05819052,
        0.09113614,
        0.07173476,
        0.09959753,
        0.06688965,
        0.08277394,
        0.0793333,
        0.09154437,
        0.07063375,
        0.05595869,
        0.06328388,
        0.0661625,
        0.08138162,
        0.10193467,
        0.07997145,
        0.0622852,
        0.0921396,
        0.05459053,
        0.08410127,
        0.08972051,
        0.08256732,
        0.06653118
      ],
      "top_channels_by_abs_weight": [
        {
          "rank": 1,
          "channel_index": 53,
          "channel_name": "TPP10h",
          "abs_mean_weight": 0.09986074,
          "signed_mean_weight": -0.06605217,
          "l2_weight": 0.10193467
        },
        {
          "rank": 2,
          "channel_index": 15,
          "channel_name": "T8",
          "abs_mean_weight": 0.09683096,
          "signed_mean_weight": 0.00450156,
          "l2_weight": 0.09768146
        },
        {
          "rank": 3,
          "channel_index": 43,
          "channel_name": "POz",
          "abs_mean_weight": 0.0911693,
          "signed_mean_weight": 0.08003374,
          "l2_weight": 0.09959753
        },
        {
          "rank": 4,
          "channel_index": 41,
          "channel_name": "P1",
          "abs_mean_weight": 0.08826353,
          "signed_mean_weight": 0.05151787,
          "l2_weight": 0.09113614
        },
        {
          "rank": 5,
          "channel_index": 37,
          "channel_name": "C6",
          "abs_mean_weight": 0.08825441,
          "signed_mean_weight": 0.00505424,
          "l2_weight": 0.09166896
        },
        {
          "rank": 6,
          "channel_index": 47,
          "channel_name": "TP7",
          "abs_mean_weight": 0.08820364,
          "signed_mean_weight": 0.06312974,
          "l2_weight": 0.09154437
        },
        {
          "rank": 7,
          "channel_index": 24,
          "channel_name": "Pz",
          "abs_mean_weight": 0.0836949,
          "signed_mean_weight": 0.01864078,
          "l2_weight": 0.08598249
        },
        {
          "rank": 8,
          "channel_index": 59,
          "channel_name": "AF8",
          "abs_mean_weight": 0.08274815,
          "signed_mean_weight": -0.06838343,
          "l2_weight": 0.08972051
        },
        {
          "rank": 9,
          "channel_index": 45,
          "channel_name": "FTT9h",
          "abs_mean_weight": 0.08079129,
          "signed_mean_weight": -0.03059565,
          "l2_weight": 0.08277394
        },
        {
          "rank": 10,
          "channel_index": 13,
          "channel_name": "Cz",
          "abs_mean_weight": 0.080182,
          "signed_mean_weight": 0.06294093,
          "l2_weight": 0.08602529
        },
        {
          "rank": 11,
          "channel_index": 34,
          "channel_name": "C5",
          "abs_mean_weight": 0.0790853,
          "signed_mean_weight": 0.018997,
          "l2_weight": 0.08350284
        },
        {
          "rank": 12,
          "channel_index": 8,
          "channel_name": "FC1",
          "abs_mean_weight": 0.07902857,
          "signed_mean_weight": -0.00682798,
          "l2_weight": 0.08127401
        },
        {
          "rank": 13,
          "channel_index": 11,
          "channel_name": "T7",
          "abs_mean_weight": 0.07762893,
          "signed_mean_weight": 0.03561298,
          "l2_weight": 0.08016986
        },
        {
          "rank": 14,
          "channel_index": 36,
          "channel_name": "C2",
          "abs_mean_weight": 0.07710336,
          "signed_mean_weight": -0.04022113,
          "l2_weight": 0.07781287
        },
        {
          "rank": 15,
          "channel_index": 5,
          "channel_name": "F4",
          "abs_mean_weight": 0.0769098,
          "signed_mean_weight": 0.00870731,
          "l2_weight": 0.08458206
        }
      ]
    },
    "spatial_conv": {
      "available": true,
      "parameter_name": "spatial_conv.1.weight",
      "raw_weight_shape": [
        4,
        1,
        62,
        1
      ],
      "weight_matrix_shape": [
        4,
        62
      ],
      "n_virtual_filters": 4,
      "n_input_channels": 62,
      "channel_names": [
        "Fp1",
        "Fp2",
        "F7",
        "F3",
        "Fz",
        "F4",
        "F8",
        "FC5",
        "FC1",
        "FC2",
        "FC6",
        "T7",
        "C3",
        "Cz",
        "C4",
        "T8",
        "TP9",
        "CP5",
        "CP1",
        "CP2",
        "CP6",
        "TP10",
        "P7",
        "P3",
        "Pz",
        "P4",
        "P8",
        "PO9",
        "O1",
        "Oz",
        "O2",
        "PO10",
        "FC3",
        "FC4",
        "C5",
        "C1",
        "C2",
        "C6",
        "CP3",
        "CPz",
        "CP4",
        "P1",
        "P2",
        "POz",
        "FT9",
        "FTT9h",
        "TTP7h",
        "TP7",
        "TPP9h",
        "FT10",
        "FTT10h",
        "TPP8h",
        "TP8",
        "TPP10h",
        "F9",
        "F10",
        "AF7",
        "AF3",
        "AF4",
        "AF8",
        "PO3",
        "PO4"
      ],
      "weight_matrix": [
        [
          0.04329267,
          -0.01221876,
          -0.00954809,
          -0.04524418,
          -0.0066636,
          0.03761044,
          0.08971848,
          0.09572837,
          -0.0921464,
          0.14667375,
          0.04178371,
          -0.03401422,
          0.02973477,
          0.12487423,
          -0.05144306,
          0.11711918,
          -0.01182966,
          0.10800585,
          -0.02016412,
          0.00845244,
          -0.11968253,
          0.15315032,
          0.01731236,
          0.10093851,
          0.07661953,
          0.11145329,
          -0.00905225,
          0.05113804,
          -0.04052911,
          0.01285142,
          -0.11468799,
          0.06102986,
          0.0102971,
          0.03956033,
          0.0545574,
          -0.13235584,
          -0.03466923,
          -0.03432505,
          -0.07958953,
          0.09766537,
          0.07600365,
          -0.05448832,
          0.01547291,
          0.07996338,
          -0.04249874,
          -0.05633687,
          -0.01239461,
          0.17942701,
          -0.05376659,
          0.12570803,
          0.04055371,
          -0.04969242,
          -0.00252764,
          -0.12515937,
          -0.18542059,
          0.15594928,
          0.02027825,
          0.01587522,
          0.07902917,
          -0.07293456,
          0.03206933,
          -0.0348069
        ],
        [
          0.00507485,
          0.0920581,
          0.0621721,
          0.07933627,
          0.05859308,
          -0.09601442,
          -0.09778617,
          0.0922725,
          0.02396532,
          0.11824536,
          -0.01960977,
          0.07245027,
          -0.0606222,
          -0.02351177,
          -0.02822858,
          0.0569664,
          0.01974101,
          0.13404524,
          -0.00796869,
          -0.12570281,
          0.03025345,
          0.06351224,
          -0.02862187,
          0.05991549,
          0.08326408,
          0.03812063,
          -0.00677909,
          0.12066105,
          -0.09516034,
          0.04071068,
          -0.00755899,
          0.01038732,
          0.0530157,
          0.07674324,
          0.07724074,
          0.07564874,
          -0.03785105,
          0.0922391,
          -0.06684205,
          -0.08875866,
          0.11176804,
          0.09763569,
          -0.10985652,
          0.0864967,
          -0.03207906,
          -0.03310608,
          -0.12974669,
          -0.05134201,
          0.09068378,
          0.07595205,
          0.0805543,
          -0.02935331,
          -0.04869911,
          -0.12438677,
          -0.14996827,
          -0.02922553,
          -0.12392718,
          -0.03443784,
          0.04308975,
          0.00409278,
          -0.0593739,
          0.06088258
        ],
        [
          -0.10333216,
          -0.01273508,
          -0.06070106,
          -0.01930396,
          -0.05563992,
          0.07061467,
          -0.08318769,
          0.1784199,
          0.06604587,
          -0.08473471,
          0.04287571,
          0.14826368,
          0.10747439,
          0.02181822,
          -0.01902884,
          -0.02192888,
          -0.06754436,
          0.06190578,
          0.07602203,
          -0.0989239,
          0.03761189,
          0.03477797,
          0.06111769,
          -0.00743949,
          -0.0079452,
          -0.07495751,
          -0.02855755,
          0.08507992,
          -0.04134681,
          -0.01816587,
          -0.07829181,
          -0.07472213,
          0.09912778,
          0.01224203,
          0.03536565,
          -0.01276852,
          0.11169613,
          -0.0288731,
          -0.03861939,
          0.01027811,
          0.00527918,
          0.16365065,
          0.09355017,
          -0.01232091,
          -0.06922548,
          -0.04979474,
          0.10984248,
          0.14966957,
          -0.11818891,
          0.01367353,
          -0.0965656,
          0.07588193,
          0.1070838,
          -0.14961985,
          -0.05085708,
          0.04935153,
          0.07159197,
          0.00617907,
          0.01551924,
          -0.13218597,
          0.10675943,
          -0.02844048
        ],
        [
          -0.01140754,
          -0.02451992,
          -0.1187429,
          0.09467568,
          -0.02793336,
          -0.03323282,
          -0.10435019,
          0.1075781,
          -0.06347934,
          0.04570215,
          -0.00160028,
          0.10084657,
          -0.02528361,
          0.09387951,
          -0.00282786,
          -0.04206733,
          -0.06759579,
          -0.00825757,
          -0.04381777,
          -0.06623986,
          0.10129193,
          -0.09550865,
          -0.06725831,
          -0.03396675,
          -0.05618277,
          -0.00974667,
          0.03309207,
          0.00212306,
          -0.10856188,
          0.0163996,
          0.07966401,
          -0.10214609,
          -0.00521583,
          -0.06666157,
          0.06412996,
          -0.0170836,
          -0.02421825,
          0.08124423,
          -0.09388332,
          0.08782519,
          -0.07675476,
          0.11609118,
          -0.03930047,
          0.0908486,
          -0.02441013,
          0.0356861,
          0.0538597,
          0.12460456,
          -0.04560775,
          -0.0405671,
          -0.0726881,
          0.00267866,
          -0.12512189,
          0.04059758,
          0.00957074,
          0.00422583,
          0.00016434,
          -0.03128229,
          -0.08636463,
          -0.08552237,
          -0.15141654,
          0.07565717
        ]
      ],
      "weight_matrix_norm": [
        [
          0.23348361,
          -0.06589752,
          -0.05149423,
          -0.24400841,
          -0.03593774,
          0.20283853,
          0.48386472,
          0.5162769,
          -0.49695885,
          0.79103273,
          0.2253456,
          -0.18344361,
          0.16036391,
          0.67346472,
          -0.27743983,
          0.63164061,
          -0.06379905,
          0.58249116,
          -0.10874803,
          0.04558524,
          -0.64546514,
          0.82596177,
          0.09336805,
          0.54437596,
          0.41322017,
          0.6010837,
          -0.04882012,
          0.27579486,
          -0.21857932,
          0.06930955,
          -0.6185289,
          0.32914281,
          0.05553375,
          0.21335454,
          0.29423594,
          -0.71381414,
          -0.18697616,
          -0.18511994,
          -0.42923784,
          0.52672344,
          0.40989864,
          -0.29386339,
          0.08344765,
          0.43125406,
          -0.22920182,
          -0.30383286,
          -0.06684595,
          0.96767581,
          -0.28997096,
          0.67796153,
          0.218712,
          -0.2679984,
          -0.01363195,
          -0.67500252,
          -1.0,
          0.841057,
          0.1093635,
          0.08561736,
          0.42621571,
          -0.39334661,
          0.17295453,
          -0.18771866
        ],
        [
          0.03383948,
          0.61385053,
          0.41456833,
          0.52902037,
          0.3907032,
          -0.64023155,
          -0.65204573,
          0.61528015,
          0.1598026,
          0.78846925,
          -0.13075943,
          0.48310396,
          -0.40423352,
          -0.15677829,
          -0.18823034,
          0.37985638,
          0.13163461,
          0.89382404,
          -0.05313582,
          -0.8381961,
          0.20173232,
          0.4235045,
          -0.19085287,
          0.39952111,
          0.55521137,
          0.25419131,
          -0.04520352,
          0.80457723,
          -0.6345365,
          0.27146199,
          -0.05040392,
          0.06926345,
          0.35351276,
          0.51172984,
          0.51504719,
          0.50443166,
          -0.25239372,
          0.61505741,
          -0.44570795,
          -0.59184963,
          0.74527794,
          0.65104234,
          -0.73253173,
          0.57676673,
          -0.21390568,
          -0.22075391,
          -0.86516094,
          -0.34235251,
          0.60468644,
          0.50645417,
          0.53714228,
          -0.19573012,
          -0.32472947,
          -0.82942063,
          -1.0,
          -0.1948781,
          -0.82635605,
          -0.22963418,
          0.2873258,
          0.02729099,
          -0.39590976,
          0.40596974
        ],
        [
          -0.57915157,
          -0.07137702,
          -0.34021464,
          -0.10819399,
          -0.31184819,
          0.39577797,
          -0.46624669,
          1.0,
          0.37017098,
          -0.47491735,
          0.24030787,
          0.83098173,
          0.6023677,
          0.12228579,
          -0.10665203,
          -0.12290601,
          -0.37856963,
          0.3469668,
          0.42608491,
          -0.55444431,
          0.21080546,
          0.19492204,
          0.34254974,
          -0.04169653,
          -0.04453093,
          -0.42011857,
          -0.16005808,
          0.47685215,
          -0.23173878,
          -0.10181525,
          -0.43880647,
          -0.41879928,
          0.55558699,
          0.06861357,
          0.19821584,
          -0.07156444,
          0.62602955,
          -0.16182669,
          -0.21645224,
          0.0576063,
          0.02958849,
          0.9172219,
          0.52432585,
          -0.06905568,
          -0.38799194,
          -0.27908733,
          0.61564028,
          0.83886141,
          -0.66241997,
          0.07663681,
          -0.54122663,
          0.42529967,
          0.60017854,
          -0.83858269,
          -0.28504154,
          0.27660328,
          0.40125549,
          0.03463217,
          0.08698153,
          -0.74087006,
          0.59836054,
          -0.15940192
        ],
        [
          -0.07533877,
          -0.16193685,
          -0.78421354,
          0.62526643,
          -0.18448023,
          -0.21947947,
          -0.68915975,
          0.71047783,
          -0.41923651,
          0.30183062,
          -0.01056871,
          0.66602081,
          -0.16698052,
          0.62000829,
          -0.01867601,
          -0.27782521,
          -0.44642276,
          -0.05453543,
          -0.28938562,
          -0.43746778,
          0.66896212,
          -0.63076764,
          -0.44419396,
          -0.22432658,
          -0.37104777,
          -0.06436992,
          0.21854988,
          0.01402132,
          -0.71697503,
          0.10830786,
          0.52612489,
          -0.67460322,
          -0.0344469,
          -0.44025287,
          0.42353341,
          -0.11282521,
          -0.15994456,
          0.53656113,
          -0.62003344,
          0.58002377,
          -0.50691134,
          0.76670074,
          -0.25955203,
          0.59999126,
          -0.16121179,
          0.23568164,
          0.3557055,
          0.82292569,
          -0.30120721,
          -0.26791722,
          -0.48005387,
          0.01769064,
          -0.82634228,
          0.26811853,
          0.06320801,
          0.02790863,
          0.00108537,
          -0.20659761,
          -0.57037777,
          -0.56481522,
          -1.0,
          0.49966255
        ]
      ],
      "channel_abs_mean": [
        0.0407768,
        0.03538296,
        0.06279103,
        0.05964003,
        0.03720749,
        0.05936809,
        0.09376063,
        0.11849971,
        0.06140924,
        0.09883899,
        0.02646737,
        0.08889368,
        0.05577874,
        0.06602094,
        0.02538208,
        0.05952045,
        0.04167771,
        0.07805361,
        0.03699315,
        0.07482976,
        0.07220995,
        0.08673729,
        0.04357756,
        0.05056506,
        0.0560029,
        0.05856953,
        0.01937024,
        0.06475051,
        0.07139953,
        0.02203189,
        0.0700507,
        0.06207135,
        0.0419141,
        0.04880179,
        0.05782344,
        0.05946418,
        0.05210866,
        0.05917037,
        0.06973357,
        0.07113183,
        0.0674514,
        0.10796647,
        0.06454502,
        0.0674074,
        0.04205335,
        0.04373094,
        0.07646087,
        0.12626079,
        0.07706176,
        0.06397518,
        0.07259043,
        0.03940158,
        0.07085811,
        0.10994089,
        0.09895416,
        0.05968804,
        0.05399043,
        0.02194361,
        0.05600069,
        0.07368392,
        0.0874048,
        0.04994678
      ],
      "channel_signed_mean": [
        -0.01659305,
        0.01064609,
        -0.03170499,
        0.02736595,
        -0.00791095,
        -0.00525553,
        -0.04890139,
        0.11849971,
        -0.01640364,
        0.05647163,
        0.01586234,
        0.07188657,
        0.01282584,
        0.05426504,
        -0.02538208,
        0.02752234,
        -0.0318072,
        0.07392482,
        0.00101786,
        -0.07060353,
        0.01236869,
        0.03898297,
        -0.00436253,
        0.02986194,
        0.02393891,
        0.01621743,
        -0.00282421,
        0.06475051,
        -0.07139953,
        0.01294896,
        -0.03021869,
        -0.02636276,
        0.03930619,
        0.015471,
        0.05782344,
        -0.02163981,
        0.0037394,
        0.02757129,
        -0.06973357,
        0.0267525,
        0.02907402,
        0.0807223,
        -0.01003348,
        0.06124695,
        -0.04205335,
        -0.0258879,
        0.00539022,
        0.10058978,
        -0.03171987,
        0.04369163,
        -0.01203642,
        -0.00012129,
        -0.01731621,
        -0.0896421,
        -0.09416879,
        0.04507528,
        -0.00797316,
        -0.01091646,
        0.01281838,
        -0.07163753,
        -0.01799042,
        0.01832309
      ],
      "channel_l2": [
        0.05636417,
        0.0484443,
        0.0737242,
        0.06647821,
        0.04287664,
        0.06466097,
        0.09410193,
        0.12357674,
        0.06606244,
        0.1057873,
        0.03150916,
        0.09818115,
        0.06470937,
        0.07974298,
        0.0308761,
        0.06930477,
        0.04914539,
        0.09156132,
        0.04519247,
        0.08666933,
        0.08202726,
        0.09723713,
        0.04841999,
        0.06121179,
        0.06329117,
        0.06997972,
        0.02257497,
        0.07813016,
        0.07777104,
        0.02460419,
        0.08013495,
        0.07044458,
        0.05650269,
        0.05488209,
        0.05980389,
        0.07696702,
        0.06264425,
        0.06542274,
        0.07264277,
        0.07942847,
        0.07776216,
        0.11484817,
        0.07517318,
        0.07463427,
        0.04534101,
        0.04478524,
        0.0893785,
        0.13486783,
        0.08240613,
        0.07649163,
        0.07540237,
        0.04768699,
        0.08587843,
        0.11744275,
        0.12201364,
        0.08310797,
        0.0722748,
        0.02477272,
        0.06285307,
        0.08678048,
        0.09858784,
        0.05350485
      ],
      "top_channels_by_abs_weight": [
        {
          "rank": 1,
          "channel_index": 47,
          "channel_name": "TP7",
          "abs_mean_weight": 0.12626079,
          "signed_mean_weight": 0.10058978,
          "l2_weight": 0.13486783
        },
        {
          "rank": 2,
          "channel_index": 7,
          "channel_name": "FC5",
          "abs_mean_weight": 0.11849971,
          "signed_mean_weight": 0.11849971,
          "l2_weight": 0.12357674
        },
        {
          "rank": 3,
          "channel_index": 53,
          "channel_name": "TPP10h",
          "abs_mean_weight": 0.10994089,
          "signed_mean_weight": -0.0896421,
          "l2_weight": 0.11744275
        },
        {
          "rank": 4,
          "channel_index": 41,
          "channel_name": "P1",
          "abs_mean_weight": 0.10796647,
          "signed_mean_weight": 0.0807223,
          "l2_weight": 0.11484817
        },
        {
          "rank": 5,
          "channel_index": 54,
          "channel_name": "F9",
          "abs_mean_weight": 0.09895416,
          "signed_mean_weight": -0.09416879,
          "l2_weight": 0.12201364
        },
        {
          "rank": 6,
          "channel_index": 9,
          "channel_name": "FC2",
          "abs_mean_weight": 0.09883899,
          "signed_mean_weight": 0.05647163,
          "l2_weight": 0.1057873
        },
        {
          "rank": 7,
          "channel_index": 6,
          "channel_name": "F8",
          "abs_mean_weight": 0.09376063,
          "signed_mean_weight": -0.04890139,
          "l2_weight": 0.09410193
        },
        {
          "rank": 8,
          "channel_index": 11,
          "channel_name": "T7",
          "abs_mean_weight": 0.08889368,
          "signed_mean_weight": 0.07188657,
          "l2_weight": 0.09818115
        },
        {
          "rank": 9,
          "channel_index": 60,
          "channel_name": "PO3",
          "abs_mean_weight": 0.0874048,
          "signed_mean_weight": -0.01799042,
          "l2_weight": 0.09858784
        },
        {
          "rank": 10,
          "channel_index": 21,
          "channel_name": "TP10",
          "abs_mean_weight": 0.08673729,
          "signed_mean_weight": 0.03898297,
          "l2_weight": 0.09723713
        },
        {
          "rank": 11,
          "channel_index": 17,
          "channel_name": "CP5",
          "abs_mean_weight": 0.07805361,
          "signed_mean_weight": 0.07392482,
          "l2_weight": 0.09156132
        },
        {
          "rank": 12,
          "channel_index": 48,
          "channel_name": "TPP9h",
          "abs_mean_weight": 0.07706176,
          "signed_mean_weight": -0.03171987,
          "l2_weight": 0.08240613
        },
        {
          "rank": 13,
          "channel_index": 46,
          "channel_name": "TTP7h",
          "abs_mean_weight": 0.07646087,
          "signed_mean_weight": 0.00539022,
          "l2_weight": 0.0893785
        },
        {
          "rank": 14,
          "channel_index": 19,
          "channel_name": "CP2",
          "abs_mean_weight": 0.07482976,
          "signed_mean_weight": -0.07060353,
          "l2_weight": 0.08666933
        },
        {
          "rank": 15,
          "channel_index": 59,
          "channel_name": "AF8",
          "abs_mean_weight": 0.07368392,
          "signed_mean_weight": -0.07163753,
          "l2_weight": 0.08678048
        }
      ]
    },
    "spatial_update_stats": {
      "available": true,
      "parameter_name": "spatial_conv.1.weight",
      "initial_shape": [
        4,
        62
      ],
      "final_shape": [
        4,
        62
      ],
      "initial_l2": 1.13739672,
      "final_l2": 1.189713,
      "delta_l2": 0.56979831,
      "delta_max_abs": 0.12712203,
      "relative_delta": 0.50096708,
      "changed": true
    },
    "subject_id": "48"
  },
  {
    "fold_id": 3,
    "fold_label": "subject=48",
    "model_name": "SignalJEPA_PreLocal",
    "strategy": "new",
    "warmup_epochs": 10,
    "n_train": 160,
    "n_test": 40,
    "train_class_counts": [
      80,
      80
    ],
    "test_class_counts": [
      20,
      20
    ],
    "pretrained_load": {
      "loading_path": "from_pretrained",
      "repo_id": "braindecode/signal-jepa_without-chans",
      "mode": "from_pretrained",
      "model_name": "SignalJEPA_PreLocal"
    },
    "phase_1_trainable_groups": [
      "spatial_conv.",
      "final_layer."
    ],
    "phase_1_trainable_params": 2302,
    "phase_1_trainable_names": [
      "spatial_conv.1.weight",
      "spatial_conv.1.bias",
      "final_layer.1.weight",
      "final_layer.1.bias"
    ],
    "phase_2_trainable_groups": null,
    "phase_2_trainable_params": null,
    "phase_2_trainable_names": null,
    "final_trainable_parameters": [
      {
        "name": "feature_encoder.1.0.weight",
        "shape": [
          8,
          1,
          32
        ],
        "num_params": 256,
        "requires_grad": false
      },
      {
        "name": "feature_encoder.1.2.weight",
        "shape": [
          8
        ],
        "num_params": 8,
        "requires_grad": false
      },
      {
        "name": "feature_encoder.1.2.bias",
        "shape": [
          8
        ],
        "num_params": 8,
        "requires_grad": false
      },
      {
        "name": "feature_encoder.2.0.weight",
        "shape": [
          16,
          8,
          2
        ],
        "num_params": 256,
        "requires_grad": false
      },
      {
        "name": "feature_encoder.3.0.weight",
        "shape": [
          32,
          16,
          2
        ],
        "num_params": 1024,
        "requires_grad": false
      },
      {
        "name": "feature_encoder.4.0.weight",
        "shape": [
          64,
          32,
          2
        ],
        "num_params": 4096,
        "requires_grad": false
      },
      {
        "name": "feature_encoder.5.0.weight",
        "shape": [
          64,
          64,
          2
        ],
        "num_params": 8192,
        "requires_grad": false
      },
      {
        "name": "spatial_conv.1.weight",
        "shape": [
          4,
          1,
          62,
          1
        ],
        "num_params": 248,
        "requires_grad": true
      },
      {
        "name": "spatial_conv.1.bias",
        "shape": [
          4
        ],
        "num_params": 4,
        "requires_grad": true
      },
      {
        "name": "final_layer.1.weight",
        "shape": [
          2,
          1024
        ],
        "num_params": 2048,
        "requires_grad": true
      },
      {
        "name": "final_layer.1.bias",
        "shape": [
          2
        ],
        "num_params": 2,
        "requires_grad": true
      }
    ],
    "n_trainable_params_final": 2302,
    "best_epoch": 34,
    "stopped_epoch": 64,
    "best_valid_loss": 0.6878987550735474,
    "accuracy": 0.5,
    "balanced_accuracy": 0.5,
    "confusion_matrix": [
      [
        10,
        10
      ],
      [
        10,
        10
      ]
    ],
    "prediction_histogram": [
      20,
      20
    ],
    "collapse_diagnostics": {
      "prediction_histogram": [
        20,
        20
      ],
      "collapse_ratio": 0.5,
      "collapse_threshold": 0.9,
      "collapse_flag": false,
      "majority_predicted_class": 0
    },
    "probability_diagnostics": {
      "available": true,
      "probability_shape": [
        40,
        2
      ],
      "mean_probability_by_class": [
        0.49953001,
        0.50046999
      ],
      "std_probability_by_class": [
        0.07280675,
        0.07280676
      ],
      "mean_confidence": 0.55781359,
      "std_confidence": 0.04425645,
      "mean_prediction_entropy": 0.68244069,
      "mean_normalized_prediction_entropy": 0.98455379,
      "mean_predicted_class_probability": 0.55781359
    },
    "spatial_conv_initial": {
      "available": true,
      "parameter_name": "spatial_conv.1.weight",
      "raw_weight_shape": [
        4,
        1,
        62,
        1
      ],
      "weight_matrix_shape": [
        4,
        62
      ],
      "n_virtual_filters": 4,
      "n_input_channels": 62,
      "channel_names": [
        "Fp1",
        "Fp2",
        "F7",
        "F3",
        "Fz",
        "F4",
        "F8",
        "FC5",
        "FC1",
        "FC2",
        "FC6",
        "T7",
        "C3",
        "Cz",
        "C4",
        "T8",
        "TP9",
        "CP5",
        "CP1",
        "CP2",
        "CP6",
        "TP10",
        "P7",
        "P3",
        "Pz",
        "P4",
        "P8",
        "PO9",
        "O1",
        "Oz",
        "O2",
        "PO10",
        "FC3",
        "FC4",
        "C5",
        "C1",
        "C2",
        "C6",
        "CP3",
        "CPz",
        "CP4",
        "P1",
        "P2",
        "POz",
        "FT9",
        "FTT9h",
        "TTP7h",
        "TP7",
        "TPP9h",
        "FT10",
        "FTT10h",
        "TPP8h",
        "TP8",
        "TPP10h",
        "F9",
        "F10",
        "AF7",
        "AF3",
        "AF4",
        "AF8",
        "PO3",
        "PO4"
      ],
      "weight_matrix": [
        [
          0.0970002,
          0.02712272,
          -0.0044597,
          -0.04270323,
          0.0253418,
          0.06768984,
          0.09446312,
          0.04219673,
          -0.07159452,
          0.09003437,
          0.05154584,
          -0.08403189,
          0.0106964,
          0.12244297,
          -0.0864554,
          0.11107264,
          -0.05030493,
          0.00412857,
          0.00285639,
          0.029947,
          -0.10077134,
          0.11727665,
          -0.03847932,
          0.04160056,
          0.10163214,
          0.0825318,
          -0.01638145,
          0.01565349,
          -0.03069753,
          0.06187985,
          -0.09046975,
          0.09654227,
          0.01057336,
          0.00795345,
          -0.07256462,
          -0.10244475,
          -0.06187028,
          -0.05989738,
          -0.11985834,
          0.12691461,
          0.03422638,
          -0.07349131,
          0.05581906,
          0.12193684,
          -0.02859315,
          -0.05523446,
          -0.10225733,
          0.115186,
          -0.08518464,
          0.09343119,
          -0.02353349,
          -0.07115361,
          0.01388764,
          -0.11865959,
          -0.10820559,
          0.08156994,
          0.0614688,
          0.0614858,
          0.11832536,
          -0.07883889,
          0.00993504,
          0.00859906
        ],
        [
          -0.00961994,
          0.08284637,
          0.04479623,
          0.11149444,
          0.0894735,
          -0.11297967,
          -0.10838769,
          0.05100261,
          0.05162749,
          0.10821248,
          -0.00144883,
          0.10631429,
          -0.01639589,
          -0.03448214,
          -0.07869617,
          0.09159242,
          0.0274288,
          0.12150593,
          0.03030543,
          -0.09720602,
          0.02679599,
          -0.00462754,
          -0.04620754,
          0.0295734,
          0.10303921,
          0.03537157,
          -0.04597439,
          0.08359395,
          -0.04663016,
          0.06912294,
          0.02297874,
          0.03326157,
          0.0996354,
          0.09250669,
          0.12172657,
          0.06367785,
          -0.08985388,
          0.06811734,
          -0.0452649,
          -0.05752472,
          0.06368744,
          0.08170444,
          -0.07110018,
          0.11255095,
          -0.05892232,
          -0.07276721,
          -0.10548049,
          -0.0501478,
          0.06987166,
          0.05449231,
          0.02935196,
          -0.0886439,
          -0.02147903,
          -0.11634551,
          -0.10922088,
          -0.03440729,
          -0.12578967,
          -0.03145728,
          0.04632891,
          0.02872944,
          -0.05330809,
          0.10798416
        ],
        [
          -0.12453134,
          0.00864098,
          -0.04394992,
          -0.04171058,
          -0.00655776,
          0.10354438,
          -0.02900967,
          0.08066668,
          0.09277369,
          -0.06021849,
          -0.00173663,
          0.06797095,
          0.10818386,
          0.08041672,
          -0.02337856,
          -0.0783485,
          -0.07618801,
          0.01607187,
          0.11229982,
          -0.06183461,
          0.05614738,
          0.02511304,
          0.07380528,
          -0.0177706,
          -0.05606231,
          -0.06823809,
          -0.03172074,
          0.09633401,
          -0.01720512,
          -0.00401239,
          -0.0849321,
          -0.05626284,
          0.07802331,
          0.02243057,
          -0.04761197,
          0.01407614,
          0.07376445,
          -0.10650297,
          -0.05025148,
          0.00338947,
          -0.01276125,
          0.12697047,
          0.10264964,
          -0.02227112,
          -0.11481399,
          -0.09477223,
          0.04752334,
          0.08467504,
          -0.08725675,
          0.01631918,
          -0.08928274,
          0.06389439,
          0.11129081,
          -0.09682073,
          -0.0356286,
          0.0839499,
          0.1198219,
          -0.00594164,
          0.10915104,
          -0.12168517,
          0.1015652,
          -0.04350176
        ],
        [
          -0.06183563,
          -0.00301046,
          -0.12575965,
          0.03373678,
          -0.01791521,
          -0.0234253,
          -0.07105233,
          0.06402182,
          -0.10011858,
          0.01695577,
          -0.03342844,
          0.05219858,
          0.00358574,
          0.08338618,
          0.00768905,
          -0.10631032,
          -0.048823,
          0.03907646,
          -0.03547134,
          -0.05202759,
          0.09883633,
          -0.08313864,
          -0.0385101,
          -0.02316029,
          -0.07404593,
          -0.00426699,
          0.0143051,
          -0.02174987,
          -0.11077602,
          0.03047461,
          0.10276882,
          -0.05596357,
          -0.01802372,
          -0.08545911,
          0.07443803,
          -0.0541326,
          -0.08292483,
          0.11849996,
          -0.05488775,
          0.0439128,
          -0.0903004,
          0.07088789,
          -0.04330763,
          0.1079183,
          0.02062142,
          0.1003913,
          0.03652294,
          0.1028057,
          0.01429309,
          -0.0236725,
          -0.08144093,
          0.02251299,
          -0.1159828,
          0.06761714,
          0.02597472,
          -0.02515316,
          -0.0002902,
          -0.08435126,
          -0.01519481,
          -0.1017391,
          -0.11837864,
          0.06386445
        ]
      ],
      "weight_matrix_norm": [
        [
          0.76429498,
          0.21370842,
          -0.03513938,
          -0.33647212,
          0.19967602,
          0.53334945,
          0.7443046,
          0.33248127,
          -0.5641157,
          0.709409,
          0.40614581,
          -0.66211367,
          0.08428026,
          0.96476656,
          -0.68120921,
          0.87517613,
          -0.39636835,
          0.03253028,
          0.02250637,
          0.23596178,
          -0.79400897,
          0.92405951,
          -0.30319068,
          0.32778388,
          0.8007915,
          0.65029395,
          -0.12907459,
          0.12333878,
          -0.24187544,
          0.48757076,
          -0.71283954,
          0.76068681,
          0.08331079,
          0.06266773,
          -0.57175946,
          -0.80719429,
          -0.48749539,
          -0.47195026,
          -0.94440144,
          1.0,
          0.26968041,
          -0.57906109,
          0.43981591,
          0.96077859,
