[
  {
    "subject_id": "1",
    "fold_id": 1,
    "accuracy": 0.5,
    "balanced_accuracy": 0.5,
    "prediction_histogram": [
      16,
      16
    ],
    "collapse_diagnostics": {
      "prediction_histogram": [
        16,
        16
      ],
      "collapse_ratio": 0.5,
      "collapse_threshold": 0.9,
      "collapse_flag": false,
      "majority_predicted_class": 0
    },
    "probability_diagnostics": {
      "available": true,
      "probability_shape": [
        32,
        2
      ],
      "mean_probability_by_class": [
        0.51673678,
        0.48326322
      ],
      "std_probability_by_class": [
        0.10443653,
        0.10443653
      ],
      "mean_confidence": 0.58491044,
      "std_confidence": 0.06306605,
      "mean_prediction_entropy": 0.6703163,
      "mean_normalized_prediction_entropy": 0.96706201,
      "mean_predicted_class_probability": 0.58491044
    },
    "spatial_update_stats": {
      "available": true,
      "parameter_name": "spatial_conv.1.weight",
      "initial_shape": [
        4,
        60
      ],
      "final_shape": [
        4,
        60
      ],
      "initial_l2": 1.1395002,
      "final_l2": 1.20496662,
      "delta_l2": 0.62877346,
      "delta_max_abs": 0.10832511,
      "relative_delta": 0.55179759,
      "changed": true
    },
    "n_trainable_params_final": 3830,
    "spatial_conv": {
      "available": true,
      "parameter_name": "spatial_conv.1.weight",
      "raw_weight_shape": [
        4,
        1,
        60,
        1
      ],
      "weight_matrix_shape": [
        4,
        60
      ],
      "n_virtual_filters": 4,
      "n_input_channels": 60,
      "channel_names": [
        "Fp1",
        "Fpz",
        "Fp2",
        "AF3",
        "AF4",
        "F7",
        "F5",
        "F3",
        "F1",
        "Fz",
        "F2",
        "F4",
        "F6",
        "F8",
        "FT7",
        "FC5",
        "FC3",
        "FC1",
        "FCz",
        "FC2",
        "FC4",
        "FC6",
        "FT8",
        "T7",
        "C5",
        "C3",
        "C1",
        "Cz",
        "C2",
        "C4",
        "C6",
        "T8",
        "TP7",
        "CP5",
        "CP3",
        "CP1",
        "CPz",
        "CP2",
        "CP4",
        "CP6",
        "TP8",
        "P7",
        "P5",
        "P3",
        "P1",
        "Pz",
        "P2",
        "P4",
        "P6",
        "P8",
        "PO7",
        "PO5",
        "PO3",
        "POz",
        "PO4",
        "PO6",
        "PO8",
        "O1",
        "Oz",
        "O2"
      ],
      "weight_matrix": [
        [
          0.07935803,
          0.05920267,
          -0.03903101,
          -0.05694384,
          0.01050256,
          0.12915035,
          0.02982739,
          0.08326316,
          -0.06732928,
          0.14506209,
          0.06352068,
          -0.06138727,
          -0.06301364,
          0.06149155,
          -0.09791702,
          0.01856366,
          -0.07096368,
          0.0323598,
          0.0793113,
          0.09566394,
          -0.11865528,
          0.01483367,
          -0.01317283,
          0.06215003,
          0.03790178,
          0.14061728,
          -0.00112409,
          0.05980948,
          0.05111606,
          0.11033448,
          -0.09086275,
          0.18509516,
          0.0348426,
          -0.00243105,
          -0.06781224,
          -0.03789409,
          -0.00501195,
          -0.09689372,
          -0.09056105,
          0.11850132,
          0.00449524,
          -0.11643194,
          0.00814148,
          0.11142305,
          -0.00197697,
          -0.00890426,
          -0.09799349,
          0.13381666,
          -0.10699925,
          0.02870226,
          -0.00340076,
          -0.06129231,
          0.06189808,
          -0.20217526,
          -0.1351108,
          0.05314616,
          0.03276545,
          0.09400471,
          0.12029324,
          -0.0541311
        ],
        [
          0.03022451,
          -0.05348445,
          -0.05506026,
          0.0554777,
          0.04075698,
          0.19577086,
          0.08665114,
          -0.08031227,
          -0.12667702,
          0.11234181,
          0.09374263,
          0.06489546,
          -0.02170088,
          0.04863544,
          0.04393379,
          -0.08174552,
          -0.03546859,
          0.15535296,
          -0.03301965,
          0.0386899,
          0.02871978,
          -0.10728712,
          0.01085803,
          0.07029857,
          -0.00051362,
          0.00781339,
          0.01813154,
          0.07218828,
          -0.10297125,
          0.11709697,
          0.01449122,
          0.17859066,
          0.11056963,
          -0.02253635,
          0.13561489,
          0.16492197,
          0.07483905,
          0.10012513,
          -0.06949645,
          0.14615338,
          0.01179611,
          -0.01747813,
          0.04893108,
          0.04797473,
          -0.05881247,
          0.11195938,
          -0.02765474,
          -0.02236663,
          -0.12945911,
          -0.01343943,
          0.02765483,
          0.03424404,
          0.07443596,
          -0.08231813,
          0.04044477,
          -0.07450288,
          -0.06523009,
          -0.10247873,
          -0.13917594,
          -0.04368461
        ],
        [
          0.07343215,
          -0.00033031,
          -0.0423677,
          0.11291827,
          -0.12921408,
          0.0431779,
          -0.1399461,
          -0.07267022,
          -0.01757611,
          0.08741782,
          -0.01348368,
          0.08309593,
          0.01587761,
          -0.04661137,
          0.01202093,
          -0.02029006,
          0.07842727,
          0.05983954,
          -0.06763677,
          -0.07048037,
          -0.07537972,
          0.03967803,
          0.12775293,
          0.00922593,
          0.0280741,
          0.01567075,
          0.02354828,
          -0.03696751,
          -0.08387575,
          -0.08515045,
          -0.03226356,
          0.11860707,
          0.07193696,
          0.01721461,
          -0.06985781,
          -0.03547727,
          0.07285427,
          0.0627721,
          -0.03587524,
          0.08006868,
          0.09674513,
          -0.09203505,
          -0.03709579,
          0.02404005,
          -0.03721312,
          0.13072728,
          0.10554336,
          -0.02921466,
          -0.16122594,
          -0.13325153,
          0.04265346,
          0.08599074,
          -0.04965585,
          -0.00055835,
          -0.11736675,
          0.03475048,
          0.08104314,
          -0.1159915,
          -0.03214366,
          0.00090959
        ],
        [
          0.13051596,
          -0.07928352,
          0.09949588,
          -0.1415181,
          0.12993982,
          -0.06145872,
          -0.06485819,
          0.02869155,
          -0.12695397,
          0.02657221,
          0.01023713,
          -0.01202401,
          -0.02366375,
          0.06623001,
          -0.06934226,
          0.00078981,
          -0.05492979,
          0.04864131,
          0.01974235,
          0.13032612,
          -8.767e-05,
          -0.09578379,
          -0.04318863,
          0.06929322,
          -0.05422813,
          -0.07064224,
          0.07179537,
          -0.05999566,
          -0.02169474,
          -0.05635235,
          0.01136903,
          0.02809954,
          0.02411158,
          -0.02295286,
          -0.0934033,
          0.04597662,
          0.11754126,
          -0.07374498,
          -0.05605296,
          -0.02900884,
          0.04330072,
          -0.07943963,
          -0.0385044,
          0.1256243,
          -0.03664238,
          0.04351649,
          -0.11285403,
          0.10813348,
          0.0040498,
          0.09046283,
          0.01926538,
          0.07610004,
          -0.03106441,
          0.05098695,
          0.03651711,
          -0.0071523,
          -0.06689093,
          0.05334803,
          -0.08361829,
          0.04762862
        ]
      ],
      "weight_matrix_norm": [
        [
          0.39252096,
          0.29282847,
          -0.1930553,
          -0.28165585,
          0.05194778,
          0.6388039,
          0.14753233,
          0.41183653,
          -0.33302432,
          0.71750665,
          0.31418622,
          -0.30363393,
          -0.31167826,
          0.30414972,
          -0.48431751,
          0.09181966,
          -0.35100082,
          0.16005814,
          0.39228982,
          0.47317335,
          -0.5868932,
          0.07337034,
          -0.0651555,
          0.30740672,
          0.18746993,
          0.69552171,
          -0.00555998,
          0.29582983,
          0.25283042,
          0.54573679,
          -0.44942567,
          0.91551834,
          0.17233859,
          -0.01202448,
          -0.33541316,
          -0.18743187,
          -0.02479014,
          -0.47925606,
          -0.44793341,
          0.58613163,
          0.02223435,
          -0.57589608,
          0.04026944,
          0.55112106,
          -0.00977849,
          -0.04404229,
          -0.48469573,
          0.66188443,
          -0.52924007,
          0.14196719,
          -0.01682085,
          -0.30316421,
          0.30616048,
          -1.0,
          -0.66828549,
          0.26287174,
          0.16206458,
          0.46496645,
          0.59499484,
          -0.26774344
        ],
        [
          0.15438716,
          -0.27319923,
          -0.28124851,
          0.28338081,
          0.20818718,
          1.0,
          0.44261509,
          -0.41023606,
          -0.64706779,
          0.57384336,
          0.47883853,
          0.33148682,
          -0.11084834,
          0.24843045,
          0.22441435,
          -0.41755715,
          -0.18117402,
          0.79354489,
          -0.16866478,
          0.19762847,
          0.14670098,
          -0.548024,
          0.05546293,
          0.35908595,
          -0.00262359,
          0.03991092,
          0.09261615,
          0.36873865,
          -0.52597845,
          0.59813279,
          0.07402135,
          0.91224331,
          0.56479102,
          -0.11511595,
          0.69272256,
          0.8424235,
          0.3822788,
          0.5114404,
          -0.35498875,
          0.74655324,
          0.06025466,
          -0.08927849,
          0.24994057,
          0.24505553,
          -0.3004148,
          0.57188994,
          -0.14126079,
          -0.11424901,
          -0.66127878,
          -0.06864876,
          0.14126123,
          0.17491898,
          0.38021985,
          -0.42048207,
          0.20659237,
          -0.38056162,
          -0.3331961,
          -0.52346259,
          -0.71091241,
          -0.22314154
        ],
        [
          0.45546114,
          -0.00204876,
          -0.26278463,
          0.70037282,
          -0.80144715,
          0.2678099,
          -0.86801231,
          -0.45073527,
          -0.10901538,
          0.54220688,
          -0.08363219,
          0.51540047,
          0.09848052,
          -0.28910589,
          0.07455949,
          -0.12584859,
          0.48644322,
          0.3711533,
          -0.4195154,
          -0.43715277,
          -0.46754089,
          0.24610202,
          0.79238445,
          0.05722364,
          0.1741289,
          0.09719747,
          0.14605762,
          -0.2292901,
          -0.52023733,
          -0.52814358,
          -0.20011395,
          0.73565751,
          0.44618729,
          0.10677318,
          -0.43329138,
          -0.22004688,
          0.45187682,
          0.3893424,
          -0.22251531,
          0.49662402,
          0.60005933,
          -0.57084513,
          -0.2300857,
          0.1491078,
          -0.23081347,
          0.81083274,
          0.65463012,
          -0.18120322,
          -1.0,
          -0.82648939,
          0.26455703,
          0.53335547,
          -0.30798921,
          -0.00346315,
          -0.72796446,
          0.21553901,
          0.50266808,
          -0.7194345,
          -0.19937025,
          0.00564172
        ],
        [
          0.92225629,
          -0.56023592,
          0.70306116,
          -1.0,
          0.91818517,
          -0.43428168,
          -0.45830315,
          0.20274118,
          -0.8970865,
          0.18776545,
          0.07233796,
          -0.0849645,
          -0.16721357,
          0.46799678,
          -0.4899886,
          0.00558102,
          -0.38814673,
          0.34371087,
          0.13950406,
          0.92091483,
          -0.00061949,
          -0.67683065,
          -0.30518097,
          0.48964208,
          -0.38318864,
          -0.49917459,
          0.50732285,
          -0.42394337,
          -0.15330011,
          -0.3981989,
          0.08033619,
          0.19855788,
          0.17037807,
          -0.16219029,
          -0.66000956,
          0.32488158,
          0.83057404,
          -0.52109927,
          -0.39608333,
          -0.20498323,
          0.30597299,
          -0.56133896,
          -0.27208111,
          0.88769066,
          -0.25892362,
          0.30749771,
          -0.79745299,
          0.76409644,
          0.02861681,
          0.6392315,
          0.13613369,
          0.53774071,
          -0.21950838,
          0.36028567,
          0.25803843,
          -0.0505398,
          -0.47266692,
          0.37696967,
          -0.59086639,
          0.33655494
        ]
      ],
      "channel_abs_mean": [
        0.07838266,
        0.04807524,
        0.05898871,
        0.09171448,
        0.07760336,
        0.10738945,
        0.08032071,
        0.0662343,
        0.0846341,
        0.09284848,
        0.04524603,
        0.05535067,
        0.03106397,
        0.05574209,
        0.0558035,
        0.03034726,
        0.05994733,
        0.0740484,
        0.04992751,
        0.08379009,
        0.05571061,
        0.06439565,
        0.04874311,
        0.05274194,
        0.03017941,
        0.05868591,
        0.02864982,
        0.05724024,
        0.06491445,
        0.09223356,
        0.03724664,
        0.12759811,
        0.06036519,
        0.01628372,
        0.09167206,
        0.07106748,
        0.06756163,
        0.08338398,
        0.06299643,
        0.09343305,
        0.0390843,
        0.07634619,
        0.03316819,
        0.07726553,
        0.03366123,
        0.07377685,
        0.08601141,
        0.07338285,
        0.10043353,
        0.06646401,
        0.02324361,
        0.06440678,
        0.05426357,
        0.08400967,
        0.08235986,
        0.04238795,
        0.0614824,
        0.09145574,
        0.09380778,
        0.03658848
      ],
      "channel_signed_mean": [
        0.07838266,
        -0.0184739,
        -0.00924077,
        -0.00751649,
        0.01299632,
        0.0766601,
        -0.02208144,
        -0.01025695,
        -0.0846341,
        0.09284848,
        0.03850419,
        0.01864503,
        -0.02312516,
        0.03243641,
        -0.02782614,
        -0.02067052,
        -0.0207337,
        0.0740484,
        -0.00040069,
        0.0485499,
        -0.04135072,
        -0.0371398,
        0.02056237,
        0.05274194,
        0.00280853,
        0.0233648,
        0.02808777,
        0.00875865,
        -0.03935642,
        0.02148216,
        -0.02431652,
        0.12759811,
        0.06036519,
        -0.00767641,
        -0.02386462,
        0.03438181,
        0.06505565,
        -0.00193537,
        -0.06299643,
        0.07892863,
        0.0390843,
        -0.07634619,
        -0.00463191,
        0.07726553,
        -0.03366123,
        0.06932472,
        -0.03323973,
        0.04759222,
        -0.09840862,
        -0.00688147,
        0.02154323,
        0.03376063,
        0.01390344,
        -0.0585162,
        -0.04387892,
        0.00156037,
        -0.00457811,
        -0.01777937,
        -0.03366116,
        -0.01231938
      ],
      "channel_l2": [
        0.08607833,
        0.05623951,
        0.06373677,
        0.09886643,
        0.09401073,
        0.12313361,
        0.08970729,
        0.06979789,
        0.09618541,
        0.10248372,
        0.05724763,
        0.06129708,
        0.03624127,
        0.05635967,
        0.06416926,
        0.04312554,
        0.06217311,
        0.08821628,
        0.05555419,
        0.09027857,
        0.07173913,
        0.07496573,
        0.06796597,
        0.05850466,
        0.03593624,
        0.07916781,
        0.03885586,
        0.05863957,
        0.07197523,
        0.09527799,
        0.04908214,
        0.14231308,
        0.06927472,
        0.01828232,
        0.09564804,
        0.08945348,
        0.07866018,
        0.08484116,
        0.0660682,
        0.1032665,
        0.05337117,
        0.08462119,
        0.03646649,
        0.08814202,
        0.03933921,
        0.08887842,
        0.09252425,
        0.08796805,
        0.11642455,
        0.08207303,
        0.0272343,
        0.06729604,
        0.0565747,
        0.11208378,
        0.09354032,
        0.04907633,
        0.06397446,
        0.09439123,
        0.10230547,
        0.04215398
      ],
      "top_channels_by_abs_weight": [
        {
          "rank": 1,
          "channel_index": 31,
          "channel_name": "T8",
          "abs_mean_weight": 0.12759811,
          "signed_mean_weight": 0.12759811,
          "l2_weight": 0.14231308
        },
        {
          "rank": 2,
          "channel_index": 5,
          "channel_name": "F7",
          "abs_mean_weight": 0.10738945,
          "signed_mean_weight": 0.0766601,
          "l2_weight": 0.12313361
        },
        {
          "rank": 3,
          "channel_index": 48,
          "channel_name": "P6",
          "abs_mean_weight": 0.10043353,
          "signed_mean_weight": -0.09840862,
          "l2_weight": 0.11642455
        },
        {
          "rank": 4,
          "channel_index": 58,
          "channel_name": "Oz",
          "abs_mean_weight": 0.09380778,
          "signed_mean_weight": -0.03366116,
          "l2_weight": 0.10230547
        },
        {
          "rank": 5,
          "channel_index": 39,
          "channel_name": "CP6",
          "abs_mean_weight": 0.09343305,
          "signed_mean_weight": 0.07892863,
          "l2_weight": 0.1032665
        },
        {
          "rank": 6,
          "channel_index": 9,
          "channel_name": "Fz",
          "abs_mean_weight": 0.09284848,
          "signed_mean_weight": 0.09284848,
          "l2_weight": 0.10248372
        },
        {
          "rank": 7,
          "channel_index": 29,
          "channel_name": "C4",
          "abs_mean_weight": 0.09223356,
          "signed_mean_weight": 0.02148216,
          "l2_weight": 0.09527799
        },
        {
          "rank": 8,
          "channel_index": 3,
          "channel_name": "AF3",
          "abs_mean_weight": 0.09171448,
          "signed_mean_weight": -0.00751649,
          "l2_weight": 0.09886643
        },
        {
          "rank": 9,
          "channel_index": 34,
          "channel_name": "CP3",
          "abs_mean_weight": 0.09167206,
          "signed_mean_weight": -0.02386462,
          "l2_weight": 0.09564804
        },
        {
          "rank": 10,
          "channel_index": 57,
          "channel_name": "O1",
          "abs_mean_weight": 0.09145574,
          "signed_mean_weight": -0.01777937,
          "l2_weight": 0.09439123
        },
        {
          "rank": 11,
          "channel_index": 46,
          "channel_name": "P2",
          "abs_mean_weight": 0.08601141,
          "signed_mean_weight": -0.03323973,
          "l2_weight": 0.09252425
        },
        {
          "rank": 12,
          "channel_index": 8,
          "channel_name": "F1",
          "abs_mean_weight": 0.0846341,
          "signed_mean_weight": -0.0846341,
          "l2_weight": 0.09618541
        },
        {
          "rank": 13,
          "channel_index": 53,
          "channel_name": "POz",
          "abs_mean_weight": 0.08400967,
          "signed_mean_weight": -0.0585162,
          "l2_weight": 0.11208378
        },
        {
          "rank": 14,
          "channel_index": 19,
          "channel_name": "FC2",
          "abs_mean_weight": 0.08379009,
          "signed_mean_weight": 0.0485499,
          "l2_weight": 0.09027857
        },
        {
          "rank": 15,
          "channel_index": 37,
          "channel_name": "CP2",
          "abs_mean_weight": 0.08338398,
          "signed_mean_weight": -0.00193537,
          "l2_weight": 0.08484116
        }
      ]
    }
  },
  {
    "subject_id": "1",
    "fold_id": 2,
    "accuracy": 0.5,
    "balanced_accuracy": 0.5,
    "prediction_histogram": [
      16,
      16
    ],
    "collapse_diagnostics": {
      "prediction_histogram": [
        16,
        16
      ],
      "collapse_ratio": 0.5,
      "collapse_threshold": 0.9,
      "collapse_flag": false,
      "majority_predicted_class": 0
    },
    "probability_diagnostics": {
      "available": true,
      "probability_shape": [
        32,
        2
      ],
      "mean_probability_by_class": [
        0.50942979,
        0.49057021
      ],
      "std_probability_by_class": [
        0.09072053,
        0.09072054
      ],
      "mean_confidence": 0.57380046,
      "std_confidence": 0.05359692,
      "mean_prediction_entropy": 0.67625903,
      "mean_normalized_prediction_entropy": 0.97563554,
      "mean_predicted_class_probability": 0.57380046
    },
    "spatial_update_stats": {
      "available": true,
      "parameter_name": "spatial_conv.1.weight",
      "initial_shape": [
        4,
        60
      ],
      "final_shape": [
        4,
        60
      ],
      "initial_l2": 1.1395002,
      "final_l2": 1.2109361,
      "delta_l2": 0.63821589,
      "delta_max_abs": 0.13800275,
      "relative_delta": 0.56008406,
      "changed": true
    },
    "n_trainable_params_final": 3830,
    "spatial_conv": {
      "available": true,
      "parameter_name": "spatial_conv.1.weight",
      "raw_weight_shape": [
        4,
        1,
        60,
        1
      ],
      "weight_matrix_shape": [
        4,
        60
      ],
      "n_virtual_filters": 4,
      "n_input_channels": 60,
      "channel_names": [
        "Fp1",
        "Fpz",
        "Fp2",
        "AF3",
        "AF4",
        "F7",
        "F5",
        "F3",
        "F1",
        "Fz",
        "F2",
        "F4",
        "F6",
        "F8",
        "FT7",
        "FC5",
        "FC3",
        "FC1",
        "FCz",
        "FC2",
        "FC4",
        "FC6",
        "FT8",
        "T7",
        "C5",
        "C3",
        "C1",
        "Cz",
        "C2",
        "C4",
        "C6",
        "T8",
        "TP7",
        "CP5",
        "CP3",
        "CP1",
        "CPz",
        "CP2",
        "CP4",
        "CP6",
        "TP8",
        "P7",
        "P5",
        "P3",
        "P1",
        "Pz",
        "P2",
        "P4",
        "P6",
        "P8",
        "PO7",
        "PO5",
        "PO3",
        "POz",
        "PO4",
        "PO6",
        "PO8",
        "O1",
        "Oz",
        "O2"
      ],
      "weight_matrix": [
        [
          0.13386971,
          0.12466063,
          0.10515602,
          -0.08294954,
          0.04870118,
          0.09269908,
          -0.02673914,
          0.06327035,
          0.00515882,
          0.11932757,
          0.05947333,
          -0.08500885,
          -0.01157755,
          0.10521607,
          -0.18923889,
          0.01419572,
          -0.00116782,
          0.05016742,
          0.00575743,
          0.07396871,
          -0.07760388,
          0.10086884,
          -0.03058342,
          -0.06780257,
          0.03518348,
          0.09820927,
          0.02737806,
          0.02016287,
          0.02585083,
          0.13142072,
          -0.14600806,
          -0.01748275,
          0.02077494,
          -0.08711605,
          -0.0625388,
          -0.11969132,
          -0.06611632,
          -0.03899115,
          -0.08695538,
          0.05214868,
          0.03234959,
          -0.10593938,
          0.04908835,
          0.03656986,
          -0.07221687,
          -0.00099153,
          -0.08141035,
          0.2081763,
          -0.03674306,
          0.03894313,
          -0.00789027,
          -0.08982255,
          -0.06220293,
          -0.131641,
          -0.09344227,
          0.07396066,
          0.05306464,
          0.06308644,
          0.07341488,
          -0.01657566
        ],
        [
          -0.0042393,
          0.03510861,
          0.00419492,
          0.03588937,
          0.03397971,
          0.09580259,
          0.08519594,
          -0.12908934,
          -0.12575018,
          0.04416098,
          0.03124101,
          0.09563931,
          -0.08049414,
          0.0847356,
          0.12133583,
          -0.03434887,
          -0.06486887,
          0.13374978,
          0.00053596,
          0.08684884,
          -0.01548759,
          -0.08438098,
          -0.0168859,
          0.02215405,
          -0.02012433,
          0.00315145,
          0.06101201,
          0.01273861,
          -0.05148266,
          0.05651251,
          -0.11871285,
          0.06757426,
          0.0310633,
          0.08367412,
          0.06800386,
          0.11198821,
          0.15063816,
          0.07533723,
          -0.10874522,
          0.19587782,
          -0.04271888,
          -0.01256143,
          0.11686926,
          0.11036943,
          -0.07865336,
          0.11686479,
          -0.0735321,
          -0.08595415,
          -0.11125345,
          -0.02633096,
          0.030095,
          0.12073923,
          0.08513878,
          -0.11019965,
          0.0239717,
          -0.11281048,
          -0.10710566,
          0.01398759,
          -0.06701527,
          -0.02759828
        ],
        [
          0.08894642,
          0.06900654,
          -0.04627652,
          0.14994946,
          -0.13056779,
          -0.06013003,
          -0.0882266,
          -0.03462973,
          0.0097519,
          0.0662895,
          -0.02858304,
          0.07308091,
          0.1264618,
          -0.06464995,
          0.00240199,
          0.06209663,
          0.12473305,
          0.07987738,
          0.0239896,
          -0.07086633,
          -0.06892383,
          0.06439639,
          0.10747159,
          -0.04092709,
          0.02379613,
          0.01220652,
          0.05066774,
          0.00028875,
          -0.03044388,
          -0.06010059,
          -0.01444397,
          0.10594387,
          -0.01918334,
          0.00292263,
          -0.13276209,
          -0.01295274,
          0.08360718,
          0.02857345,
          -0.05421542,
          0.11143945,
          0.07439048,
          -0.0945551,
          -0.05890901,
          0.04081449,
          0.00359745,
          0.13232358,
          0.09370207,
          -0.03258616,
          -0.09447615,
          -0.07502908,
          0.01541473,
          0.10018022,
          -0.04286982,
          -0.04630545,
          -0.01109619,
          0.08069216,
          0.12870976,
          -0.08063281,
          -0.12835294,
          0.05304896
        ],
        [
          0.16552456,
          -0.03781057,
          0.14253415,
          -0.11532597,
          0.07465672,
          -0.02173868,
          -0.09364298,
          0.00369553,
          -0.10410818,
          0.03862153,
          -0.02867325,
          -0.04202772,
          -0.10202082,
          0.07166327,
          -0.14432974,
          -0.00299118,
          -0.02141271,
          0.04792239,
          -0.03751607,
          0.07514495,
          -0.01618088,
          -0.06627028,
          -0.02424901,
          0.02061966,
          -0.08733504,
          -0.06062472,
          0.06843092,
          -0.13326192,
          -0.0522202,
          -0.02511755,
          0.02334838,
          -0.0788682,
          0.00866695,
          -0.07646476,
          -0.0790996,
          0.06403328,
          0.11901481,
          -0.06849924,
          -0.02168423,
          -0.06205451,
          0.04137675,
          -0.07195273,
          -0.02763127,
          0.07628585,
          0.00158589,
          0.06549622,
          -0.08073174,
          0.05949626,
          0.01115482,
          0.07592279,
          0.01672225,
          0.10278336,
          0.00964709,
          0.08580445,
          0.08787686,
          -0.01764964,
          -0.07712483,
          0.06092935,
          -0.14451373,
          0.12417447
        ]
      ],
      "weight_matrix_norm": [
        [
          0.64305931,
          0.59882241,
          0.50512964,
          -0.39845815,
          0.23394199,
          0.44529122,
          -0.12844472,
          0.3039268,
          0.024781,
          0.5732044,
          0.28568733,
          -0.40835029,
          -0.05561415,
          0.50541812,
          -0.90903187,
          0.06819084,
          -0.00560975,
          0.24098526,
          0.02765651,
          0.35531762,
          -0.37277964,
          0.48453566,
          -0.14691116,
          -0.32569784,
          0.16900809,
          0.47176009,
          0.1315138,
          0.09685476,
          0.12417757,
          0.63129526,
          -0.70136732,
          -0.08398049,
          0.09979492,
          -0.41847247,
          -0.30041265,
          -0.57495171,
          -0.31759772,
          -0.1872987,
          -0.41770065,
          0.2505025,
          0.15539515,
          -0.5088926,
          0.2358018,
          0.17566772,
          -0.34690246,
          -0.00476293,
          -0.39106444,
          1.0,
          -0.17649971,
          0.18706802,
          -0.03790185,
          -0.43147343,
          -0.29879928,
          -0.63235343,
          -0.44886121,
          0.35527897,
          0.25490239,
          0.30304331,
          0.35265723,
          -0.07962319
        ],
        [
          -0.02164256,
          0.17923732,
          0.02141599,
          0.18322326,
          0.173474,
          0.4890936,
          0.4349443,
          -0.6590299,
          -0.64198273,
          0.22545166,
          0.1594923,
          0.48826003,
          -0.41094056,
          0.43259418,
          0.61944652,
          -0.17535865,
          -0.33117005,
          0.68282253,
          0.00273618,
          0.44338271,
          -0.07906761,
          -0.43078372,
          -0.08620629,
          0.11310137,
          -0.10273922,
          0.01608885,
          0.31147996,
          0.06503344,
          -0.26283044,
          0.28850898,
          -0.60605562,
          0.3449817,
          0.1585851,
          0.42717505,
          0.34717491,
          0.57172483,
          0.76904148,
          0.38461339,
          -0.55516863,
          1.0,
          -0.21808943,
          -0.06412888,
          0.59664363,
          0.56346059,
          -0.40154296,
          0.59662086,
          -0.37539777,
          -0.43881515,
          -0.56797367,
          -0.13442543,
          0.15364167,
          0.61640072,
          0.43465245,
          -0.56259382,
          0.1223809,
          -0.57592267,
          -0.54679835,
          0.07140978,
          -0.34212789,
          -0.1408954
        ],
        [
          0.59317601,
          0.46019864,
          -0.3086141,
          1.0,
          -0.8707453,
          -0.40100199,
          -0.58837557,
          -0.23094267,
          0.06503461,
          0.44207895,
          -0.19061783,
          0.48737028,
          0.84336287,
          -0.43114495,
          0.01601866,
          0.41411707,
          0.83183396,
          0.53269535,
          0.15998456,
          -0.47260144,
          -0.45964706,
          0.42945394,
          0.71671879,
          -0.27293926,
          0.15869433,
          0.08140422,
          0.33789879,
          0.00192562,
          -0.20302759,
          -0.40080565,
          -0.09632556,
          0.70653051,
          -0.12793204,
          0.01949078,
          -0.8853789,
          -0.08638068,
          0.55756909,
          0.19055386,
          -0.36155793,
          0.7431801,
          0.49610367,
          -0.63057983,
          -0.39285907,
          0.27218834,
          0.02399112,
          0.88245451,
          0.62489098,
          -0.21731427,
          -0.63005328,
          -0.50036246,
          0.1027995,
          0.6680932,
          -0.28589517,
          -0.30880702,
          -0.07399952,
          0.53812903,
          0.85835427,
          -0.53773326,
          -0.85597467,
          0.35377896
        ],
        [
          1.0,
          -0.22842875,
          0.8611058,
          -0.69673032,
          0.45103106,
          -0.13133205,
          -0.56573468,
          0.02232615,
          -0.62895912,
          0.23332812,
          -0.17322658,
          -0.25390622,
          -0.61634856,
          0.43294644,
          -0.87195367,
          -0.01807094,
          -0.12936272,
          0.2895183,
          -0.22664957,
          0.45398065,
          -0.09775519,
          -0.40036523,
          -0.14649798,
          0.12457158,
          -0.52762592,
          -0.36625814,
          0.4134185,
          -0.80508852,
          -0.31548309,
          -0.15174514,
          0.1410569,
          -0.47647434,
          0.0523605,
          -0.46195415,
          -0.47787231,
          0.38685063,
          0.71901602,
          -0.41383126,
          -0.13100307,
          -0.37489608,
          0.24997349,
          -0.43469521,
          -0.16693157,
          0.46087334,
          0.009581,
          0.39568886,
          -0.48773271,
          0.35944065,
          0.0673907,
          0.45867988,
          0.10102579,
          0.62095535,
          0.0582819,
          0.51837897,
          0.53089923,
          -0.1066285,
          -0.46594191,
          0.36809859,
          -0.87306517,
          0.75018758
        ]
      ],
      "channel_abs_mean": [
        0.09814499,
        0.06664659,
        0.07454041,
        0.09602858,
        0.07197635,
        0.0675926,
        0.07345117,
        0.05767124,
        0.06119227,
        0.0670999,
        0.03699266,
        0.0739392,
        0.08013858,
        0.08156622,
        0.11432661,
        0.0284081,
        0.05304561,
        0.07792924,
        0.01694976,
        0.07670721,
        0.04454905,
        0.07897912,
        0.04479748,
        0.03787584,
        0.04160975,
        0.04354799,
        0.05187218,
        0.04161303,
        0.03999939,
        0.06828784,
        0.07562832,
        0.06746727,
        0.01992213,
        0.06254439,
        0.08560109,
        0.07716639,
        0.10484412,
        0.05285027,
        0.06790006,
        0.10538012,
        0.04770892,
        0.07125216,
        0.06312447,
        0.06600991,
        0.03901339,
        0.07891902,
        0.08234407,
        0.09655321,
        0.06340687,
        0.05405649,
        0.01753056,
        0.10338134,
        0.04996465,
        0.09348764,
        0.05409675,
        0.07127823,
        0.09150122,
        0.05465905,
        0.1033242,
        0.05534934
      ],
      "channel_signed_mean": [
        0.09602535,
        0.04774131,
        0.05140214,
        -0.00310917,
        0.00669245,
        0.02665824,
        -0.0308532,
        -0.0241883,
        -0.05373691,
        0.0670999,
        0.00836451,
        0.01042091,
        -0.01690768,
        0.04924124,
        -0.0524577,
        0.00973807,
        0.00932091,
        0.07792924,
        -0.00180827,
        0.04127404,
        -0.04454905,
        0.00365349,
        0.00893831,
        -0.01648899,
        -0.01211994,
        0.01323563,
        0.05187218,
        -0.02501792,
        -0.02707398,
        0.02567877,
        -0.06395412,
        0.0192918,
        0.01033046,
        -0.01924601,
        -0.05159915,
        0.01084436,
        0.07178596,
        -0.00089493,
        -0.06790006,
        0.07435286,
        0.02634948,
        -0.07125216,
        0.01985433,
        0.06600991,
        -0.03642172,
        0.07842326,
        -0.03549303,
        0.03728306,
        -0.05782946,
        0.00337647,
        0.01358543,
        0.05847006,
        -0.00257172,
        -0.05058541,
        0.00182753,
        0.00604818,
        -0.00061402,
        0.01434264,
        -0.06661677,
        0.03326237
      ],
      "channel_l2": [
        0.11537863,
        0.07577009,
        0.09155994,
        0.10482556,
        0.08085171,
        0.07392471,
        0.07830433,
        0.07395957,
        0.0818128,
        0.0742886,
        0.03921805,
        0.07661679,
        0.09084903,
        0.08301473,
        0.13357636,
        0.03621568,
        0.07110937,
        0.08526829,
        0.02245212,
        0.07694623,
        0.05309083,
        0.08036373,
        0.05778979,
        0.04239159,
        0.04958965,
        0.0580503,
        0.05413417,
        0.0676898,
        0.04175077,
        0.07859395,
        0.09508532,
        0.07469308,
        0.02144553,
        0.07149469,
        0.0900252,
        0.08822614,
        0.10979288,
        0.05635733,
        0.07549218,
        0.11974673,
        0.05029259,
        0.07984173,
        0.07124228,
        0.07246399,
        0.05342538,
        0.09415101,
        0.08266243,
        0.11760861,
        0.07546117,
        0.05831707,
        0.01926923,
        0.10397902,
        0.05711546,
        0.09871666,
        0.065482,
        0.07908716,
        0.09591914,
        0.0599783,
        0.10867323,
        0.06940805
      ],
      "top_channels_by_abs_weight": [
        {
          "rank": 1,
          "channel_index": 14,
          "channel_name": "FT7",
          "abs_mean_weight": 0.11432661,
          "signed_mean_weight": -0.0524577,
          "l2_weight": 0.13357636
        },
        {
          "rank": 2,
          "channel_index": 39,
          "channel_name": "CP6",
          "abs_mean_weight": 0.10538012,
          "signed_mean_weight": 0.07435286,
          "l2_weight": 0.11974673
        },
        {
          "rank": 3,
          "channel_index": 36,
          "channel_name": "CPz",
          "abs_mean_weight": 0.10484412,
          "signed_mean_weight": 0.07178596,
          "l2_weight": 0.10979288
        },
        {
          "rank": 4,
          "channel_index": 51,
          "channel_name": "PO5",
          "abs_mean_weight": 0.10338134,
          "signed_mean_weight": 0.05847006,
          "l2_weight": 0.10397902
        },
        {
          "rank": 5,
          "channel_index": 58,
          "channel_name": "Oz",
          "abs_mean_weight": 0.1033242,
          "signed_mean_weight": -0.06661677,
          "l2_weight": 0.10867323
        },
        {
          "rank": 6,
          "channel_index": 0,
          "channel_name": "Fp1",
          "abs_mean_weight": 0.09814499,
          "signed_mean_weight": 0.09602535,
          "l2_weight": 0.11537863
        },
        {
          "rank": 7,
          "channel_index": 47,
          "channel_name": "P4",
          "abs_mean_weight": 0.09655321,
          "signed_mean_weight": 0.03728306,
          "l2_weight": 0.11760861
        },
        {
          "rank": 8,
          "channel_index": 3,
          "channel_name": "AF3",
          "abs_mean_weight": 0.09602858,
          "signed_mean_weight": -0.00310917,
          "l2_weight": 0.10482556
        },
        {
          "rank": 9,
          "channel_index": 53,
          "channel_name": "POz",
          "abs_mean_weight": 0.09348764,
          "signed_mean_weight": -0.05058541,
          "l2_weight": 0.09871666
        },
        {
          "rank": 10,
          "channel_index": 56,
          "channel_name": "PO8",
          "abs_mean_weight": 0.09150122,
          "signed_mean_weight": -0.00061402,
          "l2_weight": 0.09591914
        },
        {
          "rank": 11,
          "channel_index": 34,
          "channel_name": "CP3",
          "abs_mean_weight": 0.08560109,
          "signed_mean_weight": -0.05159915,
          "l2_weight": 0.0900252
        },
        {
          "rank": 12,
          "channel_index": 46,
          "channel_name": "P2",
          "abs_mean_weight": 0.08234407,
          "signed_mean_weight": -0.03549303,
          "l2_weight": 0.08266243
        },
        {
          "rank": 13,
          "channel_index": 13,
          "channel_name": "F8",
          "abs_mean_weight": 0.08156622,
          "signed_mean_weight": 0.04924124,
          "l2_weight": 0.08301473
        },
        {
          "rank": 14,
          "channel_index": 12,
          "channel_name": "F6",
          "abs_mean_weight": 0.08013858,
          "signed_mean_weight": -0.01690768,
          "l2_weight": 0.09084903
        },
        {
          "rank": 15,
          "channel_index": 21,
          "channel_name": "FC6",
          "abs_mean_weight": 0.07897912,
          "signed_mean_weight": 0.00365349,
          "l2_weight": 0.08036373
        }
      ]
    }
  },
  {
    "subject_id": "1",
    "fold_id": 3,
    "accuracy": 0.59375,
    "balanced_accuracy": 0.59375,
    "prediction_histogram": [
      13,
      19
    ],
    "collapse_diagnostics": {
      "prediction_histogram": [
        13,
        19
      ],
      "collapse_ratio": 0.59375,
      "collapse_threshold": 0.9,
      "collapse_flag": false,
      "majority_predicted_class": 1
    },
    "probability_diagnostics": {
      "available": true,
      "probability_shape": [
        32,
        2
      ],
      "mean_probability_by_class": [
        0.46038678,
        0.53961323
      ],
      "std_probability_by_class": [
        0.13362279,
        0.13362279
      ],
      "mean_confidence": 0.60917731,
      "std_confidence": 0.08662893,
      "mean_prediction_entropy": 0.65292143,
      "mean_normalized_prediction_entropy": 0.94196651,
      "mean_predicted_class_probability": 0.60917731
    },
    "spatial_update_stats": {
      "available": true,
      "parameter_name": "spatial_conv.1.weight",
      "initial_shape": [
        4,
        60
      ],
      "final_shape": [
        4,
        60
      ],
      "initial_l2": 1.1395002,
      "final_l2": 1.23148685,
      "delta_l2": 0.68232153,
      "delta_max_abs": 0.13618034,
      "relative_delta": 0.59879018,
      "changed": true
    },
    "n_trainable_params_final": 3830,
    "spatial_conv": {
      "available": true,
      "parameter_name": "spatial_conv.1.weight",
      "raw_weight_shape": [
        4,
        1,
        60,
        1
      ],
      "weight_matrix_shape": [
        4,
        60
      ],
      "n_virtual_filters": 4,
      "n_input_channels": 60,
      "channel_names": [
        "Fp1",
        "Fpz",
        "Fp2",
        "AF3",
        "AF4",
        "F7",
        "F5",
        "F3",
        "F1",
        "Fz",
        "F2",
        "F4",
        "F6",
        "F8",
        "FT7",
        "FC5",
        "FC3",
        "FC1",
        "FCz",
        "FC2",
        "FC4",
        "FC6",
        "FT8",
        "T7",
        "C5",
        "C3",
        "C1",
        "Cz",
        "C2",
        "C4",
        "C6",
        "T8",
        "TP7",
        "CP5",
        "CP3",
        "CP1",
        "CPz",
        "CP2",
        "CP4",
        "CP6",
        "TP8",
        "P7",
        "P5",
        "P3",
        "P1",
        "Pz",
        "P2",
        "P4",
        "P6",
        "P8",
        "PO7",
        "PO5",
        "PO3",
        "POz",
        "PO4",
        "PO6",
        "PO8",
        "O1",
        "Oz",
        "O2"
      ],
      "weight_matrix": [
        [
          0.04076487,
          0.05786562,
          -0.04758111,
          -0.10815074,
          -0.03769811,
          0.08466055,
          0.03630864,
          0.04766284,
          -0.06372138,
          0.09117626,
          0.01708057,
          -0.04704938,
          0.09491979,
          0.11613485,
          -0.10695959,
          0.17208585,
          -0.13097295,
          0.07462868,
          0.08749114,
          0.07112554,
          -0.10917155,
          0.13146856,
          -0.03882387,
          -0.05644647,
          0.09381489,
          0.08292736,
          -0.01284387,
          0.04814198,
          0.03340312,
          0.13360232,
          -0.18289992,
          0.01594325,
          0.00125162,
          -0.06538551,
          -0.17666692,
          -0.10814914,
          -0.04103973,
          -0.01618401,
          -0.03773485,
          0.05574183,
          -0.0005419,
          -0.06660681,
          0.00930812,
          0.08244777,
          0.08564734,
          -0.00059126,
          -0.0469027,
          0.1531567,
          -0.05483541,
          0.03206294,
          0.00227781,
          -0.00268304,
          0.01517774,
          -0.09473809,
          -0.10006844,
          0.03701572,
          0.01855261,
          0.0999354,
          0.1832549,
          -0.08930379
        ],
        [
          0.00405156,
          -0.08043496,
          0.04195298,
          0.05057944,
          0.0601491,
          0.11540598,
          0.13761295,
          -0.07208701,
          -0.11306831,
          0.05832789,
          0.07184429,
          -0.02244128,
          -0.06803472,
          0.04089812,
          -0.02485959,
          -0.06367981,
          0.03405363,
          0.14361328,
          -4.68e-06,
          0.04972946,
          0.03116155,
          -0.09726485,
          0.01371205,
          0.03599961,
          -0.05822051,
          -0.01989974,
          0.08463574,
          0.06198749,
          -0.04186308,
          0.06533714,
          0.08877938,
          0.13306008,
          0.06839422,
          -0.00702514,
          0.17453477,
          0.18402517,
          0.13539097,
          0.08213563,
          -0.1203716,
          0.18788271,
          -0.00424628,
          -0.0117441,
          0.05857082,
          0.06552777,
          -0.05413676,
          0.15576138,
          -0.05483563,
          -0.00535903,
          -0.07796205,
          0.01424437,
          0.03253632,
          0.08166869,
          0.10593833,
          -0.10519703,
          0.00764841,
          -0.12406317,
          -0.12001913,
          -0.05938467,
          -0.12743375,
          -0.02167648
        ],
        [
          0.03257918,
          0.00425047,
          -0.00977369,
          0.12904121,
          -0.09519503,
          0.02863455,
          -0.02797167,
          0.01573565,
          0.02159793,
          0.09966464,
          -0.01708718,
          0.05401013,
          0.03897335,
          -0.04799568,
          -0.03976456,
          0.0652513,
          0.15611432,
          0.07268442,
          -0.00477111,
          -0.09338255,
          -0.11171065,
          0.02971662,
          0.16040505,
          -0.08117268,
          0.0252791,
          0.02147463,
          0.06501304,
          -0.01709125,
          -0.08053038,
          -0.07617689,
          -0.08381091,
          0.11628696,
          0.01600684,
          -0.05232022,
          -0.07560595,
          -0.02151841,
          0.06745381,
          0.0122841,
          -0.05650561,
          -0.00466134,
          0.11176813,
          -0.10654441,
          -0.07192545,
          0.01962087,
          8.27e-05,
          0.12211559,
          0.08852511,
          0.00469862,
          -0.15664734,
          -0.10636152,
          0.01488445,
          0.12189494,
          0.03951948,
          -0.00057979,
          -0.09385981,
          0.02656495,
          0.07329726,
          -0.02602741,
          0.04043135,
          0.05002019
        ],
        [
          0.13497858,
          -0.07501757,
          0.09643638,
          -0.11016354,
          0.11316944,
          0.00617526,
          -0.12600127,
          0.0109722,
          -0.06214228,
          0.10479304,
          0.02645289,
          -0.01045118,
          -0.11940496,
          0.08220957,
          -0.15276954,
          -0.02036566,
          -0.01079602,
          0.05094092,
          -0.0305853,
          0.05607485,
          -0.03892739,
          -0.08843238,
          0.0077817,
          -0.03217045,
          -0.0473491,
          -0.03420221,
          0.05086818,
          -0.11597462,
          -0.07347645,
          -0.03544513,
          -0.08009032,
          -0.04327736,
          0.02055661,
          -0.02692248,
          -0.1290047,
          0.06628802,
          0.11888903,
          -0.07959076,
          -0.01414372,
          -0.09817285,
          0.10215342,
          -0.05437917,
          -0.04509296,
          0.09444722,
          -0.03249453,
          0.06961782,
          -0.08234704,
          0.05596798,
          -0.08342987,
          0.06480977,
          0.00034076,
          0.11742912,
          -0.02434517,
          0.10460586,
          0.05877433,
          -0.0422102,
          -0.09701445,
          0.08020025,
          -0.04780799,
          0.0442543
        ]
      ],
      "weight_matrix_norm": [
        [
          0.22244902,
          0.31576574,
          -0.25964439,
          -0.59016562,
          -0.20571406,
          0.46198249,
          0.19813187,
          0.26009041,
          -0.34771994,
          0.49753794,
          0.09320661,
          -0.25674284,
          0.51796591,
          0.63373399,
          -0.58366567,
          0.93905187,
          -0.71470368,
          0.40723976,
          0.47742864,
          0.38812351,
          -0.59573603,
          0.71740818,
          -0.21185721,
          -0.30802161,
          0.5119366,
          0.45252466,
          -0.07008747,
          0.26270503,
          0.18227684,
          0.72905183,
          -0.99806297,
          0.08700041,
          0.00682997,
          -0.35680091,
          -0.96405017,
          -0.59015691,
          -0.22394887,
          -0.08831421,
          -0.20591454,
          0.30417648,
          -0.00295706,
          -0.3634654,
          0.05079332,
          0.44990763,
          0.46736726,
          -0.00322644,
          -0.2559424,
          0.83575773,
          -0.29923025,
          0.17496362,
          0.01242974,
          -0.014641,
          0.08282311,
          -0.51697439,
          -0.54606152,
          0.20199037,
          0.10123936,
          0.54533547,
          1.0,
          -0.4873201
        ],
        [
          0.02156429,
          -0.4281126,
          0.22329344,
          0.26920751,
          0.32014176,
          0.61424482,
          0.73244077,
          -0.38368094,
          -0.60180265,
          0.31044844,
          0.38238907,
          -0.11944301,
          -0.3621127,
          0.21767899,
          -0.13231443,
          -0.33893389,
          0.18124944,
          0.7643773,
          -2.488e-05,
          0.26468354,
          0.16585639,
          -0.51768923,
          0.07298198,
          0.19160682,
          -0.30987689,
          -0.10591575,
          0.45047116,
          0.32992652,
          -0.22281498,
          0.34775493,
          0.47252557,
          0.70820826,
          0.36402616,
          -0.03739108,
          0.92895597,
          0.97946835,
          0.72061431,
          0.43716437,
          -0.64067417,
          1.0,
          -0.0226007,
          -0.06250761,
          0.31174138,
          0.34876955,
          -0.28814128,
          0.82903522,
          -0.29186097,
          -0.02852329,
          -0.41495064,
          0.07581522,
          0.17317359,
          0.43467912,
          0.56385356,
          -0.55990797,
          0.04070843,
          -0.66032249,
          -0.63879818,
          -0.31607309,
          -0.67826223,
          -0.11537243
        ],
        [
          0.20310569,
          0.02649837,
          -0.06093132,
          0.80447096,
          -0.59346652,
          0.17851403,
          -0.17438145,
          0.09809947,
          0.13464619,
          0.62133104,
          -0.10652521,
          0.3367109,
          0.24296832,
          -0.29921553,
          -0.24790095,
          0.40679079,
          0.97325069,
          0.45313048,
          -0.02974414,
          -0.58216715,
          -0.69642848,
          0.18525989,
          1.0,
          -0.50604814,
          0.15759544,
          0.13387753,
          0.40530542,
          -0.10655056,
          -0.5020439,
          -0.47490329,
          -0.52249545,
          0.72495824,
          0.09979011,
          -0.32617563,
          -0.47134393,
          -0.13415048,
          0.42052171,
          0.07658175,
          -0.35226825,
          -0.0290598,
          0.69678688,
          -0.66422099,
          -0.44839892,
          0.1223208,
          0.00051558,
          0.76129514,
          0.55188477,
          0.02929221,
          -0.97657359,
          -0.66308081,
          0.09279289,
          0.75991958,
          0.24637304,
          -0.00361452,
          -0.58514249,
          0.1656117,
          0.45695108,
          -0.16226053,
          0.25205785,
          0.31183675
        ],
        [
          0.88354379,
          -0.4910506,
          0.63125402,
          -0.72110933,
          0.74078536,
          0.04042209,
          -0.82478005,
          0.07182193,
          -0.40677142,
          0.68595511,
          0.17315553,
          -0.06841142,
          -0.78160191,
          0.53812808,
          -1.0,
          -0.13330966,
          -0.07066868,
          0.33344948,
          -0.2002055,
          0.36705515,
          -0.25481123,
          -0.57886136,
          0.05093753,
          -0.21058157,
          -0.3099381,
          -0.22388107,
          0.33297333,
          -0.75914758,
          -0.48096269,
          -0.232017,
          -0.52425581,
          -0.28328529,
          0.13455965,
          -0.1762294,
          -0.84443998,
          0.43390861,
          0.77822477,
          -0.52098578,
          -0.09258208,
          -0.64262062,
          0.66867661,
          -0.3559556,
          -0.29516986,
          0.61823332,
          -0.21270292,
          0.45570487,
          -0.53902787,
          0.3663556,
          -0.54611588,
          0.42423227,
          0.00223056,
          0.76866847,
          -0.15935877,
          0.68472987,
          0.38472542,
          -0.27629983,
          -0.6350379,
          0.52497542,
          -0.31294188,
          0.28968009
        ]
      ],
      "channel_abs_mean": [
        0.05309355,
        0.05439215,
        0.04893604,
        0.09948374,
        0.07655292,
        0.05871909,
        0.08197363,
        0.03661443,
        0.06513248,
        0.08849046,
        0.03311623,
        0.03348799,
        0.0803332,
        0.07180956,
        0.08108832,
        0.08034565,
        0.08298423,
        0.08546683,
        0.03071306,
        0.0675781,
        0.07274279,
        0.0867206,
        0.05518067,
        0.0514473,
        0.0561659,
        0.03962598,
        0.05334021,
        0.06079884,
        0.05731826,
        0.07764037,
        0.10889513,
        0.07714191,
        0.02655232,
        0.03791334,
        0.13895309,
        0.09499519,
        0.09069338,
        0.04754862,
        0.05718894,
        0.08661468,
        0.05467743,
        0.05981862,
        0.04622434,
        0.06551091,
        0.04309033,
        0.08702151,
        0.06815262,
        0.05479558,
        0.09321867,
        0.05436965,
        0.01250984,
        0.08091895,
        0.04624518,
        0.07628019,
        0.06508775,
        0.05746351,
        0.07722086,
        0.06638693,
        0.099732,
        0.05131369
      ],
      "channel_signed_mean": [
        0.05309355,
        -0.02333411,
        0.02025864,
        -0.00967341,
        0.01010635,
        0.05871909,
        0.00498716,
        0.00057092,
        -0.05433352,
        0.08849046,
        0.02457264,
        -0.00648293,
        -0.01338664,
        0.04781171,
        -0.08108832,
        0.03832292,
        0.01209975,
        0.08546683,
        0.01303251,
        0.02088682,
        -0.05716201,
        -0.00612801,
        0.03576873,
        -0.0334475,
        0.0033811,
        0.01257501,
        0.04691827,
        -0.0057341,
        -0.04061669,
        0.02182936,
        -0.06450544,
        0.05550323,
        0.02655232,
        -0.03791334,
        -0.0516857,
        0.03016141,
        0.07017352,
        -0.00033876,
        -0.05718894,
        0.03519759,
        0.05228335,
        -0.05981862,
        -0.01228487,
        0.06551091,
        -0.00022531,
        0.08672588,
        -0.02389007,
        0.05211606,
        -0.09321867,
        0.00118889,
        0.01250984,
        0.07957743,
        0.0340726,
        -0.02397726,
        -0.03187638,
        -0.02567317,
        -0.03129593,
        0.02368089,
        0.01211113,
        -0.00417645
      ],
      "channel_l2": [
        0.07238579,
        0.06217699,
        0.05792131,
        0.10373344,
        0.08201902,
        0.07304797,
        0.09606557,
        0.0442614,
        0.0727547,
        0.09031871,
        0.04014061,
        0.03789319,
        0.08575395,
        0.07781703,
        0.09614845,
        0.09790448,
        0.10344297,
        0.09229331,
        0.04640292,
        0.06963575,
        0.08198182,
        0.09413793,
        0.08289398,
        0.0550139,
        0.0613837,
        0.04718023,
        0.059461,
        0.0705378,
        0.06072935,
        0.08540755,
        0.11701804,
        0.09131643,
        0.03659962,
        0.04412154,
        0.14494142,
        0.11227048,
        0.09836106,
        0.05808134,
        0.06947332,
        0.1096206,
        0.07573929,
        0.06870807,
        0.05177796,
        0.07140865,
        0.05320281,
        0.10490569,
        0.07039982,
        0.08160911,
        0.10072727,
        0.06469933,
        0.01792668,
        0.09397466,
        0.05832617,
        0.08801199,
        0.07472663,
        0.0693708,
        0.08592597,
        0.07180378,
        0.11591162,
        0.05680119
      ],
      "top_channels_by_abs_weight": [
        {
          "rank": 1,
          "channel_index": 34,
          "channel_name": "CP3",
          "abs_mean_weight": 0.13895309,
          "signed_mean_weight": -0.0516857,
          "l2_weight": 0.14494142
        },
        {
          "rank": 2,
          "channel_index": 30,
          "channel_name": "C6",
          "abs_mean_weight": 0.10889513,
          "signed_mean_weight": -0.06450544,
          "l2_weight": 0.11701804
        },
        {
          "rank": 3,
          "channel_index": 58,
          "channel_name": "Oz",
          "abs_mean_weight": 0.099732,
          "signed_mean_weight": 0.01211113,
          "l2_weight": 0.11591162
        },
        {
          "rank": 4,
          "channel_index": 3,
          "channel_name": "AF3",
          "abs_mean_weight": 0.09948374,
          "signed_mean_weight": -0.00967341,
          "l2_weight": 0.10373344
        },
        {
          "rank": 5,
          "channel_index": 35,
          "channel_name": "CP1",
          "abs_mean_weight": 0.09499519,
          "signed_mean_weight": 0.03016141,
          "l2_weight": 0.11227048
        },
        {
          "rank": 6,
          "channel_index": 48,
          "channel_name": "P6",
          "abs_mean_weight": 0.09321867,
          "signed_mean_weight": -0.09321867,
          "l2_weight": 0.10072727
        },
        {
          "rank": 7,
          "channel_index": 36,
          "channel_name": "CPz",
          "abs_mean_weight": 0.09069338,
          "signed_mean_weight": 0.07017352,
          "l2_weight": 0.09836106
        },
        {
          "rank": 8,
          "channel_index": 9,
          "channel_name": "Fz",
          "abs_mean_weight": 0.08849046,
          "signed_mean_weight": 0.08849046,
          "l2_weight": 0.09031871
        },
        {
          "rank": 9,
          "channel_index": 45,
          "channel_name": "Pz",
          "abs_mean_weight": 0.08702151,
          "signed_mean_weight": 0.08672588,
          "l2_weight": 0.10490569
        },
        {
          "rank": 10,
          "channel_index": 21,
          "channel_name": "FC6",
          "abs_mean_weight": 0.0867206,
          "signed_mean_weight": -0.00612801,
          "l2_weight": 0.09413793
        },
        {
          "rank": 11,
          "channel_index": 39,
          "channel_name": "CP6",
          "abs_mean_weight": 0.08661468,
          "signed_mean_weight": 0.03519759,
          "l2_weight": 0.1096206
        },
        {
          "rank": 12,
          "channel_index": 17,
          "channel_name": "FC1",
          "abs_mean_weight": 0.08546683,
          "signed_mean_weight": 0.08546683,
          "l2_weight": 0.09229331
        },
        {
          "rank": 13,
          "channel_index": 16,
          "channel_name": "FC3",
          "abs_mean_weight": 0.08298423,
          "signed_mean_weight": 0.01209975,
          "l2_weight": 0.10344297
        },
        {
          "rank": 14,
          "channel_index": 6,
          "channel_name": "F5",
          "abs_mean_weight": 0.08197363,
          "signed_mean_weight": 0.00498716,
          "l2_weight": 0.09606557
        },
        {
          "rank": 15,
          "channel_index": 14,
          "channel_name": "FT7",
          "abs_mean_weight": 0.08108832,
          "signed_mean_weight": -0.08108832,
          "l2_weight": 0.09614845
        }
      ]
    }
  },
  {
    "subject_id": "1",
    "fold_id": 4,
    "accuracy": 0.5,
    "balanced_accuracy": 0.5,
    "prediction_histogram": [
      18,
      14
    ],
    "collapse_diagnostics": {
      "prediction_histogram": [
        18,
        14
      ],
      "collapse_ratio": 0.5625,
      "collapse_threshold": 0.9,
      "collapse_flag": false,
      "majority_predicted_class": 0
    },
    "probability_diagnostics": {
      "available": true,
      "probability_shape": [
        32,
        2
      ],
      "mean_probability_by_class": [
        0.49131951,
        0.50868049
      ],
      "std_probability_by_class": [
        0.13628446,
        0.13628446
      ],
      "mean_confidence": 0.6140235,
      "std_confidence": 0.07514949,
      "mean_prediction_entropy": 0.65467128,
      "mean_normalized_prediction_entropy": 0.944491,
      "mean_predicted_class_probability": 0.6140235
    },
    "spatial_update_stats": {
      "available": true,
      "parameter_name": "spatial_conv.1.weight",
      "initial_shape": [
        4,
        60
      ],
      "final_shape": [
        4,
        60
      ],
      "initial_l2": 1.1395002,
      "final_l2": 1.23682418,
      "delta_l2": 0.76098502,
      "delta_max_abs": 0.14883456,
      "relative_delta": 0.66782351,
      "changed": true
    },
    "n_trainable_params_final": 3830,
    "spatial_conv": {
      "available": true,
      "parameter_name": "spatial_conv.1.weight",
      "raw_weight_shape": [
        4,
        1,
        60,
        1
      ],
      "weight_matrix_shape": [
        4,
        60
      ],
      "n_virtual_filters": 4,
      "n_input_channels": 60,
      "channel_names": [
        "Fp1",
        "Fpz",
        "Fp2",
        "AF3",
        "AF4",
        "F7",
        "F5",
        "F3",
        "F1",
        "Fz",
        "F2",
        "F4",
        "F6",
        "F8",
        "FT7",
        "FC5",
        "FC3",
        "FC1",
        "FCz",
        "FC2",
        "FC4",
        "FC6",
        "FT8",
        "T7",
        "C5",
        "C3",
        "C1",
        "Cz",
        "C2",
        "C4",
        "C6",
        "T8",
        "TP7",
        "CP5",
        "CP3",
        "CP1",
        "CPz",
        "CP2",
        "CP4",
        "CP6",
        "TP8",
        "P7",
        "P5",
        "P3",
        "P1",
        "Pz",
        "P2",
        "P4",
        "P6",
        "P8",
        "PO7",
        "PO5",
        "PO3",
        "POz",
        "PO4",
        "PO6",
        "PO8",
        "O1",
        "Oz",
        "O2"
      ],
      "weight_matrix": [
        [
          0.05590469,
          0.00438287,
          -0.05731001,
          -0.05876916,
          -0.00730258,
          0.02601156,
          -0.05280995,
          0.03289196,
          0.00990335,
          0.11536534,
          0.06786934,
          -0.07987186,
          0.03967574,
          0.15940644,
          -0.19655335,
          0.040383,
          -0.03634237,
          0.08607422,
          0.09615067,
          0.09313164,
          -0.0737974,
          0.06453405,
          -0.09402516,
          -0.06718005,
          0.02997223,
          0.1562922,
          0.04094493,
          0.04982935,
          -0.02992481,
          0.10208103,
          -0.18076016,
          -0.00010701,
          0.07265311,
          -0.0404605,
          -0.159307,
          0.0003496,
          -0.05307968,
          -0.01245001,
          -0.06385008,
          0.14397492,
          0.03402773,
          0.00722241,
          0.01374215,
          0.07846444,
          0.00822825,
          0.03056714,
          -0.08322086,
          0.13581003,
          -0.09802598,
          0.0856322,
          2.733e-05,
          -0.0450196,
          -0.00331069,
          -0.15593985,
          -0.12554853,
          0.03678452,
          0.01876318,
          0.07705047,
          0.08466887,
          -0.11689591
        ],
        [
          -0.03001061,
          -0.07442271,
          0.01741647,
          0.10557684,
          0.08643959,
          0.0453578,
          0.10891961,
          -0.11216746,
          -0.19212013,
          0.11447777,
          0.1341977,
          0.02036484,
          -0.10360886,
          0.04332786,
          0.03317457,
          -0.02627909,
          -0.11392465,
          0.10481749,
          -0.03273658,
          0.07343663,
          0.01889916,
          -0.03306304,
          0.01368656,
          0.07979674,
          0.01839762,
          -0.03303145,
          -0.01898155,
          0.09397711,
          -0.02218989,
          0.11670027,
          0.07587919,
          0.13685554,
          0.04942157,
          0.07282104,
          0.17834634,
          0.16334006,
          0.12237535,
          0.17073368,
          -0.07894732,
          0.14671318,
          -0.04272039,
          -0.01773704,
          0.01247308,
          0.09927765,
          -0.00876686,
          0.13974558,
          0.00797845,
          -0.03465314,
          -0.06517735,
          -0.06213466,
          0.02733711,
          0.06801447,
          0.11007611,
          -0.06894585,
          0.08334275,
          -0.06348934,
          -0.05952704,
          -0.08714948,
          -0.13761802,
          -0.03963811
        ],
        [
          0.01680444,
          0.05541739,
          -0.0274165,
          0.17515361,
          -0.10050719,
          -0.07311825,
          -0.02526273,
          -0.06618095,
          -0.05716024,
          0.10830943,
          -0.01302576,
          0.04724779,
          0.00030348,
          -0.11037883,
          -0.07211849,
          0.11257511,
          0.04650516,
          0.08048753,
          -0.02700497,
          -0.05907769,
          -0.04381709,
          0.07441612,
          0.09856659,
          -0.02894167,
          0.12656535,
          0.03632572,
          0.02138119,
          0.00564241,
          -0.00425241,
          -0.04633589,
          0.0255142,
          0.0388935,
          -0.00148411,
          0.02899086,
          -0.04104496,
          -0.01346334,
          0.06623559,
          0.08013075,
          -0.06734974,
          0.04665728,
          0.05714356,
          -0.05424206,
          -0.0023707,
          0.04482682,
          0.02431084,
          0.18305534,
          0.11247796,
          -0.0632179,
          -0.10496338,
          -0.14130379,
          0.01520724,
          0.07056686,
          -0.0151285,
          0.07704398,
          -0.04154499,
          0.06180891,
          0.10691178,
          -0.15255657,
          -0.1262358,
          0.02138899
        ],
        [
          0.11877501,
          -0.07151365,
          0.12071812,
          -0.13124727,
          0.07807807,
          0.01274278,
          -0.11107609,
          0.01130273,
          -0.11118761,
          0.04781186,
          0.00221791,
          -0.05904267,
          -0.05087655,
          0.09833503,
          -0.14303,
          0.02623471,
          -0.01827968,
          0.05440611,
          0.02729039,
          0.08675914,
          -0.00211848,
          -0.08024696,
          -0.04543718,
          0.03515465,
          -0.01330093,
          -0.02709916,
          0.09809166,
          -0.08997165,
          -0.09670291,
          -0.01396923,
          0.01622127,
          -0.1002511,
          -0.00382027,
          -0.04098008,
          -0.07900191,
          0.08195776,
          0.08163133,
          -0.07667515,
          -0.02698528,
          -0.0350152,
          0.07904695,
          -0.07242262,
          -0.05183814,
          0.09211134,
          -0.03976863,
          0.04166929,
          -0.11435039,
          0.05142518,
          0.01760265,
          0.11346807,
          0.00930307,
          0.05990903,
          -0.02395997,
          0.08290683,
          0.03722835,
          -0.02978131,
          -0.08725471,
          0.06686404,
          -0.12389446,
          0.1123255
        ]
      ],
      "weight_matrix_norm": [
        [
          0.28442505,
          0.0222986,
          -0.29157487,
          -0.2989985,
          -0.03715319,
          0.1323384,
          -0.26868001,
          0.16734368,
          0.05038507,
          0.5869416,
          0.34529728,
          -0.40636227,
          0.20185736,
          0.81100851,
          -1.0,
          0.20545565,
          -0.18489827,
          0.43791783,
          0.4891836,
          0.47382373,
          -0.37545738,
          0.32832843,
          -0.47836968,
          -0.34179041,
          0.15248902,
          0.79516429,
          0.20831458,
          0.25351563,
          -0.15224779,
          0.51935536,
          -0.91964936,
          -0.00054442,
          0.36963561,
          -0.20584999,
          -0.81050259,
          0.00177863,
          -0.27005228,
          -0.06334162,
          -0.32484856,
          0.73249787,
          0.17312208,
          0.03674527,
          0.06991563,
          0.39920175,
          0.04186267,
          0.15551573,
          -0.42340088,
          0.69095761,
          -0.49872452,
          0.43566898,
          0.00013905,
          -0.2290452,
          -0.01684373,
          -0.79337162,
          -0.63875037,
          0.18714778,
          0.09546098,
          0.39200792,
          0.43076789,
          -0.59472865
        ],
        [
          -0.1562075,
          -0.38737589,
          0.09065407,
          0.54953557,
          0.44992471,
          0.23609081,
          0.56693488,
          -0.58384019,
          -1.0,
          0.59586555,
          0.69850928,
          0.10600056,
          -0.53929204,
          0.22552483,
          0.17267616,
          -0.13678469,
          -0.59298652,
          0.54558307,
          -0.17039643,
          0.38224331,
          0.09837155,
          -0.17209564,
          0.07123961,
          0.41534814,
          0.09576101,
          -0.17193122,
          -0.0988004,
          0.48915803,
          -0.11550009,
          0.60743386,
          0.39495701,
          0.71234357,
          0.25724307,
          0.37903905,
          0.92830634,
          0.85019749,
          0.63697308,
          0.88868183,
          -0.41092685,
          0.76365334,
          -0.22236289,
          -0.09232266,
          0.06492332,
          0.51674771,
          -0.04563219,
          0.72738642,
          0.04152843,
          -0.18037225,
          -0.3392531,
          -0.32341564,
          0.14229174,
          0.35402051,
          0.57295454,
          -0.35886842,
          0.43380538,
          -0.33046687,
          -0.30984277,
          -0.45361969,
          -0.71631235,
          -0.20631939
        ],
        [
          0.09179979,
          0.30273572,
          -0.14977165,
          0.9568342,
          -0.54905361,
          -0.39943251,
          -0.13800599,
          -0.36153522,
          -0.31225663,
          0.59167588,
          -0.07115752,
          0.25810662,
          0.00165785,
          -0.60298067,
          -0.39397097,
          0.61497855,
          0.25404972,
          0.43968964,
          -0.14752352,
          -0.32273132,
          -0.23936528,
          0.40652254,
          0.53845245,
          -0.15810341,
          0.69140488,
          0.19844116,
          0.11680181,
          0.03082352,
          -0.02323017,
          -0.25312504,
          0.13937972,
          0.21246855,
          -0.00810747,
          0.15837212,
          -0.2242216,
          -0.07354793,
          0.36183366,
          0.43774056,
          -0.3679201,
          0.25488076,
          0.31216547,
          -0.2963151,
          -0.0129507,
          0.24488127,
          0.13280597,
          1.0,
          0.61444783,
          -0.34534857,
          -0.57339698,
          -0.77191842,
          0.08307456,
          0.38549471,
          -0.08264439,
          0.42087808,
          -0.22695315,
          0.33765149,
          0.58404076,
          -0.83339041,
          -0.68960458,
          0.11684436
        ],
        [
          0.83042026,
          -0.49999058,
          0.84400558,
          -0.91762054,
          0.54588592,
          0.08909167,
          -0.77659291,
          0.07902352,
          -0.7773726,
          0.33427852,
          0.01550659,
          -0.41279918,
          -0.35570547,
          0.68751329,
          -1.0,
          0.18342102,
          -0.1278031,
          0.38038251,
          0.19080183,
          0.60658002,
          -0.01481145,
          -0.56104988,
          -0.31767586,
          0.24578516,
          -0.09299399,
          -0.18946485,
          0.68581182,
          -0.62904036,
          -0.67610228,
          -0.09766643,
          0.11341167,
          -0.70090961,
          -0.02670955,
          -0.28651386,
          -0.55234504,
          0.57301092,
          0.57072866,
          -0.53607744,
          -0.18866867,
          -0.24481016,
          0.55265993,
          -0.50634569,
          -0.36242843,
          0.64400011,
          -0.27804399,
          0.29133248,
          -0.79948533,
          0.35954118,
          0.12306964,
          0.79331654,
          0.06504278,
          0.41885641,
          -0.16751707,
          0.57964641,
          0.2602835,
          -0.2082172,
          -0.61004484,
          0.4674826,
          -0.86621308,
          0.78532821
        ]
      ],
      "channel_abs_mean": [
        0.05537369,
        0.05143416,
        0.05571528,
        0.11768672,
        0.06808186,
        0.0393076,
        0.07451709,
        0.05563577,
        0.09259284,
        0.0964911,
        0.05432767,
        0.05163179,
        0.04861616,
        0.10286204,
        0.11121911,
        0.05136798,
        0.05376296,
        0.08144633,
        0.04579566,
        0.07810128,
        0.03465803,
        0.06306504,
        0.06292888,
        0.05276828,
        0.04705903,
        0.06318713,
        0.04484984,
        0.05985513,
        0.0382675,
        0.0697716,
        0.07459372,
        0.06902679,
        0.03184477,
        0.04581312,
        0.11442505,
        0.06477769,
        0.08083048,
        0.08499739,
        0.05928311,
        0.09309015,
        0.05323466,
        0.03790604,
        0.02010602,
        0.07867006,
        0.02026865,
        0.09875933,
        0.07950691,
        0.07127657,
        0.07144234,
        0.10063468,
        0.01296869,
        0.06087749,
        0.03811881,
        0.09620912,
        0.07191615,
        0.04796602,
        0.06811418,
        0.09590514,
        0.11810429,
        0.07256212
      ],
      "channel_signed_mean": [
        0.04036839,
        -0.02153403,
        0.01335202,
        0.02267851,
        0.01417697,
        0.00274847,
        -0.02005729,
        -0.03353843,
        -0.08764116,
        0.0964911,
        0.04781479,
        -0.01782547,
        -0.02862655,
        0.04767262,
        -0.09463182,
        0.03822843,
        -0.03051039,
        0.08144633,
        0.01592488,
        0.04856243,
        -0.02520845,
        0.00641004,
        -0.0068023,
        0.00470742,
        0.04040857,
        0.03312182,
        0.03535906,
        0.01486931,
        -0.0382675,
        0.03961904,
        -0.01578637,
        0.01884774,
        0.02919258,
        0.00509283,
        -0.02525188,
        0.05804602,
        0.05429064,
        0.04043481,
        -0.05928311,
        0.07558255,
        0.03187446,
        -0.03429483,
        -0.0069984,
        0.07867006,
        -0.0039991,
        0.09875933,
        -0.01927871,
        0.02234104,
        -0.06264102,
        -0.00108455,
        0.01296869,
        0.03836769,
        0.01691924,
        -0.01623372,
        -0.0116306,
        0.0013307,
        -0.0052767,
        -0.02394789,
        -0.07576985,
        -0.00570489
      ],
      "channel_l2": [
        0.06785253,
        0.05861578,
        0.068761,
        0.12500492,
        0.07701138,
        0.04539435,
        0.08310907,
        0.06740009,
        0.11471508,
        0.10053758,
        0.07548155,
        0.05592994,
        0.06102761,
        0.11083882,
        0.12785971,
        0.06261548,
        0.0648006,
        0.08341724,
        0.05429243,
        0.07918927,
        0.04395356,
        0.06564134,
        0.07212482,
        0.05690815,
        0.06601612,
        0.08302447,
        0.05503616,
        0.0697162,
        0.051859,
        0.08121213,
        0.09917912,
        0.08702362,
        0.04398228,
        0.04863073,
        0.12758538,
        0.09162209,
        0.08491762,
        0.10198653,
        0.06239733,
        0.10683691,
        0.05589437,
        0.04624393,
        0.02755557,
        0.08140434,
        0.02406825,
        0.11801352,
        0.09043875,
        0.08106519,
        0.07934788,
        0.10492301,
        0.01631813,
        0.06168774,
        0.05685654,
        0.10232311,
        0.08034361,
        0.05022764,
        0.07572819,
        0.10158262,
        0.11978403,
        0.08412838
      ],
      "top_channels_by_abs_weight": [
        {
          "rank": 1,
          "channel_index": 58,
          "channel_name": "Oz",
          "abs_mean_weight": 0.11810429,
          "signed_mean_weight": -0.07576985,
          "l2_weight": 0.11978403
        },
        {
          "rank": 2,
          "channel_index": 3,
          "channel_name": "AF3",
          "abs_mean_weight": 0.11768672,
          "signed_mean_weight": 0.02267851,
          "l2_weight": 0.12500492
        },
        {
          "rank": 3,
          "channel_index": 34,
          "channel_name": "CP3",
          "abs_mean_weight": 0.11442505,
          "signed_mean_weight": -0.02525188,
          "l2_weight": 0.12758538
        },
        {
          "rank": 4,
          "channel_index": 14,
          "channel_name": "FT7",
          "abs_mean_weight": 0.11121911,
          "signed_mean_weight": -0.09463182,
          "l2_weight": 0.12785971
        },
        {
          "rank": 5,
          "channel_index": 13,
          "channel_name": "F8",
          "abs_mean_weight": 0.10286204,
          "signed_mean_weight": 0.04767262,
          "l2_weight": 0.11083882
        },
        {
          "rank": 6,
          "channel_index": 49,
          "channel_name": "P8",
          "abs_mean_weight": 0.10063468,
          "signed_mean_weight": -0.00108455,
          "l2_weight": 0.10492301
        },
        {
          "rank": 7,
          "channel_index": 45,
          "channel_name": "Pz",
          "abs_mean_weight": 0.09875933,
          "signed_mean_weight": 0.09875933,
          "l2_weight": 0.11801352
        },
        {
          "rank": 8,
          "channel_index": 9,
          "channel_name": "Fz",
          "abs_mean_weight": 0.0964911,
          "signed_mean_weight": 0.0964911,
          "l2_weight": 0.10053758
        },
        {
          "rank": 9,
          "channel_index": 53,
          "channel_name": "POz",
          "abs_mean_weight": 0.09620912,
          "signed_mean_weight": -0.01623372,
          "l2_weight": 0.10232311
        },
        {
          "rank": 10,
          "channel_index": 57,
          "channel_name": "O1",
          "abs_mean_weight": 0.09590514,
          "signed_mean_weight": -0.02394789,
          "l2_weight": 0.10158262
        },
        {
          "rank": 11,
          "channel_index": 39,
          "channel_name": "CP6",
          "abs_mean_weight": 0.09309015,
          "signed_mean_weight": 0.07558255,
          "l2_weight": 0.10683691
        },
        {
          "rank": 12,
          "channel_index": 8,
          "channel_name": "F1",
          "abs_mean_weight": 0.09259284,
          "signed_mean_weight": -0.08764116,
          "l2_weight": 0.11471508
        },
        {
          "rank": 13,
          "channel_index": 37,
          "channel_name": "CP2",
          "abs_mean_weight": 0.08499739,
          "signed_mean_weight": 0.04043481,
          "l2_weight": 0.10198653
        },
        {
          "rank": 14,
          "channel_index": 17,
          "channel_name": "FC1",
          "abs_mean_weight": 0.08144633,
          "signed_mean_weight": 0.08144633,
          "l2_weight": 0.08341724
        },
        {
          "rank": 15,
          "channel_index": 36,
          "channel_name": "CPz",
          "abs_mean_weight": 0.08083048,
          "signed_mean_weight": 0.05429064,
          "l2_weight": 0.08491762
        }
      ]
    }
  },
  {
    "subject_id": "1",
    "fold_id": 5,
    "accuracy": 0.5625,
    "balanced_accuracy": 0.5625,
    "prediction_histogram": [
      16,
      16
    ],
    "collapse_diagnostics": {
      "prediction_histogram": [
        16,
        16
      ],
      "collapse_ratio": 0.5,
      "collapse_threshold": 0.9,
      "collapse_flag": false,
      "majority_predicted_class": 0
    },
    "probability_diagnostics": {
      "available": true,
      "probability_shape": [
        32,
        2
      ],
      "mean_probability_by_class": [
        0.51442952,
        0.48557048
      ],
      "std_probability_by_class": [
        0.08884782,
        0.08884781
      ],
      "mean_confidence": 0.57262261,
      "std_confidence": 0.05317989,
      "mean_prediction_entropy": 0.67667078,
      "mean_normalized_prediction_entropy": 0.97622957,
      "mean_predicted_class_probability": 0.57262261
    },
    "spatial_update_stats": {
      "available": true,
      "parameter_name": "spatial_conv.1.weight",
      "initial_shape": [
        4,
        60
      ],
      "final_shape": [
        4,
        60
      ],
      "initial_l2": 1.1395002,
      "final_l2": 1.21703651,
      "delta_l2": 0.61835559,
      "delta_max_abs": 0.15137552,
      "relative_delta": 0.5426551,
      "changed": true
    },
    "n_trainable_params_final": 3830,
    "spatial_conv": {
      "available": true,
      "parameter_name": "spatial_conv.1.weight",
      "raw_weight_shape": [
        4,
        1,
        60,
        1
      ],
      "weight_matrix_shape": [
        4,
        60
      ],
      "n_virtual_filters": 4,
      "n_input_channels": 60,
      "channel_names": [
        "Fp1",
        "Fpz",
        "Fp2",
        "AF3",
        "AF4",
        "F7",
        "F5",
        "F3",
        "F1",
        "Fz",
        "F2",
        "F4",
        "F6",
        "F8",
        "FT7",
        "FC5",
        "FC3",
        "FC1",
        "FCz",
        "FC2",
        "FC4",
        "FC6",
        "FT8",
        "T7",
        "C5",
        "C3",
        "C1",
        "Cz",
        "C2",
        "C4",
        "C6",
        "T8",
        "TP7",
        "CP5",
        "CP3",
        "CP1",
        "CPz",
        "CP2",
        "CP4",
        "CP6",
        "TP8",
        "P7",
        "P5",
        "P3",
        "P1",
        "Pz",
        "P2",
        "P4",
        "P6",
        "P8",
        "PO7",
        "PO5",
        "PO3",
        "POz",
        "PO4",
        "PO6",
        "PO8",
        "O1",
        "Oz",
        "O2"
      ],
      "weight_matrix": [
        [
          0.05446686,
          0.05333612,
          -0.01401542,
          -0.12787555,
          -0.01359,
          0.06591924,
          -0.01108047,
          0.05545214,
          -0.04883514,
          0.10751207,
          0.0550406,
          -0.00242548,
          -0.02020435,
          0.13074282,
          -0.09244458,
          0.11000062,
          0.00086519,
          0.08540064,
          0.04175735,
          0.04186819,
          -0.19831471,
          0.09046651,
          -0.03158745,
          -0.04304872,
          0.11615132,
          0.09857291,
          0.00422001,
          0.04303585,
          0.01117324,
          0.19215576,
          -0.10211314,
          0.11771876,
          0.00184836,
          -0.03358284,
          -0.00877832,
          -0.06147545,
          -0.07107622,
          -0.04879962,
          -0.05294918,
          0.06362196,
          0.01125119,
          -0.06375983,
          0.00026931,
          0.07885879,
          0.040864,
          -0.00385729,
          -0.07951177,
          0.20465787,
          -0.08077615,
          0.02878978,
          0.00092327,
          -0.0600772,
          0.02976408,
          -0.16576831,
          -0.16634081,
          0.06532509,
          0.04205855,
          0.03674192,
          0.13155676,
          -0.08716353
        ],
        [
          0.0110491,
          -0.07995314,
          -0.00848165,
          0.09419539,
          0.01801514,
          0.15355518,
          0.07992976,
          -0.12627831,
          -0.126902,
          0.035073,
          0.06750923,
          0.05326302,
          -0.15284829,
          0.11366339,
          -0.07263401,
          -0.07126255,
          -0.0451418,
          0.14280707,
          -0.01084563,
          0.08271521,
          0.00602208,
          -0.05551165,
          0.03373735,
          0.04083862,
          0.03108684,
          0.00960986,
          0.04698828,
          0.02629352,
          -0.02662055,
          0.06259757,
          -0.09018973,
          0.0789707,
          0.03958388,
          0.0392584,
          0.09748277,
          0.12435752,
          0.09061895,
          0.09820151,
          -0.08965264,
          0.12686807,
          0.01397769,
          -0.01784378,
          0.05588703,
          0.07437489,
          -0.07268422,
          0.15397234,
          -0.07480237,
          -0.0586754,
          -0.19263694,
          -0.05779865,
          0.02463568,
          0.06503917,
          0.14511627,
          -0.03092894,
          0.06100237,
          -0.14199972,
          -0.13266836,
          -0.03335257,
          -0.03399055,
          -0.04705651
        ],
        [
          0.03718863,
          0.03737238,
          -0.04770516,
          0.12136962,
          -0.13117684,
          0.03701746,
          -0.06891882,
          -0.02258381,
          -0.01232626,
          0.08588967,
          -0.00698071,
          0.10777772,
          0.0209113,
          -0.03600223,
          0.0212834,
          0.05062812,
          0.12058496,
          0.05026923,
          -0.0188005,
          -0.08546739,
          -0.09112054,
          0.04536452,
          0.14860092,
          -0.02726793,
          0.04644541,
          -0.02565239,
          -0.03328228,
          -0.00689419,
          -0.07432418,
          -0.0625177,
          -0.03856706,
          0.15215321,
          -0.01161298,
          -0.04042678,
          -0.08531709,
          -0.00526358,
          0.04864715,
          0.05793923,
          -0.04095422,
          0.12293862,
          0.10834615,
          -0.10757282,
          -0.07794637,
          0.00710281,
          0.03274762,
          0.11640068,
          0.10987801,
          0.03774169,
          -0.15932044,
          -0.12194359,
          0.01480819,
          0.10949781,
          0.00916815,
          0.02008593,
          -0.01143866,
          0.03924088,
          0.08723646,
          -0.06654558,
          -0.04780079,
          0.08253623
        ],
        [
          0.13877548,
          -0.00577051,
          0.13809831,
          -0.13356942,
          0.13215069,
          -0.01537633,
          -0.09703188,
          -0.04451278,
          -0.1422493,
          0.0502242,
          0.01699919,
          -0.04984935,
          -0.04197117,
          0.05193313,
          -0.12020332,
          0.0079267,
          -0.04067712,
          0.03115932,
          0.01412597,
          0.08604416,
          -0.02475837,
          -0.08314878,
          -0.05948779,
          0.05846609,
          -0.04804843,
          -0.07077833,
          0.12264501,
          -0.05040361,
          -0.02580955,
          -0.03517536,
          -0.04303117,
          -0.05122451,
          0.032653,
          -0.0686024,
          -0.10166214,
          0.05619935,
          0.09027595,
          -0.08784472,
          -0.03335183,
          -0.08503946,
          0.02784355,
          -0.04390295,
          -0.04448222,
          0.06030761,
          -0.04560441,
          0.06954422,
          -0.12284633,
          0.06708987,
          -0.00582231,
          0.08800367,
          0.02694746,
          0.09301468,
          0.02157392,
          0.06496016,
          0.01162363,
          -0.0051258,
          -0.06453088,
          0.01655541,
          -0.07450614,
          0.15216888
        ]
      ],
      "weight_matrix_norm": [
        [
          0.26613617,
          0.26061118,
          -0.06848218,
          -0.62482595,
          -0.06640352,
          0.32209483,
          -0.05414143,
          0.27095044,
          -0.23861845,
          0.52532589,
          0.26893958,
          -0.01185138,
          -0.09872257,
          0.63883603,
          -0.45170301,
          0.53748542,
          0.00422748,
          0.41728491,
          0.20403491,
          0.20457651,
          -0.96900606,
          0.44203779,
          -0.1543427,
          -0.21034479,
          0.56753898,
          0.48164731,
          0.02061982,
          0.21028194,
          0.05459471,
          0.93891215,
          -0.49894559,
          0.57519782,
          0.00903145,
          -0.16409257,
          -0.04289264,
          -0.30038157,
          -0.3472929,
          -0.23844485,
          -0.25872049,
          0.31086984,
          0.05497562,
          -0.31154349,
          0.00131592,
          0.38532013,
          0.19966984,
          -0.01884752,
          -0.38851067,
          1.0,
          -0.39468873,
          0.14067273,
          0.00451128,
          -0.29354942,
          0.14543338,
          -0.80997771,
          -0.81277508,
          0.31919169,
          0.20550664,
          0.17952852,
          0.64281315,
          -0.42589876
        ],
        [
          0.0573571,
          -0.41504574,
          -0.0440292,
          0.48897886,
          0.09351861,
          0.79712224,
          0.41492438,
          -0.65552491,
          -0.65876257,
          0.18206787,
          0.35044801,
          0.27649429,
          -0.79345268,
          0.59003943,
          -0.37705132,
          -0.36993188,
          -0.23433615,
          0.74132752,
          -0.05630089,
          0.42938393,
          0.03126127,
          -0.28816724,
          0.17513438,
          0.21199785,
          0.16137528,
          0.04988588,
          0.24392146,
          0.13649262,
          -0.13819025,
          0.32495099,
          -0.46818501,
          0.40994579,
          0.20548436,
          0.20379478,
          0.50604403,
          0.64555389,
          0.47041318,
          0.50977504,
          -0.46539691,
          0.65858638,
          0.07255978,
          -0.09262905,
          0.29011586,
          0.38608843,
          -0.37731197,
          0.79928774,
          -0.38830751,
          -0.30459058,
          -1.0,
          -0.30003929,
          0.12788658,
          0.33762565,
          0.75331485,
          -0.16055562,
          0.31667015,
          -0.73713654,
          -0.68869638,
          -0.17313693,
          -0.17644875,
          -0.24427561
        ],
        [
          0.23342036,
          0.23457365,
          -0.299429,
          0.76179564,
          -0.82335222,
          0.23234594,
          -0.43257987,
          -0.14175086,
          -0.07736772,
          0.53910011,
          -0.04381552,
          0.67648393,
          0.13125311,
          -0.22597373,
          0.13358866,
          0.3177754,
          0.75687057,
          0.31552282,
          -0.11800428,
          -0.53644961,
          -0.57193249,
          0.28473762,
          0.9327172,
          -0.1711515,
          0.29152197,
          -0.16101129,
          -0.20890152,
          -0.04327248,
          -0.46650746,
          -0.39240226,
          -0.24207222,
          0.95501369,
          -0.07289069,
          -0.25374511,
          -0.53550625,
          -0.03303767,
          0.30534154,
          0.36366475,
          -0.25705567,
          0.7716437,
          0.68005174,
          -0.67519784,
          -0.48924276,
          0.04458192,
          0.20554559,
          0.73060733,
          0.68966675,
          0.23689172,
          -1.0,
          -0.76539826,
          0.09294594,
          0.68728036,
          0.05754535,
          0.1260725,
          -0.07179657,
          0.24630161,
          0.54755342,
          -0.41768384,
          -0.30002922,
          0.51805168
        ],
        [
          0.91198331,
          -0.03792178,
          0.90753317,
          -0.8777709,
          0.86844754,
          -0.10104781,
          -0.63765913,
          -0.29252222,
          -0.93481201,
          0.33005568,
          0.11171267,
          -0.32759225,
          -0.27581963,
          0.34128615,
          -0.78993362,
          0.05209143,
          -0.26731563,
          0.20476802,
          0.09283085,
          0.56545174,
          -0.16270323,
          -0.54642433,
          -0.39093265,
          0.38421845,
          -0.31575727,
          -0.46513009,
          0.80597955,
          -0.33123463,
          -0.16961123,
          -0.23115999,
          -0.28278562,
          -0.33662936,
          0.21458392,
          -0.45083067,
          -0.6680876,
          0.36932218,
          0.59326154,
          -0.5772844,
          -0.21917641,
          -0.55884922,
          0.18297797,
          -0.28851461,
          -0.29232135,
          0.39632025,
          -0.29969603,
          0.45701995,
          -0.80730253,
          0.44089085,
          -0.03826219,
          0.57832891,
          0.17708918,
          0.61125952,
          0.14177616,
          0.42689514,
          0.07638639,
          -0.03368497,
          -0.42407408,
          0.10879628,
          -0.48962796,
          1.0
        ]
      ],
      "channel_abs_mean": [
        0.06037002,
        0.04410804,
        0.05207514,
        0.1192525,
        0.07373317,
        0.06796706,
        0.06424023,
        0.06220676,
        0.08257817,
        0.06967474,
        0.03663243,
        0.05332889,
        0.05898378,
        0.0830854,
        0.07664132,
        0.05995449,
        0.05181726,
        0.07740907,
        0.02138236,
        0.07402374,
        0.08005393,
        0.06862286,
        0.06835338,
        0.04240534,
        0.060433,
        0.05115337,
        0.0517839,
        0.03165679,
        0.03448188,
        0.08811159,
        0.06847528,
        0.1000168,
        0.02142455,
        0.04546761,
        0.07331008,
        0.06182398,
        0.07515457,
        0.07319627,
        0.05422697,
        0.09961703,
        0.04035465,
        0.05826984,
        0.04464623,
        0.05516103,
        0.04797506,
        0.08594364,
        0.09675962,
        0.09204121,
        0.10963896,
        0.07413392,
        0.01682865,
        0.08190722,
        0.0514056,
        0.07043584,
        0.06260137,
        0.06292287,
        0.08162356,
        0.03829887,
        0.07196356,
        0.09223129
      ],
      "channel_signed_mean": [
        0.06037002,
        0.00124621,
        0.01697402,
        -0.01146999,
        0.00134975,
        0.06027889,
        -0.02427535,
        -0.03448069,
        -0.08257817,
        0.06967474,
        0.03314208,
        0.02719148,
        -0.04852812,
        0.06508428,
        -0.06599963,
        0.02432322,
        0.00890781,
        0.07740907,
        0.0065593,
        0.03129004,
        -0.07704289,
        -0.00070735,
        0.02281576,
        0.00724701,
        0.03640879,
        0.00293801,
        0.03514275,
        0.00300789,
        -0.02889526,
        0.03926507,
        -0.06847528,
        0.07440454,
        0.01561806,
        -0.0258384,
        -0.0245687,
        0.02845446,
        0.03961646,
        0.0048741,
        -0.05422697,
        0.05709729,
        0.04035465,
        -0.05826984,
        -0.01656806,
        0.05516103,
        -0.01116925,
        0.08401499,
        -0.04182061,
        0.06270351,
        -0.10963896,
        -0.0157372,
        0.01682865,
        0.05186862,
        0.0514056,
        -0.02791279,
        -0.02628837,
        -0.01063989,
        -0.01697606,
        -0.0116502,
        -0.00618518,
        0.02512127
      ],
      "channel_l2": [
        0.07702329,
        0.05164117,
        0.07351071,
        0.12020431,
        0.0937822,
        0.08592331,
        0.07189668,
        0.07333581,
        0.09858472,
        0.07531346,
        0.0445103,
        0.06508423,
        0.08057555,
        0.09220394,
        0.08474007,
        0.07036427,
        0.06751646,
        0.08829641,
        0.02456779,
        0.07632664,
        0.1098646,
        0.0711291,
        0.08330217,
        0.04382582,
        0.06878108,
        0.06220246,
        0.0677776,
        0.0358172,
        0.04190379,
        0.10722414,
        0.07399388,
        0.10708481,
        0.02632194,
        0.04745957,
        0.08245324,
        0.0748834,
        0.07710369,
        0.0759911,
        0.05837552,
        0.10306415,
        0.0566483,
        0.06686385,
        0.05286241,
        0.06212445,
        0.05026189,
        0.10260102,
        0.09884573,
        0.11319578,
        0.13138749,
        0.08182973,
        0.01970544,
        0.08438137,
        0.0749902,
        0.09091067,
        0.08896138,
        0.08061856,
        0.08823867,
        0.04232245,
        0.08108425,
        0.09972386
      ],
      "top_channels_by_abs_weight": [
        {
          "rank": 1,
          "channel_index": 3,
          "channel_name": "AF3",
          "abs_mean_weight": 0.1192525,
          "signed_mean_weight": -0.01146999,
          "l2_weight": 0.12020431
        },
