[
  {
    "fold_id": 1,
    "fold_label": "subject=1",
    "model_name": "SignalJEPA_PreLocal",
    "strategy": "new",
    "warmup_epochs": 10,
    "n_train": 36,
    "n_test": 9,
    "train_class_counts": [
      19,
      17
    ],
    "test_class_counts": [
      4,
      5
    ],
    "pretrained_load": {
      "loading_path": "from_pretrained",
      "repo_id": "braindecode/signal-jepa_without-chans",
      "mode": "from_pretrained",
      "model_name": "SignalJEPA_PreLocal"
    },
    "phase_1_trainable_groups": [
      "spatial_conv.",
      "final_layer."
    ],
    "phase_1_trainable_params": 1798,
    "phase_1_trainable_names": [
      "spatial_conv.1.weight",
      "spatial_conv.1.bias",
      "final_layer.1.weight",
      "final_layer.1.bias"
    ],
    "phase_2_trainable_groups": null,
    "phase_2_trainable_params": null,
    "phase_2_trainable_names": null,
    "final_trainable_parameters": [
      {
        "name": "feature_encoder.1.0.weight",
        "shape": [
          8,
          1,
          32
        ],
        "num_params": 256,
        "requires_grad": false
      },
      {
        "name": "feature_encoder.1.2.weight",
        "shape": [
          8
        ],
        "num_params": 8,
        "requires_grad": false
      },
      {
        "name": "feature_encoder.1.2.bias",
        "shape": [
          8
        ],
        "num_params": 8,
        "requires_grad": false
      },
      {
        "name": "feature_encoder.2.0.weight",
        "shape": [
          16,
          8,
          2
        ],
        "num_params": 256,
        "requires_grad": false
      },
      {
        "name": "feature_encoder.3.0.weight",
        "shape": [
          32,
          16,
          2
        ],
        "num_params": 1024,
        "requires_grad": false
      },
      {
        "name": "feature_encoder.4.0.weight",
        "shape": [
          64,
          32,
          2
        ],
        "num_params": 4096,
        "requires_grad": false
      },
      {
        "name": "feature_encoder.5.0.weight",
        "shape": [
          64,
          64,
          2
        ],
        "num_params": 8192,
        "requires_grad": false
      },
      {
        "name": "spatial_conv.1.weight",
        "shape": [
          4,
          1,
          64,
          1
        ],
        "num_params": 256,
        "requires_grad": true
      },
      {
        "name": "spatial_conv.1.bias",
        "shape": [
          4
        ],
        "num_params": 4,
        "requires_grad": true
      },
      {
        "name": "final_layer.1.weight",
        "shape": [
          2,
          768
        ],
        "num_params": 1536,
        "requires_grad": true
      },
      {
        "name": "final_layer.1.bias",
        "shape": [
          2
        ],
        "num_params": 2,
        "requires_grad": true
      }
    ],
    "n_trainable_params_final": 1798,
    "best_epoch": 1,
    "stopped_epoch": 31,
    "best_valid_loss": 0.6940717101097107,
    "accuracy": 0.4444444444444444,
    "balanced_accuracy": 0.5,
    "confusion_matrix": [
      [
        4,
        0
      ],
      [
        5,
        0
      ]
    ],
    "prediction_histogram": [
      9,
      0
    ],
    "collapse_diagnostics": {
      "prediction_histogram": [
        9,
        0
      ],
      "collapse_ratio": 1.0,
      "collapse_threshold": 0.9,
      "collapse_flag": true,
      "majority_predicted_class": 0
    },
    "probability_diagnostics": {
      "available": true,
      "probability_shape": [
        9,
        2
      ],
      "mean_probability_by_class": [
        0.5076312,
        0.4923688
      ],
      "std_probability_by_class": [
        0.00187166,
        0.00187167
      ],
      "mean_confidence": 0.5076312,
      "std_confidence": 0.00187166,
      "mean_prediction_entropy": 0.6930237,
      "mean_normalized_prediction_entropy": 0.99982185,
      "mean_predicted_class_probability": 0.5076312
    },
    "spatial_conv_initial": {
      "available": true,
      "parameter_name": "spatial_conv.1.weight",
      "raw_weight_shape": [
        4,
        1,
        64,
        1
      ],
      "weight_matrix_shape": [
        4,
        64
      ],
      "n_virtual_filters": 4,
      "n_input_channels": 64,
      "channel_names": [
        "FC5",
        "FC3",
        "FC1",
        "FCz",
        "FC2",
        "FC4",
        "FC6",
        "C5",
        "C3",
        "C1",
        "Cz",
        "C2",
        "C4",
        "C6",
        "CP5",
        "CP3",
        "CP1",
        "CPz",
        "CP2",
        "CP4",
        "CP6",
        "Fp1",
        "Fpz",
        "Fp2",
        "AF7",
        "AF3",
        "AFz",
        "AF4",
        "AF8",
        "F7",
        "F5",
        "F3",
        "F1",
        "Fz",
        "F2",
        "F4",
        "F6",
        "F8",
        "FT7",
        "FT8",
        "T7",
        "T8",
        "T9",
        "T10",
        "TP7",
        "TP8",
        "P7",
        "P5",
        "P3",
        "P1",
        "Pz",
        "P2",
        "P4",
        "P6",
        "P8",
        "PO7",
        "PO3",
        "POz",
        "PO4",
        "PO8",
        "O1",
        "Oz",
        "O2",
        "Iz"
      ],
      "weight_matrix": [
        [
          0.09547254,
          0.02669556,
          -0.00438946,
          -0.04203069,
          0.0249427,
          0.06662379,
          0.09297542,
          0.04153217,
          -0.07046698,
          0.08861642,
          0.05073404,
          -0.08270848,
          0.01052794,
          0.12051462,
          -0.08509381,
          0.10932335,
          -0.04951268,
          0.00406355,
          0.0028114,
          0.02947536,
          -0.09918429,
          0.11542965,
          -0.03787331,
          0.0409454,
          0.10003154,
          0.08123201,
          -0.01612346,
          0.01540697,
          -0.03021407,
          0.06090531,
          -0.08904494,
          0.09502183,
          0.01040684,
          0.00782819,
          -0.0714218,
          -0.10083134,
          -0.06089589,
          -0.05895406,
          -0.11797069,
          0.12491582,
          0.03368735,
          -0.0723339,
          0.05493997,
          0.12001646,
          -0.02814284,
          -0.05436458,
          -0.10064688,
          0.11337194,
          -0.08384307,
          0.09195974,
          -0.02316286,
          -0.07003301,
          0.01366892,
          -0.11679082,
          -0.10650146,
          0.0802853,
          0.06050073,
          0.06051746,
          0.11646186,
          -0.07759726,
          0.00977857,
          0.00846364,
          -0.00946844,
          0.08154163
        ],
        [
          0.04409073,
          0.10973851,
          0.08806439,
          -0.11120035,
          -0.10668069,
          0.05019937,
          0.05081441,
          0.10650824,
          -0.00142601,
          0.10463995,
          -0.01613767,
          -0.03393908,
          -0.07745679,
          0.09014994,
          0.02699682,
          0.11959234,
          0.02982815,
          -0.09567513,
          0.02637398,
          -0.00455466,
          -0.04547982,
          0.02910765,
          0.10141644,
          0.03481451,
          -0.04525034,
          0.08227743,
          -0.04589579,
          0.06803432,
          0.02261685,
          0.03273773,
          0.09806624,
          0.09104981,
          0.11980949,
          0.06267498,
          -0.08843876,
          0.06704456,
          -0.04455203,
          -0.05661876,
          0.06268443,
          0.08041768,
          -0.06998043,
          0.11077839,
          -0.05799435,
          -0.07162119,
          -0.10381928,
          -0.04935803,
          0.06877126,
          0.05363411,
          0.0288897,
          -0.08724785,
          -0.02114075,
          -0.11451319,
          -0.10750076,
          -0.03386541,
          -0.12380861,
          -0.03096186,
          0.04559928,
          0.02827698,
          -0.05246854,
          0.10628352,
          -0.1225701,
          0.0085049,
          -0.04325776,
          -0.04105368
        ],
        [
          -0.00645448,
          0.10191366,
          -0.0285528,
          0.07939626,
          0.0913126,
          -0.05927011,
          -0.00170928,
          0.06690048,
          0.10648008,
          0.07915024,
          -0.02301037,
          -0.07711458,
          -0.07498813,
          0.01581876,
          0.11053121,
          -0.06086078,
          0.05526312,
          0.02471754,
          0.07264292,
          -0.01749073,
          -0.05517939,
          -0.06716341,
          -0.03122117,
          0.09481685,
          -0.01693416,
          -0.0039492,
          -0.0835945,
          -0.05537675,
          0.07679452,
          0.02207731,
          -0.04686213,
          0.01385446,
          0.07260273,
          -0.10482566,
          -0.04946007,
          0.00333609,
          -0.01256028,
          0.12497081,
          0.10103302,
          -0.02192037,
          -0.11300579,
          -0.09327966,
          0.04677489,
          0.08334149,
          -0.08588254,
          0.01606217,
          -0.08787663,
          0.06288812,
          0.10953809,
          -0.09529591,
          -0.03506748,
          0.08262777,
          0.11793482,
          -0.00584807,
          0.10743202,
          -0.11976875,
          0.09996565,
          -0.04281665,
          -0.06086178,
          -0.00296305,
          -0.12377906,
          0.03320546,
          -0.01763307,
          -0.02305637
        ],
        [
          -0.06993333,
          0.06301354,
          -0.09854181,
          0.01668873,
          -0.03290197,
          0.05137651,
          0.00352927,
          0.08207293,
          0.00756796,
          -0.10463604,
          -0.04805408,
          0.03846104,
          -0.03491271,
          -0.05120821,
          0.09727976,
          -0.08182929,
          -0.03790361,
          -0.02279554,
          -0.07287978,
          -0.00419979,
          0.01407981,
          -0.02140734,
          -0.10903141,
          0.02999467,
          0.10115032,
          -0.0550822,
          -0.01773986,
          -0.08411321,
          0.0732657,
          -0.05328007,
          -0.08161885,
          0.11663371,
          -0.05402333,
          0.04322122,
          -0.08887826,
          0.06977148,
          -0.04262558,
          0.1062187,
          0.02029665,
          0.09881024,
          0.03594774,
          0.10118662,
          0.01406799,
          -0.02329968,
          -0.08015832,
          0.02215843,
          -0.11415619,
          0.06655224,
          0.02556564,
          -0.02475703,
          -0.00028563,
          -0.08302282,
          -0.01495551,
          -0.10013682,
          -0.1165143,
          0.06285866,
          0.07247226,
          -0.06714185,
          -0.12126957,
          -0.00351964,
          -0.05755737,
          0.01256582,
          -0.00019073,
          0.00234154
        ]
      ],
      "weight_matrix_norm": [
        [
          0.76429504,
          0.21370843,
          -0.03513938,
          -0.33647212,
          0.19967604,
          0.53334951,
          0.7443046,
          0.33248129,
          -0.5641157,
          0.70940906,
          0.40614584,
          -0.66211373,
          0.08428027,
          0.96476662,
          -0.68120921,
          0.87517619,
          -0.39636838,
          0.03253028,
          0.02250637,
          0.23596179,
          -0.79400903,
          0.92405951,
          -0.30319068,
          0.32778391,
          0.80079156,
          0.65029401,
          -0.12907459,
          0.12333879,
          -0.24187545,
          0.48757079,
          -0.7128396,
          0.76068687,
          0.0833108,
          0.06266773,
          -0.57175946,
          -0.80719435,
          -0.48749539,
          -0.47195029,
          -0.9444015,
          1.0,
          0.26968044,
          -0.57906115,
          0.43981594,
          0.96077865,
          -0.22529444,
          -0.43520969,
          -0.80571765,
          0.90758669,
          -0.67119652,
          0.73617369,
          -0.18542773,
          -0.56064165,
          0.10942508,
          -0.93495613,
          -0.85258585,
          0.64271516,
          0.48433197,
          0.48446593,
          0.93232268,
          -0.62119639,
          0.07828131,
          0.06775472,
          -0.07579853,
          0.65277261
        ],
        [
          0.35612008,
          0.88635612,
          0.71129453,
          -0.89816332,
          -0.8616581,
          0.40545949,
          0.41042709,
          0.86026525,
          -0.01151787,
          0.84517509,
          -0.13034372,
          -0.27412537,
          -0.62561715,
          0.72813952,
          0.21805286,
          0.96594524,
          0.24092142,
          -0.77276635,
          0.2130222,
          -0.0367879,
          -0.36733973,
          0.23510195,
          0.81913882,
          0.28119618,
          -0.36548623,
          0.6645534,
          -0.37069947,
          0.54951203,
          0.1826759,
          0.26442209,
          0.79207933,
          0.73540771,
          0.96769923,
          0.50622475,
          -0.71431839,
          0.54151773,
          -0.35984597,
          -0.4573088,
          0.50630111,
          0.6495322,
          -0.56523073,
          0.89475518,
          -0.46841937,
          -0.57848316,
          -0.83854657,
          -0.39866394,
          0.55546427,
          0.43320176,
          0.23334162,
          -0.7046994,
          -0.17075351,
          -0.92492104,
          -0.86828178,
          -0.2735303,
          -1.0,
          -0.25007838,
          0.36830461,
          0.22839268,
          -0.42378747,
          0.85845011,
          -0.98999655,
          0.06869391,
          -0.34939218,
          -0.33158988
        ],
        [
          -0.05164792,
          0.81549972,
          -0.22847576,
          0.63531846,
          0.73067147,
          -0.47427166,
          -0.01367745,
          0.53532881,
          0.85203958,
          0.63334984,
          -0.18412599,
          -0.61706078,
          -0.60004514,
          0.12657964,
          0.88445622,
          -0.48699999,
          0.4422082,
          0.19778651,
          0.5812791,
          -0.13995852,
          -0.44153821,
          -0.53743279,
          -0.24982767,
          0.75871199,
          -0.1355049,
          -0.03160094,
          -0.66891223,
          -0.4431175,
          0.61449969,
          0.17665972,
          -0.37498456,
          0.11086156,
          0.58095753,
          -0.83880115,
          -0.39577296,
          0.02669493,
          -0.10050569,
          1.0,
          0.80845296,
          -0.17540391,
          -0.90425748,
          -0.74641156,
          0.37428656,
          0.6668877,
          -0.68722087,
          0.12852737,
          -0.70317727,
          0.50322247,
          0.87650943,
          -0.76254535,
          -0.28060541,
          0.66117656,
          0.94369894,
          -0.04679545,
          0.85965693,
          -0.95837384,
          0.79991198,
          -0.34261325,
          -0.48700798,
          -0.02370995,
          -0.99046379,
          0.26570576,
          -0.14109747,
          -0.18449406
        ],
        [
          -0.57667661,
          0.51961541,
          -0.81258482,
          0.13761683,
          -0.27131268,
          0.42365539,
          0.02910265,
          0.67678088,
          0.06240607,
          -0.86283845,
          -0.39625838,
          0.3171533,
          -0.28789338,
          -0.42226762,
          0.80217779,
          -0.6747719,
          -0.31255662,
          -0.18797414,
          -0.60097331,
          -0.03463184,
          0.1161034,
          -0.17652686,
          -0.89908302,
          0.24733877,
          0.83409482,
          -0.4542129,
          -0.14628454,
          -0.69360524,
          0.60415572,
          -0.43935236,
          -0.67303652,
          0.96177232,
          -0.4454813,
          0.35640615,
          -0.73289829,
          0.57534206,
          -0.3514944,
          0.87588912,
          0.16736802,
          0.8147983,
          0.29642835,
          0.83439416,
          0.11600596,
          -0.1921313,
          -0.66099292,
          0.18272044,
          -0.94134241,
          0.54879588,
          0.21081661,
          -0.20414872,
          -0.00235529,
          -0.68461376,
          -0.12332448,
          -0.82573736,
          -0.96078759,
          0.51833826,
          0.59761292,
          -0.55365783,
          -1.0,
          -0.02902327,
          -0.47462338,
          0.10361892,
          -0.00157282,
          0.01930854
        ]
      ],
      "channel_abs_mean": [
        0.05398777,
        0.07534032,
        0.05488712,
        0.06232901,
        0.06395949,
        0.05686745,
        0.03725709,
        0.07425345,
        0.04648526,
        0.09426066,
        0.03448404,
        0.0580558,
        0.04947139,
        0.06942289,
        0.0799754,
        0.09290144,
        0.04312689,
        0.03681294,
        0.04367702,
        0.01393013,
        0.05348083,
        0.05827701,
        0.06988558,
        0.05014285,
        0.06584159,
        0.05563521,
        0.0408384,
        0.05573281,
        0.05072279,
        0.0422501,
        0.07889804,
        0.07913995,
        0.06421059,
        0.05463751,
        0.07454972,
        0.06024587,
        0.04015844,
        0.08669058,
        0.0754962,
        0.08151603,
        0.06315532,
        0.09439464,
        0.0434443,
        0.0745697,
        0.07450075,
        0.0354858,
        0.09286274,
        0.0741116,
        0.06195913,
        0.07481513,
        0.01991418,
        0.08754919,
        0.06351501,
        0.06416027,
        0.1135641,
        0.07346864,
        0.06963448,
        0.04968823,
        0.08776544,
        0.04759087,
        0.07842127,
        0.01568495,
        0.0176375,
        0.03699831
      ],
      "channel_signed_mean": [
        0.01579387,
        0.07534032,
        -0.01085492,
        -0.01428651,
        -0.00583184,
        0.02723239,
        0.03640245,
        0.07425345,
        0.01053876,
        0.04194264,
        -0.00911702,
        -0.03882527,
        -0.04420742,
        0.04381878,
        0.03742849,
        0.0215564,
        -0.00058126,
        -0.0224224,
        0.00723713,
        0.00080755,
        -0.04644092,
        0.01399164,
        -0.01917736,
        0.05014285,
        0.03474934,
        0.02611951,
        -0.0408384,
        -0.01401217,
        0.03561575,
        0.01561007,
        -0.02986492,
        0.07913995,
        0.03719893,
        0.00222468,
        -0.07454972,
        0.0098302,
        -0.04015844,
        0.02890417,
        0.01651085,
        0.07055584,
        -0.02833778,
        0.01158786,
        0.01444713,
        0.02710927,
        -0.07450075,
        -0.0163755,
        -0.05847711,
        0.0741116,
        0.02003759,
        -0.02883526,
        -0.01991418,
        -0.04623531,
        0.00228687,
        -0.06416027,
        -0.05984809,
        -0.00189666,
        0.06963448,
        -0.00529101,
        -0.02953451,
        0.00555089,
        -0.07353199,
        0.01568495,
        -0.0176375,
        0.00494328
      ],
      "channel_l2": [
        0.06322841,
        0.08232906,
        0.0676394,
        0.07196245,
        0.07318375,
        0.05725207,
        0.05301394,
        0.07791112,
        0.06395879,
        0.09488921,
        0.03765979,
        0.06208555,
        0.05690454,
        0.07988006,
        0.08609629,
        0.09572616,
        0.04424907,
        0.05074652,
        0.05313179,
        0.01741483,
        0.06154052,
        0.06917452,
        0.07839371,
        0.05652099,
        0.07511999,
        0.0640661,
        0.04916587,
        0.06125288,
        0.05632422,
        0.04502052,
        0.08124606,
        0.08819664,
        0.07525339,
        0.06489594,
        0.07626948,
        0.06989478,
        0.04378325,
        0.09162612,
        0.08435941,
        0.08988178,
        0.07087779,
        0.09545139,
        0.04681759,
        0.08219219,
        0.07964237,
        0.03918134,
        0.09435733,
        0.07764331,
        0.07161786,
        0.08025429,
        0.02352265,
        0.08907586,
        0.08042938,
        0.07881711,
        0.11378527,
        0.0801563,
        0.07243098,
        0.05196933,
        0.0931756,
        0.06583823,
        0.09186016,
        0.01873812,
        0.02383194,
        0.04709437
      ],
      "top_channels_by_abs_weight": [
        {
          "rank": 1,
          "channel_index": 54,
          "channel_name": "P8",
          "abs_mean_weight": 0.1135641,
          "signed_mean_weight": -0.05984809,
          "l2_weight": 0.11378527
        },
        {
          "rank": 2,
          "channel_index": 41,
          "channel_name": "T8",
          "abs_mean_weight": 0.09439464,
          "signed_mean_weight": 0.01158786,
          "l2_weight": 0.09545139
        },
        {
          "rank": 3,
          "channel_index": 9,
          "channel_name": "C1",
          "abs_mean_weight": 0.09426066,
          "signed_mean_weight": 0.04194264,
          "l2_weight": 0.09488921
        },
        {
          "rank": 4,
          "channel_index": 15,
          "channel_name": "CP3",
          "abs_mean_weight": 0.09290144,
          "signed_mean_weight": 0.0215564,
          "l2_weight": 0.09572616
        },
        {
          "rank": 5,
          "channel_index": 46,
          "channel_name": "P7",
          "abs_mean_weight": 0.09286274,
          "signed_mean_weight": -0.05847711,
          "l2_weight": 0.09435733
        },
        {
          "rank": 6,
          "channel_index": 58,
          "channel_name": "PO4",
          "abs_mean_weight": 0.08776544,
          "signed_mean_weight": -0.02953451,
          "l2_weight": 0.0931756
        },
        {
          "rank": 7,
          "channel_index": 51,
          "channel_name": "P2",
          "abs_mean_weight": 0.08754919,
          "signed_mean_weight": -0.04623531,
          "l2_weight": 0.08907586
        },
        {
          "rank": 8,
          "channel_index": 37,
          "channel_name": "F8",
          "abs_mean_weight": 0.08669058,
          "signed_mean_weight": 0.02890417,
          "l2_weight": 0.09162612
        },
        {
          "rank": 9,
          "channel_index": 39,
          "channel_name": "FT8",
          "abs_mean_weight": 0.08151603,
          "signed_mean_weight": 0.07055584,
          "l2_weight": 0.08988178
        },
        {
          "rank": 10,
          "channel_index": 14,
          "channel_name": "CP5",
          "abs_mean_weight": 0.0799754,
          "signed_mean_weight": 0.03742849,
          "l2_weight": 0.08609629
        },
        {
          "rank": 11,
          "channel_index": 31,
          "channel_name": "F3",
          "abs_mean_weight": 0.07913995,
          "signed_mean_weight": 0.07913995,
          "l2_weight": 0.08819664
        },
        {
          "rank": 12,
          "channel_index": 30,
          "channel_name": "F5",
          "abs_mean_weight": 0.07889804,
          "signed_mean_weight": -0.02986492,
          "l2_weight": 0.08124606
        },
        {
          "rank": 13,
          "channel_index": 60,
          "channel_name": "O1",
          "abs_mean_weight": 0.07842127,
          "signed_mean_weight": -0.07353199,
          "l2_weight": 0.09186016
        },
        {
          "rank": 14,
          "channel_index": 38,
          "channel_name": "FT7",
          "abs_mean_weight": 0.0754962,
          "signed_mean_weight": 0.01651085,
          "l2_weight": 0.08435941
        },
        {
          "rank": 15,
          "channel_index": 1,
          "channel_name": "FC3",
          "abs_mean_weight": 0.07534032,
          "signed_mean_weight": 0.07534032,
          "l2_weight": 0.08232906
        }
      ]
    },
    "spatial_conv": {
      "available": true,
      "parameter_name": "spatial_conv.1.weight",
      "raw_weight_shape": [
        4,
        1,
        64,
        1
      ],
      "weight_matrix_shape": [
        4,
        64
      ],
      "n_virtual_filters": 4,
      "n_input_channels": 64,
      "channel_names": [
        "FC5",
        "FC3",
        "FC1",
        "FCz",
        "FC2",
        "FC4",
        "FC6",
        "C5",
        "C3",
        "C1",
        "Cz",
        "C2",
        "C4",
        "C6",
        "CP5",
        "CP3",
        "CP1",
        "CPz",
        "CP2",
        "CP4",
        "CP6",
        "Fp1",
        "Fpz",
        "Fp2",
        "AF7",
        "AF3",
        "AFz",
        "AF4",
        "AF8",
        "F7",
        "F5",
        "F3",
        "F1",
        "Fz",
        "F2",
        "F4",
        "F6",
        "F8",
        "FT7",
        "FT8",
        "T7",
        "T8",
        "T9",
        "T10",
        "TP7",
        "TP8",
        "P7",
        "P5",
        "P3",
        "P1",
        "Pz",
        "P2",
        "P4",
        "P6",
        "P8",
        "PO7",
        "PO3",
        "POz",
        "PO4",
        "PO8",
        "O1",
        "Oz",
        "O2",
        "Iz"
      ],
      "weight_matrix": [
        [
          0.09547254,
          0.02669556,
          -0.00438946,
          -0.04203069,
          0.0249427,
          0.06662379,
          0.09297542,
          0.04153217,
          -0.07046698,
          0.08861642,
          0.05073404,
          -0.08270848,
          0.01052794,
          0.12051462,
          -0.08509381,
          0.10932335,
          -0.04951268,
          0.00406355,
          0.0028114,
          0.02947536,
          -0.09918429,
          0.11542965,
          -0.03787331,
          0.0409454,
          0.10003154,
          0.08123201,
          -0.01612346,
          0.01540697,
          -0.03021407,
          0.06090531,
          -0.08904494,
          0.09502183,
          0.01040684,
          0.00782819,
          -0.0714218,
          -0.10083134,
          -0.06089589,
          -0.05895406,
          -0.11797069,
          0.12491582,
          0.03368735,
          -0.0723339,
          0.05493997,
          0.12001646,
          -0.02814284,
          -0.05436458,
          -0.10064688,
          0.11337194,
          -0.08384307,
          0.09195974,
          -0.02316286,
          -0.07003301,
          0.01366892,
          -0.11679082,
          -0.10650146,
          0.0802853,
          0.06050073,
          0.06051746,
          0.11646186,
          -0.07759726,
          0.00977857,
          0.00846364,
          -0.00946844,
          0.08154163
        ],
        [
          0.04409073,
          0.10973851,
          0.08806439,
          -0.11120035,
          -0.10668069,
          0.05019937,
          0.05081441,
          0.10650824,
          -0.00142601,
          0.10463995,
          -0.01613767,
          -0.03393908,
          -0.07745679,
          0.09014994,
          0.02699682,
          0.11959234,
          0.02982815,
          -0.09567513,
          0.02637398,
          -0.00455466,
          -0.04547982,
          0.02910765,
          0.10141644,
          0.03481451,
          -0.04525034,
          0.08227743,
          -0.04589579,
          0.06803432,
          0.02261685,
          0.03273773,
          0.09806624,
          0.09104981,
          0.11980949,
          0.06267498,
          -0.08843876,
          0.06704456,
          -0.04455203,
          -0.05661876,
          0.06268443,
          0.08041768,
          -0.06998043,
          0.11077839,
          -0.05799435,
          -0.07162119,
          -0.10381928,
          -0.04935803,
          0.06877126,
          0.05363411,
          0.0288897,
          -0.08724785,
          -0.02114075,
          -0.11451319,
          -0.10750076,
          -0.03386541,
          -0.12380861,
          -0.03096186,
          0.04559928,
          0.02827698,
          -0.05246854,
          0.10628352,
          -0.1225701,
          0.0085049,
          -0.04325776,
          -0.04105368
        ],
        [
          -0.00645448,
          0.10191366,
          -0.0285528,
          0.07939626,
          0.0913126,
          -0.05927011,
          -0.00170928,
          0.06690048,
          0.10648008,
          0.07915024,
          -0.02301037,
          -0.07711458,
          -0.07498813,
          0.01581876,
          0.11053121,
          -0.06086078,
          0.05526312,
          0.02471754,
          0.07264292,
          -0.01749073,
          -0.05517939,
          -0.06716341,
          -0.03122117,
          0.09481685,
          -0.01693416,
          -0.0039492,
          -0.0835945,
          -0.05537675,
          0.07679452,
          0.02207731,
          -0.04686213,
          0.01385446,
          0.07260273,
          -0.10482566,
          -0.04946007,
          0.00333609,
          -0.01256028,
          0.12497081,
          0.10103302,
          -0.02192037,
          -0.11300579,
          -0.09327966,
          0.04677489,
          0.08334149,
          -0.08588254,
          0.01606217,
          -0.08787663,
          0.06288812,
          0.10953809,
          -0.09529591,
          -0.03506748,
          0.08262777,
          0.11793482,
          -0.00584807,
          0.10743202,
          -0.11976875,
          0.09996565,
          -0.04281665,
          -0.06086178,
          -0.00296305,
          -0.12377906,
          0.03320546,
          -0.01763307,
          -0.02305637
        ],
        [
          -0.06993333,
          0.06301354,
          -0.09854181,
          0.01668873,
          -0.03290197,
          0.05137651,
          0.00352927,
          0.08207293,
          0.00756796,
          -0.10463604,
          -0.04805408,
          0.03846104,
          -0.03491271,
          -0.05120821,
          0.09727976,
          -0.08182929,
          -0.03790361,
          -0.02279554,
          -0.07287978,
          -0.00419979,
          0.01407981,
          -0.02140734,
          -0.10903141,
          0.02999467,
          0.10115032,
          -0.0550822,
          -0.01773986,
          -0.08411321,
          0.0732657,
          -0.05328007,
          -0.08161885,
          0.11663371,
          -0.05402333,
          0.04322122,
          -0.08887826,
          0.06977148,
          -0.04262558,
          0.1062187,
          0.02029665,
          0.09881024,
          0.03594774,
          0.10118662,
          0.01406799,
          -0.02329968,
          -0.08015832,
          0.02215843,
          -0.11415619,
          0.06655224,
          0.02556564,
          -0.02475703,
          -0.00028563,
          -0.08302282,
          -0.01495551,
          -0.10013682,
          -0.1165143,
          0.06285866,
          0.07247226,
          -0.06714185,
          -0.12126957,
          -0.00351964,
          -0.05755737,
          0.01256582,
          -0.00019073,
          0.00234154
        ]
      ],
      "weight_matrix_norm": [
        [
          0.76429504,
          0.21370843,
          -0.03513938,
          -0.33647212,
          0.19967604,
          0.53334951,
          0.7443046,
          0.33248129,
          -0.5641157,
          0.70940906,
          0.40614584,
          -0.66211373,
          0.08428027,
          0.96476662,
          -0.68120921,
          0.87517619,
          -0.39636838,
          0.03253028,
          0.02250637,
          0.23596179,
          -0.79400903,
          0.92405951,
          -0.30319068,
          0.32778391,
          0.80079156,
          0.65029401,
          -0.12907459,
          0.12333879,
          -0.24187545,
          0.48757079,
          -0.7128396,
          0.76068687,
          0.0833108,
          0.06266773,
          -0.57175946,
          -0.80719435,
          -0.48749539,
          -0.47195029,
          -0.9444015,
          1.0,
          0.26968044,
          -0.57906115,
          0.43981594,
          0.96077865,
          -0.22529444,
          -0.43520969,
          -0.80571765,
          0.90758669,
          -0.67119652,
          0.73617369,
          -0.18542773,
          -0.56064165,
          0.10942508,
          -0.93495613,
          -0.85258585,
          0.64271516,
          0.48433197,
          0.48446593,
          0.93232268,
          -0.62119639,
          0.07828131,
          0.06775472,
          -0.07579853,
          0.65277261
        ],
        [
          0.35612008,
          0.88635612,
          0.71129453,
          -0.89816332,
          -0.8616581,
          0.40545949,
          0.41042709,
          0.86026525,
          -0.01151787,
          0.84517509,
          -0.13034372,
          -0.27412537,
          -0.62561715,
          0.72813952,
          0.21805286,
          0.96594524,
          0.24092142,
          -0.77276635,
          0.2130222,
          -0.0367879,
          -0.36733973,
          0.23510195,
          0.81913882,
          0.28119618,
          -0.36548623,
          0.6645534,
          -0.37069947,
          0.54951203,
          0.1826759,
          0.26442209,
          0.79207933,
          0.73540771,
          0.96769923,
          0.50622475,
          -0.71431839,
          0.54151773,
          -0.35984597,
          -0.4573088,
          0.50630111,
          0.6495322,
          -0.56523073,
          0.89475518,
          -0.46841937,
          -0.57848316,
          -0.83854657,
          -0.39866394,
          0.55546427,
          0.43320176,
          0.23334162,
          -0.7046994,
          -0.17075351,
          -0.92492104,
          -0.86828178,
          -0.2735303,
          -1.0,
          -0.25007838,
          0.36830461,
          0.22839268,
          -0.42378747,
          0.85845011,
          -0.98999655,
          0.06869391,
          -0.34939218,
          -0.33158988
        ],
        [
          -0.05164792,
          0.81549972,
          -0.22847576,
          0.63531846,
          0.73067147,
          -0.47427166,
          -0.01367745,
          0.53532881,
          0.85203958,
          0.63334984,
          -0.18412599,
          -0.61706078,
          -0.60004514,
          0.12657964,
          0.88445622,
          -0.48699999,
          0.4422082,
          0.19778651,
          0.5812791,
          -0.13995852,
          -0.44153821,
          -0.53743279,
          -0.24982767,
          0.75871199,
          -0.1355049,
          -0.03160094,
          -0.66891223,
          -0.4431175,
          0.61449969,
          0.17665972,
          -0.37498456,
          0.11086156,
          0.58095753,
          -0.83880115,
          -0.39577296,
          0.02669493,
          -0.10050569,
          1.0,
          0.80845296,
          -0.17540391,
          -0.90425748,
          -0.74641156,
          0.37428656,
          0.6668877,
          -0.68722087,
          0.12852737,
          -0.70317727,
          0.50322247,
          0.87650943,
          -0.76254535,
          -0.28060541,
          0.66117656,
          0.94369894,
          -0.04679545,
          0.85965693,
          -0.95837384,
          0.79991198,
          -0.34261325,
          -0.48700798,
          -0.02370995,
          -0.99046379,
          0.26570576,
          -0.14109747,
          -0.18449406
        ],
        [
          -0.57667661,
          0.51961541,
          -0.81258482,
          0.13761683,
          -0.27131268,
          0.42365539,
          0.02910265,
          0.67678088,
          0.06240607,
          -0.86283845,
          -0.39625838,
          0.3171533,
          -0.28789338,
          -0.42226762,
          0.80217779,
          -0.6747719,
          -0.31255662,
          -0.18797414,
          -0.60097331,
          -0.03463184,
          0.1161034,
          -0.17652686,
          -0.89908302,
          0.24733877,
          0.83409482,
          -0.4542129,
          -0.14628454,
          -0.69360524,
          0.60415572,
          -0.43935236,
          -0.67303652,
          0.96177232,
          -0.4454813,
          0.35640615,
          -0.73289829,
          0.57534206,
          -0.3514944,
          0.87588912,
          0.16736802,
          0.8147983,
          0.29642835,
          0.83439416,
          0.11600596,
          -0.1921313,
          -0.66099292,
          0.18272044,
          -0.94134241,
          0.54879588,
          0.21081661,
          -0.20414872,
          -0.00235529,
          -0.68461376,
          -0.12332448,
          -0.82573736,
          -0.96078759,
          0.51833826,
          0.59761292,
          -0.55365783,
          -1.0,
          -0.02902327,
          -0.47462338,
          0.10361892,
          -0.00157282,
          0.01930854
        ]
      ],
      "channel_abs_mean": [
        0.05398777,
        0.07534032,
        0.05488712,
        0.06232901,
        0.06395949,
        0.05686745,
        0.03725709,
        0.07425345,
        0.04648526,
        0.09426066,
        0.03448404,
        0.0580558,
        0.04947139,
        0.06942289,
        0.0799754,
        0.09290144,
        0.04312689,
        0.03681294,
        0.04367702,
        0.01393013,
        0.05348083,
        0.05827701,
        0.06988558,
        0.05014285,
        0.06584159,
        0.05563521,
        0.0408384,
        0.05573281,
        0.05072279,
        0.0422501,
        0.07889804,
        0.07913995,
        0.06421059,
        0.05463751,
        0.07454972,
        0.06024587,
        0.04015844,
        0.08669058,
        0.0754962,
        0.08151603,
        0.06315532,
        0.09439464,
        0.0434443,
        0.0745697,
        0.07450075,
        0.0354858,
        0.09286274,
        0.0741116,
        0.06195913,
        0.07481513,
        0.01991418,
        0.08754919,
        0.06351501,
        0.06416027,
        0.1135641,
        0.07346864,
        0.06963448,
        0.04968823,
        0.08776544,
        0.04759087,
        0.07842127,
        0.01568495,
        0.0176375,
        0.03699831
      ],
      "channel_signed_mean": [
        0.01579387,
        0.07534032,
        -0.01085492,
        -0.01428651,
        -0.00583184,
        0.02723239,
        0.03640245,
        0.07425345,
        0.01053876,
        0.04194264,
        -0.00911702,
        -0.03882527,
        -0.04420742,
        0.04381878,
        0.03742849,
        0.0215564,
        -0.00058126,
        -0.0224224,
        0.00723713,
        0.00080755,
        -0.04644092,
        0.01399164,
        -0.01917736,
        0.05014285,
        0.03474934,
        0.02611951,
        -0.0408384,
        -0.01401217,
        0.03561575,
        0.01561007,
        -0.02986492,
        0.07913995,
        0.03719893,
        0.00222468,
        -0.07454972,
        0.0098302,
        -0.04015844,
        0.02890417,
        0.01651085,
        0.07055584,
        -0.02833778,
        0.01158786,
        0.01444713,
        0.02710927,
        -0.07450075,
        -0.0163755,
        -0.05847711,
        0.0741116,
        0.02003759,
        -0.02883526,
        -0.01991418,
        -0.04623531,
        0.00228687,
        -0.06416027,
        -0.05984809,
        -0.00189666,
        0.06963448,
        -0.00529101,
        -0.02953451,
        0.00555089,
        -0.07353199,
        0.01568495,
        -0.0176375,
        0.00494328
      ],
      "channel_l2": [
        0.06322841,
        0.08232906,
        0.0676394,
        0.07196245,
        0.07318375,
        0.05725207,
        0.05301394,
        0.07791112,
        0.06395879,
        0.09488921,
        0.03765979,
        0.06208555,
        0.05690454,
        0.07988006,
        0.08609629,
        0.09572616,
        0.04424907,
        0.05074652,
        0.05313179,
        0.01741483,
        0.06154052,
        0.06917452,
        0.07839371,
        0.05652099,
        0.07511999,
        0.0640661,
        0.04916587,
        0.06125288,
        0.05632422,
        0.04502052,
        0.08124606,
        0.08819664,
        0.07525339,
        0.06489594,
        0.07626948,
        0.06989478,
        0.04378325,
        0.09162612,
        0.08435941,
        0.08988178,
        0.07087779,
        0.09545139,
        0.04681759,
        0.08219219,
        0.07964237,
        0.03918134,
        0.09435733,
        0.07764331,
        0.07161786,
        0.08025429,
        0.02352265,
        0.08907586,
        0.08042938,
        0.07881711,
        0.11378527,
        0.0801563,
        0.07243098,
        0.05196933,
        0.0931756,
        0.06583823,
        0.09186016,
        0.01873812,
        0.02383194,
        0.04709437
      ],
      "top_channels_by_abs_weight": [
        {
          "rank": 1,
          "channel_index": 54,
          "channel_name": "P8",
          "abs_mean_weight": 0.1135641,
          "signed_mean_weight": -0.05984809,
          "l2_weight": 0.11378527
        },
        {
          "rank": 2,
          "channel_index": 41,
          "channel_name": "T8",
          "abs_mean_weight": 0.09439464,
          "signed_mean_weight": 0.01158786,
          "l2_weight": 0.09545139
        },
        {
          "rank": 3,
          "channel_index": 9,
          "channel_name": "C1",
          "abs_mean_weight": 0.09426066,
          "signed_mean_weight": 0.04194264,
          "l2_weight": 0.09488921
        },
        {
          "rank": 4,
          "channel_index": 15,
          "channel_name": "CP3",
          "abs_mean_weight": 0.09290144,
          "signed_mean_weight": 0.0215564,
          "l2_weight": 0.09572616
        },
        {
          "rank": 5,
          "channel_index": 46,
          "channel_name": "P7",
          "abs_mean_weight": 0.09286274,
          "signed_mean_weight": -0.05847711,
          "l2_weight": 0.09435733
        },
        {
          "rank": 6,
          "channel_index": 58,
          "channel_name": "PO4",
          "abs_mean_weight": 0.08776544,
          "signed_mean_weight": -0.02953451,
          "l2_weight": 0.0931756
        },
        {
          "rank": 7,
          "channel_index": 51,
          "channel_name": "P2",
          "abs_mean_weight": 0.08754919,
          "signed_mean_weight": -0.04623531,
          "l2_weight": 0.08907586
        },
        {
          "rank": 8,
          "channel_index": 37,
          "channel_name": "F8",
          "abs_mean_weight": 0.08669058,
          "signed_mean_weight": 0.02890417,
          "l2_weight": 0.09162612
        },
        {
          "rank": 9,
          "channel_index": 39,
          "channel_name": "FT8",
          "abs_mean_weight": 0.08151603,
          "signed_mean_weight": 0.07055584,
          "l2_weight": 0.08988178
        },
        {
          "rank": 10,
          "channel_index": 14,
          "channel_name": "CP5",
          "abs_mean_weight": 0.0799754,
          "signed_mean_weight": 0.03742849,
          "l2_weight": 0.08609629
        },
        {
          "rank": 11,
          "channel_index": 31,
          "channel_name": "F3",
          "abs_mean_weight": 0.07913995,
          "signed_mean_weight": 0.07913995,
          "l2_weight": 0.08819664
        },
        {
          "rank": 12,
          "channel_index": 30,
          "channel_name": "F5",
          "abs_mean_weight": 0.07889804,
          "signed_mean_weight": -0.02986492,
          "l2_weight": 0.08124606
        },
        {
          "rank": 13,
          "channel_index": 60,
          "channel_name": "O1",
          "abs_mean_weight": 0.07842127,
          "signed_mean_weight": -0.07353199,
          "l2_weight": 0.09186016
        },
        {
          "rank": 14,
          "channel_index": 38,
          "channel_name": "FT7",
          "abs_mean_weight": 0.0754962,
          "signed_mean_weight": 0.01651085,
          "l2_weight": 0.08435941
        },
        {
          "rank": 15,
          "channel_index": 1,
          "channel_name": "FC3",
          "abs_mean_weight": 0.07534032,
          "signed_mean_weight": 0.07534032,
          "l2_weight": 0.08232906
        }
      ]
    },
    "spatial_update_stats": {
      "available": true,
      "parameter_name": "spatial_conv.1.weight",
      "initial_shape": [
        4,
        64
      ],
      "final_shape": [
        4,
        64
      ],
      "initial_l2": 1.13190078,
      "final_l2": 1.13190078,
      "delta_l2": 0.0,
      "delta_max_abs": 0.0,
      "relative_delta": 0.0,
      "changed": false
    },
    "subject_id": "1"
  },
  {
    "fold_id": 2,
    "fold_label": "subject=1",
    "model_name": "SignalJEPA_PreLocal",
    "strategy": "new",
    "warmup_epochs": 10,
    "n_train": 36,
    "n_test": 9,
    "train_class_counts": [
      19,
      17
    ],
    "test_class_counts": [
      4,
      5
    ],
    "pretrained_load": {
      "loading_path": "from_pretrained",
      "repo_id": "braindecode/signal-jepa_without-chans",
      "mode": "from_pretrained",
      "model_name": "SignalJEPA_PreLocal"
    },
    "phase_1_trainable_groups": [
      "spatial_conv.",
      "final_layer."
    ],
    "phase_1_trainable_params": 1798,
    "phase_1_trainable_names": [
      "spatial_conv.1.weight",
      "spatial_conv.1.bias",
      "final_layer.1.weight",
      "final_layer.1.bias"
    ],
    "phase_2_trainable_groups": null,
    "phase_2_trainable_params": null,
    "phase_2_trainable_names": null,
    "final_trainable_parameters": [
      {
        "name": "feature_encoder.1.0.weight",
        "shape": [
          8,
          1,
          32
        ],
        "num_params": 256,
        "requires_grad": false
      },
      {
        "name": "feature_encoder.1.2.weight",
        "shape": [
          8
        ],
        "num_params": 8,
        "requires_grad": false
      },
      {
        "name": "feature_encoder.1.2.bias",
        "shape": [
          8
        ],
        "num_params": 8,
        "requires_grad": false
      },
      {
        "name": "feature_encoder.2.0.weight",
        "shape": [
          16,
          8,
          2
        ],
        "num_params": 256,
        "requires_grad": false
      },
      {
        "name": "feature_encoder.3.0.weight",
        "shape": [
          32,
          16,
          2
        ],
        "num_params": 1024,
        "requires_grad": false
      },
      {
        "name": "feature_encoder.4.0.weight",
        "shape": [
          64,
          32,
          2
        ],
        "num_params": 4096,
        "requires_grad": false
      },
      {
        "name": "feature_encoder.5.0.weight",
        "shape": [
          64,
          64,
          2
        ],
        "num_params": 8192,
        "requires_grad": false
      },
      {
        "name": "spatial_conv.1.weight",
        "shape": [
          4,
          1,
          64,
          1
        ],
        "num_params": 256,
        "requires_grad": true
      },
      {
        "name": "spatial_conv.1.bias",
        "shape": [
          4
        ],
        "num_params": 4,
        "requires_grad": true
      },
      {
        "name": "final_layer.1.weight",
        "shape": [
          2,
          768
        ],
        "num_params": 1536,
        "requires_grad": true
      },
      {
        "name": "final_layer.1.bias",
        "shape": [
          2
        ],
        "num_params": 2,
        "requires_grad": true
      }
    ],
    "n_trainable_params_final": 1798,
    "best_epoch": 1,
    "stopped_epoch": 31,
    "best_valid_loss": 0.6943730711936951,
    "accuracy": 0.4444444444444444,
    "balanced_accuracy": 0.5,
    "confusion_matrix": [
      [
        4,
        0
      ],
      [
        5,
        0
      ]
    ],
    "prediction_histogram": [
      9,
      0
    ],
    "collapse_diagnostics": {
      "prediction_histogram": [
        9,
        0
      ],
      "collapse_ratio": 1.0,
      "collapse_threshold": 0.9,
      "collapse_flag": true,
      "majority_predicted_class": 0
    },
    "probability_diagnostics": {
      "available": true,
      "probability_shape": [
        9,
        2
      ],
      "mean_probability_by_class": [
        0.50749025,
        0.49250977
      ],
      "std_probability_by_class": [
        0.00179295,
        0.00179295
      ],
      "mean_confidence": 0.50749025,
      "std_confidence": 0.00179295,
      "mean_prediction_entropy": 0.69302853,
      "mean_normalized_prediction_entropy": 0.99982883,
      "mean_predicted_class_probability": 0.50749025
    },
    "spatial_conv_initial": {
      "available": true,
      "parameter_name": "spatial_conv.1.weight",
      "raw_weight_shape": [
        4,
        1,
        64,
        1
      ],
      "weight_matrix_shape": [
        4,
        64
      ],
      "n_virtual_filters": 4,
      "n_input_channels": 64,
      "channel_names": [
        "FC5",
        "FC3",
        "FC1",
        "FCz",
        "FC2",
        "FC4",
        "FC6",
        "C5",
        "C3",
        "C1",
        "Cz",
        "C2",
        "C4",
        "C6",
        "CP5",
        "CP3",
        "CP1",
        "CPz",
        "CP2",
        "CP4",
        "CP6",
        "Fp1",
        "Fpz",
        "Fp2",
        "AF7",
        "AF3",
        "AFz",
        "AF4",
        "AF8",
        "F7",
        "F5",
        "F3",
        "F1",
        "Fz",
        "F2",
        "F4",
        "F6",
        "F8",
        "FT7",
        "FT8",
        "T7",
        "T8",
        "T9",
        "T10",
        "TP7",
        "TP8",
        "P7",
        "P5",
        "P3",
        "P1",
        "Pz",
        "P2",
        "P4",
        "P6",
        "P8",
        "PO7",
        "PO3",
        "POz",
        "PO4",
        "PO8",
        "O1",
        "Oz",
        "O2",
        "Iz"
      ],
      "weight_matrix": [
        [
          0.09547254,
          0.02669556,
          -0.00438946,
          -0.04203069,
          0.0249427,
          0.06662379,
          0.09297542,
          0.04153217,
          -0.07046698,
          0.08861642,
          0.05073404,
          -0.08270848,
          0.01052794,
          0.12051462,
          -0.08509381,
          0.10932335,
          -0.04951268,
          0.00406355,
          0.0028114,
          0.02947536,
          -0.09918429,
          0.11542965,
          -0.03787331,
          0.0409454,
          0.10003154,
          0.08123201,
          -0.01612346,
          0.01540697,
          -0.03021407,
          0.06090531,
          -0.08904494,
          0.09502183,
          0.01040684,
          0.00782819,
          -0.0714218,
          -0.10083134,
          -0.06089589,
          -0.05895406,
          -0.11797069,
          0.12491582,
          0.03368735,
          -0.0723339,
          0.05493997,
          0.12001646,
          -0.02814284,
          -0.05436458,
          -0.10064688,
          0.11337194,
          -0.08384307,
          0.09195974,
          -0.02316286,
          -0.07003301,
          0.01366892,
          -0.11679082,
          -0.10650146,
          0.0802853,
          0.06050073,
          0.06051746,
          0.11646186,
          -0.07759726,
          0.00977857,
          0.00846364,
          -0.00946844,
          0.08154163
        ],
        [
          0.04409073,
          0.10973851,
          0.08806439,
          -0.11120035,
          -0.10668069,
          0.05019937,
          0.05081441,
          0.10650824,
          -0.00142601,
          0.10463995,
          -0.01613767,
          -0.03393908,
          -0.07745679,
          0.09014994,
          0.02699682,
          0.11959234,
          0.02982815,
          -0.09567513,
          0.02637398,
          -0.00455466,
          -0.04547982,
          0.02910765,
          0.10141644,
          0.03481451,
          -0.04525034,
          0.08227743,
          -0.04589579,
          0.06803432,
          0.02261685,
          0.03273773,
          0.09806624,
          0.09104981,
          0.11980949,
          0.06267498,
          -0.08843876,
          0.06704456,
          -0.04455203,
          -0.05661876,
          0.06268443,
          0.08041768,
          -0.06998043,
          0.11077839,
          -0.05799435,
          -0.07162119,
          -0.10381928,
          -0.04935803,
          0.06877126,
          0.05363411,
          0.0288897,
          -0.08724785,
          -0.02114075,
          -0.11451319,
          -0.10750076,
          -0.03386541,
          -0.12380861,
          -0.03096186,
          0.04559928,
          0.02827698,
          -0.05246854,
          0.10628352,
          -0.1225701,
          0.0085049,
          -0.04325776,
          -0.04105368
        ],
        [
          -0.00645448,
          0.10191366,
          -0.0285528,
          0.07939626,
          0.0913126,
          -0.05927011,
          -0.00170928,
          0.06690048,
          0.10648008,
          0.07915024,
          -0.02301037,
          -0.07711458,
          -0.07498813,
          0.01581876,
          0.11053121,
          -0.06086078,
          0.05526312,
          0.02471754,
          0.07264292,
          -0.01749073,
          -0.05517939,
          -0.06716341,
          -0.03122117,
          0.09481685,
          -0.01693416,
          -0.0039492,
          -0.0835945,
          -0.05537675,
          0.07679452,
          0.02207731,
          -0.04686213,
          0.01385446,
          0.07260273,
          -0.10482566,
          -0.04946007,
          0.00333609,
          -0.01256028,
          0.12497081,
          0.10103302,
          -0.02192037,
          -0.11300579,
          -0.09327966,
          0.04677489,
          0.08334149,
          -0.08588254,
          0.01606217,
          -0.08787663,
          0.06288812,
          0.10953809,
          -0.09529591,
          -0.03506748,
          0.08262777,
          0.11793482,
          -0.00584807,
          0.10743202,
          -0.11976875,
          0.09996565,
          -0.04281665,
          -0.06086178,
          -0.00296305,
          -0.12377906,
          0.03320546,
          -0.01763307,
          -0.02305637
        ],
        [
          -0.06993333,
          0.06301354,
          -0.09854181,
          0.01668873,
          -0.03290197,
          0.05137651,
          0.00352927,
          0.08207293,
          0.00756796,
          -0.10463604,
          -0.04805408,
          0.03846104,
          -0.03491271,
          -0.05120821,
          0.09727976,
          -0.08182929,
          -0.03790361,
          -0.02279554,
          -0.07287978,
          -0.00419979,
          0.01407981,
          -0.02140734,
          -0.10903141,
          0.02999467,
          0.10115032,
          -0.0550822,
          -0.01773986,
          -0.08411321,
          0.0732657,
          -0.05328007,
          -0.08161885,
          0.11663371,
          -0.05402333,
          0.04322122,
          -0.08887826,
          0.06977148,
          -0.04262558,
          0.1062187,
          0.02029665,
          0.09881024,
          0.03594774,
          0.10118662,
          0.01406799,
          -0.02329968,
          -0.08015832,
          0.02215843,
          -0.11415619,
          0.06655224,
          0.02556564,
          -0.02475703,
          -0.00028563,
          -0.08302282,
          -0.01495551,
          -0.10013682,
          -0.1165143,
          0.06285866,
          0.07247226,
          -0.06714185,
          -0.12126957,
          -0.00351964,
          -0.05755737,
          0.01256582,
          -0.00019073,
          0.00234154
        ]
      ],
      "weight_matrix_norm": [
        [
          0.76429504,
          0.21370843,
          -0.03513938,
          -0.33647212,
          0.19967604,
          0.53334951,
          0.7443046,
          0.33248129,
          -0.5641157,
          0.70940906,
          0.40614584,
          -0.66211373,
          0.08428027,
          0.96476662,
          -0.68120921,
          0.87517619,
          -0.39636838,
          0.03253028,
          0.02250637,
          0.23596179,
          -0.79400903,
          0.92405951,
          -0.30319068,
          0.32778391,
          0.80079156,
          0.65029401,
          -0.12907459,
          0.12333879,
          -0.24187545,
          0.48757079,
          -0.7128396,
          0.76068687,
          0.0833108,
          0.06266773,
          -0.57175946,
          -0.80719435,
          -0.48749539,
          -0.47195029,
          -0.9444015,
          1.0,
          0.26968044,
          -0.57906115,
          0.43981594,
          0.96077865,
          -0.22529444,
          -0.43520969,
          -0.80571765,
          0.90758669,
          -0.67119652,
          0.73617369,
          -0.18542773,
          -0.56064165,
          0.10942508,
          -0.93495613,
          -0.85258585,
          0.64271516,
          0.48433197,
          0.48446593,
          0.93232268,
          -0.62119639,
          0.07828131,
          0.06775472,
          -0.07579853,
          0.65277261
        ],
        [
          0.35612008,
          0.88635612,
          0.71129453,
          -0.89816332,
          -0.8616581,
          0.40545949,
          0.41042709,
          0.86026525,
          -0.01151787,
          0.84517509,
          -0.13034372,
          -0.27412537,
          -0.62561715,
          0.72813952,
          0.21805286,
          0.96594524,
          0.24092142,
          -0.77276635,
          0.2130222,
          -0.0367879,
          -0.36733973,
          0.23510195,
          0.81913882,
          0.28119618,
          -0.36548623,
          0.6645534,
          -0.37069947,
          0.54951203,
          0.1826759,
          0.26442209,
          0.79207933,
          0.73540771,
          0.96769923,
          0.50622475,
          -0.71431839,
          0.54151773,
          -0.35984597,
          -0.4573088,
          0.50630111,
          0.6495322,
          -0.56523073,
          0.89475518,
          -0.46841937,
          -0.57848316,
          -0.83854657,
          -0.39866394,
          0.55546427,
          0.43320176,
          0.23334162,
          -0.7046994,
          -0.17075351,
          -0.92492104,
          -0.86828178,
          -0.2735303,
          -1.0,
          -0.25007838,
          0.36830461,
          0.22839268,
          -0.42378747,
          0.85845011,
          -0.98999655,
          0.06869391,
          -0.34939218,
          -0.33158988
        ],
        [
          -0.05164792,
          0.81549972,
          -0.22847576,
          0.63531846,
          0.73067147,
          -0.47427166,
          -0.01367745,
          0.53532881,
          0.85203958,
          0.63334984,
          -0.18412599,
          -0.61706078,
          -0.60004514,
          0.12657964,
          0.88445622,
          -0.48699999,
          0.4422082,
          0.19778651,
          0.5812791,
          -0.13995852,
          -0.44153821,
          -0.53743279,
          -0.24982767,
          0.75871199,
          -0.1355049,
          -0.03160094,
          -0.66891223,
          -0.4431175,
          0.61449969,
          0.17665972,
          -0.37498456,
          0.11086156,
          0.58095753,
          -0.83880115,
          -0.39577296,
          0.02669493,
          -0.10050569,
          1.0,
          0.80845296,
          -0.17540391,
          -0.90425748,
          -0.74641156,
          0.37428656,
          0.6668877,
          -0.68722087,
          0.12852737,
          -0.70317727,
          0.50322247,
          0.87650943,
          -0.76254535,
          -0.28060541,
          0.66117656,
          0.94369894,
          -0.04679545,
          0.85965693,
          -0.95837384,
          0.79991198,
          -0.34261325,
          -0.48700798,
          -0.02370995,
          -0.99046379,
          0.26570576,
          -0.14109747,
          -0.18449406
        ],
        [
          -0.57667661,
          0.51961541,
          -0.81258482,
          0.13761683,
          -0.27131268,
          0.42365539,
          0.02910265,
          0.67678088,
          0.06240607,
          -0.86283845,
          -0.39625838,
          0.3171533,
          -0.28789338,
          -0.42226762,
          0.80217779,
          -0.6747719,
          -0.31255662,
          -0.18797414,
          -0.60097331,
          -0.03463184,
          0.1161034,
          -0.17652686,
          -0.89908302,
          0.24733877,
          0.83409482,
          -0.4542129,
          -0.14628454,
          -0.69360524,
          0.60415572,
          -0.43935236,
          -0.67303652,
          0.96177232,
          -0.4454813,
          0.35640615,
          -0.73289829,
          0.57534206,
          -0.3514944,
          0.87588912,
          0.16736802,
          0.8147983,
          0.29642835,
          0.83439416,
          0.11600596,
          -0.1921313,
          -0.66099292,
          0.18272044,
          -0.94134241,
          0.54879588,
          0.21081661,
          -0.20414872,
          -0.00235529,
          -0.68461376,
          -0.12332448,
          -0.82573736,
          -0.96078759,
          0.51833826,
          0.59761292,
          -0.55365783,
          -1.0,
          -0.02902327,
          -0.47462338,
          0.10361892,
          -0.00157282,
          0.01930854
        ]
      ],
      "channel_abs_mean": [
        0.05398777,
        0.07534032,
        0.05488712,
        0.06232901,
        0.06395949,
        0.05686745,
        0.03725709,
        0.07425345,
        0.04648526,
        0.09426066,
        0.03448404,
        0.0580558,
        0.04947139,
        0.06942289,
        0.0799754,
        0.09290144,
        0.04312689,
        0.03681294,
        0.04367702,
        0.01393013,
        0.05348083,
        0.05827701,
        0.06988558,
        0.05014285,
        0.06584159,
        0.05563521,
        0.0408384,
        0.05573281,
        0.05072279,
        0.0422501,
        0.07889804,
        0.07913995,
        0.06421059,
        0.05463751,
        0.07454972,
        0.06024587,
        0.04015844,
        0.08669058,
        0.0754962,
        0.08151603,
        0.06315532,
        0.09439464,
        0.0434443,
        0.0745697,
        0.07450075,
        0.0354858,
        0.09286274,
        0.0741116,
        0.06195913,
        0.07481513,
        0.01991418,
        0.08754919,
        0.06351501,
        0.06416027,
        0.1135641,
        0.07346864,
        0.06963448,
        0.04968823,
        0.08776544,
        0.04759087,
        0.07842127,
        0.01568495,
        0.0176375,
        0.03699831
      ],
      "channel_signed_mean": [
        0.01579387,
        0.07534032,
        -0.01085492,
        -0.01428651,
        -0.00583184,
        0.02723239,
        0.03640245,
        0.07425345,
        0.01053876,
        0.04194264,
        -0.00911702,
        -0.03882527,
        -0.04420742,
        0.04381878,
        0.03742849,
        0.0215564,
        -0.00058126,
        -0.0224224,
        0.00723713,
        0.00080755,
        -0.04644092,
        0.01399164,
        -0.01917736,
        0.05014285,
        0.03474934,
        0.02611951,
        -0.0408384,
        -0.01401217,
        0.03561575,
        0.01561007,
        -0.02986492,
        0.07913995,
        0.03719893,
        0.00222468,
        -0.07454972,
        0.0098302,
        -0.04015844,
        0.02890417,
        0.01651085,
        0.07055584,
        -0.02833778,
        0.01158786,
        0.01444713,
        0.02710927,
        -0.07450075,
        -0.0163755,
        -0.05847711,
        0.0741116,
        0.02003759,
        -0.02883526,
        -0.01991418,
        -0.04623531,
        0.00228687,
        -0.06416027,
        -0.05984809,
        -0.00189666,
        0.06963448,
        -0.00529101,
        -0.02953451,
        0.00555089,
        -0.07353199,
        0.01568495,
        -0.0176375,
        0.00494328
      ],
      "channel_l2": [
        0.06322841,
        0.08232906,
        0.0676394,
        0.07196245,
        0.07318375,
        0.05725207,
        0.05301394,
        0.07791112,
        0.06395879,
        0.09488921,
        0.03765979,
        0.06208555,
        0.05690454,
        0.07988006,
        0.08609629,
        0.09572616,
        0.04424907,
        0.05074652,
        0.05313179,
        0.01741483,
        0.06154052,
        0.06917452,
        0.07839371,
        0.05652099,
        0.07511999,
        0.0640661,
        0.04916587,
        0.06125288,
        0.05632422,
        0.04502052,
        0.08124606,
        0.08819664,
        0.07525339,
        0.06489594,
        0.07626948,
        0.06989478,
        0.04378325,
        0.09162612,
        0.08435941,
        0.08988178,
        0.07087779,
        0.09545139,
        0.04681759,
        0.08219219,
        0.07964237,
        0.03918134,
        0.09435733,
        0.07764331,
        0.07161786,
        0.08025429,
        0.02352265,
        0.08907586,
        0.08042938,
        0.07881711,
        0.11378527,
        0.0801563,
        0.07243098,
        0.05196933,
        0.0931756,
        0.06583823,
        0.09186016,
        0.01873812,
        0.02383194,
        0.04709437
      ],
      "top_channels_by_abs_weight": [
        {
          "rank": 1,
          "channel_index": 54,
          "channel_name": "P8",
          "abs_mean_weight": 0.1135641,
          "signed_mean_weight": -0.05984809,
          "l2_weight": 0.11378527
        },
        {
          "rank": 2,
          "channel_index": 41,
          "channel_name": "T8",
          "abs_mean_weight": 0.09439464,
          "signed_mean_weight": 0.01158786,
          "l2_weight": 0.09545139
        },
        {
          "rank": 3,
          "channel_index": 9,
          "channel_name": "C1",
          "abs_mean_weight": 0.09426066,
          "signed_mean_weight": 0.04194264,
          "l2_weight": 0.09488921
        },
        {
          "rank": 4,
          "channel_index": 15,
          "channel_name": "CP3",
          "abs_mean_weight": 0.09290144,
          "signed_mean_weight": 0.0215564,
          "l2_weight": 0.09572616
        },
        {
          "rank": 5,
          "channel_index": 46,
          "channel_name": "P7",
          "abs_mean_weight": 0.09286274,
          "signed_mean_weight": -0.05847711,
          "l2_weight": 0.09435733
        },
        {
          "rank": 6,
          "channel_index": 58,
          "channel_name": "PO4",
          "abs_mean_weight": 0.08776544,
          "signed_mean_weight": -0.02953451,
          "l2_weight": 0.0931756
        },
        {
          "rank": 7,
          "channel_index": 51,
          "channel_name": "P2",
          "abs_mean_weight": 0.08754919,
          "signed_mean_weight": -0.04623531,
          "l2_weight": 0.08907586
        },
        {
          "rank": 8,
          "channel_index": 37,
          "channel_name": "F8",
          "abs_mean_weight": 0.08669058,
          "signed_mean_weight": 0.02890417,
          "l2_weight": 0.09162612
        },
        {
          "rank": 9,
          "channel_index": 39,
          "channel_name": "FT8",
          "abs_mean_weight": 0.08151603,
          "signed_mean_weight": 0.07055584,
          "l2_weight": 0.08988178
        },
        {
          "rank": 10,
          "channel_index": 14,
          "channel_name": "CP5",
          "abs_mean_weight": 0.0799754,
          "signed_mean_weight": 0.03742849,
          "l2_weight": 0.08609629
        },
        {
          "rank": 11,
          "channel_index": 31,
          "channel_name": "F3",
          "abs_mean_weight": 0.07913995,
          "signed_mean_weight": 0.07913995,
          "l2_weight": 0.08819664
        },
        {
          "rank": 12,
          "channel_index": 30,
          "channel_name": "F5",
          "abs_mean_weight": 0.07889804,
          "signed_mean_weight": -0.02986492,
          "l2_weight": 0.08124606
        },
        {
          "rank": 13,
          "channel_index": 60,
          "channel_name": "O1",
          "abs_mean_weight": 0.07842127,
          "signed_mean_weight": -0.07353199,
          "l2_weight": 0.09186016
        },
        {
          "rank": 14,
          "channel_index": 38,
          "channel_name": "FT7",
          "abs_mean_weight": 0.0754962,
          "signed_mean_weight": 0.01651085,
          "l2_weight": 0.08435941
        },
        {
          "rank": 15,
          "channel_index": 1,
          "channel_name": "FC3",
          "abs_mean_weight": 0.07534032,
          "signed_mean_weight": 0.07534032,
          "l2_weight": 0.08232906
        }
      ]
    },
    "spatial_conv": {
      "available": true,
      "parameter_name": "spatial_conv.1.weight",
      "raw_weight_shape": [
        4,
        1,
        64,
        1
      ],
      "weight_matrix_shape": [
        4,
        64
      ],
      "n_virtual_filters": 4,
      "n_input_channels": 64,
      "channel_names": [
        "FC5",
        "FC3",
        "FC1",
        "FCz",
        "FC2",
        "FC4",
        "FC6",
        "C5",
        "C3",
        "C1",
        "Cz",
        "C2",
        "C4",
        "C6",
        "CP5",
        "CP3",
        "CP1",
        "CPz",
        "CP2",
        "CP4",
        "CP6",
        "Fp1",
        "Fpz",
        "Fp2",
        "AF7",
        "AF3",
        "AFz",
        "AF4",
        "AF8",
        "F7",
        "F5",
        "F3",
        "F1",
        "Fz",
        "F2",
        "F4",
        "F6",
        "F8",
        "FT7",
        "FT8",
        "T7",
        "T8",
        "T9",
        "T10",
        "TP7",
        "TP8",
        "P7",
        "P5",
        "P3",
        "P1",
        "Pz",
        "P2",
        "P4",
        "P6",
        "P8",
        "PO7",
        "PO3",
        "POz",
        "PO4",
        "PO8",
        "O1",
        "Oz",
        "O2",
        "Iz"
      ],
      "weight_matrix": [
        [
          0.09547254,
          0.02669556,
          -0.00438946,
          -0.04203069,
          0.0249427,
          0.06662379,
          0.09297542,
          0.04153217,
          -0.07046698,
          0.08861642,
          0.05073404,
          -0.08270848,
          0.01052794,
          0.12051462,
          -0.08509381,
          0.10932335,
          -0.04951268,
          0.00406355,
          0.0028114,
          0.02947536,
          -0.09918429,
          0.11542965,
          -0.03787331,
          0.0409454,
          0.10003154,
          0.08123201,
          -0.01612346,
          0.01540697,
          -0.03021407,
          0.06090531,
          -0.08904494,
          0.09502183,
          0.01040684,
          0.00782819,
          -0.0714218,
          -0.10083134,
          -0.06089589,
          -0.05895406,
          -0.11797069,
          0.12491582,
          0.03368735,
          -0.0723339,
          0.05493997,
          0.12001646,
          -0.02814284,
          -0.05436458,
          -0.10064688,
          0.11337194,
          -0.08384307,
          0.09195974,
          -0.02316286,
          -0.07003301,
          0.01366892,
          -0.11679082,
          -0.10650146,
          0.0802853,
          0.06050073,
          0.06051746,
          0.11646186,
          -0.07759726,
          0.00977857,
          0.00846364,
          -0.00946844,
          0.08154163
        ],
        [
          0.04409073,
          0.10973851,
          0.08806439,
          -0.11120035,
          -0.10668069,
          0.05019937,
          0.05081441,
          0.10650824,
          -0.00142601,
          0.10463995,
          -0.01613767,
          -0.03393908,
          -0.07745679,
          0.09014994,
          0.02699682,
          0.11959234,
          0.02982815,
          -0.09567513,
          0.02637398,
          -0.00455466,
          -0.04547982,
          0.02910765,
          0.10141644,
          0.03481451,
          -0.04525034,
          0.08227743,
          -0.04589579,
          0.06803432,
          0.02261685,
          0.03273773,
          0.09806624,
          0.09104981,
          0.11980949,
          0.06267498,
          -0.08843876,
          0.06704456,
          -0.04455203,
          -0.05661876,
          0.06268443,
          0.08041768,
          -0.06998043,
          0.11077839,
          -0.05799435,
          -0.07162119,
          -0.10381928,
          -0.04935803,
          0.06877126,
          0.05363411,
          0.0288897,
          -0.08724785,
          -0.02114075,
          -0.11451319,
          -0.10750076,
          -0.03386541,
          -0.12380861,
          -0.03096186,
          0.04559928,
          0.02827698,
          -0.05246854,
          0.10628352,
          -0.1225701,
          0.0085049,
          -0.04325776,
          -0.04105368
        ],
        [
          -0.00645448,
          0.10191366,
          -0.0285528,
          0.07939626,
          0.0913126,
          -0.05927011,
          -0.00170928,
          0.06690048,
          0.10648008,
          0.07915024,
          -0.02301037,
          -0.07711458,
          -0.07498813,
          0.01581876,
          0.11053121,
          -0.06086078,
          0.05526312,
          0.02471754,
          0.07264292,
          -0.01749073,
          -0.05517939,
          -0.06716341,
          -0.03122117,
          0.09481685,
          -0.01693416,
          -0.0039492,
          -0.0835945,
          -0.05537675,
          0.07679452,
          0.02207731,
          -0.04686213,
          0.01385446,
          0.07260273,
          -0.10482566,
          -0.04946007,
          0.00333609,
          -0.01256028,
          0.12497081,
          0.10103302,
          -0.02192037,
          -0.11300579,
          -0.09327966,
          0.04677489,
          0.08334149,
          -0.08588254,
          0.01606217,
          -0.08787663,
          0.06288812,
          0.10953809,
          -0.09529591,
          -0.03506748,
          0.08262777,
          0.11793482,
          -0.00584807,
          0.10743202,
          -0.11976875,
          0.09996565,
          -0.04281665,
          -0.06086178,
          -0.00296305,
          -0.12377906,
          0.03320546,
          -0.01763307,
          -0.02305637
        ],
        [
          -0.06993333,
          0.06301354,
          -0.09854181,
          0.01668873,
          -0.03290197,
          0.05137651,
          0.00352927,
          0.08207293,
          0.00756796,
          -0.10463604,
          -0.04805408,
          0.03846104,
          -0.03491271,
          -0.05120821,
          0.09727976,
          -0.08182929,
          -0.03790361,
          -0.02279554,
          -0.07287978,
          -0.00419979,
          0.01407981,
          -0.02140734,
          -0.10903141,
          0.02999467,
          0.10115032,
          -0.0550822,
          -0.01773986,
          -0.08411321,
          0.0732657,
          -0.05328007,
          -0.08161885,
          0.11663371,
          -0.05402333,
          0.04322122,
          -0.08887826,
          0.06977148,
          -0.04262558,
          0.1062187,
          0.02029665,
          0.09881024,
          0.03594774,
          0.10118662,
          0.01406799,
          -0.02329968,
          -0.08015832,
          0.02215843,
          -0.11415619,
          0.06655224,
          0.02556564,
          -0.02475703,
          -0.00028563,
          -0.08302282,
          -0.01495551,
          -0.10013682,
          -0.1165143,
          0.06285866,
          0.07247226,
          -0.06714185,
          -0.12126957,
          -0.00351964,
          -0.05755737,
          0.01256582,
          -0.00019073,
          0.00234154
        ]
      ],
      "weight_matrix_norm": [
        [
          0.76429504,
          0.21370843,
          -0.03513938,
          -0.33647212,
          0.19967604,
          0.53334951,
          0.7443046,
          0.33248129,
          -0.5641157,
          0.70940906,
          0.40614584,
          -0.66211373,
          0.08428027,
          0.96476662,
          -0.68120921,
          0.87517619,
          -0.39636838,
          0.03253028,
          0.02250637,
          0.23596179,
          -0.79400903,
          0.92405951,
          -0.30319068,
          0.32778391,
          0.80079156,
          0.65029401,
          -0.12907459,
          0.12333879,
          -0.24187545,
          0.48757079,
          -0.7128396,
          0.76068687,
          0.0833108,
          0.06266773,
          -0.57175946,
          -0.80719435,
          -0.48749539,
          -0.47195029,
          -0.9444015,
          1.0,
          0.26968044,
          -0.57906115,
          0.43981594,
          0.96077865,
          -0.22529444,
          -0.43520969,
          -0.80571765,
          0.90758669,
          -0.67119652,
          0.73617369,
          -0.18542773,
          -0.56064165,
          0.10942508,
          -0.93495613,
          -0.85258585,
          0.64271516,
          0.48433197,
          0.48446593,
          0.93232268,
          -0.62119639,
          0.07828131,
          0.06775472,
          -0.07579853,
          0.65277261
        ],
        [
          0.35612008,
          0.88635612,
          0.71129453,
          -0.89816332,
          -0.8616581,
          0.40545949,
          0.41042709,
          0.86026525,
          -0.01151787,
          0.84517509,
          -0.13034372,
          -0.27412537,
          -0.62561715,
          0.72813952,
          0.21805286,
          0.96594524,
          0.24092142,
          -0.77276635,
          0.2130222,
          -0.0367879,
          -0.36733973,
          0.23510195,
          0.81913882,
          0.28119618,
          -0.36548623,
          0.6645534,
          -0.37069947,
          0.54951203,
          0.1826759,
          0.26442209,
          0.79207933,
          0.73540771,
          0.96769923,
          0.50622475,
          -0.71431839,
          0.54151773,
          -0.35984597,
          -0.4573088,
          0.50630111,
          0.6495322,
          -0.56523073,
          0.89475518,
          -0.46841937,
          -0.57848316,
          -0.83854657,
          -0.39866394,
          0.55546427,
          0.43320176,
          0.23334162,
          -0.7046994,
          -0.17075351,
          -0.92492104,
          -0.86828178,
          -0.2735303,
          -1.0,
          -0.25007838,
          0.36830461,
          0.22839268,
          -0.42378747,
          0.85845011,
          -0.98999655,
          0.06869391,
          -0.34939218,
          -0.33158988
        ],
        [
          -0.05164792,
          0.81549972,
          -0.22847576,
          0.63531846,
          0.73067147,
          -0.47427166,
          -0.01367745,
          0.53532881,
          0.85203958,
          0.63334984,
          -0.18412599,
          -0.61706078,
          -0.60004514,
          0.12657964,
          0.88445622,
          -0.48699999,
          0.4422082,
          0.19778651,
          0.5812791,
          -0.13995852,
          -0.44153821,
          -0.53743279,
          -0.24982767,
          0.75871199,
          -0.1355049,
          -0.03160094,
          -0.66891223,
          -0.4431175,
          0.61449969,
          0.17665972,
          -0.37498456,
          0.11086156,
          0.58095753,
          -0.83880115,
          -0.39577296,
          0.02669493,
          -0.10050569,
          1.0,
          0.80845296,
          -0.17540391,
          -0.90425748,
          -0.74641156,
          0.37428656,
          0.6668877,
          -0.68722087,
          0.12852737,
          -0.70317727,
          0.50322247,
          0.87650943,
          -0.76254535,
          -0.28060541,
          0.66117656,
          0.94369894,
          -0.04679545,
          0.85965693,
          -0.95837384,
          0.79991198,
          -0.34261325,
          -0.48700798,
          -0.02370995,
          -0.99046379,
          0.26570576,
          -0.14109747,
          -0.18449406
        ],
        [
          -0.57667661,
          0.51961541,
          -0.81258482,
          0.13761683,
          -0.27131268,
          0.42365539,
          0.02910265,
          0.67678088,
          0.06240607,
          -0.86283845,
          -0.39625838,
          0.3171533,
          -0.28789338,
          -0.42226762,
          0.80217779,
          -0.6747719,
          -0.31255662,
          -0.18797414,
          -0.60097331,
          -0.03463184,
          0.1161034,
          -0.17652686,
          -0.89908302,
          0.24733877,
          0.83409482,
          -0.4542129,
          -0.14628454,
          -0.69360524,
          0.60415572,
          -0.43935236,
          -0.67303652,
          0.96177232,
          -0.4454813,
          0.35640615,
          -0.73289829,
          0.57534206,
          -0.3514944,
          0.87588912,
          0.16736802,
          0.8147983,
          0.29642835,
          0.83439416,
          0.11600596,
          -0.1921313,
          -0.66099292,
          0.18272044,
          -0.94134241,
          0.54879588,
          0.21081661,
          -0.20414872,
          -0.00235529,
          -0.68461376,
          -0.12332448,
          -0.82573736,
          -0.96078759,
          0.51833826,
          0.59761292,
          -0.55365783,
          -1.0,
          -0.02902327,
          -0.47462338,
          0.10361892,
          -0.00157282,
          0.01930854
        ]
      ],
      "channel_abs_mean": [
        0.05398777,
        0.07534032,
        0.05488712,
        0.06232901,
        0.06395949,
        0.05686745,
        0.03725709,
        0.07425345,
        0.04648526,
        0.09426066,
        0.03448404,
        0.0580558,
        0.04947139,
        0.06942289,
        0.0799754,
        0.09290144,
        0.04312689,
        0.03681294,
        0.04367702,
        0.01393013,
        0.05348083,
        0.05827701,
        0.06988558,
        0.05014285,
        0.06584159,
        0.05563521,
        0.0408384,
        0.05573281,
        0.05072279,
        0.0422501,
        0.07889804,
        0.07913995,
        0.06421059,
        0.05463751,
        0.07454972,
        0.06024587,
        0.04015844,
        0.08669058,
        0.0754962,
        0.08151603,
        0.06315532,
        0.09439464,
        0.0434443,
        0.0745697,
        0.07450075,
        0.0354858,
        0.09286274,
        0.0741116,
        0.06195913,
        0.07481513,
        0.01991418,
        0.08754919,
        0.06351501,
        0.06416027,
        0.1135641,
        0.07346864,
        0.06963448,
        0.04968823,
        0.08776544,
        0.04759087,
        0.07842127,
        0.01568495,
        0.0176375,
        0.03699831
      ],
      "channel_signed_mean": [
        0.01579387,
        0.07534032,
        -0.01085492,
        -0.01428651,
        -0.00583184,
        0.02723239,
        0.03640245,
        0.07425345,
        0.01053876,
        0.04194264,
        -0.00911702,
        -0.03882527,
        -0.04420742,
        0.04381878,
        0.03742849,
        0.0215564,
        -0.00058126,
        -0.0224224,
        0.00723713,
        0.00080755,
        -0.04644092,
        0.01399164,
        -0.01917736,
        0.05014285,
        0.03474934,
        0.02611951,
        -0.0408384,
        -0.01401217,
        0.03561575,
        0.01561007,
        -0.02986492,
        0.07913995,
        0.03719893,
        0.00222468,
        -0.07454972,
        0.0098302,
        -0.04015844,
        0.02890417,
        0.01651085,
        0.07055584,
        -0.02833778,
        0.01158786,
        0.01444713,
        0.02710927,
        -0.07450075,
        -0.0163755,
        -0.05847711,
        0.0741116,
        0.02003759,
        -0.02883526,
        -0.01991418,
        -0.04623531,
        0.00228687,
        -0.06416027,
        -0.05984809,
        -0.00189666,
        0.06963448,
        -0.00529101,
        -0.02953451,
        0.00555089,
        -0.07353199,
        0.01568495,
        -0.0176375,
        0.00494328
      ],
      "channel_l2": [
        0.06322841,
        0.08232906,
        0.0676394,
        0.07196245,
        0.07318375,
        0.05725207,
        0.05301394,
        0.07791112,
        0.06395879,
        0.09488921,
        0.03765979,
        0.06208555,
        0.05690454,
        0.07988006,
        0.08609629,
        0.09572616,
        0.04424907,
        0.05074652,
        0.05313179,
        0.01741483,
        0.06154052,
        0.06917452,
        0.07839371,
        0.05652099,
        0.07511999,
        0.0640661,
        0.04916587,
        0.06125288,
        0.05632422,
        0.04502052,
        0.08124606,
        0.08819664,
        0.07525339,
        0.06489594,
        0.07626948,
        0.06989478,
        0.04378325,
        0.09162612,
        0.08435941,
        0.08988178,
        0.07087779,
        0.09545139,
        0.04681759,
        0.08219219,
        0.07964237,
        0.03918134,
        0.09435733,
        0.07764331,
        0.07161786,
        0.08025429,
        0.02352265,
        0.08907586,
        0.08042938,
        0.07881711,
        0.11378527,
        0.0801563,
        0.07243098,
        0.05196933,
        0.0931756,
        0.06583823,
        0.09186016,
        0.01873812,
        0.02383194,
        0.04709437
      ],
      "top_channels_by_abs_weight": [
        {
          "rank": 1,
          "channel_index": 54,
          "channel_name": "P8",
          "abs_mean_weight": 0.1135641,
          "signed_mean_weight": -0.05984809,
          "l2_weight": 0.11378527
        },
        {
          "rank": 2,
          "channel_index": 41,
          "channel_name": "T8",
          "abs_mean_weight": 0.09439464,
          "signed_mean_weight": 0.01158786,
          "l2_weight": 0.09545139
        },
        {
          "rank": 3,
          "channel_index": 9,
          "channel_name": "C1",
          "abs_mean_weight": 0.09426066,
          "signed_mean_weight": 0.04194264,
          "l2_weight": 0.09488921
        },
        {
          "rank": 4,
          "channel_index": 15,
          "channel_name": "CP3",
          "abs_mean_weight": 0.09290144,
          "signed_mean_weight": 0.0215564,
          "l2_weight": 0.09572616
        },
        {
          "rank": 5,
          "channel_index": 46,
          "channel_name": "P7",
          "abs_mean_weight": 0.09286274,
          "signed_mean_weight": -0.05847711,
          "l2_weight": 0.09435733
        },
        {
          "rank": 6,
          "channel_index": 58,
          "channel_name": "PO4",
          "abs_mean_weight": 0.08776544,
          "signed_mean_weight": -0.02953451,
          "l2_weight": 0.0931756
        },
        {
          "rank": 7,
          "channel_index": 51,
          "channel_name": "P2",
          "abs_mean_weight": 0.08754919,
          "signed_mean_weight": -0.04623531,
          "l2_weight": 0.08907586
        },
        {
          "rank": 8,
          "channel_index": 37,
          "channel_name": "F8",
          "abs_mean_weight": 0.08669058,
          "signed_mean_weight": 0.02890417,
          "l2_weight": 0.09162612
        },
        {
          "rank": 9,
          "channel_index": 39,
          "channel_name": "FT8",
          "abs_mean_weight": 0.08151603,
          "signed_mean_weight": 0.07055584,
          "l2_weight": 0.08988178
        },
        {
          "rank": 10,
          "channel_index": 14,
          "channel_name": "CP5",
          "abs_mean_weight": 0.0799754,
          "signed_mean_weight": 0.03742849,
          "l2_weight": 0.08609629
        },
        {
          "rank": 11,
          "channel_index": 31,
          "channel_name": "F3",
          "abs_mean_weight": 0.07913995,
          "signed_mean_weight": 0.07913995,
          "l2_weight": 0.08819664
        },
        {
          "rank": 12,
          "channel_index": 30,
          "channel_name": "F5",
          "abs_mean_weight": 0.07889804,
          "signed_mean_weight": -0.02986492,
          "l2_weight": 0.08124606
        },
        {
          "rank": 13,
          "channel_index": 60,
          "channel_name": "O1",
          "abs_mean_weight": 0.07842127,
          "signed_mean_weight": -0.07353199,
          "l2_weight": 0.09186016
        },
        {
          "rank": 14,
          "channel_index": 38,
          "channel_name": "FT7",
          "abs_mean_weight": 0.0754962,
          "signed_mean_weight": 0.01651085,
          "l2_weight": 0.08435941
        },
        {
          "rank": 15,
          "channel_index": 1,
          "channel_name": "FC3",
          "abs_mean_weight": 0.07534032,
          "signed_mean_weight": 0.07534032,
          "l2_weight": 0.08232906
        }
      ]
    },
    "spatial_update_stats": {
      "available": true,
      "parameter_name": "spatial_conv.1.weight",
      "initial_shape": [
        4,
        64
      ],
      "final_shape": [
        4,
        64
      ],
      "initial_l2": 1.13190078,
      "final_l2": 1.13190078,
      "delta_l2": 0.0,
      "delta_max_abs": 0.0,
      "relative_delta": 0.0,
      "changed": false
    },
    "subject_id": "1"
  },
  {
    "fold_id": 3,
    "fold_label": "subject=1",
    "model_name": "SignalJEPA_PreLocal",
    "strategy": "new",
    "warmup_epochs": 10,
    "n_train": 36,
    "n_test": 9,
    "train_class_counts": [
      18,
      18
    ],
    "test_class_counts": [
      5,
      4
    ],
    "pretrained_load": {
      "loading_path": "from_pretrained",
      "repo_id": "braindecode/signal-jepa_without-chans",
      "mode": "from_pretrained",
      "model_name": "SignalJEPA_PreLocal"
    },
    "phase_1_trainable_groups": [
      "spatial_conv.",
      "final_layer."
    ],
    "phase_1_trainable_params": 1798,
    "phase_1_trainable_names": [
      "spatial_conv.1.weight",
      "spatial_conv.1.bias",
      "final_layer.1.weight",
      "final_layer.1.bias"
    ],
    "phase_2_trainable_groups": null,
    "phase_2_trainable_params": null,
    "phase_2_trainable_names": null,
    "final_trainable_parameters": [
      {
        "name": "feature_encoder.1.0.weight",
        "shape": [
          8,
          1,
          32
        ],
        "num_params": 256,
        "requires_grad": false
      },
      {
        "name": "feature_encoder.1.2.weight",
        "shape": [
          8
        ],
        "num_params": 8,
        "requires_grad": false
      },
      {
        "name": "feature_encoder.1.2.bias",
        "shape": [
          8
        ],
        "num_params": 8,
        "requires_grad": false
      },
      {
        "name": "feature_encoder.2.0.weight",
        "shape": [
          16,
          8,
          2
        ],
        "num_params": 256,
        "requires_grad": false
      },
      {
        "name": "feature_encoder.3.0.weight",
        "shape": [
          32,
          16,
          2
        ],
        "num_params": 1024,
        "requires_grad": false
      },
      {
        "name": "feature_encoder.4.0.weight",
        "shape": [
          64,
          32,
          2
        ],
        "num_params": 4096,
        "requires_grad": false
      },
      {
        "name": "feature_encoder.5.0.weight",
        "shape": [
          64,
          64,
          2
        ],
        "num_params": 8192,
        "requires_grad": false
      },
      {
        "name": "spatial_conv.1.weight",
        "shape": [
          4,
          1,
          64,
          1
        ],
        "num_params": 256,
        "requires_grad": true
      },
      {
        "name": "spatial_conv.1.bias",
        "shape": [
          4
        ],
        "num_params": 4,
        "requires_grad": true
      },
      {
        "name": "final_layer.1.weight",
        "shape": [
          2,
          768
        ],
        "num_params": 1536,
        "requires_grad": true
      },
      {
        "name": "final_layer.1.bias",
        "shape": [
          2
        ],
        "num_params": 2,
        "requires_grad": true
      }
    ],
    "n_trainable_params_final": 1798,
    "best_epoch": 1,
    "stopped_epoch": 31,
    "best_valid_loss": 0.6958416700363159,
    "accuracy": 0.5555555555555556,
    "balanced_accuracy": 0.5,
    "confusion_matrix": [
      [
        5,
        0
      ],
      [
        4,
        0
      ]
    ],
    "prediction_histogram": [
      9,
      0
    ],
    "collapse_diagnostics": {
      "prediction_histogram": [
        9,
        0
      ],
      "collapse_ratio": 1.0,
      "collapse_threshold": 0.9,
      "collapse_flag": true,
      "majority_predicted_class": 0
    },
    "probability_diagnostics": {
      "available": true,
      "probability_shape": [
        9,
        2
      ],
      "mean_probability_by_class": [
        0.50741792,
        0.49258207
      ],
      "std_probability_by_class": [
        0.00277502,
        0.00277504
      ],
      "mean_confidence": 0.50741792,
      "std_confidence": 0.00277502,
      "mean_prediction_entropy": 0.69302172,
      "mean_normalized_prediction_entropy": 0.999819,
      "mean_predicted_class_probability": 0.50741792
    },
    "spatial_conv_initial": {
      "available": true,
      "parameter_name": "spatial_conv.1.weight",
      "raw_weight_shape": [
        4,
        1,
        64,
        1
      ],
      "weight_matrix_shape": [
        4,
        64
      ],
      "n_virtual_filters": 4,
      "n_input_channels": 64,
      "channel_names": [
        "FC5",
        "FC3",
        "FC1",
        "FCz",
        "FC2",
        "FC4",
        "FC6",
        "C5",
        "C3",
        "C1",
        "Cz",
        "C2",
        "C4",
        "C6",
        "CP5",
        "CP3",
        "CP1",
        "CPz",
        "CP2",
        "CP4",
        "CP6",
        "Fp1",
        "Fpz",
        "Fp2",
        "AF7",
        "AF3",
        "AFz",
        "AF4",
        "AF8",
        "F7",
        "F5",
        "F3",
        "F1",
        "Fz",
        "F2",
        "F4",
        "F6",
        "F8",
        "FT7",
        "FT8",
        "T7",
        "T8",
        "T9",
        "T10",
        "TP7",
        "TP8",
        "P7",
        "P5",
        "P3",
        "P1",
        "Pz",
        "P2",
        "P4",
        "P6",
        "P8",
        "PO7",
        "PO3",
        "POz",
        "PO4",
        "PO8",
        "O1",
        "Oz",
        "O2",
        "Iz"
      ],
      "weight_matrix": [
        [
          0.09547254,
          0.02669556,
          -0.00438946,
          -0.04203069,
          0.0249427,
          0.06662379,
          0.09297542,
          0.04153217,
          -0.07046698,
          0.08861642,
          0.05073404,
          -0.08270848,
          0.01052794,
          0.12051462,
          -0.08509381,
          0.10932335,
          -0.04951268,
          0.00406355,
          0.0028114,
          0.02947536,
          -0.09918429,
          0.11542965,
          -0.03787331,
          0.0409454,
          0.10003154,
          0.08123201,
          -0.01612346,
          0.01540697,
          -0.03021407,
          0.06090531,
          -0.08904494,
          0.09502183,
          0.01040684,
          0.00782819,
          -0.0714218,
          -0.10083134,
          -0.06089589,
          -0.05895406,
          -0.11797069,
          0.12491582,
          0.03368735,
          -0.0723339,
          0.05493997,
          0.12001646,
          -0.02814284,
          -0.05436458,
          -0.10064688,
          0.11337194,
          -0.08384307,
          0.09195974,
          -0.02316286,
          -0.07003301,
          0.01366892,
          -0.11679082,
          -0.10650146,
          0.0802853,
          0.06050073,
          0.06051746,
          0.11646186,
          -0.07759726,
          0.00977857,
          0.00846364,
          -0.00946844,
          0.08154163
        ],
        [
          0.04409073,
          0.10973851,
          0.08806439,
          -0.11120035,
          -0.10668069,
          0.05019937,
          0.05081441,
          0.10650824,
          -0.00142601,
          0.10463995,
          -0.01613767,
          -0.03393908,
          -0.07745679,
          0.09014994,
          0.02699682,
          0.11959234,
          0.02982815,
          -0.09567513,
          0.02637398,
          -0.00455466,
          -0.04547982,
          0.02910765,
          0.10141644,
          0.03481451,
          -0.04525034,
          0.08227743,
          -0.04589579,
          0.06803432,
          0.02261685,
          0.03273773,
          0.09806624,
          0.09104981,
          0.11980949,
          0.06267498,
          -0.08843876,
          0.06704456,
          -0.04455203,
          -0.05661876,
          0.06268443,
          0.08041768,
          -0.06998043,
          0.11077839,
          -0.05799435,
          -0.07162119,
          -0.10381928,
          -0.04935803,
          0.06877126,
          0.05363411,
          0.0288897,
          -0.08724785,
          -0.02114075,
          -0.11451319,
          -0.10750076,
          -0.03386541,
          -0.12380861,
          -0.03096186,
          0.04559928,
          0.02827698,
          -0.05246854,
          0.10628352,
          -0.1225701,
          0.0085049,
          -0.04325776,
          -0.04105368
        ],
        [
          -0.00645448,
          0.10191366,
          -0.0285528,
          0.07939626,
          0.0913126,
          -0.05927011,
          -0.00170928,
          0.06690048,
          0.10648008,
          0.07915024,
          -0.02301037,
          -0.07711458,
          -0.07498813,
          0.01581876,
          0.11053121,
          -0.06086078,
          0.05526312,
          0.02471754,
          0.07264292,
          -0.01749073,
          -0.05517939,
          -0.06716341,
          -0.03122117,
          0.09481685,
          -0.01693416,
          -0.0039492,
          -0.0835945,
          -0.05537675,
          0.07679452,
          0.02207731,
          -0.04686213,
          0.01385446,
          0.07260273,
          -0.10482566,
          -0.04946007,
          0.00333609,
          -0.01256028,
          0.12497081,
          0.10103302,
          -0.02192037,
          -0.11300579,
          -0.09327966,
          0.04677489,
          0.08334149,
          -0.08588254,
          0.01606217,
          -0.08787663,
          0.06288812,
          0.10953809,
          -0.09529591,
          -0.03506748,
          0.08262777,
          0.11793482,
          -0.00584807,
          0.10743202,
          -0.11976875,
          0.09996565,
          -0.04281665,
          -0.06086178,
          -0.00296305,
          -0.12377906,
          0.03320546,
          -0.01763307,
          -0.02305637
        ],
        [
          -0.06993333,
          0.06301354,
          -0.09854181,
          0.01668873,
          -0.03290197,
          0.05137651,
          0.00352927,
          0.08207293,
          0.00756796,
          -0.10463604,
          -0.04805408,
          0.03846104,
          -0.03491271,
          -0.05120821,
