[
  {
    "fold_id": 1,
    "fold_label": "subject=48",
    "model_name": "SignalJEPA_PreLocal",
    "strategy": "new",
    "warmup_epochs": 10,
    "n_train": 160,
    "n_test": 40,
    "train_class_counts": [
      80,
      80
    ],
    "test_class_counts": [
      20,
      20
    ],
    "pretrained_load": {
      "loading_path": "random_initialization",
      "repo_id": null,
      "mode": "random",
      "model_name": "SignalJEPA_PreLocal"
    },
    "phase_1_trainable_groups": [
      "spatial_conv.",
      "final_layer."
    ],
    "phase_1_trainable_params": 2302,
    "phase_1_trainable_names": [
      "spatial_conv.1.weight",
      "spatial_conv.1.bias",
      "final_layer.1.weight",
      "final_layer.1.bias"
    ],
    "phase_2_trainable_groups": null,
    "phase_2_trainable_params": null,
    "phase_2_trainable_names": null,
    "final_trainable_parameters": [
      {
        "name": "feature_encoder.1.0.weight",
        "shape": [
          8,
          1,
          32
        ],
        "num_params": 256,
        "requires_grad": false
      },
      {
        "name": "feature_encoder.1.2.weight",
        "shape": [
          8
        ],
        "num_params": 8,
        "requires_grad": false
      },
      {
        "name": "feature_encoder.1.2.bias",
        "shape": [
          8
        ],
        "num_params": 8,
        "requires_grad": false
      },
      {
        "name": "feature_encoder.2.0.weight",
        "shape": [
          16,
          8,
          2
        ],
        "num_params": 256,
        "requires_grad": false
      },
      {
        "name": "feature_encoder.3.0.weight",
        "shape": [
          32,
          16,
          2
        ],
        "num_params": 1024,
        "requires_grad": false
      },
      {
        "name": "feature_encoder.4.0.weight",
        "shape": [
          64,
          32,
          2
        ],
        "num_params": 4096,
        "requires_grad": false
      },
      {
        "name": "feature_encoder.5.0.weight",
        "shape": [
          64,
          64,
          2
        ],
        "num_params": 8192,
        "requires_grad": false
      },
      {
        "name": "spatial_conv.1.weight",
        "shape": [
          4,
          1,
          62,
          1
        ],
        "num_params": 248,
        "requires_grad": true
      },
      {
        "name": "spatial_conv.1.bias",
        "shape": [
          4
        ],
        "num_params": 4,
        "requires_grad": true
      },
      {
        "name": "final_layer.1.weight",
        "shape": [
          2,
          1024
        ],
        "num_params": 2048,
        "requires_grad": true
      },
      {
        "name": "final_layer.1.bias",
        "shape": [
          2
        ],
        "num_params": 2,
        "requires_grad": true
      }
    ],
    "n_trainable_params_final": 2302,
    "best_epoch": 1,
    "stopped_epoch": 31,
    "best_valid_loss": 0.7121152877807617,
    "accuracy": 0.5,
    "balanced_accuracy": 0.5,
    "confusion_matrix": [
      [
        7,
        13
      ],
      [
        7,
        13
      ]
    ],
    "prediction_histogram": [
      14,
      26
    ],
    "collapse_diagnostics": {
      "prediction_histogram": [
        14,
        26
      ],
      "collapse_ratio": 0.65,
      "collapse_threshold": 0.9,
      "collapse_flag": false,
      "majority_predicted_class": 1
    },
    "probability_diagnostics": {
      "available": true,
      "probability_shape": [
        40,
        2
      ],
      "mean_probability_by_class": [
        0.49783536,
        0.50216464
      ],
      "std_probability_by_class": [
        0.04096928,
        0.04096928
      ],
      "mean_confidence": 0.5322198,
      "std_confidence": 0.02539787,
      "mean_prediction_entropy": 0.68976994,
      "mean_normalized_prediction_entropy": 0.99512767,
      "mean_predicted_class_probability": 0.5322198
    },
    "spatial_conv_initial": {
      "available": true,
      "parameter_name": "spatial_conv.1.weight",
      "raw_weight_shape": [
        4,
        1,
        62,
        1
      ],
      "weight_matrix_shape": [
        4,
        62
      ],
      "n_virtual_filters": 4,
      "n_input_channels": 62,
      "channel_names": [
        "Fp1",
        "Fp2",
        "F7",
        "F3",
        "Fz",
        "F4",
        "F8",
        "FC5",
        "FC1",
        "FC2",
        "FC6",
        "T7",
        "C3",
        "Cz",
        "C4",
        "T8",
        "TP9",
        "CP5",
        "CP1",
        "CP2",
        "CP6",
        "TP10",
        "P7",
        "P3",
        "Pz",
        "P4",
        "P8",
        "PO9",
        "O1",
        "Oz",
        "O2",
        "PO10",
        "FC3",
        "FC4",
        "C5",
        "C1",
        "C2",
        "C6",
        "CP3",
        "CPz",
        "CP4",
        "P1",
        "P2",
        "POz",
        "FT9",
        "FTT9h",
        "TTP7h",
        "TP7",
        "TPP9h",
        "FT10",
        "FTT10h",
        "TPP8h",
        "TP8",
        "TPP10h",
        "F9",
        "F10",
        "AF7",
        "AF3",
        "AF4",
        "AF8",
        "PO3",
        "PO4"
      ],
      "weight_matrix": [
        [
          0.0970002,
          0.02712272,
          -0.0044597,
          -0.04270323,
          0.0253418,
          0.06768984,
          0.09446312,
          0.04219673,
          -0.07159452,
          0.09003437,
          0.05154584,
          -0.08403189,
          0.0106964,
          0.12244297,
          -0.0864554,
          0.11107264,
          -0.05030493,
          0.00412857,
          0.00285639,
          0.029947,
          -0.10077134,
          0.11727665,
          -0.03847932,
          0.04160056,
          0.10163214,
          0.0825318,
          -0.01638145,
          0.01565349,
          -0.03069753,
          0.06187985,
          -0.09046975,
          0.09654227,
          0.01057336,
          0.00795345,
          -0.07256462,
          -0.10244475,
          -0.06187028,
          -0.05989738,
          -0.11985834,
          0.12691461,
          0.03422638,
          -0.07349131,
          0.05581906,
          0.12193684,
          -0.02859315,
          -0.05523446,
          -0.10225733,
          0.115186,
          -0.08518464,
          0.09343119,
          -0.02353349,
          -0.07115361,
          0.01388764,
          -0.11865959,
          -0.10820559,
          0.08156994,
          0.0614688,
          0.0614858,
          0.11832536,
          -0.07883889,
          0.00993504,
          0.00859906
        ],
        [
          -0.00961994,
          0.08284637,
          0.04479623,
          0.11149444,
          0.0894735,
          -0.11297967,
          -0.10838769,
          0.05100261,
          0.05162749,
          0.10821248,
          -0.00144883,
          0.10631429,
          -0.01639589,
          -0.03448214,
          -0.07869617,
          0.09159242,
          0.0274288,
          0.12150593,
          0.03030543,
          -0.09720602,
          0.02679599,
          -0.00462754,
          -0.04620754,
          0.0295734,
          0.10303921,
          0.03537157,
          -0.04597439,
          0.08359395,
          -0.04663016,
          0.06912294,
          0.02297874,
          0.03326157,
          0.0996354,
          0.09250669,
          0.12172657,
          0.06367785,
          -0.08985388,
          0.06811734,
          -0.0452649,
          -0.05752472,
          0.06368744,
          0.08170444,
          -0.07110018,
          0.11255095,
          -0.05892232,
          -0.07276721,
          -0.10548049,
          -0.0501478,
          0.06987166,
          0.05449231,
          0.02935196,
          -0.0886439,
          -0.02147903,
          -0.11634551,
          -0.10922088,
          -0.03440729,
          -0.12578967,
          -0.03145728,
          0.04632891,
          0.02872944,
          -0.05330809,
          0.10798416
        ],
        [
          -0.12453134,
          0.00864098,
          -0.04394992,
          -0.04171058,
          -0.00655776,
          0.10354438,
          -0.02900967,
          0.08066668,
          0.09277369,
          -0.06021849,
          -0.00173663,
          0.06797095,
          0.10818386,
          0.08041672,
          -0.02337856,
          -0.0783485,
          -0.07618801,
          0.01607187,
          0.11229982,
          -0.06183461,
          0.05614738,
          0.02511304,
          0.07380528,
          -0.0177706,
          -0.05606231,
          -0.06823809,
          -0.03172074,
          0.09633401,
          -0.01720512,
          -0.00401239,
          -0.0849321,
          -0.05626284,
          0.07802331,
          0.02243057,
          -0.04761197,
          0.01407614,
          0.07376445,
          -0.10650297,
          -0.05025148,
          0.00338947,
          -0.01276125,
          0.12697047,
          0.10264964,
          -0.02227112,
          -0.11481399,
          -0.09477223,
          0.04752334,
          0.08467504,
          -0.08725675,
          0.01631918,
          -0.08928274,
          0.06389439,
          0.11129081,
          -0.09682073,
          -0.0356286,
          0.0839499,
          0.1198219,
          -0.00594164,
          0.10915104,
          -0.12168517,
          0.1015652,
          -0.04350176
        ],
        [
          -0.06183563,
          -0.00301046,
          -0.12575965,
          0.03373678,
          -0.01791521,
          -0.0234253,
          -0.07105233,
          0.06402182,
          -0.10011858,
          0.01695577,
          -0.03342844,
          0.05219858,
          0.00358574,
          0.08338618,
          0.00768905,
          -0.10631032,
          -0.048823,
          0.03907646,
          -0.03547134,
          -0.05202759,
          0.09883633,
          -0.08313864,
          -0.0385101,
          -0.02316029,
          -0.07404593,
          -0.00426699,
          0.0143051,
          -0.02174987,
          -0.11077602,
          0.03047461,
          0.10276882,
          -0.05596357,
          -0.01802372,
          -0.08545911,
          0.07443803,
          -0.0541326,
          -0.08292483,
          0.11849996,
          -0.05488775,
          0.0439128,
          -0.0903004,
          0.07088789,
          -0.04330763,
          0.1079183,
          0.02062142,
          0.1003913,
          0.03652294,
          0.1028057,
          0.01429309,
          -0.0236725,
          -0.08144093,
          0.02251299,
          -0.1159828,
          0.06761714,
          0.02597472,
          -0.02515316,
          -0.0002902,
          -0.08435126,
          -0.01519481,
          -0.1017391,
          -0.11837864,
          0.06386445
        ]
      ],
      "weight_matrix_norm": [
        [
          0.76429498,
          0.21370842,
          -0.03513938,
          -0.33647212,
          0.19967602,
          0.53334945,
          0.7443046,
          0.33248127,
          -0.5641157,
          0.709409,
          0.40614581,
          -0.66211367,
          0.08428026,
          0.96476656,
          -0.68120921,
          0.87517613,
          -0.39636835,
          0.03253028,
          0.02250637,
          0.23596178,
          -0.79400897,
          0.92405951,
          -0.30319068,
          0.32778388,
          0.8007915,
          0.65029395,
          -0.12907459,
          0.12333878,
          -0.24187544,
          0.48757076,
          -0.71283954,
          0.76068681,
          0.08331079,
          0.06266773,
          -0.57175946,
          -0.80719429,
          -0.48749539,
          -0.47195026,
          -0.94440144,
          1.0,
          0.26968041,
          -0.57906109,
          0.43981591,
          0.96077859,
          -0.22529443,
          -0.43520966,
          -0.80571765,
          0.90758663,
          -0.67119652,
          0.73617369,
          -0.18542773,
          -0.56064165,
          0.10942508,
          -0.93495613,
          -0.85258579,
          0.64271516,
          0.48433197,
          0.48446593,
          0.93232262,
          -0.62119639,
          0.07828131,
          0.06775471
        ],
        [
          -0.0764764,
          0.65861028,
          0.35612008,
          0.88635606,
          0.71129447,
          -0.89816326,
          -0.8616581,
          0.40545946,
          0.41042706,
          0.8602652,
          -0.01151787,
          0.84517503,
          -0.13034372,
          -0.27412534,
          -0.62561709,
          0.72813946,
          0.21805285,
          0.96594518,
          0.24092142,
          -0.77276629,
          0.2130222,
          -0.0367879,
          -0.3673397,
          0.23510194,
          0.81913882,
          0.28119615,
          -0.36548623,
          0.66455334,
          -0.37069947,
          0.54951203,
          0.18267588,
          0.26442209,
          0.79207933,
          0.73540771,
          0.96769917,
          0.50622475,
          -0.71431839,
          0.54151773,
          -0.35984594,
          -0.4573088,
          0.50630105,
          0.64953214,
          -0.56523067,
          0.89475513,
          -0.46841934,
          -0.57848316,
          -0.83854651,
          -0.39866391,
          0.55546421,
          0.43320176,
          0.2333416,
          -0.70469934,
          -0.17075351,
          -0.92492098,
          -0.86828178,
          -0.2735303,
          -1.0,
          -0.25007835,
          0.36830458,
          0.22839266,
          -0.42378747,
          0.85845011
        ],
        [
          -0.98078984,
          0.06805507,
          -0.34614289,
          -0.32850617,
          -0.05164792,
          0.81549966,
          -0.22847575,
          0.63531846,
          0.73067141,
          -0.47427166,
          -0.01367745,
          0.53532887,
          0.85203952,
          0.63334984,
          -0.18412597,
          -0.61706078,
          -0.60004514,
          0.12657963,
          0.88445622,
          -0.48699996,
          0.4422082,
          0.1977865,
          0.5812791,
          -0.13995852,
          -0.44153818,
          -0.53743273,
          -0.24982765,
          0.75871193,
          -0.13550489,
          -0.03160094,
          -0.66891217,
          -0.4431175,
          0.61449963,
          0.1766597,
          -0.37498456,
          0.11086155,
          0.58095753,
          -0.83880115,
          -0.39577293,
          0.02669493,
          -0.10050569,
          1.0,
          0.8084529,
          -0.17540389,
          -0.90425742,
          -0.74641156,
          0.37428653,
          0.6668877,
          -0.68722081,
          0.12852736,
          -0.70317721,
          0.50322247,
          0.87650943,
          -0.76254529,
          -0.28060538,
          0.66117656,
          0.94369894,
          -0.04679545,
          0.85965693,
          -0.95837379,
          0.79991198,
          -0.34261322
        ],
        [
          -0.49169689,
          -0.02393823,
          -1.0,
          0.268264,
          -0.14245597,
          -0.18627039,
          -0.5649851,
          0.50908077,
          -0.79611051,
          0.13482679,
          -0.26581213,
          0.41506621,
          0.02851262,
          0.66305989,
          0.06114085,
          -0.84534526,
          -0.38822466,
          0.31072336,
          -0.28205663,
          -0.4137066,
          0.78591454,
          -0.66109157,
          -0.30621988,
          -0.18416315,
          -0.58878922,
          -0.03392972,
          0.11374953,
          -0.17294796,
          -0.88085508,
          0.24232423,
          0.81718445,
          -0.44500422,
          -0.14331877,
          -0.67954314,
          0.59190708,
          -0.43044493,
          -0.6593914,
          0.94227338,
          -0.43644965,
          0.3491804,
          -0.71803951,
          0.56367761,
          -0.34436825,
          0.85813141,
          0.16397482,
          0.79827911,
          0.2904186,
          0.8174777,
          0.11365405,
          -0.18823603,
          -0.64759195,
          0.17901598,
          -0.92225766,
          0.5376696,
          0.20654252,
          -0.20000982,
          -0.00230754,
          -0.67073393,
          -0.1208242,
          -0.80899638,
          -0.94130862,
          0.50782949
        ]
      ],
      "channel_abs_mean": [
        0.07324678,
        0.03040513,
        0.05474138,
        0.05741126,
        0.03482207,
        0.0769098,
        0.07572821,
        0.05947196,
        0.07902857,
        0.06885527,
        0.02203993,
        0.07762893,
        0.03471547,
        0.080182,
        0.0490548,
        0.09683096,
        0.05068619,
        0.04519571,
        0.04523324,
        0.06025381,
        0.07063776,
        0.05753897,
        0.04925056,
        0.02802621,
        0.0836949,
        0.04760211,
        0.02709542,
        0.05433283,
        0.05132721,
        0.04137245,
        0.07528736,
        0.06050756,
        0.05156394,
        0.05208746,
        0.0790853,
        0.05858283,
        0.07710336,
        0.08825441,
        0.06756561,
        0.0579354,
        0.05024387,
        0.08826353,
        0.06821913,
        0.0911693,
        0.05573772,
        0.08079129,
        0.07294603,
        0.08820364,
        0.06415154,
        0.04697879,
        0.05590228,
        0.06155122,
        0.06566007,
        0.09986074,
        0.06975745,
        0.05627007,
        0.07684264,
        0.04580899,
        0.07225003,
        0.08274815,
        0.07079674,
        0.05598736
      ],
      "channel_signed_mean": [
        -0.02474668,
        0.0288999,
        -0.03234326,
        0.01520435,
        0.02258558,
        0.00870731,
        -0.02849664,
        0.05947196,
        -0.00682798,
        0.03874603,
        0.00373298,
        0.03561298,
        0.02651753,
        0.06294093,
        -0.04521027,
        0.00450156,
        -0.03697179,
        0.04519571,
        0.02749757,
        -0.04528031,
        0.02025209,
        0.01365587,
        -0.01234792,
        0.00756077,
        0.01864078,
        0.01134957,
        -0.01994287,
        0.0434579,
        -0.05132721,
        0.03936625,
        -0.01241357,
        0.00439436,
        0.04255209,
        0.0093579,
        0.018997,
        -0.01970584,
        -0.04022113,
        0.00505424,
        -0.06756561,
        0.02917304,
        -0.00128696,
        0.05151787,
        0.01101522,
        0.08003374,
        -0.04542701,
        -0.03059565,
        -0.03092289,
        0.06312974,
        -0.02206916,
        0.03514255,
        -0.0412263,
        -0.01834754,
        -0.00307084,
        -0.06605217,
        -0.05677009,
        0.02648985,
        0.01380271,
        -0.01506609,
        0.06465263,
        -0.06838343,
        -0.01504662,
        0.03423648
      ],
      "channel_l2": [
        0.08490183,
        0.04382605,
        0.07030945,
        0.06544562,
        0.04746491,
        0.08458206,
        0.08148798,
        0.06121221,
        0.08127401,
        0.07702255,
        0.03073902,
        0.08016986,
        0.05499965,
        0.08602529,
        0.05973546,
        0.09768146,
        0.0535519,
        0.06435451,
        0.0608195,
        0.06495426,
        0.07712658,
        0.0730033,
        0.05134697,
        0.02939977,
        0.08598249,
        0.0564298,
        0.02997014,
        0.06516571,
        0.06261799,
        0.04886691,
        0.0813752,
        0.06466098,
        0.0641317,
        0.06408419,
        0.08350284,
        0.06647982,
        0.07781287,
        0.09166896,
        0.0740824,
        0.07306886,
        0.05819052,
        0.09113614,
        0.07173476,
        0.09959753,
        0.06688965,
        0.08277394,
        0.0793333,
        0.09154437,
        0.07063375,
        0.05595869,
        0.06328388,
        0.0661625,
        0.08138162,
        0.10193467,
        0.07997145,
        0.0622852,
        0.0921396,
        0.05459053,
        0.08410127,
        0.08972051,
        0.08256732,
        0.06653118
      ],
      "top_channels_by_abs_weight": [
        {
          "rank": 1,
          "channel_index": 53,
          "channel_name": "TPP10h",
          "abs_mean_weight": 0.09986074,
          "signed_mean_weight": -0.06605217,
          "l2_weight": 0.10193467
        },
        {
          "rank": 2,
          "channel_index": 15,
          "channel_name": "T8",
          "abs_mean_weight": 0.09683096,
          "signed_mean_weight": 0.00450156,
          "l2_weight": 0.09768146
        },
        {
          "rank": 3,
          "channel_index": 43,
          "channel_name": "POz",
          "abs_mean_weight": 0.0911693,
          "signed_mean_weight": 0.08003374,
          "l2_weight": 0.09959753
        },
        {
          "rank": 4,
          "channel_index": 41,
          "channel_name": "P1",
          "abs_mean_weight": 0.08826353,
          "signed_mean_weight": 0.05151787,
          "l2_weight": 0.09113614
        },
        {
          "rank": 5,
          "channel_index": 37,
          "channel_name": "C6",
          "abs_mean_weight": 0.08825441,
          "signed_mean_weight": 0.00505424,
          "l2_weight": 0.09166896
        },
        {
          "rank": 6,
          "channel_index": 47,
          "channel_name": "TP7",
          "abs_mean_weight": 0.08820364,
          "signed_mean_weight": 0.06312974,
          "l2_weight": 0.09154437
        },
        {
          "rank": 7,
          "channel_index": 24,
          "channel_name": "Pz",
          "abs_mean_weight": 0.0836949,
          "signed_mean_weight": 0.01864078,
          "l2_weight": 0.08598249
        },
        {
          "rank": 8,
          "channel_index": 59,
          "channel_name": "AF8",
          "abs_mean_weight": 0.08274815,
          "signed_mean_weight": -0.06838343,
          "l2_weight": 0.08972051
        },
        {
          "rank": 9,
          "channel_index": 45,
          "channel_name": "FTT9h",
          "abs_mean_weight": 0.08079129,
          "signed_mean_weight": -0.03059565,
          "l2_weight": 0.08277394
        },
        {
          "rank": 10,
          "channel_index": 13,
          "channel_name": "Cz",
          "abs_mean_weight": 0.080182,
          "signed_mean_weight": 0.06294093,
          "l2_weight": 0.08602529
        },
        {
          "rank": 11,
          "channel_index": 34,
          "channel_name": "C5",
          "abs_mean_weight": 0.0790853,
          "signed_mean_weight": 0.018997,
          "l2_weight": 0.08350284
        },
        {
          "rank": 12,
          "channel_index": 8,
          "channel_name": "FC1",
          "abs_mean_weight": 0.07902857,
          "signed_mean_weight": -0.00682798,
          "l2_weight": 0.08127401
        },
        {
          "rank": 13,
          "channel_index": 11,
          "channel_name": "T7",
          "abs_mean_weight": 0.07762893,
          "signed_mean_weight": 0.03561298,
          "l2_weight": 0.08016986
        },
        {
          "rank": 14,
          "channel_index": 36,
          "channel_name": "C2",
          "abs_mean_weight": 0.07710336,
          "signed_mean_weight": -0.04022113,
          "l2_weight": 0.07781287
        },
        {
          "rank": 15,
          "channel_index": 5,
          "channel_name": "F4",
          "abs_mean_weight": 0.0769098,
          "signed_mean_weight": 0.00870731,
          "l2_weight": 0.08458206
        }
      ]
    },
    "spatial_conv": {
      "available": true,
      "parameter_name": "spatial_conv.1.weight",
      "raw_weight_shape": [
        4,
        1,
        62,
        1
      ],
      "weight_matrix_shape": [
        4,
        62
      ],
      "n_virtual_filters": 4,
      "n_input_channels": 62,
      "channel_names": [
        "Fp1",
        "Fp2",
        "F7",
        "F3",
        "Fz",
        "F4",
        "F8",
        "FC5",
        "FC1",
        "FC2",
        "FC6",
        "T7",
        "C3",
        "Cz",
        "C4",
        "T8",
        "TP9",
        "CP5",
        "CP1",
        "CP2",
        "CP6",
        "TP10",
        "P7",
        "P3",
        "Pz",
        "P4",
        "P8",
        "PO9",
        "O1",
        "Oz",
        "O2",
        "PO10",
        "FC3",
        "FC4",
        "C5",
        "C1",
        "C2",
        "C6",
        "CP3",
        "CPz",
        "CP4",
        "P1",
        "P2",
        "POz",
        "FT9",
        "FTT9h",
        "TTP7h",
        "TP7",
        "TPP9h",
        "FT10",
        "FTT10h",
        "TPP8h",
        "TP8",
        "TPP10h",
        "F9",
        "F10",
        "AF7",
        "AF3",
        "AF4",
        "AF8",
        "PO3",
        "PO4"
      ],
      "weight_matrix": [
        [
          0.09352373,
          0.02535309,
          -0.00541965,
          -0.04507941,
          0.022256,
          0.0661749,
          0.09634006,
          0.0391756,
          -0.07337604,
          0.08926149,
          0.05336541,
          -0.08196178,
          0.00822615,
          0.12219281,
          -0.08372712,
          0.11341092,
          -0.04851254,
          0.0020335,
          0.00273152,
          0.032996,
          -0.09788071,
          0.11965714,
          -0.03921749,
          0.04040501,
          0.10410258,
          0.08536261,
          -0.01442636,
          0.01587708,
          -0.03258871,
          0.06246167,
          -0.0889378,
          0.09840925,
          0.00778519,
          0.00735275,
          -0.07622509,
          -0.10370638,
          -0.06157333,
          -0.0582659,
          -0.12161815,
          0.1269827,
          0.03677615,
          -0.07482406,
          0.05814213,
          0.12049002,
          -0.02529849,
          -0.05142358,
          -0.10563789,
          0.11371072,
          -0.08691414,
          0.09405592,
          -0.02113756,
          -0.06942239,
          0.01655967,
          -0.11638843,
          -0.10875302,
          0.08218201,
          0.06102686,
          0.05909611,
          0.11706796,
          -0.07914583,
          0.00805188,
          0.01066136
        ],
        [
          -0.0111497,
          0.08348244,
          0.04178512,
          0.11542785,
          0.09317161,
          -0.10954458,
          -0.10829318,
          0.05374545,
          0.05486568,
          0.11176947,
          0.00142903,
          0.10660046,
          -0.01473336,
          -0.03158526,
          -0.07598335,
          0.08982626,
          0.02774394,
          0.12174831,
          0.03141212,
          -0.09635338,
          0.02790512,
          -0.00843143,
          -0.04946414,
          0.02720792,
          0.10076262,
          0.03173305,
          -0.04953326,
          0.08348795,
          -0.05040275,
          0.0655167,
          0.0191771,
          0.03223627,
          0.1021662,
          0.09586559,
          0.12400167,
          0.06630103,
          -0.08745592,
          0.07038563,
          -0.04638528,
          -0.05617071,
          0.06540493,
          0.07963136,
          -0.07410264,
          0.10904506,
          -0.05830418,
          -0.07055728,
          -0.10596599,
          -0.05102677,
          0.06981688,
          0.05673639,
          0.03018324,
          -0.09059625,
          -0.01981948,
          -0.12026266,
          -0.10840359,
          -0.03421295,
          -0.12625626,
          -0.03368059,
          0.04688586,
          0.02845731,
          -0.05619191,
          0.104342
        ],
        [
          -0.12668458,
          0.00624518,
          -0.04277087,
          -0.04385206,
          -0.00969973,
          0.10116029,
          -0.03103383,
          0.08244904,
          0.0905969,
          -0.06332178,
          -0.0043501,
          0.07032511,
          0.1081745,
          0.07777553,
          -0.02670344,
          -0.07913934,
          -0.07529698,
          0.01901251,
          0.1157765,
          -0.06347902,
          0.05410952,
          0.0286161,
          0.07657254,
          -0.01446021,
          -0.05388122,
          -0.06648721,
          -0.02810973,
          0.09821609,
          -0.01504593,
          -0.00186476,
          -0.08278593,
          -0.0531335,
          0.07907792,
          0.01987513,
          -0.04529342,
          0.01317208,
          0.07129462,
          -0.10964711,
          -0.04942551,
          0.00045529,
          -0.01489048,
          0.13028026,
          0.10369311,
          -0.01958107,
          -0.11290991,
          -0.09267234,
          0.04975918,
          0.08691709,
          -0.0852873,
          0.01532121,
          -0.09055003,
          0.0609284,
          0.11267522,
          -0.09348168,
          -0.03469374,
          0.08213729,
          0.12007995,
          -0.00805608,
          0.10657606,
          -0.12380252,
          0.10371704,
          -0.04107149
        ],
        [
          -0.06349014,
          -0.00373474,
          -0.12540415,
          0.03124195,
          -0.02117,
          -0.02341619,
          -0.07169949,
          0.06334819,
          -0.10350256,
          0.0133343,
          -0.03203263,
          0.04894498,
          0.000985,
          0.07994484,
          0.00825945,
          -0.10666674,
          -0.04907546,
          0.03984592,
          -0.0384406,
          -0.0524729,
          0.10027435,
          -0.08225148,
          -0.0358488,
          -0.02429725,
          -0.07645321,
          -0.00246501,
          0.01683004,
          -0.01988714,
          -0.1075899,
          0.03137371,
          0.10638155,
          -0.05365691,
          -0.02078477,
          -0.08525985,
          0.07549761,
          -0.05759737,
          -0.08626596,
          0.11935244,
          -0.05650587,
          0.04076747,
          -0.08909151,
          0.06870869,
          -0.04514559,
          0.11157117,
          0.01887835,
          0.09907613,
          0.03829166,
          0.10488392,
          0.01750127,
          -0.02706387,
          -0.08470669,
          0.02484496,
          -0.11423336,
          0.06903916,
          0.02897335,
          -0.0280559,
          0.00010834,
          -0.0822135,
          -0.0178102,
          -0.10157827,
          -0.11519275,
          0.06697938
        ]
      ],
      "weight_matrix_norm": [
        [
          0.73650759,
          0.1996578,
          -0.04268023,
          -0.35500434,
          0.17526795,
          0.52113318,
          0.75868648,
          0.30851135,
          -0.57784277,
          0.70294207,
          0.42025727,
          -0.64545625,
          0.06478167,
          0.9622792,
          -0.65935844,
          0.893121,
          -0.38204056,
          0.01601399,
          0.02151097,
          0.25984639,
          -0.77081919,
          0.94231057,
          -0.30884117,
          0.31819302,
          0.81981701,
          0.67223805,
          -0.11360888,
          0.12503341,
          -0.25663894,
          0.49189115,
          -0.70039302,
          0.77498156,
          0.06130908,
          0.05790358,
          -0.60027933,
          -0.81669694,
          -0.48489541,
          -0.4588491,
          -0.95775366,
          1.0,
          0.28961542,
          -0.58924609,
          0.45787442,
          0.94886959,
          -0.19922782,
          -0.40496525,
          -0.83190775,
          0.895482,
          -0.68445653,
          0.7406987,
          -0.16646017,
          -0.54670745,
          0.13040887,
          -0.91656911,
          -0.85643959,
          0.64719057,
          0.48059195,
          0.46538711,
          0.92192048,
          -0.62328035,
          0.06340926,
          0.08395915
        ],
        [
          -0.08831008,
          0.66121429,
          0.33095482,
          0.9142347,
          0.7379564,
          -0.86763686,
          -0.8577252,
          0.42568547,
          0.43455815,
          0.88525885,
          0.01131849,
          0.84431821,
          -0.11669413,
          -0.25016788,
          -0.6018185,
          0.71145988,
          0.21974313,
          0.96429527,
          0.24879655,
          -0.76315731,
          0.22101969,
          -0.06678029,
          -0.39177573,
          0.21549763,
          0.79808021,
          0.25133842,
          -0.39232323,
          0.66125792,
          -0.39920995,
          0.5189184,
          0.15189029,
          0.25532418,
          0.80919713,
          0.75929379,
          0.98214281,
          0.52513063,
          -0.69268584,
          0.55748236,
          -0.36738998,
          -0.44489449,
          0.51803315,
          0.63071215,
          -0.58692253,
          0.86368042,
          -0.46179241,
          -0.55884188,
          -0.83929294,
          -0.40415239,
          0.55297756,
          0.44937491,
          0.23906332,
          -0.7175585,
          -0.15697822,
          -0.9525283,
          -0.85859978,
          -0.27098021,
          -1.0,
          -0.26676375,
          0.3713547,
          0.2253933,
          -0.4450624,
          0.82643032
        ],
        [
          -0.97240043,
          0.04793649,
          -0.32829896,
          -0.33659789,
          -0.07445279,
          0.77648211,
          -0.23820826,
          0.63285905,
          0.69540006,
          -0.48604277,
          -0.0333903,
          0.53979868,
          0.83032149,
          0.59698629,
          -0.20496921,
          -0.6074546,
          -0.57796156,
          0.14593551,
          0.88867265,
          -0.48724973,
          0.41533172,
          0.2196503,
          0.58775246,
          -0.11099307,
          -0.41357931,
          -0.51033986,
          -0.21576355,
          0.75388312,
          -0.11548895,
          -0.01431347,
          -0.635445,
          -0.40783998,
          0.60698318,
          0.15255672,
          -0.34766147,
          0.10110575,
          0.54724044,
          -0.84162492,
          -0.37937832,
          0.00349467,
          -0.11429572,
          1.0,
          0.79592347,
          -0.15029956,
          -0.86666936,
          -0.71133065,
          0.38193956,
          0.66715479,
          -0.65464485,
          0.11760192,
          -0.69504029,
          0.46767181,
          0.86486799,
          -0.71754295,
          -0.26630083,
          0.63046616,
          0.92170489,
          -0.06183657,
          0.81805223,
          -0.95027846,
          0.79610717,
          -0.3152549
        ],
        [
          -0.50628418,
          -0.0297816,
          -1.0,
          0.2491301,
          -0.16881421,
          -0.1867258,
          -0.5717473,
          0.50515229,
          -0.82535195,
          0.10633064,
          -0.25543517,
          0.39029792,
          0.00785462,
          0.6374976,
          0.06586269,
          -0.85058379,
          -0.39133838,
          0.31774005,
          -0.30653369,
          -0.41843033,
          0.79960948,
          -0.65589124,
          -0.28586614,
          -0.19375154,
          -0.60965455,
          -0.01965653,
          0.13420643,
          -0.15858439,
          -0.85794532,
          0.25018081,
          0.84830964,
          -0.42787185,
          -0.16574229,
          -0.67988062,
          0.60203439,
          -0.45929399,
          -0.68790352,
          0.95174235,
          -0.45059007,
          0.32508871,
          -0.71043509,
          0.54789805,
          -0.36000079,
          0.88969284,
          0.15054005,
          0.79005462,
          0.30534604,
          0.83636725,
          0.13955891,
          -0.2158132,
          -0.67546958,
          0.19811913,
          -0.91092169,
          0.55053329,
          0.23103979,
          -0.22372386,
          0.00086391,
          -0.65558833,
          -0.14202239,
          -0.81000727,
          -0.91857207,
          0.53410816
        ]
      ],
      "channel_abs_mean": [
        0.07371204,
        0.02970386,
        0.05384495,
        0.05890032,
        0.03657434,
        0.07507399,
        0.07684164,
        0.05967957,
        0.08058529,
        0.06942176,
        0.02279429,
        0.07695808,
        0.03302975,
        0.07787462,
        0.04866834,
        0.09726082,
        0.05015723,
        0.04566006,
        0.04709018,
        0.06132533,
        0.07004242,
        0.05973904,
        0.05027574,
        0.0265926,
        0.08379991,
        0.04651197,
        0.02722485,
        0.05436706,
        0.05140682,
        0.04030421,
        0.0743206,
        0.05935898,
        0.05245352,
        0.05208833,
        0.08025445,
        0.06019422,
        0.07664746,
        0.08941277,
        0.0684837,
        0.05609405,
        0.05154077,
        0.08836109,
        0.07027087,
        0.09017183,
        0.05384773,
        0.07843233,
        0.07491368,
        0.08913463,
        0.06487989,
        0.04829435,
        0.05664438,
        0.061448,
        0.06582193,
        0.09979299,
        0.07020593,
        0.05664704,
        0.07686786,
        0.04576157,
        0.07208502,
        0.08324599,
        0.0707884,
        0.05576356
      ],
      "channel_signed_mean": [
        -0.02695017,
        0.02783649,
        -0.03295239,
        0.01443458,
        0.02113947,
        0.0085936,
        -0.02867161,
        0.05967957,
        -0.007854,
        0.03776087,
        0.00460293,
        0.03597719,
        0.02566307,
        0.06208199,
        -0.04453861,
        0.00435778,
        -0.03628526,
        0.04566006,
        0.02786988,
        -0.04482733,
        0.02110207,
        0.01439758,
        -0.01198947,
        0.00721387,
        0.0186327,
        0.01203586,
        -0.01880983,
        0.04442349,
        -0.05140682,
        0.03937183,
        -0.01154127,
        0.00596378,
        0.04206114,
        0.00945841,
        0.01949519,
        -0.02045766,
        -0.04100015,
        0.00545627,
        -0.0684837,
        0.02800868,
        -0.00045023,
        0.05094906,
        0.01064675,
        0.0803813,
        -0.04440856,
        -0.02889427,
        -0.03088826,
        0.06362124,
        -0.02122082,
        0.03476241,
        -0.04155276,
        -0.01856132,
        -0.00120449,
        -0.0652734,
        -0.05571926,
        0.02551262,
        0.01373972,
        -0.01621352,
        0.06317992,
        -0.06901733,
        -0.01490393,
        0.03522781
      ],
      "channel_l2": [
        0.08507495,
        0.04377513,
        0.06951784,
        0.06755517,
        0.04929131,
        0.08240275,
        0.08232973,
        0.06171333,
        0.08263604,
        0.07849757,
        0.03120465,
        0.07972237,
        0.05474357,
        0.08421539,
        0.05823442,
        0.09819829,
        0.05291793,
        0.06476102,
        0.06300012,
        0.06548989,
        0.07639063,
        0.07411665,
        0.052757,
        0.02816154,
        0.08622461,
        0.05639234,
        0.03055762,
        0.06569669,
        0.06205729,
        0.04791055,
        0.08131457,
        0.06408156,
        0.06554362,
        0.06501642,
        0.08505596,
        0.06826749,
        0.07740244,
        0.09302761,
        0.07513049,
        0.07235667,
        0.05871395,
        0.09169736,
        0.07359024,
        0.09904572,
        0.06546837,
        0.08066436,
        0.0811332,
        0.09231614,
        0.07072602,
        0.05708048,
        0.0646768,
        0.06587239,
        0.08125885,
        0.10187566,
        0.08003385,
        0.06216526,
        0.09230943,
        0.05350396,
        0.0830344,
        0.0904421,
        0.0825363,
        0.06552485
      ],
      "top_channels_by_abs_weight": [
        {
          "rank": 1,
          "channel_index": 53,
          "channel_name": "TPP10h",
          "abs_mean_weight": 0.09979299,
          "signed_mean_weight": -0.0652734,
          "l2_weight": 0.10187566
        },
        {
          "rank": 2,
          "channel_index": 15,
          "channel_name": "T8",
          "abs_mean_weight": 0.09726082,
          "signed_mean_weight": 0.00435778,
          "l2_weight": 0.09819829
        },
        {
          "rank": 3,
          "channel_index": 43,
          "channel_name": "POz",
          "abs_mean_weight": 0.09017183,
          "signed_mean_weight": 0.0803813,
          "l2_weight": 0.09904572
        },
        {
          "rank": 4,
          "channel_index": 37,
          "channel_name": "C6",
          "abs_mean_weight": 0.08941277,
          "signed_mean_weight": 0.00545627,
          "l2_weight": 0.09302761
        },
        {
          "rank": 5,
          "channel_index": 47,
          "channel_name": "TP7",
          "abs_mean_weight": 0.08913463,
          "signed_mean_weight": 0.06362124,
          "l2_weight": 0.09231614
        },
        {
          "rank": 6,
          "channel_index": 41,
          "channel_name": "P1",
          "abs_mean_weight": 0.08836109,
          "signed_mean_weight": 0.05094906,
          "l2_weight": 0.09169736
        },
        {
          "rank": 7,
          "channel_index": 24,
          "channel_name": "Pz",
          "abs_mean_weight": 0.08379991,
          "signed_mean_weight": 0.0186327,
          "l2_weight": 0.08622461
        },
        {
          "rank": 8,
          "channel_index": 59,
          "channel_name": "AF8",
          "abs_mean_weight": 0.08324599,
          "signed_mean_weight": -0.06901733,
          "l2_weight": 0.0904421
        },
        {
          "rank": 9,
          "channel_index": 8,
          "channel_name": "FC1",
          "abs_mean_weight": 0.08058529,
          "signed_mean_weight": -0.007854,
          "l2_weight": 0.08263604
        },
        {
          "rank": 10,
          "channel_index": 34,
          "channel_name": "C5",
          "abs_mean_weight": 0.08025445,
          "signed_mean_weight": 0.01949519,
          "l2_weight": 0.08505596
        },
        {
          "rank": 11,
          "channel_index": 45,
          "channel_name": "FTT9h",
          "abs_mean_weight": 0.07843233,
          "signed_mean_weight": -0.02889427,
          "l2_weight": 0.08066436
        },
        {
          "rank": 12,
          "channel_index": 13,
          "channel_name": "Cz",
          "abs_mean_weight": 0.07787462,
          "signed_mean_weight": 0.06208199,
          "l2_weight": 0.08421539
        },
        {
          "rank": 13,
          "channel_index": 11,
          "channel_name": "T7",
          "abs_mean_weight": 0.07695808,
          "signed_mean_weight": 0.03597719,
          "l2_weight": 0.07972237
        },
        {
          "rank": 14,
          "channel_index": 56,
          "channel_name": "AF7",
          "abs_mean_weight": 0.07686786,
          "signed_mean_weight": 0.01373972,
          "l2_weight": 0.09230943
        },
        {
          "rank": 15,
          "channel_index": 6,
          "channel_name": "F8",
          "abs_mean_weight": 0.07684164,
          "signed_mean_weight": -0.02867161,
          "l2_weight": 0.08232973
        }
      ]
    },
    "spatial_update_stats": {
      "available": true,
      "parameter_name": "spatial_conv.1.weight",
      "initial_shape": [
        4,
        62
      ],
      "final_shape": [
        4,
        62
      ],
      "initial_l2": 1.13739672,
      "final_l2": 1.14053996,
      "delta_l2": 0.03559492,
      "delta_max_abs": 0.00393341,
      "relative_delta": 0.03129508,
      "changed": true
    },
    "subject_id": "48"
  },
  {
    "fold_id": 2,
    "fold_label": "subject=48",
    "model_name": "SignalJEPA_PreLocal",
    "strategy": "new",
    "warmup_epochs": 10,
    "n_train": 160,
    "n_test": 40,
    "train_class_counts": [
      80,
      80
    ],
    "test_class_counts": [
      20,
      20
    ],
    "pretrained_load": {
      "loading_path": "random_initialization",
      "repo_id": null,
      "mode": "random",
      "model_name": "SignalJEPA_PreLocal"
    },
    "phase_1_trainable_groups": [
      "spatial_conv.",
      "final_layer."
    ],
    "phase_1_trainable_params": 2302,
    "phase_1_trainable_names": [
      "spatial_conv.1.weight",
      "spatial_conv.1.bias",
      "final_layer.1.weight",
      "final_layer.1.bias"
    ],
    "phase_2_trainable_groups": null,
    "phase_2_trainable_params": null,
    "phase_2_trainable_names": null,
    "final_trainable_parameters": [
      {
        "name": "feature_encoder.1.0.weight",
        "shape": [
          8,
          1,
          32
        ],
        "num_params": 256,
        "requires_grad": false
      },
      {
        "name": "feature_encoder.1.2.weight",
        "shape": [
          8
        ],
        "num_params": 8,
        "requires_grad": false
      },
      {
        "name": "feature_encoder.1.2.bias",
        "shape": [
          8
        ],
        "num_params": 8,
        "requires_grad": false
      },
      {
        "name": "feature_encoder.2.0.weight",
        "shape": [
          16,
          8,
          2
        ],
        "num_params": 256,
        "requires_grad": false
      },
      {
        "name": "feature_encoder.3.0.weight",
        "shape": [
          32,
          16,
          2
        ],
        "num_params": 1024,
        "requires_grad": false
      },
      {
        "name": "feature_encoder.4.0.weight",
        "shape": [
          64,
          32,
          2
        ],
        "num_params": 4096,
        "requires_grad": false
      },
      {
        "name": "feature_encoder.5.0.weight",
        "shape": [
          64,
          64,
          2
        ],
        "num_params": 8192,
        "requires_grad": false
      },
      {
        "name": "spatial_conv.1.weight",
        "shape": [
          4,
          1,
          62,
          1
        ],
        "num_params": 248,
        "requires_grad": true
      },
      {
        "name": "spatial_conv.1.bias",
        "shape": [
          4
        ],
        "num_params": 4,
        "requires_grad": true
      },
      {
        "name": "final_layer.1.weight",
        "shape": [
          2,
          1024
        ],
        "num_params": 2048,
        "requires_grad": true
      },
      {
        "name": "final_layer.1.bias",
        "shape": [
          2
        ],
        "num_params": 2,
        "requires_grad": true
      }
    ],
    "n_trainable_params_final": 2302,
    "best_epoch": 4,
    "stopped_epoch": 34,
    "best_valid_loss": 0.6973319053649902,
    "accuracy": 0.45,
    "balanced_accuracy": 0.45,
    "confusion_matrix": [
      [
        10,
        10
      ],
      [
        12,
        8
      ]
    ],
    "prediction_histogram": [
      22,
      18
    ],
    "collapse_diagnostics": {
      "prediction_histogram": [
        22,
        18
      ],
      "collapse_ratio": 0.55,
      "collapse_threshold": 0.9,
      "collapse_flag": false,
      "majority_predicted_class": 0
    },
    "probability_diagnostics": {
      "available": true,
      "probability_shape": [
        40,
        2
      ],
      "mean_probability_by_class": [
        0.49810622,
        0.50189377
      ],
      "std_probability_by_class": [
        0.07804828,
        0.07804828
      ],
      "mean_confidence": 0.56412681,
      "std_confidence": 0.04452945,
      "mean_prediction_entropy": 0.68082334,
      "mean_normalized_prediction_entropy": 0.98222046,
      "mean_predicted_class_probability": 0.56412681
    },
    "spatial_conv_initial": {
      "available": true,
      "parameter_name": "spatial_conv.1.weight",
      "raw_weight_shape": [
        4,
        1,
        62,
        1
      ],
      "weight_matrix_shape": [
        4,
        62
      ],
      "n_virtual_filters": 4,
      "n_input_channels": 62,
      "channel_names": [
        "Fp1",
        "Fp2",
        "F7",
        "F3",
        "Fz",
        "F4",
        "F8",
        "FC5",
        "FC1",
        "FC2",
        "FC6",
        "T7",
        "C3",
        "Cz",
        "C4",
        "T8",
        "TP9",
        "CP5",
        "CP1",
        "CP2",
        "CP6",
        "TP10",
        "P7",
        "P3",
        "Pz",
        "P4",
        "P8",
        "PO9",
        "O1",
        "Oz",
        "O2",
        "PO10",
        "FC3",
        "FC4",
        "C5",
        "C1",
        "C2",
        "C6",
        "CP3",
        "CPz",
        "CP4",
        "P1",
        "P2",
        "POz",
        "FT9",
        "FTT9h",
        "TTP7h",
        "TP7",
        "TPP9h",
        "FT10",
        "FTT10h",
        "TPP8h",
        "TP8",
        "TPP10h",
        "F9",
        "F10",
        "AF7",
        "AF3",
        "AF4",
        "AF8",
        "PO3",
        "PO4"
      ],
      "weight_matrix": [
        [
          0.0970002,
          0.02712272,
          -0.0044597,
          -0.04270323,
          0.0253418,
          0.06768984,
          0.09446312,
          0.04219673,
          -0.07159452,
          0.09003437,
          0.05154584,
          -0.08403189,
          0.0106964,
          0.12244297,
          -0.0864554,
          0.11107264,
          -0.05030493,
          0.00412857,
          0.00285639,
          0.029947,
          -0.10077134,
          0.11727665,
          -0.03847932,
          0.04160056,
          0.10163214,
          0.0825318,
          -0.01638145,
          0.01565349,
          -0.03069753,
          0.06187985,
          -0.09046975,
          0.09654227,
          0.01057336,
          0.00795345,
          -0.07256462,
          -0.10244475,
          -0.06187028,
          -0.05989738,
          -0.11985834,
          0.12691461,
          0.03422638,
          -0.07349131,
          0.05581906,
          0.12193684,
          -0.02859315,
          -0.05523446,
          -0.10225733,
          0.115186,
          -0.08518464,
          0.09343119,
          -0.02353349,
          -0.07115361,
          0.01388764,
          -0.11865959,
          -0.10820559,
          0.08156994,
          0.0614688,
          0.0614858,
          0.11832536,
          -0.07883889,
          0.00993504,
          0.00859906
        ],
        [
          -0.00961994,
          0.08284637,
          0.04479623,
          0.11149444,
          0.0894735,
          -0.11297967,
          -0.10838769,
          0.05100261,
          0.05162749,
          0.10821248,
          -0.00144883,
          0.10631429,
          -0.01639589,
          -0.03448214,
          -0.07869617,
          0.09159242,
          0.0274288,
          0.12150593,
          0.03030543,
          -0.09720602,
          0.02679599,
          -0.00462754,
          -0.04620754,
          0.0295734,
          0.10303921,
          0.03537157,
          -0.04597439,
          0.08359395,
          -0.04663016,
          0.06912294,
          0.02297874,
          0.03326157,
          0.0996354,
          0.09250669,
          0.12172657,
          0.06367785,
          -0.08985388,
          0.06811734,
          -0.0452649,
          -0.05752472,
          0.06368744,
          0.08170444,
          -0.07110018,
          0.11255095,
          -0.05892232,
          -0.07276721,
          -0.10548049,
          -0.0501478,
          0.06987166,
          0.05449231,
          0.02935196,
          -0.0886439,
          -0.02147903,
          -0.11634551,
          -0.10922088,
          -0.03440729,
          -0.12578967,
          -0.03145728,
          0.04632891,
          0.02872944,
          -0.05330809,
          0.10798416
        ],
        [
          -0.12453134,
          0.00864098,
          -0.04394992,
          -0.04171058,
          -0.00655776,
          0.10354438,
          -0.02900967,
          0.08066668,
          0.09277369,
          -0.06021849,
          -0.00173663,
          0.06797095,
          0.10818386,
          0.08041672,
          -0.02337856,
          -0.0783485,
          -0.07618801,
          0.01607187,
          0.11229982,
          -0.06183461,
          0.05614738,
          0.02511304,
          0.07380528,
          -0.0177706,
          -0.05606231,
          -0.06823809,
          -0.03172074,
          0.09633401,
          -0.01720512,
          -0.00401239,
          -0.0849321,
          -0.05626284,
          0.07802331,
          0.02243057,
          -0.04761197,
          0.01407614,
          0.07376445,
          -0.10650297,
          -0.05025148,
          0.00338947,
          -0.01276125,
          0.12697047,
          0.10264964,
          -0.02227112,
          -0.11481399,
          -0.09477223,
          0.04752334,
          0.08467504,
          -0.08725675,
          0.01631918,
          -0.08928274,
          0.06389439,
          0.11129081,
          -0.09682073,
          -0.0356286,
          0.0839499,
          0.1198219,
          -0.00594164,
          0.10915104,
          -0.12168517,
          0.1015652,
          -0.04350176
        ],
        [
          -0.06183563,
          -0.00301046,
          -0.12575965,
          0.03373678,
          -0.01791521,
          -0.0234253,
          -0.07105233,
          0.06402182,
          -0.10011858,
          0.01695577,
          -0.03342844,
          0.05219858,
          0.00358574,
          0.08338618,
          0.00768905,
          -0.10631032,
          -0.048823,
          0.03907646,
          -0.03547134,
          -0.05202759,
          0.09883633,
          -0.08313864,
          -0.0385101,
          -0.02316029,
          -0.07404593,
          -0.00426699,
          0.0143051,
          -0.02174987,
          -0.11077602,
          0.03047461,
          0.10276882,
          -0.05596357,
          -0.01802372,
          -0.08545911,
          0.07443803,
          -0.0541326,
          -0.08292483,
          0.11849996,
          -0.05488775,
          0.0439128,
          -0.0903004,
          0.07088789,
          -0.04330763,
          0.1079183,
          0.02062142,
          0.1003913,
          0.03652294,
          0.1028057,
          0.01429309,
          -0.0236725,
          -0.08144093,
          0.02251299,
          -0.1159828,
          0.06761714,
          0.02597472,
          -0.02515316,
          -0.0002902,
          -0.08435126,
          -0.01519481,
          -0.1017391,
          -0.11837864,
          0.06386445
        ]
      ],
      "weight_matrix_norm": [
        [
          0.76429498,
          0.21370842,
          -0.03513938,
          -0.33647212,
          0.19967602,
          0.53334945,
          0.7443046,
          0.33248127,
          -0.5641157,
          0.709409,
          0.40614581,
          -0.66211367,
          0.08428026,
          0.96476656,
          -0.68120921,
          0.87517613,
          -0.39636835,
          0.03253028,
          0.02250637,
          0.23596178,
          -0.79400897,
          0.92405951,
          -0.30319068,
          0.32778388,
          0.8007915,
          0.65029395,
          -0.12907459,
          0.12333878,
          -0.24187544,
          0.48757076,
          -0.71283954,
          0.76068681,
          0.08331079,
          0.06266773,
          -0.57175946,
          -0.80719429,
          -0.48749539,
          -0.47195026,
          -0.94440144,
          1.0,
          0.26968041,
          -0.57906109,
          0.43981591,
          0.96077859,
          -0.22529443,
          -0.43520966,
          -0.80571765,
          0.90758663,
          -0.67119652,
          0.73617369,
          -0.18542773,
          -0.56064165,
          0.10942508,
          -0.93495613,
          -0.85258579,
          0.64271516,
          0.48433197,
          0.48446593,
          0.93232262,
          -0.62119639,
          0.07828131,
          0.06775471
        ],
        [
          -0.0764764,
          0.65861028,
          0.35612008,
          0.88635606,
          0.71129447,
          -0.89816326,
          -0.8616581,
          0.40545946,
          0.41042706,
          0.8602652,
          -0.01151787,
          0.84517503,
          -0.13034372,
          -0.27412534,
          -0.62561709,
          0.72813946,
          0.21805285,
          0.96594518,
          0.24092142,
          -0.77276629,
          0.2130222,
          -0.0367879,
          -0.3673397,
          0.23510194,
          0.81913882,
          0.28119615,
          -0.36548623,
          0.66455334,
          -0.37069947,
          0.54951203,
          0.18267588,
          0.26442209,
          0.79207933,
          0.73540771,
          0.96769917,
          0.50622475,
          -0.71431839,
          0.54151773,
          -0.35984594,
          -0.4573088,
          0.50630105,
          0.64953214,
          -0.56523067,
          0.89475513,
          -0.46841934,
          -0.57848316,
          -0.83854651,
          -0.39866391,
          0.55546421,
          0.43320176,
          0.2333416,
          -0.70469934,
          -0.17075351,
          -0.92492098,
          -0.86828178,
          -0.2735303,
          -1.0,
          -0.25007835,
          0.36830458,
          0.22839266,
          -0.42378747,
          0.85845011
        ],
        [
          -0.98078984,
          0.06805507,
          -0.34614289,
          -0.32850617,
          -0.05164792,
          0.81549966,
          -0.22847575,
          0.63531846,
          0.73067141,
          -0.47427166,
          -0.01367745,
          0.53532887,
          0.85203952,
          0.63334984,
          -0.18412597,
          -0.61706078,
          -0.60004514,
          0.12657963,
          0.88445622,
          -0.48699996,
          0.4422082,
          0.1977865,
          0.5812791,
          -0.13995852,
          -0.44153818,
          -0.53743273,
          -0.24982765,
          0.75871193,
          -0.13550489,
          -0.03160094,
          -0.66891217,
          -0.4431175,
          0.61449963,
          0.1766597,
          -0.37498456,
          0.11086155,
          0.58095753,
          -0.83880115,
          -0.39577293,
          0.02669493,
          -0.10050569,
          1.0,
          0.8084529,
          -0.17540389,
          -0.90425742,
          -0.74641156,
          0.37428653,
          0.6668877,
          -0.68722081,
          0.12852736,
          -0.70317721,
          0.50322247,
          0.87650943,
          -0.76254529,
          -0.28060538,
          0.66117656,
          0.94369894,
          -0.04679545,
          0.85965693,
          -0.95837379,
          0.79991198,
          -0.34261322
        ],
        [
          -0.49169689,
          -0.02393823,
          -1.0,
          0.268264,
          -0.14245597,
          -0.18627039,
          -0.5649851,
          0.50908077,
          -0.79611051,
          0.13482679,
          -0.26581213,
          0.41506621,
          0.02851262,
          0.66305989,
          0.06114085,
          -0.84534526,
          -0.38822466,
          0.31072336,
          -0.28205663,
          -0.4137066,
          0.78591454,
          -0.66109157,
          -0.30621988,
          -0.18416315,
          -0.58878922,
          -0.03392972,
          0.11374953,
          -0.17294796,
          -0.88085508,
          0.24232423,
          0.81718445,
          -0.44500422,
          -0.14331877,
          -0.67954314,
          0.59190708,
          -0.43044493,
          -0.6593914,
          0.94227338,
          -0.43644965,
          0.3491804,
          -0.71803951,
          0.56367761,
          -0.34436825,
          0.85813141,
          0.16397482,
          0.79827911,
          0.2904186,
          0.8174777,
          0.11365405,
          -0.18823603,
          -0.64759195,
          0.17901598,
          -0.92225766,
          0.5376696,
          0.20654252,
          -0.20000982,
          -0.00230754,
          -0.67073393,
          -0.1208242,
          -0.80899638,
          -0.94130862,
          0.50782949
        ]
      ],
      "channel_abs_mean": [
        0.07324678,
        0.03040513,
        0.05474138,
        0.05741126,
        0.03482207,
        0.0769098,
        0.07572821,
        0.05947196,
        0.07902857,
        0.06885527,
        0.02203993,
        0.07762893,
        0.03471547,
        0.080182,
        0.0490548,
        0.09683096,
        0.05068619,
        0.04519571,
        0.04523324,
        0.06025381,
        0.07063776,
        0.05753897,
        0.04925056,
        0.02802621,
        0.0836949,
        0.04760211,
        0.02709542,
        0.05433283,
        0.05132721,
        0.04137245,
        0.07528736,
        0.06050756,
        0.05156394,
        0.05208746,
        0.0790853,
        0.05858283,
        0.07710336,
        0.08825441,
        0.06756561,
        0.0579354,
        0.05024387,
        0.08826353,
        0.06821913,
        0.0911693,
        0.05573772,
        0.08079129,
        0.07294603,
        0.08820364,
        0.06415154,
        0.04697879,
        0.05590228,
        0.06155122,
        0.06566007,
        0.09986074,
        0.06975745,
        0.05627007,
        0.07684264,
        0.04580899,
        0.07225003,
        0.08274815,
        0.07079674,
        0.05598736
      ],
      "channel_signed_mean": [
        -0.02474668,
        0.0288999,
        -0.03234326,
        0.01520435,
        0.02258558,
        0.00870731,
        -0.02849664,
        0.05947196,
        -0.00682798,
        0.03874603,
        0.00373298,
        0.03561298,
        0.02651753,
        0.06294093,
        -0.04521027,
        0.00450156,
        -0.03697179,
        0.04519571,
        0.02749757,
        -0.04528031,
        0.02025209,
        0.01365587,
        -0.01234792,
        0.00756077,
        0.01864078,
        0.01134957,
        -0.01994287,
        0.0434579,
        -0.05132721,
        0.03936625,
        -0.01241357,
        0.00439436,
        0.04255209,
        0.0093579,
        0.018997,
        -0.01970584,
        -0.04022113,
        0.00505424,
        -0.06756561,
        0.02917304,
        -0.00128696,
        0.05151787,
        0.01101522,
        0.08003374,
        -0.04542701,
        -0.03059565,
        -0.03092289,
        0.06312974,
        -0.02206916,
        0.03514255,
        -0.0412263,
        -0.01834754,
        -0.00307084,
        -0.06605217,
        -0.05677009,
        0.02648985,
        0.01380271,
        -0.01506609,
        0.06465263,
        -0.06838343,
        -0.01504662,
        0.03423648
      ],
      "channel_l2": [
        0.08490183,
        0.04382605,
        0.07030945,
        0.06544562,
        0.04746491,
        0.08458206,
        0.08148798,
        0.06121221,
        0.08127401,
        0.07702255,
        0.03073902,
        0.08016986,
        0.05499965,
        0.08602529,
        0.05973546,
        0.09768146,
        0.0535519,
        0.06435451,
        0.0608195,
        0.06495426,
        0.07712658,
        0.0730033,
        0.05134697,
        0.02939977,
        0.08598249,
        0.0564298,
        0.02997014,
        0.06516571,
        0.06261799,
        0.04886691,
        0.0813752,
        0.06466098,
        0.0641317,
        0.06408419,
        0.08350284,
        0.06647982,
        0.07781287,
        0.09166896,
        0.0740824,
        0.07306886,
        0.05819052,
        0.09113614,
        0.07173476,
        0.09959753,
        0.06688965,
        0.08277394,
        0.0793333,
        0.09154437,
        0.07063375,
        0.05595869,
        0.06328388,
        0.0661625,
        0.08138162,
        0.10193467,
        0.07997145,
        0.0622852,
        0.0921396,
        0.05459053,
        0.08410127,
        0.08972051,
        0.08256732,
        0.06653118
      ],
      "top_channels_by_abs_weight": [
        {
          "rank": 1,
          "channel_index": 53,
          "channel_name": "TPP10h",
          "abs_mean_weight": 0.09986074,
          "signed_mean_weight": -0.06605217,
          "l2_weight": 0.10193467
        },
        {
          "rank": 2,
          "channel_index": 15,
          "channel_name": "T8",
          "abs_mean_weight": 0.09683096,
          "signed_mean_weight": 0.00450156,
          "l2_weight": 0.09768146
        },
        {
          "rank": 3,
          "channel_index": 43,
          "channel_name": "POz",
          "abs_mean_weight": 0.0911693,
          "signed_mean_weight": 0.08003374,
          "l2_weight": 0.09959753
        },
        {
          "rank": 4,
          "channel_index": 41,
          "channel_name": "P1",
          "abs_mean_weight": 0.08826353,
          "signed_mean_weight": 0.05151787,
          "l2_weight": 0.09113614
        },
        {
          "rank": 5,
          "channel_index": 37,
          "channel_name": "C6",
          "abs_mean_weight": 0.08825441,
          "signed_mean_weight": 0.00505424,
          "l2_weight": 0.09166896
        },
        {
          "rank": 6,
          "channel_index": 47,
          "channel_name": "TP7",
          "abs_mean_weight": 0.08820364,
          "signed_mean_weight": 0.06312974,
          "l2_weight": 0.09154437
        },
        {
          "rank": 7,
          "channel_index": 24,
          "channel_name": "Pz",
          "abs_mean_weight": 0.0836949,
          "signed_mean_weight": 0.01864078,
          "l2_weight": 0.08598249
        },
        {
          "rank": 8,
          "channel_index": 59,
          "channel_name": "AF8",
          "abs_mean_weight": 0.08274815,
          "signed_mean_weight": -0.06838343,
          "l2_weight": 0.08972051
        },
        {
          "rank": 9,
          "channel_index": 45,
          "channel_name": "FTT9h",
          "abs_mean_weight": 0.08079129,
          "signed_mean_weight": -0.03059565,
          "l2_weight": 0.08277394
        },
        {
          "rank": 10,
          "channel_index": 13,
          "channel_name": "Cz",
          "abs_mean_weight": 0.080182,
          "signed_mean_weight": 0.06294093,
          "l2_weight": 0.08602529
        },
        {
          "rank": 11,
          "channel_index": 34,
          "channel_name": "C5",
          "abs_mean_weight": 0.0790853,
          "signed_mean_weight": 0.018997,
          "l2_weight": 0.08350284
        },
        {
          "rank": 12,
          "channel_index": 8,
          "channel_name": "FC1",
          "abs_mean_weight": 0.07902857,
          "signed_mean_weight": -0.00682798,
          "l2_weight": 0.08127401
        },
        {
          "rank": 13,
          "channel_index": 11,
          "channel_name": "T7",
          "abs_mean_weight": 0.07762893,
          "signed_mean_weight": 0.03561298,
          "l2_weight": 0.08016986
        },
        {
          "rank": 14,
          "channel_index": 36,
          "channel_name": "C2",
          "abs_mean_weight": 0.07710336,
          "signed_mean_weight": -0.04022113,
          "l2_weight": 0.07781287
        },
        {
          "rank": 15,
          "channel_index": 5,
          "channel_name": "F4",
          "abs_mean_weight": 0.0769098,
          "signed_mean_weight": 0.00870731,
          "l2_weight": 0.08458206
        }
      ]
    },
    "spatial_conv": {
      "available": true,
      "parameter_name": "spatial_conv.1.weight",
      "raw_weight_shape": [
        4,
        1,
        62,
        1
      ],
      "weight_matrix_shape": [
        4,
        62
      ],
      "n_virtual_filters": 4,
      "n_input_channels": 62,
      "channel_names": [
        "Fp1",
        "Fp2",
        "F7",
        "F3",
        "Fz",
        "F4",
        "F8",
        "FC5",
        "FC1",
        "FC2",
        "FC6",
        "T7",
        "C3",
        "Cz",
        "C4",
        "T8",
        "TP9",
        "CP5",
        "CP1",
        "CP2",
        "CP6",
        "TP10",
        "P7",
        "P3",
        "Pz",
        "P4",
        "P8",
        "PO9",
        "O1",
        "Oz",
        "O2",
        "PO10",
        "FC3",
        "FC4",
        "C5",
        "C1",
        "C2",
        "C6",
        "CP3",
        "CPz",
        "CP4",
        "P1",
        "P2",
        "POz",
        "FT9",
        "FTT9h",
        "TTP7h",
        "TP7",
        "TPP9h",
        "FT10",
        "FTT10h",
        "TPP8h",
        "TP8",
        "TPP10h",
        "F9",
        "F10",
        "AF7",
        "AF3",
        "AF4",
        "AF8",
        "PO3",
        "PO4"
      ],
      "weight_matrix": [
        [
          0.10315034,
          0.03364602,
          0.00242192,
          -0.04368133,
          0.02568509,
          0.06702211,
          0.10223702,
          0.0508215,
          -0.07492039,
          0.09092498,
          0.05343188,
          -0.07272228,
          0.00601915,
          0.12298122,
          -0.0822234,
          0.10784455,
          -0.04730259,
          0.00537093,
          0.00218836,
          0.03239232,
          -0.10360664,
          0.11031762,
          -0.04033699,
          0.03961981,
          0.10016821,
          0.07835074,
          -0.02592138,
          0.01254888,
          -0.03720146,
          0.05337602,
          -0.09950188,
          0.08689925,
          0.00478314,
          0.00943865,
          -0.07015263,
          -0.10235515,
          -0.0589926,
          -0.06276751,
          -0.12084973,
          0.12615183,
          0.03614491,
          -0.07512067,
          0.05564761,
          0.1144764,
          -0.01705641,
          -0.04207207,
          -0.09472532,
          0.12764083,
          -0.07439566,
          0.09661908,
          -0.02612125,
          -0.07573106,
          0.00704535,
          -0.12867354,
          -0.10688123,
          0.09003299,
          0.06419527,
          0.06138813,
          0.12446163,
          -0.07021412,
          0.00490266,
          0.00156514
        ],
        [
          -0.00995074,
          0.0859004,
          0.03759312,
          0.11679763,
          0.08341832,
          -0.1118392,
          -0.10982988,
          0.0501708,
          0.05675404,
          0.10507715,
          0.0029803,
          0.10877647,
          -0.00761343,
          -0.03540163,
          -0.08038755,
          0.09550681,
          0.03222154,
          0.1303845,
          0.03061215,
          -0.09981427,
          0.02910543,
          -0.00930099,
          -0.04380419,
          0.02637779,
          0.10097208,
          0.03033888,
          -0.0464908,
          0.07972911,
          -0.05110795,
          0.06150083,
          0.01340401,
          0.02824816,
          0.10772131,
          0.09170654,
          0.12466054,
          0.06570233,
          -0.09247047,
          0.07535805,
          -0.04442326,
          -0.05737858,
          0.06304406,
          0.0795922,
          -0.07403081,
          0.10426789,
          -0.06394105,
          -0.07173075,
          -0.10184998,
          -0.05050885,
          0.07766376,
          0.05866817,
          0.02478006,
          -0.08906087,
          -0.01283231,
          -0.11607173,
          -0.1085802,
          -0.03680101,
          -0.12033865,
          -0.03358098,
          0.04422222,
          0.02755212,
          -0.05777947,
          0.09809148
        ],
        [
          -0.11652364,
          0.00932751,
          -0.03783527,
          -0.03775253,
          -0.00271196,
          0.10584757,
          -0.0338556,
          0.08725582,
          0.10246499,
          -0.06146608,
          -0.01111415,
          0.06517737,
          0.11998553,
          0.08495802,
          -0.02931258,
          -0.08872718,
          -0.07984239,
          0.01699654,
          0.11763468,
          -0.06064024,
          0.04957019,
          0.01553664,
          0.07180816,
          -0.0160077,
          -0.05314348,
          -0.06532931,
          -0.03410468,
          0.09262027,
          -0.01777087,
          -0.00177453,
          -0.08161071,
          -0.05591593,
          0.08311451,
          0.02172933,
          -0.04605004,
          0.02434248,
          0.07268731,
          -0.11785065,
          -0.03854175,
          0.00223611,
          -0.01776349,
          0.13047116,
          0.10430647,
          -0.01874781,
          -0.11259053,
          -0.09032948,
          0.04846013,
          0.07760565,
          -0.08491545,
          0.00526144,
          -0.1013883,
          0.05336729,
          0.10363439,
          -0.10215043,
          -0.03787204,
          0.07244642,
          0.12644254,
          -0.00417651,
          0.10966962,
          -0.12360512,
          0.10199981,
          -0.03849479
        ],
        [
          -0.05038688,
          0.00675935,
          -0.11314321,
          0.03179589,
          -0.02603785,
          -0.0284244,
          -0.06282616,
          0.07236798,
          -0.10967322,
          0.00570709,
          -0.03593227,
          0.04803621,
          -0.00127887,
          0.07184802,
          -0.0005235,
          -0.1109302,
          -0.04895094,
          0.04320813,
          -0.04420975,
          -0.06054872,
          0.10122355,
          -0.0846769,
          -0.03422791,
          -0.0288049,
          -0.08023269,
          -0.00840812,
          0.01512497,
          -0.0268858,
          -0.10962969,
          0.02578786,
          0.1013475,
          -0.06427158,
          -0.01990563,
          -0.09614151,
          0.08678449,
          -0.06526005,
          -0.09265645,
          0.11830112,
          -0.05313496,
          0.03429894,
          -0.09632126,
          0.06419536,
          -0.04940978,
          0.10417978,
          0.02658124,
          0.10905053,
          0.04382769,
          0.10593069,
          0.02317949,
          -0.03219005,
          -0.08161156,
          0.0273897,
          -0.10921584,
          0.06702606,
          0.03113008,
          -0.03314174,
          0.0099544,
          -0.078582,
          -0.01742444,
          -0.09186666,
          -0.11699989,
          0.06514478
        ]
      ],
      "weight_matrix_norm": [
        [
          0.80164373,
          0.26148361,
          0.01882224,
          -0.33947411,
          0.19961439,
          0.52086937,
          0.79454583,
          0.39496467,
          -0.58225167,
          0.70663309,
          0.41525146,
          -0.56516886,
          0.04677844,
          0.95576155,
          -0.63900787,
          0.83812529,
          -0.3676171,
          0.04174075,
          0.01700709,
          0.25174031,
          -0.80518997,
          0.85734504,
          -0.31348321,
          0.30790955,
          0.77846777,
          0.60891104,
          -0.20145074,
          0.09752496,
          -0.2891151,
          0.41481736,
          -0.77328938,
          0.67534673,
          0.0371727,
          0.07335344,
          -0.54519862,
          -0.79546386,
          -0.45846722,
          -0.48780429,
          -0.93919641,
          0.98040229,
          0.280904,
          -0.58380818,
          0.43247131,
          0.88966542,
          -0.13255571,
          -0.32696751,
          -0.73616785,
          0.99197417,
          -0.5781737,
          0.75088543,
          -0.20300405,
          -0.58855194,
          0.05475365,
          -1.0,
          -0.83063877,
          0.69970089,
          0.49890029,
          0.47708437,
          0.96726668,
          -0.54567641,
          0.03810151,
          0.01216367
        ],
        [
          -0.07631845,
          0.65882373,
          0.28832501,
          0.89579374,
          0.63978702,
          -0.85776448,
          -0.84235376,
          0.38479111,
          0.43528208,
          0.80590218,
          0.02285779,
          0.83427453,
          -0.05839216,
          -0.27151719,
          -0.61654216,
          0.73250121,
          0.2471271,
          1.0,
          0.23478365,
          -0.76553786,
          0.22322768,
          -0.07133509,
          -0.33596167,
          0.20230772,
          0.77441776,
          0.23268779,
          -0.35656691,
          0.61149222,
          -0.39197868,
          0.47168821,
          0.10280367,
          0.21665274,
          0.82618189,
          0.7033546,
          0.95609939,
          0.50391209,
          -0.70921367,
          0.57796782,
          -0.34070963,
          -0.44007203,
          0.4835242,
          0.61044216,
          -0.56778842,
          0.79969537,
          -0.49040371,
          -0.55014777,
          -0.78115094,
          -0.38738385,
          0.59565181,
          0.44996271,
          0.19005369,
          -0.68306327,
          -0.098419,
          -0.89022642,
          -0.83276922,
          -0.28224984,
          -0.92295206,
          -0.25755349,
          0.3391678,
          0.21131441,
          -0.44314674,
          0.75232464
        ],
        [
          -0.89309883,
          0.07149098,
          -0.2899895,
          -0.2893554,
          -0.02078588,
          0.81127185,
          -0.25948724,
          0.66877478,
          0.78534591,
          -0.47110856,
          -0.08518476,
          0.49955389,
          0.91963261,
          0.65116322,
          -0.22466716,
          -0.6800521,
          -0.61195433,
          0.1302705,
          0.90161443,
          -0.4647789,
          0.37993217,
          0.11908105,
          0.55037576,
          -0.12269152,
          -0.40731972,
          -0.50071841,
          -0.26139635,
          0.70989078,
          -0.13620536,
          -0.01360095,
          -0.62550765,
          -0.42856926,
          0.63703364,
          0.16654509,
          -0.35295188,
          0.18657364,
          0.55711406,
          -0.90326983,
          -0.29540437,
          0.01713871,
          -0.13614883,
          1.0,
          0.79945999,
          -0.14369316,
          -0.86295342,
          -0.69233292,
          0.37142405,
          0.59481078,
          -0.65083694,
          0.04032648,
          -0.77709359,
          0.40903521,
          0.79430884,
          -0.78293496,
          -0.29027137,
          0.55526769,
          0.96912253,
          -0.03201099,
          0.84056604,
          -0.94737512,
          0.78178054,
          -0.29504445
        ],
        [
          -0.42592058,
          0.05713679,
          -0.95640016,
          0.26877078,
          -0.22009811,
          -0.24027155,
          -0.53106987,
          0.61172694,
          -0.92706835,
          0.04824207,
          -0.30373564,
          0.40605032,
          -0.01081033,
          0.60733169,
          -0.00442518,
          -0.93769354,
          -0.41378254,
          0.36523852,
          -0.37370527,
          -0.51181865,
          0.85564321,
          -0.71577424,
          -0.28932872,
          -0.24348794,
          -0.67820734,
          -0.07107388,
          0.12785147,
          -0.22726579,
          -0.92670035,
          0.21798493,
          0.85669094,
          -0.54328805,
          -0.16826242,
          -0.81268466,
          0.73358971,
          -0.55164349,
          -0.78322542,
          1.0,
          -0.44915012,
          0.28992912,
          -0.8142041,
          0.54264373,
          -0.4176611,
          0.88063216,
          0.22469132,
          0.92180467,
          0.37047571,
          0.89543265,
          0.19593635,
          -0.27210268,
          -0.68986291,
          0.2315253,
          -0.92320204,
          0.56657165,
          0.2631427,
          -0.28014725,
          0.08414456,
          -0.66425401,
          -0.14728887,
          -0.7765494,
          -0.98900062,
          0.55066919
        ]
      ],
      "channel_abs_mean": [
        0.0700029,
        0.03390832,
        0.04774838,
        0.05750684,
        0.03446331,
        0.07828332,
        0.07718717,
        0.06515403,
        0.08595316,
        0.06579382,
        0.02586465,
        0.07367808,
        0.03372424,
        0.07879722,
        0.04811176,
        0.10075218,
        0.05207936,
        0.04899003,
        0.04866124,
        0.06334889,
        0.07087645,
        0.05495804,
        0.04754432,
        0.02770255,
        0.08362911,
        0.04560676,
        0.03041046,
        0.05294601,
        0.05392749,
        0.03560981,
        0.07396603,
        0.05883373,
        0.05388115,
        0.05475401,
        0.08191193,
        0.064415,
        0.07920171,
        0.09356933,
        0.06423742,
        0.05501636,
        0.05331843,
        0.08734485,
        0.07084867,
        0.08541796,
        0.0550423,
        0.07829571,
        0.07221578,
        0.09042151,
        0.06503859,
        0.04818469,
        0.05847529,
        0.06138723,
        0.05818197,
        0.10348044,
        0.07111589,
        0.05810554,
        0.08023271,
        0.04443191,
        0.07394448,
        0.07830951,
        0.07042046,
        0.05082405
      ],
      "channel_signed_mean": [
        -0.01842773,
        0.03390832,
        -0.02774086,
        0.01678991,
        0.0200884,
        0.00815152,
        -0.02606865,
        0.06515403,
        -0.00634365,
        0.03506078,
        0.00234144,
        0.03731694,
        0.02927809,
        0.0610964,
        -0.04811176,
        0.00092349,
        -0.03596859,
        0.04899003,
        0.02655636,
        -0.04715273,
        0.01907313,
        0.00796909,
        -0.01164023,
        0.00529625,
        0.01694103,
        0.00873805,
        -0.02284797,
        0.03950312,
        -0.05392749,
        0.03472254,
        -0.01659027,
        -0.00126002,
        0.04392833,
        0.00668325,
        0.02381059,
        -0.0193926,
        -0.04285805,
        0.00326025,
        -0.06423742,
        0.02632708,
        -0.00372395,
        0.04978451,
        0.00912837,
        0.07604406,
        -0.04175169,
        -0.02377044,
        -0.02607187,
        0.06516708,
        -0.01461696,
        0.03208966,
        -0.04608526,
        -0.02100873,
        -0.0028421,
        -0.0699674,
        -0.05555085,
        0.02313417,
        0.02006339,
        -0.01373784,
        0.06523226,
        -0.06453344,
        -0.01696922,
        0.03157665
      ],
      "channel_l2": [
        0.0819384,
        0.04648555,
        0.06255398,
        0.0670559,
        0.04556222,
        0.085164,
        0.08307879,
        0.06699,
        0.08854572,
        0.07602501,
        0.03270512,
        0.07693572,
        0.0601921,
        0.08479042,
        0.05933453,
        0.10115585,
        0.05487888,
        0.06925458,
        0.06468058,
        0.0677413,
        0.07791802,
        0.07012141,
        0.0496836,
        0.02894601,
        0.08586405,
        0.05338048,
        0.0325008,
        0.06287997,
        0.06389531,
        0.0427186,
        0.08217651,
        0.06246372,
        0.06879502,
        0.06748062,
        0.08676664,
        0.07007996,
        0.08046673,
        0.09682785,
        0.07226146,
        0.07139328,
        0.06098019,
        0.09099697,
        0.07399051,
        0.09378372,
        0.06663814,
        0.08210784,
        0.07683676,
        0.09498326,
        0.06948794,
        0.05882407,
        0.06752112,
        0.06569874,
        0.0756348,
        0.10601501,
        0.08002598,
        0.06286316,
        0.09312522,
        0.05265159,
        0.08628055,
        0.08574213,
        0.08284841,
        0.06194772
      ],
      "top_channels_by_abs_weight": [
        {
          "rank": 1,
          "channel_index": 53,
          "channel_name": "TPP10h",
          "abs_mean_weight": 0.10348044,
          "signed_mean_weight": -0.0699674,
          "l2_weight": 0.10601501
        },
        {
          "rank": 2,
          "channel_index": 15,
          "channel_name": "T8",
          "abs_mean_weight": 0.10075218,
          "signed_mean_weight": 0.00092349,
          "l2_weight": 0.10115585
        },
        {
          "rank": 3,
          "channel_index": 37,
          "channel_name": "C6",
          "abs_mean_weight": 0.09356933,
          "signed_mean_weight": 0.00326025,
          "l2_weight": 0.09682785
        },
        {
          "rank": 4,
          "channel_index": 47,
          "channel_name": "TP7",
          "abs_mean_weight": 0.09042151,
          "signed_mean_weight": 0.06516708,
          "l2_weight": 0.09498326
        },
        {
          "rank": 5,
          "channel_index": 41,
          "channel_name": "P1",
          "abs_mean_weight": 0.08734485,
          "signed_mean_weight": 0.04978451,
          "l2_weight": 0.09099697
        },
        {
          "rank": 6,
          "channel_index": 8,
          "channel_name": "FC1",
          "abs_mean_weight": 0.08595316,
          "signed_mean_weight": -0.00634365,
          "l2_weight": 0.08854572
        },
        {
          "rank": 7,
          "channel_index": 43,
          "channel_name": "POz",
          "abs_mean_weight": 0.08541796,
          "signed_mean_weight": 0.07604406,
          "l2_weight": 0.09378372
        },
        {
          "rank": 8,
          "channel_index": 24,
          "channel_name": "Pz",
          "abs_mean_weight": 0.08362911,
          "signed_mean_weight": 0.01694103,
          "l2_weight": 0.08586405
        },
        {
          "rank": 9,
          "channel_index": 34,
          "channel_name": "C5",
          "abs_mean_weight": 0.08191193,
          "signed_mean_weight": 0.02381059,
          "l2_weight": 0.08676664
        },
        {
          "rank": 10,
          "channel_index": 56,
          "channel_name": "AF7",
          "abs_mean_weight": 0.08023271,
          "signed_mean_weight": 0.02006339,
          "l2_weight": 0.09312522
        },
        {
          "rank": 11,
          "channel_index": 36,
          "channel_name": "C2",
          "abs_mean_weight": 0.07920171,
          "signed_mean_weight": -0.04285805,
          "l2_weight": 0.08046673
        },
        {
          "rank": 12,
          "channel_index": 13,
          "channel_name": "Cz",
          "abs_mean_weight": 0.07879722,
          "signed_mean_weight": 0.0610964,
          "l2_weight": 0.08479042
        },
        {
          "rank": 13,
          "channel_index": 59,
          "channel_name": "AF8",
          "abs_mean_weight": 0.07830951,
          "signed_mean_weight": -0.06453344,
          "l2_weight": 0.08574213
        },
        {
          "rank": 14,
          "channel_index": 45,
          "channel_name": "FTT9h",
          "abs_mean_weight": 0.07829571,
          "signed_mean_weight": -0.02377044,
          "l2_weight": 0.08210784
        },
        {
          "rank": 15,
          "channel_index": 5,
          "channel_name": "F4",
          "abs_mean_weight": 0.07828332,
          "signed_mean_weight": 0.00815152,
          "l2_weight": 0.085164
        }
      ]
    },
    "spatial_update_stats": {
      "available": true,
      "parameter_name": "spatial_conv.1.weight",
      "initial_shape": [
        4,
        62
      ],
      "final_shape": [
        4,
        62
      ],
      "initial_l2": 1.13739672,
      "final_l2": 1.14462399,
      "delta_l2": 0.09241923,
      "delta_max_abs": 0.0131624,
      "relative_delta": 0.08125505,
      "changed": true
    },
    "subject_id": "48"
  },
  {
    "fold_id": 3,
    "fold_label": "subject=48",
    "model_name": "SignalJEPA_PreLocal",
    "strategy": "new",
    "warmup_epochs": 10,
    "n_train": 160,
    "n_test": 40,
    "train_class_counts": [
      80,
      80
    ],
    "test_class_counts": [
      20,
      20
    ],
    "pretrained_load": {
      "loading_path": "random_initialization",
      "repo_id": null,
      "mode": "random",
      "model_name": "SignalJEPA_PreLocal"
    },
    "phase_1_trainable_groups": [
      "spatial_conv.",
      "final_layer."
    ],
    "phase_1_trainable_params": 2302,
    "phase_1_trainable_names": [
      "spatial_conv.1.weight",
      "spatial_conv.1.bias",
      "final_layer.1.weight",
      "final_layer.1.bias"
    ],
    "phase_2_trainable_groups": null,
    "phase_2_trainable_params": null,
    "phase_2_trainable_names": null,
    "final_trainable_parameters": [
      {
        "name": "feature_encoder.1.0.weight",
        "shape": [
          8,
          1,
          32
        ],
        "num_params": 256,
        "requires_grad": false
      },
      {
        "name": "feature_encoder.1.2.weight",
        "shape": [
          8
        ],
        "num_params": 8,
        "requires_grad": false
      },
      {
        "name": "feature_encoder.1.2.bias",
        "shape": [
          8
        ],
        "num_params": 8,
        "requires_grad": false
      },
      {
        "name": "feature_encoder.2.0.weight",
        "shape": [
          16,
          8,
          2
        ],
        "num_params": 256,
        "requires_grad": false
      },
      {
        "name": "feature_encoder.3.0.weight",
        "shape": [
          32,
          16,
          2
        ],
        "num_params": 1024,
        "requires_grad": false
      },
      {
        "name": "feature_encoder.4.0.weight",
        "shape": [
          64,
          32,
          2
        ],
        "num_params": 4096,
        "requires_grad": false
      },
      {
        "name": "feature_encoder.5.0.weight",
        "shape": [
          64,
          64,
          2
        ],
        "num_params": 8192,
        "requires_grad": false
      },
      {
        "name": "spatial_conv.1.weight",
        "shape": [
          4,
          1,
          62,
          1
        ],
        "num_params": 248,
        "requires_grad": true
      },
      {
        "name": "spatial_conv.1.bias",
        "shape": [
          4
        ],
        "num_params": 4,
        "requires_grad": true
      },
      {
        "name": "final_layer.1.weight",
        "shape": [
          2,
          1024
        ],
        "num_params": 2048,
        "requires_grad": true
      },
      {
        "name": "final_layer.1.bias",
        "shape": [
          2
        ],
        "num_params": 2,
        "requires_grad": true
      }
    ],
    "n_trainable_params_final": 2302,
    "best_epoch": 1,
    "stopped_epoch": 31,
    "best_valid_loss": 0.708157479763031,
    "accuracy": 0.4,
    "balanced_accuracy": 0.4,
    "confusion_matrix": [
      [
        11,
        9
      ],
      [
        15,
        5
      ]
    ],
    "prediction_histogram": [
      26,
      14
    ],
    "collapse_diagnostics": {
      "prediction_histogram": [
        26,
        14
      ],
      "collapse_ratio": 0.65,
      "collapse_threshold": 0.9,
      "collapse_flag": false,
      "majority_predicted_class": 0
    },
    "probability_diagnostics": {
      "available": true,
      "probability_shape": [
        40,
        2
      ],
      "mean_probability_by_class": [
        0.5071646,
        0.49283541
      ],
      "std_probability_by_class": [
        0.04033513,
        0.04033514
      ],
      "mean_confidence": 0.53275801,
      "std_confidence": 0.02460014,
      "mean_prediction_entropy": 0.68978007,
      "mean_normalized_prediction_entropy": 0.99514229,
      "mean_predicted_class_probability": 0.53275801
    },
    "spatial_conv_initial": {
      "available": true,
      "parameter_name": "spatial_conv.1.weight",
      "raw_weight_shape": [
        4,
        1,
        62,
        1
      ],
      "weight_matrix_shape": [
        4,
        62
      ],
      "n_virtual_filters": 4,
      "n_input_channels": 62,
      "channel_names": [
        "Fp1",
        "Fp2",
        "F7",
        "F3",
        "Fz",
        "F4",
        "F8",
        "FC5",
        "FC1",
        "FC2",
        "FC6",
        "T7",
        "C3",
        "Cz",
        "C4",
        "T8",
        "TP9",
        "CP5",
        "CP1",
        "CP2",
        "CP6",
        "TP10",
        "P7",
        "P3",
        "Pz",
        "P4",
        "P8",
        "PO9",
        "O1",
        "Oz",
        "O2",
        "PO10",
        "FC3",
        "FC4",
        "C5",
        "C1",
        "C2",
        "C6",
        "CP3",
        "CPz",
        "CP4",
        "P1",
        "P2",
        "POz",
        "FT9",
        "FTT9h",
        "TTP7h",
        "TP7",
        "TPP9h",
        "FT10",
        "FTT10h",
        "TPP8h",
        "TP8",
        "TPP10h",
        "F9",
        "F10",
        "AF7",
        "AF3",
        "AF4",
        "AF8",
        "PO3",
        "PO4"
      ],
      "weight_matrix": [
        [
          0.0970002,
          0.02712272,
          -0.0044597,
          -0.04270323,
          0.0253418,
          0.06768984,
          0.09446312,
          0.04219673,
          -0.07159452,
          0.09003437,
          0.05154584,
          -0.08403189,
          0.0106964,
          0.12244297,
          -0.0864554,
          0.11107264,
          -0.05030493,
          0.00412857,
          0.00285639,
          0.029947,
          -0.10077134,
          0.11727665,
          -0.03847932,
          0.04160056,
          0.10163214,
          0.0825318,
          -0.01638145,
          0.01565349,
          -0.03069753,
          0.06187985,
          -0.09046975,
          0.09654227,
          0.01057336,
          0.00795345,
          -0.07256462,
          -0.10244475,
          -0.06187028,
          -0.05989738,
          -0.11985834,
          0.12691461,
          0.03422638,
          -0.07349131,
          0.05581906,
          0.12193684,
          -0.02859315,
          -0.05523446,
          -0.10225733,
          0.115186,
          -0.08518464,
          0.09343119,
          -0.02353349,
          -0.07115361,
          0.01388764,
          -0.11865959,
          -0.10820559,
          0.08156994,
          0.0614688,
          0.0614858,
          0.11832536,
          -0.07883889,
          0.00993504,
          0.00859906
        ],
        [
          -0.00961994,
          0.08284637,
          0.04479623,
          0.11149444,
          0.0894735,
          -0.11297967,
          -0.10838769,
          0.05100261,
          0.05162749,
          0.10821248,
          -0.00144883,
          0.10631429,
          -0.01639589,
          -0.03448214,
          -0.07869617,
          0.09159242,
          0.0274288,
          0.12150593,
          0.03030543,
          -0.09720602,
          0.02679599,
          -0.00462754,
          -0.04620754,
          0.0295734,
          0.10303921,
          0.03537157,
          -0.04597439,
          0.08359395,
          -0.04663016,
          0.06912294,
          0.02297874,
          0.03326157,
          0.0996354,
          0.09250669,
          0.12172657,
          0.06367785,
          -0.08985388,
          0.06811734,
          -0.0452649,
          -0.05752472,
          0.06368744,
          0.08170444,
          -0.07110018,
          0.11255095,
          -0.05892232,
          -0.07276721,
          -0.10548049,
          -0.0501478,
          0.06987166,
          0.05449231,
          0.02935196,
          -0.0886439,
          -0.02147903,
          -0.11634551,
          -0.10922088,
          -0.03440729,
          -0.12578967,
          -0.03145728,
          0.04632891,
          0.02872944,
          -0.05330809,
          0.10798416
        ],
        [
          -0.12453134,
          0.00864098,
          -0.04394992,
          -0.04171058,
          -0.00655776,
          0.10354438,
          -0.02900967,
          0.08066668,
          0.09277369,
          -0.06021849,
          -0.00173663,
          0.06797095,
          0.10818386,
          0.08041672,
          -0.02337856,
          -0.0783485,
          -0.07618801,
          0.01607187,
          0.11229982,
          -0.06183461,
          0.05614738,
          0.02511304,
          0.07380528,
          -0.0177706,
          -0.05606231,
          -0.06823809,
          -0.03172074,
          0.09633401,
          -0.01720512,
          -0.00401239,
          -0.0849321,
          -0.05626284,
          0.07802331,
          0.02243057,
          -0.04761197,
          0.01407614,
          0.07376445,
          -0.10650297,
          -0.05025148,
          0.00338947,
          -0.01276125,
          0.12697047,
          0.10264964,
          -0.02227112,
          -0.11481399,
          -0.09477223,
          0.04752334,
          0.08467504,
          -0.08725675,
          0.01631918,
          -0.08928274,
          0.06389439,
          0.11129081,
          -0.09682073,
          -0.0356286,
          0.0839499,
          0.1198219,
          -0.00594164,
          0.10915104,
          -0.12168517,
          0.1015652,
          -0.04350176
        ],
        [
          -0.06183563,
          -0.00301046,
          -0.12575965,
          0.03373678,
          -0.01791521,
          -0.0234253,
          -0.07105233,
          0.06402182,
          -0.10011858,
          0.01695577,
          -0.03342844,
          0.05219858,
          0.00358574,
          0.08338618,
          0.00768905,
          -0.10631032,
          -0.048823,
          0.03907646,
          -0.03547134,
          -0.05202759,
          0.09883633,
          -0.08313864,
          -0.0385101,
          -0.02316029,
          -0.07404593,
          -0.00426699,
          0.0143051,
          -0.02174987,
          -0.11077602,
          0.03047461,
          0.10276882,
          -0.05596357,
          -0.01802372,
          -0.08545911,
          0.07443803,
          -0.0541326,
          -0.08292483,
          0.11849996,
          -0.05488775,
          0.0439128,
          -0.0903004,
          0.07088789,
          -0.04330763,
          0.1079183,
          0.02062142,
          0.1003913,
          0.03652294,
          0.1028057,
          0.01429309,
          -0.0236725,
          -0.08144093,
          0.02251299,
          -0.1159828,
          0.06761714,
          0.02597472,
          -0.02515316,
          -0.0002902,
          -0.08435126,
          -0.01519481,
          -0.1017391,
          -0.11837864,
          0.06386445
        ]
      ],
      "weight_matrix_norm": [
        [
          0.76429498,
          0.21370842,
          -0.03513938,
          -0.33647212,
          0.19967602,
          0.53334945,
          0.7443046,
          0.33248127,
          -0.5641157,
          0.709409,
          0.40614581,
          -0.66211367,
          0.08428026,
          0.96476656,
          -0.68120921,
          0.87517613,
          -0.39636835,
          0.03253028,
          0.02250637,
          0.23596178,
          -0.79400897,
          0.92405951,
          -0.30319068,
          0.32778388,
          0.8007915,
          0.65029395,
          -0.12907459,
          0.12333878,
          -0.24187544,
          0.48757076,
          -0.71283954,
          0.76068681,
          0.08331079,
          0.06266773,
          -0.57175946,
          -0.80719429,
          -0.48749539,
          -0.47195026,
          -0.94440144,
          1.0,
          0.26968041,
          -0.57906109,
          0.43981591,
          0.96077859,
          -0.22529443,
          -0.43520966,
          -0.80571765,
          0.90758663,
          -0.67119652,
          0.73617369,
          -0.18542773,
