[
  {
    "subject_id": "1",
    "fold_id": 1,
    "accuracy": 0.53125,
    "balanced_accuracy": 0.53125,
    "prediction_histogram": [
      27,
      5
    ],
    "collapse_diagnostics": {
      "prediction_histogram": [
        27,
        5
      ],
      "collapse_ratio": 0.84375,
      "collapse_threshold": 0.9,
      "collapse_flag": false,
      "majority_predicted_class": 0
    },
    "probability_diagnostics": {
      "available": true,
      "probability_shape": [
        32,
        2
      ],
      "mean_probability_by_class": [
        0.53786523,
        0.46213476
      ],
      "std_probability_by_class": [
        0.03394747,
        0.03394748
      ],
      "mean_confidence": 0.54403184,
      "std_confidence": 0.02544413,
      "mean_prediction_entropy": 0.68795644,
      "mean_normalized_prediction_entropy": 0.99251134,
      "mean_predicted_class_probability": 0.54403184
    },
    "spatial_update_stats": {
      "available": true,
      "parameter_name": "spatial_conv.1.weight",
      "initial_shape": [
        4,
        60
      ],
      "final_shape": [
        4,
        60
      ],
      "initial_l2": 1.1395002,
      "final_l2": 1.13945088,
      "delta_l2": 0.02753545,
      "delta_max_abs": 0.00298296,
      "relative_delta": 0.0241645,
      "changed": true
    },
    "n_trainable_params_final": 4342,
    "spatial_conv": {
      "available": true,
      "parameter_name": "spatial_conv.1.weight",
      "raw_weight_shape": [
        4,
        1,
        60,
        1
      ],
      "weight_matrix_shape": [
        4,
        60
      ],
      "n_virtual_filters": 4,
      "n_input_channels": 60,
      "channel_names": [
        "Fp1",
        "Fpz",
        "Fp2",
        "AF3",
        "AF4",
        "F7",
        "F5",
        "F3",
        "F1",
        "Fz",
        "F2",
        "F4",
        "F6",
        "F8",
        "FT7",
        "FC5",
        "FC3",
        "FC1",
        "FCz",
        "FC2",
        "FC4",
        "FC6",
        "FT8",
        "T7",
        "C5",
        "C3",
        "C1",
        "Cz",
        "C2",
        "C4",
        "C6",
        "T8",
        "TP7",
        "CP5",
        "CP3",
        "CP1",
        "CPz",
        "CP2",
        "CP4",
        "CP6",
        "TP8",
        "P7",
        "P5",
        "P3",
        "P1",
        "Pz",
        "P2",
        "P4",
        "P6",
        "P8",
        "PO7",
        "PO5",
        "PO3",
        "POz",
        "PO4",
        "PO6",
        "PO8",
        "O1",
        "Oz",
        "O2"
      ],
      "weight_matrix": [
        [
          0.09770008,
          0.02607169,
          -0.00505485,
          -0.04408775,
          0.02536971,
          0.06755882,
          0.09480569,
          0.04061827,
          -0.07387567,
          0.08865217,
          0.05414111,
          -0.08687806,
          0.00937054,
          0.12333348,
          -0.08971369,
          0.11181729,
          -0.05254488,
          0.002085,
          0.00367168,
          0.02883621,
          -0.10362059,
          0.12193225,
          -0.04067901,
          0.04272025,
          0.103503,
          0.08316924,
          -0.01783519,
          0.01671478,
          -0.03075687,
          0.06067589,
          -0.08999121,
          0.09567964,
          0.01181931,
          0.0103975,
          -0.07079887,
          -0.1019766,
          -0.06467656,
          -0.060225,
          -0.12347975,
          0.13114092,
          0.03582568,
          -0.07248318,
          0.05383431,
          0.12622771,
          -0.02649119,
          -0.05668984,
          -0.10219219,
          0.11834494,
          -0.08449586,
          0.09645143,
          -0.02413404,
          -0.07283275,
          0.01682056,
          -0.11786515,
          -0.10763712,
          0.08500922,
          0.06453535,
          0.06442508,
          0.12287379,
          -0.0773628
        ],
        [
          0.01187205,
          0.00903324,
          -0.01092323,
          0.08230337,
          0.04409941,
          0.11220222,
          0.08829127,
          -0.11384857,
          -0.10872608,
          0.05267058,
          0.0534183,
          0.10991949,
          -0.00423205,
          0.10638711,
          -0.01932284,
          -0.03793271,
          -0.07845309,
          0.09487014,
          0.0293296,
          0.12458766,
          0.03198069,
          -0.10047041,
          0.02572273,
          -0.0054527,
          -0.04796854,
          0.03086176,
          0.10634988,
          0.03762838,
          -0.04504232,
          0.08608371,
          -0.04724909,
          0.06800175,
          0.02250426,
          0.0319084,
          0.10189433,
          0.09532265,
          0.12561122,
          0.0661673,
          -0.09042331,
          0.0694336,
          -0.04713998,
          -0.05949228,
          0.06697681,
          0.08078755,
          -0.07136025,
          0.1165013,
          -0.05823512,
          -0.0727069,
          -0.10776246,
          -0.05229995,
          0.06949171,
          0.05375243,
          0.02820813,
          -0.08876675,
          -0.02034428,
          -0.11906496,
          -0.11187926,
          -0.03423612,
          -0.12940748,
          -0.02957936
        ],
        [
          0.04885259,
          0.03169041,
          -0.0522523,
          0.11131544,
          -0.12420604,
          0.0091731,
          -0.04331471,
          -0.04029968,
          -0.0087202,
          0.10530018,
          -0.02818012,
          0.08280069,
          0.09671763,
          -0.05871719,
          -0.00350822,
          0.06755613,
          0.10815605,
          0.07956506,
          -0.02629903,
          -0.07941495,
          -0.07694188,
          0.01840633,
          0.11673563,
          -0.06277688,
          0.05538024,
          0.02372361,
          0.07316487,
          -0.01714602,
          -0.05879526,
          -0.07097244,
          -0.0298448,
          0.10090937,
          -0.01812623,
          -0.00657706,
          -0.08814386,
          -0.0587626,
          0.07747584,
          0.02122962,
          -0.05007711,
          0.01608289,
          0.07491217,
          -0.11000039,
          -0.04875402,
          0.00084998,
          -0.01568667,
          0.12744214,
          0.10266216,
          -0.02441464,
          -0.11797011,
          -0.09732115,
          0.05016933,
          0.08356374,
          -0.09091774,
          0.01375186,
          -0.09332526,
          0.06639024,
          0.11455646,
          -0.10106208,
          -0.03901657,
          0.08249482
        ],
        [
          0.12154589,
          -0.00711109,
          0.10976972,
          -0.12438899,
          0.10209537,
          -0.04667148,
          -0.06292569,
          -0.00015462,
          -0.12574551,
          0.03723582,
          -0.01526,
          -0.02259754,
          -0.07388405,
          0.06275049,
          -0.10135747,
          0.01877527,
          -0.0325287,
          0.05464217,
          0.00553838,
          0.08459242,
          0.00790877,
          -0.10946567,
          -0.05223497,
          0.04116955,
          -0.03757199,
          -0.05274206,
          0.10092893,
          -0.08215323,
          -0.04181239,
          -0.02637712,
          -0.07246357,
          -0.00446311,
          0.01176085,
          -0.02127674,
          -0.11177497,
          0.03136913,
          0.10182049,
          -0.05971823,
          -0.02125973,
          -0.08838402,
          0.07369966,
          -0.05588626,
          -0.08181644,
          0.12253885,
          -0.05561767,
          0.04197969,
          -0.09445099,
          0.07031941,
          -0.04270385,
          0.11249694,
          0.02349403,
          0.10073075,
          0.03875777,
          0.10166012,
          0.0152686,
          -0.0230878,
          -0.08157109,
          0.02259469,
          -0.11585003,
          0.06915513
        ]
      ],
      "weight_matrix_norm": [
        [
          0.74500072,
          0.19880664,
          -0.03854515,
          -0.33618608,
          0.19345383,
          0.51516199,
          0.72292989,
          0.30972996,
          -0.56333041,
          0.67600697,
          0.41284683,
          -0.66247869,
          0.07145396,
          0.94046527,
          -0.68410146,
          0.85264987,
          -0.40067494,
          0.01589892,
          0.02799797,
          0.21988724,
          -0.79014689,
          0.9297803,
          -0.31019312,
          0.32575837,
          0.7892502,
          0.63419753,
          -0.13600017,
          0.12745667,
          -0.23453301,
          0.462677,
          -0.68621767,
          0.72959411,
          0.09012676,
          0.07928491,
          -0.53986859,
          -0.7776109,
          -0.49318367,
          -0.45923883,
          -0.94158059,
          1.0,
          0.27318466,
          -0.5527122,
          0.41050732,
          0.9625349,
          -0.20200555,
          -0.43228182,
          -0.77925479,
          0.90242577,
          -0.64431345,
          0.7354793,
          -0.18403137,
          -0.55537778,
          0.12826326,
          -0.89876711,
          -0.8207745,
          0.64822805,
          0.49210688,
          0.49126604,
          0.93695998,
          -0.58992112
        ],
        [
          0.09174158,
          0.06980464,
          -0.0844096,
          0.63600165,
          0.34077942,
          0.86704588,
          0.68227333,
          -0.87976813,
          -0.84018385,
          0.40701345,
          0.41279143,
          0.849406,
          -0.03270331,
          0.8221094,
          -0.1493178,
          -0.29312608,
          -0.60624844,
          0.73311168,
          0.22664529,
          0.96275467,
          0.24713172,
          -0.77638793,
          0.19877312,
          -0.04213591,
          -0.37067831,
          0.23848511,
          0.82182175,
          0.29077438,
          -0.34806585,
          0.6652143,
          -0.36511865,
          0.52548552,
          0.17390227,
          0.24657305,
          0.7873913,
          0.73660845,
          0.97066426,
          0.51130974,
          -0.69874871,
          0.5365501,
          -0.36427557,
          -0.45972827,
          0.51756519,
          0.62428808,
          -0.55143833,
          0.90026712,
          -0.45001355,
          -0.56184465,
          -0.83273745,
          -0.40414938,
          0.53699923,
          0.41537341,
          0.2179791,
          -0.68594754,
          -0.15721099,
          -0.92007792,
          -0.86455017,
          -0.26456061,
          -1.0,
          -0.22857535
        ],
        [
          0.38333154,
          0.24866509,
          -0.41000804,
          0.87345868,
          -0.97460729,
          0.07197855,
          -0.33987743,
          -0.31621939,
          -0.06842475,
          0.82625878,
          -0.22112094,
          0.64971203,
          0.75891411,
          -0.46073607,
          -0.02752794,
          0.53009254,
          0.84866786,
          0.62432307,
          -0.20636055,
          -0.62314516,
          -0.60373968,
          0.14442892,
          0.91598928,
          -0.49259123,
          0.43455201,
          0.18615204,
          0.57410264,
          -0.13453968,
          -0.46134868,
          -0.55689931,
          -0.23418316,
          0.79180545,
          -0.14223106,
          -0.05160823,
          -0.69163823,
          -0.46109241,
          0.60792953,
          0.16658241,
          -0.39293995,
          0.12619756,
          0.5878132,
          -0.86313993,
          -0.38255808,
          0.00666954,
          -0.12308857,
          1.0,
          0.80555898,
          -0.19157435,
          -0.92567587,
          -0.7636497,
          0.39366359,
          0.65569943,
          -0.71340406,
          0.10790668,
          -0.73229516,
          0.52094418,
          0.89889002,
          -0.79300368,
          -0.3061513,
          0.64731193
        ],
        [
          0.96660227,
          -0.05655147,
          0.87295145,
          -0.98921216,
          0.81192064,
          -0.37115821,
          -0.50042099,
          -0.00122962,
          -1.0,
          0.29612046,
          -0.12135624,
          -0.17970856,
          -0.5875681,
          0.4990277,
          -0.80605245,
          0.14931169,
          -0.25868678,
          0.4345457,
          0.04404433,
          0.67272723,
          0.06289504,
          -0.87053347,
          -0.41540229,
          0.32740378,
          -0.29879385,
          -0.41943493,
          0.80264443,
          -0.65332937,
          -0.33251601,
          -0.20976588,
          -0.57627165,
          -0.03549321,
          0.09352898,
          -0.16920479,
          -0.88889837,
          0.24946526,
          0.80973464,
          -0.47491345,
          -0.16906953,
          -0.7028802,
          0.58610177,
          -0.44443944,
          -0.65065104,
          0.97449887,
          -0.44230345,
          0.33384648,
          -0.75112814,
          0.55922008,
          -0.33960536,
          0.89463985,
          0.18683794,
          0.80106837,
          0.3082239,
          0.80845934,
          0.12142459,
          -0.18360738,
          -0.64869982,
          0.17968586,
          -0.92130554,
          0.54996109
        ]
      ],
      "channel_abs_mean": [
        0.06999265,
        0.01847661,
        0.04450002,
        0.09052388,
        0.07394263,
        0.0589014,
        0.07233434,
        0.04873028,
        0.07926686,
        0.07096469,
        0.03774988,
        0.07554895,
        0.04605107,
        0.08779707,
        0.05347556,
        0.05902035,
        0.06792068,
        0.05779059,
        0.01620967,
        0.07935781,
        0.05511298,
        0.08756867,
        0.05884308,
        0.03802985,
        0.06110594,
        0.04762417,
        0.07456972,
        0.0384106,
        0.04410171,
        0.06102729,
        0.05988717,
        0.06726347,
        0.01605266,
        0.01753993,
        0.09315301,
        0.07185775,
        0.09239603,
        0.05183504,
        0.07130997,
        0.07626036,
        0.05789437,
        0.07446553,
        0.06284539,
        0.08260102,
        0.04228894,
        0.08565324,
        0.08938511,
        0.07144648,
        0.08823306,
        0.08964237,
        0.04182228,
        0.07771991,
        0.04367605,
        0.08051097,
        0.05914381,
        0.07338805,
        0.09313554,
        0.05557949,
        0.10178697,
        0.06464802
      ],
      "channel_signed_mean": [
        0.06999265,
        0.01492106,
        0.01038484,
        0.00628552,
        0.01183961,
        0.03556566,
        0.01921414,
        -0.02842115,
        -0.07926686,
        0.07096469,
        0.01602982,
        0.02081114,
        0.00699302,
        0.05843847,
        -0.05347556,
        0.04005399,
        -0.01384266,
        0.05779059,
        0.00306016,
        0.03965034,
        -0.03516825,
        -0.01739938,
        0.01238609,
        0.00391506,
        0.01833568,
        0.02125314,
        0.06565212,
        -0.01123902,
        -0.04410171,
        0.01235251,
        -0.05988717,
        0.06503192,
        0.00698955,
        0.00361302,
        -0.04220584,
        -0.00851186,
        0.06005774,
        -0.00813658,
        -0.07130997,
        0.03206834,
        0.03432439,
        -0.07446553,
        -0.00243984,
        0.08260102,
        -0.04228894,
        0.05730832,
        -0.03805403,
        0.0228857,
        -0.08823306,
        0.01483182,
        0.02975526,
        0.04130354,
        -0.00178282,
        -0.02280498,
        -0.05150951,
        0.00231167,
        -0.00358963,
        -0.01206961,
        -0.04035007,
        0.01117695
      ],
      "channel_l2": [
        0.0819241,
        0.02130834,
        0.06108307,
        0.09563122,
        0.08431931,
        0.06967048,
        0.07519853,
        0.06370916,
        0.09105897,
        0.07600664,
        0.04126669,
        0.08215336,
        0.06107141,
        0.09207971,
        0.0683878,
        0.06866283,
        0.07360655,
        0.06767765,
        0.0199751,
        0.08633687,
        0.06660067,
        0.09654442,
        0.06832302,
        0.04327419,
        0.06612957,
        0.05294834,
        0.0824138,
        0.04673975,
        0.04522155,
        0.06485523,
        0.06417277,
        0.07742973,
        0.01668094,
        0.02013834,
        0.09441652,
        0.07733482,
        0.09530366,
        0.05482273,
        0.08121471,
        0.08673143,
        0.06030989,
        0.0774863,
        0.06413835,
        0.09679431,
        0.04778458,
        0.0932605,
        0.0912347,
        0.07879199,
        0.09286127,
        0.09241907,
        0.04604477,
        0.07956681,
        0.05207406,
        0.08985492,
        0.0723574,
        0.08115378,
        0.09547094,
        0.06333792,
        0.10815243,
        0.06791128
      ],
      "top_channels_by_abs_weight": [
        {
          "rank": 1,
          "channel_index": 58,
          "channel_name": "Oz",
          "abs_mean_weight": 0.10178697,
          "signed_mean_weight": -0.04035007,
          "l2_weight": 0.10815243
        },
        {
          "rank": 2,
          "channel_index": 34,
          "channel_name": "CP3",
          "abs_mean_weight": 0.09315301,
          "signed_mean_weight": -0.04220584,
          "l2_weight": 0.09441652
        },
        {
          "rank": 3,
          "channel_index": 56,
          "channel_name": "PO8",
          "abs_mean_weight": 0.09313554,
          "signed_mean_weight": -0.00358963,
          "l2_weight": 0.09547094
        },
        {
          "rank": 4,
          "channel_index": 36,
          "channel_name": "CPz",
          "abs_mean_weight": 0.09239603,
          "signed_mean_weight": 0.06005774,
          "l2_weight": 0.09530366
        },
        {
          "rank": 5,
          "channel_index": 3,
          "channel_name": "AF3",
          "abs_mean_weight": 0.09052388,
          "signed_mean_weight": 0.00628552,
          "l2_weight": 0.09563122
        },
        {
          "rank": 6,
          "channel_index": 49,
          "channel_name": "P8",
          "abs_mean_weight": 0.08964237,
          "signed_mean_weight": 0.01483182,
          "l2_weight": 0.09241907
        },
        {
          "rank": 7,
          "channel_index": 46,
          "channel_name": "P2",
          "abs_mean_weight": 0.08938511,
          "signed_mean_weight": -0.03805403,
          "l2_weight": 0.0912347
        },
        {
          "rank": 8,
          "channel_index": 48,
          "channel_name": "P6",
          "abs_mean_weight": 0.08823306,
          "signed_mean_weight": -0.08823306,
          "l2_weight": 0.09286127
        },
        {
          "rank": 9,
          "channel_index": 13,
          "channel_name": "F8",
          "abs_mean_weight": 0.08779707,
          "signed_mean_weight": 0.05843847,
          "l2_weight": 0.09207971
        },
        {
          "rank": 10,
          "channel_index": 21,
          "channel_name": "FC6",
          "abs_mean_weight": 0.08756867,
          "signed_mean_weight": -0.01739938,
          "l2_weight": 0.09654442
        },
        {
          "rank": 11,
          "channel_index": 45,
          "channel_name": "Pz",
          "abs_mean_weight": 0.08565324,
          "signed_mean_weight": 0.05730832,
          "l2_weight": 0.0932605
        },
        {
          "rank": 12,
          "channel_index": 43,
          "channel_name": "P3",
          "abs_mean_weight": 0.08260102,
          "signed_mean_weight": 0.08260102,
          "l2_weight": 0.09679431
        },
        {
          "rank": 13,
          "channel_index": 53,
          "channel_name": "POz",
          "abs_mean_weight": 0.08051097,
          "signed_mean_weight": -0.02280498,
          "l2_weight": 0.08985492
        },
        {
          "rank": 14,
          "channel_index": 19,
          "channel_name": "FC2",
          "abs_mean_weight": 0.07935781,
          "signed_mean_weight": 0.03965034,
          "l2_weight": 0.08633687
        },
        {
          "rank": 15,
          "channel_index": 8,
          "channel_name": "F1",
          "abs_mean_weight": 0.07926686,
          "signed_mean_weight": -0.07926686,
          "l2_weight": 0.09105897
        }
      ]
    }
  },
  {
    "subject_id": "1",
    "fold_id": 2,
    "accuracy": 0.40625,
    "balanced_accuracy": 0.40625,
    "prediction_histogram": [
      15,
      17
    ],
    "collapse_diagnostics": {
      "prediction_histogram": [
        15,
        17
      ],
      "collapse_ratio": 0.53125,
      "collapse_threshold": 0.9,
      "collapse_flag": false,
      "majority_predicted_class": 1
    },
    "probability_diagnostics": {
      "available": true,
      "probability_shape": [
        32,
        2
      ],
      "mean_probability_by_class": [
        0.49411769,
        0.50588231
      ],
      "std_probability_by_class": [
        0.04663052,
        0.04663053
      ],
      "mean_confidence": 0.54022866,
      "std_confidence": 0.02430355,
      "mean_prediction_entropy": 0.68871569,
      "mean_normalized_prediction_entropy": 0.99360671,
      "mean_predicted_class_probability": 0.54022866
    },
    "spatial_update_stats": {
      "available": true,
      "parameter_name": "spatial_conv.1.weight",
      "initial_shape": [
        4,
        60
      ],
      "final_shape": [
        4,
        60
      ],
      "initial_l2": 1.1395002,
      "final_l2": 1.14038804,
      "delta_l2": 0.05150365,
      "delta_max_abs": 0.00587853,
      "relative_delta": 0.04519846,
      "changed": true
    },
    "n_trainable_params_final": 4342,
    "spatial_conv": {
      "available": true,
      "parameter_name": "spatial_conv.1.weight",
      "raw_weight_shape": [
        4,
        1,
        60,
        1
      ],
      "weight_matrix_shape": [
        4,
        60
      ],
      "n_virtual_filters": 4,
      "n_input_channels": 60,
      "channel_names": [
        "Fp1",
        "Fpz",
        "Fp2",
        "AF3",
        "AF4",
        "F7",
        "F5",
        "F3",
        "F1",
        "Fz",
        "F2",
        "F4",
        "F6",
        "F8",
        "FT7",
        "FC5",
        "FC3",
        "FC1",
        "FCz",
        "FC2",
        "FC4",
        "FC6",
        "FT8",
        "T7",
        "C5",
        "C3",
        "C1",
        "Cz",
        "C2",
        "C4",
        "C6",
        "T8",
        "TP7",
        "CP5",
        "CP3",
        "CP1",
        "CPz",
        "CP2",
        "CP4",
        "CP6",
        "TP8",
        "P7",
        "P5",
        "P3",
        "P1",
        "Pz",
        "P2",
        "P4",
        "P6",
        "P8",
        "PO7",
        "PO5",
        "PO3",
        "POz",
        "PO4",
        "PO6",
        "PO8",
        "O1",
        "Oz",
        "O2"
      ],
      "weight_matrix": [
        [
          0.10152588,
          0.02697542,
          0.00063964,
          -0.03825691,
          0.02669384,
          0.06887262,
          0.09441027,
          0.03781139,
          -0.07779679,
          0.08642025,
          0.04829425,
          -0.09042153,
          0.00566167,
          0.12728621,
          -0.09366895,
          0.10849913,
          -0.0525778,
          0.00355644,
          -0.00229113,
          0.02527251,
          -0.10646862,
          0.12460144,
          -0.03717912,
          0.04070238,
          0.1007122,
          0.08007681,
          -0.01858784,
          0.01469119,
          -0.03513608,
          0.05712424,
          -0.09705202,
          0.09555788,
          0.01368953,
          0.00565621,
          -0.07583142,
          -0.10633622,
          -0.06410968,
          -0.06608189,
          -0.12488727,
          0.12833455,
          0.03873055,
          -0.07004219,
          0.05129664,
          0.12198542,
          -0.03370842,
          -0.05805103,
          -0.10954043,
          0.11214983,
          -0.08616221,
          0.09540879,
          -0.01804397,
          -0.07472583,
          0.01188039,
          -0.12283172,
          -0.11050677,
          0.08437837,
          0.0638295,
          0.06068891,
          0.11832104,
          -0.08171821
        ],
        [
          0.01273667,
          0.00424035,
          -0.00502466,
          0.08832049,
          0.04688433,
          0.11373174,
          0.08658659,
          -0.11793718,
          -0.115049,
          0.04627094,
          0.04701241,
          0.10695194,
          -0.00460538,
          0.10991371,
          -0.02113779,
          -0.03796226,
          -0.08143053,
          0.09270041,
          0.0226387,
          0.11834603,
          0.02806512,
          -0.09691376,
          0.0297229,
          -0.00281754,
          -0.04181007,
          0.02929381,
          0.10147208,
          0.03286745,
          -0.05201665,
          0.08247122,
          -0.04564733,
          0.06975537,
          0.0285424,
          0.03866279,
          0.0995388,
          0.09135915,
          0.11922748,
          0.06209644,
          -0.09431274,
          0.07206742,
          -0.04051595,
          -0.05550065,
          0.06562814,
          0.08162643,
          -0.0745413,
          0.11230115,
          -0.06192823,
          -0.07605491,
          -0.10498851,
          -0.0489259,
          0.0748138,
          0.05580133,
          0.0275613,
          -0.09240505,
          -0.02239504,
          -0.11719105,
          -0.11006299,
          -0.03500203,
          -0.12790307,
          -0.03213794
        ],
        [
          0.04953908,
          0.03275789,
          -0.04922236,
          0.11379191,
          -0.12191135,
          0.00434501,
          -0.04143577,
          -0.04255302,
          -0.01011554,
          0.10194234,
          -0.03267573,
          0.08240379,
          0.09784754,
          -0.05674498,
          -0.00444747,
          0.07098553,
          0.1062379,
          0.07802733,
          -0.02811889,
          -0.08449694,
          -0.08171287,
          0.02148257,
          0.1177165,
          -0.06173589,
          0.05878353,
          0.0221364,
          0.07386156,
          -0.02146929,
          -0.06157757,
          -0.07447336,
          -0.03262372,
          0.09902912,
          -0.01295117,
          -0.00394602,
          -0.08911203,
          -0.05994415,
          0.07540715,
          0.01804492,
          -0.05357399,
          0.017089,
          0.0792478,
          -0.10394609,
          -0.05139461,
          0.00191018,
          -0.01507245,
          0.12455289,
          0.0986164,
          -0.02510683,
          -0.11286901,
          -0.09248541,
          0.04681977,
          0.08541089,
          -0.09173573,
          0.01154176,
          -0.0960639,
          0.06876331,
          0.1169964,
          -0.10202098,
          -0.04131298,
          0.07987916
        ],
        [
          0.12377935,
          -0.0033003,
          0.11489791,
          -0.1208583,
          0.10756612,
          -0.04310583,
          -0.05852214,
          0.00249592,
          -0.12818204,
          0.03953863,
          -0.01250314,
          -0.02348676,
          -0.06648766,
          0.06583582,
          -0.10635404,
          0.01960432,
          -0.03451592,
          0.05152889,
          0.00396512,
          0.08348118,
          0.00669945,
          -0.10724813,
          -0.04911103,
          0.03892732,
          -0.03515957,
          -0.05641698,
          0.09655935,
          -0.08666626,
          -0.0420909,
          -0.02522953,
          -0.07427236,
          -0.00582222,
          0.01403397,
          -0.02333374,
          -0.11588512,
          0.02726948,
          0.10181641,
          -0.05938379,
          -0.02043146,
          -0.09200979,
          0.07603475,
          -0.05393028,
          -0.08464104,
          0.11801121,
          -0.06089964,
          0.04093578,
          -0.09377881,
          0.07068687,
          -0.04716726,
          0.11036672,
          0.02379745,
          0.10057936,
          0.03274704,
          0.10005743,
          0.01144968,
          -0.02454151,
          -0.08307953,
          0.02033972,
          -0.1202462,
          0.06593757
        ]
      ],
      "weight_matrix_norm": [
        [
          0.79110324,
          0.21019605,
          0.00498417,
          -0.29810295,
          0.20800197,
          0.53666466,
          0.73565745,
          0.29463145,
          -0.60620296,
          0.6733982,
          0.37631527,
          -0.70457661,
          0.04411646,
          0.99183118,
          -0.72988093,
          0.84543973,
          -0.4096933,
          0.02771226,
          -0.01785277,
          0.19692682,
          -0.82961774,
          0.97091109,
          -0.28970468,
          0.31715843,
          0.78476298,
          0.6239692,
          -0.14483893,
          0.1144757,
          -0.27378505,
          0.44511971,
          -0.75624228,
          0.74459982,
          0.10667067,
          0.04407395,
          -0.59088856,
          -0.82858604,
          -0.49955124,
          -0.51491892,
          -0.97313827,
          1.0,
          0.30179363,
          -0.54577816,
          0.3997103,
          0.95052671,
          -0.26266047,
          -0.45234144,
          -0.85355365,
          0.87388647,
          -0.67138749,
          0.74343807,
          -0.14060101,
          -0.58227366,
          0.09257357,
          -0.95712125,
          -0.86108357,
          0.65748757,
          0.49736798,
          0.47289613,
          0.92197335,
          -0.63675928
        ],
        [
          0.09958066,
          0.03315281,
          -0.03928489,
          0.69052666,
          0.36656138,
          0.88920259,
          0.67697042,
          -0.92208248,
          -0.89950144,
          0.36176562,
          0.36756277,
          0.83619523,
          -0.03600679,
          0.85935158,
          -0.16526411,
          -0.2968049,
          -0.63665813,
          0.72477072,
          0.17699887,
          0.92527902,
          0.21942492,
          -0.75771254,
          0.23238613,
          -0.02202868,
          -0.32688871,
          0.22903129,
          0.79335135,
          0.25697157,
          -0.406688,
          0.6447947,
          -0.35689002,
          0.54537678,
          0.22315645,
          0.30228198,
          0.77823621,
          0.71428424,
          0.93217051,
          0.48549604,
          -0.73737669,
          0.56345344,
          -0.31677073,
          -0.43392745,
          0.51310837,
          0.63818973,
          -0.5827952,
          0.8780176,
          -0.48418096,
          -0.59462923,
          -0.82084429,
          -0.38252324,
          0.58492571,
          0.43627825,
          0.21548584,
          -0.72246152,
          -0.17509387,
          -0.91624886,
          -0.86051875,
          -0.2736606,
          -1.0,
          -0.25126791
        ],
        [
          0.39773527,
          0.26300386,
          -0.39519244,
          0.91360307,
          -0.97879177,
          0.03488483,
          -0.33267614,
          -0.34164619,
          -0.08121479,
          0.81846625,
          -0.26234424,
          0.66159672,
          0.78559023,
          -0.45558944,
          -0.03570747,
          0.5699228,
          0.85295409,
          0.62645942,
          -0.22575861,
          -0.67840207,
          -0.65604961,
          0.17247747,
          0.94511253,
          -0.49566004,
          0.47195634,
          0.17772691,
          0.59301364,
          -0.17237088,
          -0.49438891,
          -0.5979256,
          -0.26192659,
          0.79507685,
          -0.10398131,
          -0.03168151,
          -0.71545529,
          -0.48127466,
          0.60542268,
          0.14487758,
          -0.43013045,
          0.13720275,
          0.63625824,
          -0.83455384,
          -0.41263279,
          0.01533626,
          -0.12101243,
          1.0,
          0.79176325,
          -0.20157565,
          -0.90619344,
          -0.74253929,
          0.37590268,
          0.68573993,
          -0.73652029,
          0.09266552,
          -0.77126992,
          0.55208117,
          0.93933105,
          -0.81909764,
          -0.33169022,
          0.6413272
        ],
        [
          0.96565282,
          -0.02574701,
          0.89636517,
          -0.94286454,
          0.83916688,
          -0.33628604,
          -0.45655492,
          0.01947167,
          -1.0,
          0.30845684,
          -0.09754204,
          -0.18322976,
          -0.51869714,
          0.51361191,
          -0.82971096,
          0.15294126,
          -0.26927271,
          0.40199772,
          0.03093348,
          0.65127045,
          0.05226516,
          -0.83668613,
          -0.38313508,
          0.30368778,
          -0.27429408,
          -0.44013175,
          0.75329864,
          -0.67611861,
          -0.32836819,
          -0.19682577,
          -0.57942873,
          -0.04542151,
          0.10948472,
          -0.18203594,
          -0.9040668,
          0.21274029,
          0.79431105,
          -0.46327704,
          -0.15939413,
          -0.71780562,
          0.59317791,
          -0.42073193,
          -0.66031903,
          0.92065328,
          -0.47510275,
          0.31935662,
          -0.73160648,
          0.55145687,
          -0.36797094,
          0.8610155,
          0.18565358,
          0.78466034,
          0.25547293,
          0.78058857,
          0.08932361,
          -0.19145823,
          -0.64813709,
          0.15867837,
          -0.93808931,
          0.51440573
        ]
      ],
      "channel_abs_mean": [
        0.07189524,
        0.01681849,
        0.04244614,
        0.09030689,
        0.07576391,
        0.0575138,
        0.07023869,
        0.05019938,
        0.08278584,
        0.06854304,
        0.03512138,
        0.07581601,
        0.04365056,
        0.08994518,
        0.05640206,
        0.05926281,
        0.06869054,
        0.05645327,
        0.01425346,
        0.07789916,
        0.05573652,
        0.08756148,
        0.05843239,
        0.03604578,
        0.05911634,
        0.046981,
        0.07262021,
        0.03892355,
        0.0477053,
        0.05982459,
        0.06239886,
        0.06754114,
        0.01730427,
        0.01789969,
        0.09509185,
        0.07122725,
        0.09014018,
        0.05140176,
        0.07330137,
        0.07737519,
        0.05863227,
        0.07085481,
        0.06324011,
        0.08088331,
        0.04605545,
        0.08396021,
        0.09096597,
        0.07099961,
        0.08779676,
        0.08679671,
        0.04086874,
        0.07912935,
        0.04098112,
        0.08170899,
        0.06010385,
        0.07371856,
        0.09349211,
        0.05451291,
        0.10194582,
        0.06491822
      ],
      "channel_signed_mean": [
        0.07189524,
        0.01516834,
        0.01532263,
        0.0107493,
        0.01480823,
        0.03596088,
        0.02025974,
        -0.03004573,
        -0.08278584,
        0.06854304,
        0.01253195,
        0.01886186,
        0.00810404,
        0.06157269,
        -0.05640206,
        0.04028168,
        -0.01557159,
        0.05645327,
        -0.00095155,
        0.03565069,
        -0.03835423,
        -0.01451947,
        0.01528731,
        0.00376907,
        0.02063152,
        0.01877251,
        0.06332628,
        -0.01514423,
        -0.0477053,
        0.00997314,
        -0.06239886,
        0.06463004,
        0.01082868,
        0.00425981,
        -0.04532244,
        -0.01191293,
        0.05808534,
        -0.01133108,
        -0.07330137,
        0.0313703,
        0.03837429,
        -0.07085481,
        -0.00477772,
        0.08088331,
        -0.04605545,
        0.0549347,
        -0.04165777,
        0.02041874,
        -0.08779676,
        0.01609105,
        0.03184676,
        0.04176643,
        -0.00488675,
        -0.0259094,
        -0.05437901,
        0.00285228,
        -0.00307916,
        -0.0139986,
        -0.0427853,
        0.00799014
      ],
      "channel_l2": [
        0.08403151,
        0.02138706,
        0.06255004,
        0.09594194,
        0.08564979,
        0.0699202,
        0.07340351,
        0.06549021,
        0.09463294,
        0.07342514,
        0.03796885,
        0.08209261,
        0.05926216,
        0.09465352,
        0.07167922,
        0.06825773,
        0.07394795,
        0.06585876,
        0.01819446,
        0.08478402,
        0.06863871,
        0.09602273,
        0.0680713,
        0.04180694,
        0.06438697,
        0.05230516,
        0.07972034,
        0.04813541,
        0.04874351,
        0.06373283,
        0.06723738,
        0.07719745,
        0.01848484,
        0.02284097,
        0.09621421,
        0.07744484,
        0.09270661,
        0.05494278,
        0.08333568,
        0.08720852,
        0.06165042,
        0.07365374,
        0.06469913,
        0.09417219,
        0.05154757,
        0.09106404,
        0.09267399,
        0.07744178,
        0.09139293,
        0.0897649,
        0.0465862,
        0.08079135,
        0.05096219,
        0.09188447,
        0.07428434,
        0.08090755,
        0.09588853,
        0.06271019,
        0.10784824,
        0.06789543
      ],
      "top_channels_by_abs_weight": [
        {
          "rank": 1,
          "channel_index": 58,
          "channel_name": "Oz",
          "abs_mean_weight": 0.10194582,
          "signed_mean_weight": -0.0427853,
          "l2_weight": 0.10784824
        },
        {
          "rank": 2,
          "channel_index": 34,
          "channel_name": "CP3",
          "abs_mean_weight": 0.09509185,
          "signed_mean_weight": -0.04532244,
          "l2_weight": 0.09621421
        },
        {
          "rank": 3,
          "channel_index": 56,
          "channel_name": "PO8",
          "abs_mean_weight": 0.09349211,
          "signed_mean_weight": -0.00307916,
          "l2_weight": 0.09588853
        },
        {
          "rank": 4,
          "channel_index": 46,
          "channel_name": "P2",
          "abs_mean_weight": 0.09096597,
          "signed_mean_weight": -0.04165777,
          "l2_weight": 0.09267399
        },
        {
          "rank": 5,
          "channel_index": 3,
          "channel_name": "AF3",
          "abs_mean_weight": 0.09030689,
          "signed_mean_weight": 0.0107493,
          "l2_weight": 0.09594194
        },
        {
          "rank": 6,
          "channel_index": 36,
          "channel_name": "CPz",
          "abs_mean_weight": 0.09014018,
          "signed_mean_weight": 0.05808534,
          "l2_weight": 0.09270661
        },
        {
          "rank": 7,
          "channel_index": 13,
          "channel_name": "F8",
          "abs_mean_weight": 0.08994518,
          "signed_mean_weight": 0.06157269,
          "l2_weight": 0.09465352
        },
        {
          "rank": 8,
          "channel_index": 48,
          "channel_name": "P6",
          "abs_mean_weight": 0.08779676,
          "signed_mean_weight": -0.08779676,
          "l2_weight": 0.09139293
        },
        {
          "rank": 9,
          "channel_index": 21,
          "channel_name": "FC6",
          "abs_mean_weight": 0.08756148,
          "signed_mean_weight": -0.01451947,
          "l2_weight": 0.09602273
        },
        {
          "rank": 10,
          "channel_index": 49,
          "channel_name": "P8",
          "abs_mean_weight": 0.08679671,
          "signed_mean_weight": 0.01609105,
          "l2_weight": 0.0897649
        },
        {
          "rank": 11,
          "channel_index": 45,
          "channel_name": "Pz",
          "abs_mean_weight": 0.08396021,
          "signed_mean_weight": 0.0549347,
          "l2_weight": 0.09106404
        },
        {
          "rank": 12,
          "channel_index": 8,
          "channel_name": "F1",
          "abs_mean_weight": 0.08278584,
          "signed_mean_weight": -0.08278584,
          "l2_weight": 0.09463294
        },
        {
          "rank": 13,
          "channel_index": 53,
          "channel_name": "POz",
          "abs_mean_weight": 0.08170899,
          "signed_mean_weight": -0.0259094,
          "l2_weight": 0.09188447
        },
        {
          "rank": 14,
          "channel_index": 43,
          "channel_name": "P3",
          "abs_mean_weight": 0.08088331,
          "signed_mean_weight": 0.08088331,
          "l2_weight": 0.09417219
        },
        {
          "rank": 15,
          "channel_index": 51,
          "channel_name": "PO5",
          "abs_mean_weight": 0.07912935,
          "signed_mean_weight": 0.04176643,
          "l2_weight": 0.08079135
        }
      ]
    }
  },
  {
    "subject_id": "1",
    "fold_id": 3,
    "accuracy": 0.5625,
    "balanced_accuracy": 0.5625,
    "prediction_histogram": [
      18,
      14
    ],
    "collapse_diagnostics": {
      "prediction_histogram": [
        18,
        14
      ],
      "collapse_ratio": 0.5625,
      "collapse_threshold": 0.9,
      "collapse_flag": false,
      "majority_predicted_class": 0
    },
    "probability_diagnostics": {
      "available": true,
      "probability_shape": [
        32,
        2
      ],
      "mean_probability_by_class": [
        0.50808846,
        0.49191153
      ],
      "std_probability_by_class": [
        0.04690734,
        0.04690734
      ],
      "mean_confidence": 0.53599136,
      "std_confidence": 0.03115034,
      "mean_prediction_entropy": 0.6885879,
      "mean_normalized_prediction_entropy": 0.99342235,
      "mean_predicted_class_probability": 0.53599136
    },
    "spatial_update_stats": {
      "available": true,
      "parameter_name": "spatial_conv.1.weight",
      "initial_shape": [
        4,
        60
      ],
      "final_shape": [
        4,
        60
      ],
      "initial_l2": 1.1395002,
      "final_l2": 1.13773304,
      "delta_l2": 0.04496712,
      "delta_max_abs": 0.00563359,
      "relative_delta": 0.03946215,
      "changed": true
    },
    "n_trainable_params_final": 4342,
    "spatial_conv": {
      "available": true,
      "parameter_name": "spatial_conv.1.weight",
      "raw_weight_shape": [
        4,
        1,
        60,
        1
      ],
      "weight_matrix_shape": [
        4,
        60
      ],
      "n_virtual_filters": 4,
      "n_input_channels": 60,
      "channel_names": [
        "Fp1",
        "Fpz",
        "Fp2",
        "AF3",
        "AF4",
        "F7",
        "F5",
        "F3",
        "F1",
        "Fz",
        "F2",
        "F4",
        "F6",
        "F8",
        "FT7",
        "FC5",
        "FC3",
        "FC1",
        "FCz",
        "FC2",
        "FC4",
        "FC6",
        "FT8",
        "T7",
        "C5",
        "C3",
        "C1",
        "Cz",
        "C2",
        "C4",
        "C6",
        "T8",
        "TP7",
        "CP5",
        "CP3",
        "CP1",
        "CPz",
        "CP2",
        "CP4",
        "CP6",
        "TP8",
        "P7",
        "P5",
        "P3",
        "P1",
        "Pz",
        "P2",
        "P4",
        "P6",
        "P8",
        "PO7",
        "PO5",
        "PO3",
        "POz",
        "PO4",
        "PO6",
        "PO8",
        "O1",
        "Oz",
        "O2"
      ],
      "weight_matrix": [
        [
          0.09758893,
          0.02584159,
          -0.00271123,
          -0.04047018,
          0.02455223,
          0.0670503,
          0.09265178,
          0.03969796,
          -0.07587243,
          0.08952466,
          0.05492388,
          -0.08796342,
          0.00966892,
          0.12290297,
          -0.09242768,
          0.10902511,
          -0.05471881,
          0.00187406,
          0.00069236,
          0.0266453,
          -0.10488299,
          0.12209249,
          -0.04001135,
          0.03824616,
          0.10549303,
          0.08120938,
          -0.02019737,
          0.01544977,
          -0.035515,
          0.06161769,
          -0.08960022,
          0.09629741,
          0.00972649,
          0.01072402,
          -0.0726542,
          -0.10791693,
          -0.06748472,
          -0.06097305,
          -0.12509871,
          0.13200091,
          0.03416049,
          -0.07329679,
          0.05544949,
          0.12674798,
          -0.02912734,
          -0.05825987,
          -0.10286934,
          0.11821983,
          -0.08387525,
          0.09477626,
          -0.0195864,
          -0.07338858,
          0.01434049,
          -0.11987466,
          -0.10575233,
          0.08553919,
          0.06503161,
          0.06586117,
          0.12461418,
          -0.0754119
        ],
        [
          0.01083845,
          0.00334185,
          -0.00769357,
          0.08215571,
          0.04946685,
          0.10857747,
          0.08945578,
          -0.11627171,
          -0.1104506,
          0.05092555,
          0.05313809,
          0.10517058,
          -0.0064106,
          0.10969295,
          -0.01930618,
          -0.04040352,
          -0.07879927,
          0.09480274,
          0.02573207,
          0.12054775,
          0.02838168,
          -0.09706255,
          0.0294093,
          -0.00526739,
          -0.04726057,
          0.02694754,
          0.10305873,
          0.03675769,
          -0.04809986,
          0.08121152,
          -0.04620009,
          0.06892725,
          0.02291497,
          0.03050778,
          0.09839313,
          0.09274527,
          0.12187278,
          0.06250271,
          -0.0953012,
          0.07259406,
          -0.04083106,
          -0.05799089,
          0.06810497,
          0.08055495,
          -0.07457876,
          0.11221009,
          -0.06219653,
          -0.07650647,
          -0.10212648,
          -0.04571502,
          0.07339426,
          0.05350627,
          0.02569501,
          -0.09407272,
          -0.02494946,
          -0.11314364,
          -0.10596412,
          -0.03814146,
          -0.13043277,
          -0.03290616
        ],
        [
          0.04912687,
          0.03162667,
          -0.05028614,
          0.11305763,
          -0.12282418,
          0.00509261,
          -0.04342934,
          -0.04223597,
          -0.01072071,
          0.10227612,
          -0.02791153,
          0.07911189,
          0.09404764,
          -0.05733582,
          -0.00670924,
          0.06875271,
          0.10536622,
          0.0768355,
          -0.02851421,
          -0.08458758,
          -0.08199779,
          0.02035216,
          0.11416125,
          -0.0618894,
          0.06158336,
          0.020921,
          0.0697908,
          -0.02051439,
          -0.0618701,
          -0.07366621,
          -0.0322558,
          0.09701212,
          -0.01311128,
          0.00091422,
          -0.08840245,
          -0.0616215,
          0.07477133,
          0.01902325,
          -0.05194882,
          0.01537197,
          0.07660997,
          -0.10366535,
          -0.05671573,
          0.0083305,
          -0.01658745,
          0.12417455,
          0.10045576,
          -0.02342982,
          -0.11493968,
          -0.0940612,
          0.05304978,
          0.0909455,
          -0.08958188,
          0.01175696,
          -0.0949328,
          0.06620642,
          0.11454565,
          -0.09782713,
          -0.03757877,
          0.08365657
        ],
        [
          0.12392642,
          -0.0009349,
          0.11111981,
          -0.12449224,
          0.10400744,
          -0.04742891,
          -0.06174967,
          0.00172351,
          -0.12482898,
          0.03864205,
          -0.01320532,
          -0.02083044,
          -0.06901493,
          0.06155439,
          -0.09787516,
          0.01995558,
          -0.03138369,
          0.05386273,
          0.00503378,
          0.0859528,
          0.00762548,
          -0.11072101,
          -0.05355216,
          0.03906127,
          -0.03730433,
          -0.05250339,
          0.09987769,
          -0.08773392,
          -0.0395947,
          -0.02361568,
          -0.07640535,
          -0.00267457,
          0.01339374,
          -0.02246531,
          -0.11557288,
          0.02945659,
          0.10467634,
          -0.05789204,
          -0.01859161,
          -0.08878508,
          0.07408673,
          -0.05585656,
          -0.08186921,
          0.1198189,
          -0.05951244,
          0.04473853,
          -0.09211555,
          0.07198723,
          -0.04744479,
          0.1081932,
          0.02317653,
          0.1012724,
          0.03624979,
          0.10207695,
          0.01187651,
          -0.0267783,
          -0.08544601,
          0.02123953,
          -0.11945504,
          0.06626495
        ]
      ],
      "weight_matrix_norm": [
        [
          0.73930496,
          0.19576827,
          -0.02053944,
          -0.30659017,
          0.18600044,
          0.50795335,
          0.70190263,
          0.30074009,
          -0.5747872,
          0.67821246,
          0.41608715,
          -0.66638494,
          0.07324886,
          0.93107671,
          -0.70020485,
          0.82594216,
          -0.41453362,
          0.01419733,
          0.00524509,
          0.20185699,
          -0.79456264,
          0.92493677,
          -0.30311421,
          0.28974167,
          0.79918414,
          0.6152184,
          -0.15300936,
          0.11704291,
          -0.26905116,
          0.4667975,
          -0.67878491,
          0.72952086,
          0.07368506,
          0.08124205,
          -0.55040681,
          -0.81754684,
          -0.51124436,
          -0.46191385,
          -0.94771093,
          1.0,
          0.25878978,
          -0.55527484,
          0.42006901,
          0.96020538,
          -0.22066014,
          -0.44135961,
          -0.77930784,
          0.89559859,
          -0.63541424,
          0.71799701,
          -0.14838077,
          -0.55597031,
          0.10863934,
          -0.90813512,
          -0.80114847,
          0.64801973,
          0.49266031,
          0.49894479,
          0.9440403,
          -0.57129836
        ],
        [
          0.08309603,
          0.02562127,
          -0.05898494,
          0.62987018,
          0.37925172,
          0.83244014,
          0.68583822,
          -0.8914302,
          -0.84680098,
          0.39043522,
          0.40739831,
          0.80632019,
          -0.04914871,
          0.84099221,
          -0.14801633,
          -0.3097651,
          -0.60413706,
          0.72683227,
          0.19728224,
          0.92421365,
          0.21759626,
          -0.74415773,
          0.2254748,
          -0.04038395,
          -0.36233664,
          0.20660102,
          0.79012913,
          0.28181332,
          -0.36877128,
          0.62263125,
          -0.35420612,
          0.52845043,
          0.17568417,
          0.2338966,
          0.75435901,
          0.71105808,
          0.93437237,
          0.47919485,
          -0.73065376,
          0.55656308,
          -0.31304294,
          -0.44460371,
          0.52214617,
          0.61759752,
          -0.57177931,
          0.86029059,
          -0.47684744,
          -0.5865587,
          -0.78298175,
          -0.3504872,
          0.56269801,
          0.41022107,
          0.19699807,
          -0.72123533,
          -0.19128218,
          -0.86744797,
          -0.8124041,
          -0.29242238,
          -1.0,
          -0.25228444
        ],
        [
          0.39562756,
          0.25469527,
          -0.40496337,
          0.91047341,
          -0.98912525,
          0.04101171,
          -0.34974429,
          -0.34013388,
          -0.08633581,
          0.82364804,
          -0.2247766,
          0.63710231,
          0.75738257,
          -0.4617357,
          -0.0540307,
          0.55367792,
          0.84853309,
          0.61877012,
          -0.22963004,
          -0.68119901,
          -0.66034293,
          0.16389962,
          0.91936105,
          -0.49840647,
          0.49594185,
          0.16848056,
          0.56203783,
          -0.16520604,
          -0.49825102,
          -0.59324729,
          -0.25976175,
          0.78125608,
          -0.10558748,
          0.00736242,
          -0.71192086,
          -0.49624902,
          0.60214698,
          0.15319769,
          -0.4183532,
          0.1237932,
          0.61695385,
          -0.83483571,
          -0.45674199,
          0.06708702,
          -0.13358173,
          1.0,
          0.80898833,
          -0.18868454,
          -0.92562997,
          -0.75749183,
          0.42721945,
          0.73240048,
          -0.72141898,
          0.09468094,
          -0.76451093,
          0.53317219,
          0.92245674,
          -0.7878195,
          -0.30262858,
          0.67370141
        ],
        [
          0.99276966,
          -0.00748942,
          0.89017636,
          -0.99730235,
          0.83319944,
          -0.37995115,
          -0.49467421,
          0.01380698,
          -1.0,
          0.30955988,
          -0.10578733,
          -0.16687183,
          -0.55287588,
          0.49310976,
          -0.78407407,
          0.15986337,
          -0.25141352,
          0.43149221,
          0.04032544,
          0.68856442,
          0.06108744,
          -0.88698161,
          -0.42900422,
          0.31291828,
          -0.2988435,
          -0.42060259,
          0.80011618,
          -0.70283294,
          -0.3171916,
          -0.18918431,
          -0.61208022,
          -0.02142586,
          0.10729676,
          -0.17996867,
          -0.9258498,
          0.23597555,
          0.83855796,
          -0.46377081,
          -0.14893666,
          -0.71125376,
          0.59350586,
          -0.44746464,
          -0.65585095,
          0.95986444,
          -0.47675183,
          0.35839859,
          -0.73793405,
          0.57668686,
          -0.38007835,
          0.86673146,
          0.18566626,
          0.81128919,
          0.29039559,
          0.81773436,
          0.09514226,
          -0.21451992,
          -0.68450457,
          0.17014904,
          -0.95694959,
          0.53084588
        ]
      ],
      "channel_abs_mean": [
        0.07037017,
        0.01543625,
        0.04295269,
        0.09004394,
        0.07521267,
        0.05703732,
        0.07182164,
        0.04998229,
        0.08046818,
        0.07034209,
        0.0372947,
        0.07326908,
        0.04478552,
        0.08787154,
        0.05407957,
        0.05953423,
        0.067567,
        0.05684376,
        0.0149931,
        0.07943336,
        0.05572199,
        0.08755705,
        0.05928351,
        0.03611606,
        0.06291033,
        0.04539533,
        0.07323115,
        0.04011394,
        0.04626992,
        0.06002778,
        0.06111536,
        0.06622785,
        0.01478662,
        0.01615283,
        0.09375566,
        0.07293507,
        0.09220129,
        0.05009776,
        0.07273509,
        0.077188,
        0.05642206,
        0.07270239,
        0.06553484,
        0.08386308,
        0.0449515,
        0.08484576,
        0.0894093,
        0.07253584,
        0.08709655,
        0.08568642,
        0.04230174,
        0.07977819,
        0.04146679,
        0.08194532,
        0.05937778,
        0.07291689,
        0.09274685,
        0.05576732,
        0.10302019,
        0.0645599
      ],
      "channel_signed_mean": [
        0.07037017,
        0.0149688,
        0.01260722,
        0.00756273,
        0.01380058,
        0.03332286,
        0.01923214,
        -0.02927155,
        -0.08046818,
        0.07034209,
        0.01673628,
        0.01887215,
        0.00707276,
        0.05920362,
        -0.05407957,
        0.03933247,
        -0.01488389,
        0.05684376,
        0.000736,
        0.03713957,
        -0.0377184,
        -0.01633473,
        0.01250176,
        0.00253766,
        0.02062787,
        0.01914363,
        0.06313246,
        -0.01401021,
        -0.04626992,
        0.01138683,
        -0.06111536,
        0.06489056,
        0.00823098,
        0.00492018,
        -0.0445591,
        -0.01183414,
        0.05845893,
        -0.00933478,
        -0.07273509,
        0.03279546,
        0.03600653,
        -0.07270239,
        -0.00375762,
        0.08386308,
        -0.0449515,
        0.05571583,
        -0.03918141,
        0.02256769,
        -0.08709655,
        0.01579831,
        0.03250854,
        0.0430839,
        -0.00332415,
        -0.02502837,
        -0.05343952,
        0.00295592,
        -0.00295822,
        -0.01221697,
        -0.0407131,
        0.01040087
      ],
      "channel_l2": [
        0.08278327,
        0.02049437,
        0.06112048,
        0.09574412,
        0.08507807,
        0.068118,
        0.07464218,
        0.06496516,
        0.09172399,
        0.07510275,
        0.04121202,
        0.07982952,
        0.05861443,
        0.09248517,
        0.06808114,
        0.06827167,
        0.07295624,
        0.06670075,
        0.01937148,
        0.08629119,
        0.06816845,
        0.09617831,
        0.06776142,
        0.04137208,
        0.0680927,
        0.05127238,
        0.08042908,
        0.04926435,
        0.04735652,
        0.06398528,
        0.06527033,
        0.07655498,
        0.01558043,
        0.01969299,
        0.095042,
        0.07891871,
        0.09480909,
        0.05323926,
        0.08333117,
        0.08776848,
        0.05956519,
        0.07516951,
        0.0663931,
        0.09615107,
        0.05056498,
        0.09138678,
        0.09086686,
        0.07993793,
        0.09072901,
        0.08891805,
        0.04775399,
        0.08181685,
        0.05050951,
        0.09189334,
        0.07238667,
        0.07940215,
        0.09470907,
        0.06287632,
        0.10979876,
        0.0673781
      ],
      "top_channels_by_abs_weight": [
        {
          "rank": 1,
          "channel_index": 58,
          "channel_name": "Oz",
          "abs_mean_weight": 0.10302019,
          "signed_mean_weight": -0.0407131,
          "l2_weight": 0.10979876
        },
        {
          "rank": 2,
          "channel_index": 34,
          "channel_name": "CP3",
          "abs_mean_weight": 0.09375566,
          "signed_mean_weight": -0.0445591,
          "l2_weight": 0.095042
        },
        {
          "rank": 3,
          "channel_index": 56,
          "channel_name": "PO8",
          "abs_mean_weight": 0.09274685,
          "signed_mean_weight": -0.00295822,
          "l2_weight": 0.09470907
        },
        {
          "rank": 4,
          "channel_index": 36,
          "channel_name": "CPz",
          "abs_mean_weight": 0.09220129,
          "signed_mean_weight": 0.05845893,
          "l2_weight": 0.09480909
        },
        {
          "rank": 5,
          "channel_index": 3,
          "channel_name": "AF3",
          "abs_mean_weight": 0.09004394,
          "signed_mean_weight": 0.00756273,
          "l2_weight": 0.09574412
        },
        {
          "rank": 6,
          "channel_index": 46,
          "channel_name": "P2",
          "abs_mean_weight": 0.0894093,
          "signed_mean_weight": -0.03918141,
          "l2_weight": 0.09086686
        },
        {
          "rank": 7,
          "channel_index": 13,
          "channel_name": "F8",
          "abs_mean_weight": 0.08787154,
          "signed_mean_weight": 0.05920362,
          "l2_weight": 0.09248517
        },
        {
          "rank": 8,
          "channel_index": 21,
          "channel_name": "FC6",
          "abs_mean_weight": 0.08755705,
          "signed_mean_weight": -0.01633473,
          "l2_weight": 0.09617831
        },
        {
          "rank": 9,
          "channel_index": 48,
          "channel_name": "P6",
          "abs_mean_weight": 0.08709655,
          "signed_mean_weight": -0.08709655,
          "l2_weight": 0.09072901
        },
        {
          "rank": 10,
          "channel_index": 49,
          "channel_name": "P8",
          "abs_mean_weight": 0.08568642,
          "signed_mean_weight": 0.01579831,
          "l2_weight": 0.08891805
        },
        {
          "rank": 11,
          "channel_index": 45,
          "channel_name": "Pz",
          "abs_mean_weight": 0.08484576,
          "signed_mean_weight": 0.05571583,
          "l2_weight": 0.09138678
        },
        {
          "rank": 12,
          "channel_index": 43,
          "channel_name": "P3",
          "abs_mean_weight": 0.08386308,
          "signed_mean_weight": 0.08386308,
          "l2_weight": 0.09615107
        },
        {
          "rank": 13,
          "channel_index": 53,
          "channel_name": "POz",
          "abs_mean_weight": 0.08194532,
          "signed_mean_weight": -0.02502837,
          "l2_weight": 0.09189334
        },
        {
          "rank": 14,
          "channel_index": 8,
          "channel_name": "F1",
          "abs_mean_weight": 0.08046818,
          "signed_mean_weight": -0.08046818,
          "l2_weight": 0.09172399
        },
        {
          "rank": 15,
          "channel_index": 51,
          "channel_name": "PO5",
          "abs_mean_weight": 0.07977819,
          "signed_mean_weight": 0.0430839,
          "l2_weight": 0.08181685
        }
      ]
    }
  },
  {
    "subject_id": "1",
    "fold_id": 4,
    "accuracy": 0.5625,
    "balanced_accuracy": 0.5625,
    "prediction_histogram": [
      28,
      4
    ],
    "collapse_diagnostics": {
      "prediction_histogram": [
        28,
        4
      ],
      "collapse_ratio": 0.875,
      "collapse_threshold": 0.9,
      "collapse_flag": false,
      "majority_predicted_class": 0
    },
    "probability_diagnostics": {
      "available": true,
      "probability_shape": [
        32,
        2
      ],
      "mean_probability_by_class": [
        0.54609345,
        0.45390655
      ],
      "std_probability_by_class": [
        0.03686611,
        0.03686611
      ],
      "mean_confidence": 0.54865332,
      "std_confidence": 0.03341513,
      "mean_prediction_entropy": 0.68614643,
      "mean_normalized_prediction_entropy": 0.98990005,
      "mean_predicted_class_probability": 0.54865332
    },
    "spatial_update_stats": {
      "available": true,
      "parameter_name": "spatial_conv.1.weight",
      "initial_shape": [
        4,
        60
      ],
      "final_shape": [
        4,
        60
      ],
      "initial_l2": 1.1395002,
      "final_l2": 1.14096097,
      "delta_l2": 0.0313818,
      "delta_max_abs": 0.00299859,
      "relative_delta": 0.02753997,
      "changed": true
    },
    "n_trainable_params_final": 4342,
    "spatial_conv": {
      "available": true,
      "parameter_name": "spatial_conv.1.weight",
      "raw_weight_shape": [
        4,
        1,
        60,
        1
      ],
      "weight_matrix_shape": [
        4,
        60
      ],
      "n_virtual_filters": 4,
      "n_input_channels": 60,
      "channel_names": [
        "Fp1",
        "Fpz",
        "Fp2",
        "AF3",
        "AF4",
        "F7",
        "F5",
        "F3",
        "F1",
        "Fz",
        "F2",
        "F4",
        "F6",
        "F8",
        "FT7",
        "FC5",
        "FC3",
        "FC1",
        "FCz",
        "FC2",
        "FC4",
        "FC6",
        "FT8",
        "T7",
        "C5",
        "C3",
        "C1",
        "Cz",
        "C2",
        "C4",
        "C6",
        "T8",
        "TP7",
        "CP5",
        "CP3",
        "CP1",
        "CPz",
        "CP2",
        "CP4",
        "CP6",
        "TP8",
        "P7",
        "P5",
        "P3",
        "P1",
        "Pz",
        "P2",
        "P4",
        "P6",
        "P8",
        "PO7",
        "PO5",
        "PO3",
        "POz",
        "PO4",
        "PO6",
        "PO8",
        "O1",
        "Oz",
        "O2"
      ],
      "weight_matrix": [
        [
          0.10089224,
          0.02583321,
          -0.00163992,
          -0.04049362,
          0.02395677,
          0.06816187,
          0.09476881,
          0.04345326,
          -0.07526539,
          0.09145259,
          0.05383765,
          -0.08829694,
          0.00838772,
          0.12310554,
          -0.09056813,
          0.11050377,
          -0.05222759,
          0.0029581,
          0.00547619,
          0.02773897,
          -0.10499202,
          0.12047383,
          -0.04101961,
          0.04269334,
          0.10619572,
          0.08357155,
          -0.0168123,
          0.0178053,
          -0.03412728,
          0.05997466,
          -0.0920985,
          0.09802128,
          0.01126106,
          0.00968294,
          -0.07425804,
          -0.10484417,
          -0.06521049,
          -0.06340082,
          -0.12482288,
          0.12965898,
          0.0358807,
          -0.07294039,
          0.05504792,
          0.12627062,
          -0.02997717,
          -0.0578052,
          -0.1067966,
          0.11676615,
          -0.08624133,
          0.0958126,
          -0.02128076,
          -0.07162841,
          0.0135303,
          -0.12255117,
          -0.10840623,
          0.08375553,
          0.06330685,
          0.06478114,
          0.12223633,
          -0.07817219
        ],
        [
          0.01246585,
          0.01035483,
          -0.00748049,
          0.08660761,
          0.04810023,
          0.11578407,
          0.0931609,
          -0.11492012,
          -0.11034399,
          0.04900521,
          0.04999562,
          0.10849436,
          -0.00168676,
          0.11088134,
          -0.01507924,
          -0.03645138,
          -0.08297151,
          0.09059477,
          0.02513172,
          0.1216074,
          0.02909972,
          -0.09590945,
          0.03011267,
          -0.00210773,
          -0.04459622,
          0.02754285,
          0.10262267,
          0.03302667,
          -0.0478612,
          0.08284747,
          -0.04729848,
          0.07283053,
          0.02594344,
          0.03403138,
          0.09837692,
          0.09142215,
          0.1219345,
          0.06250238,
          -0.09387495,
          0.06850532,
          -0.04345325,
          -0.05626371,
          0.06769501,
          0.08007433,
          -0.07490748,
          0.11278069,
          -0.06185381,
          -0.07551254,
          -0.10752118,
          -0.04810216,
          0.06877722,
          0.05242787,
          0.02712752,
          -0.09237759,
          -0.02404882,
          -0.11557201,
          -0.10853027,
          -0.03773482,
          -0.13039201,
          -0.03438002
        ],
        [
          0.04846089,
          0.03097486,
          -0.0526819,
          0.11118568,
          -0.1248789,
          0.00947916,
          -0.04413288,
          -0.04248308,
          -0.0074454,
          0.10504077,
          -0.02928991,
          0.08170324,
          0.09588595,
          -0.05984604,
          -0.00448721,
          0.0666348,
          0.10853332,
          0.08031116,
          -0.02584893,
          -0.08160676,
          -0.07852642,
          0.01745201,
          0.11400628,
          -0.06555394,
          0.055532,
          0.02338327,
          0.07317476,
          -0.0196974,
          -0.05981911,
          -0.0720754,
          -0.03404319,
          0.09564485,
          -0.01806422,
          -0.00596418,
          -0.08817735,
          -0.05844554,
          0.07680912,
          0.01994374,
          -0.05005562,
          0.01282811,
          0.07589383,
          -0.10778765,
          -0.04864283,
          0.00154513,
          -0.01489917,
          0.1262614,
          0.1015303,
          -0.02150548,
          -0.11552569,
          -0.09538245,
          0.05128766,
          0.0841359,
          -0.0907297,
          0.01382661,
          -0.09246326,
          0.06564162,
          0.11383397,
          -0.10023378,
          -0.03824214,
          0.0836107
        ],
        [
          0.12383596,
          -0.00748536,
          0.113828,
          -0.12086069,
          0.10362016,
          -0.04617941,
          -0.06229194,
          -0.0002814,
          -0.12938274,
          0.03667702,
          -0.01548342,
          -0.02560923,
          -0.07389818,
          0.06294264,
          -0.10379612,
          0.01521145,
          -0.03595468,
          0.05028619,
          0.0052519,
          0.08223407,
          0.00517302,
          -0.10948979,
          -0.05234716,
          0.03803132,
          -0.03594284,
          -0.05578274,
          0.09748629,
          -0.08256361,
          -0.0418914,
          -0.02638019,
          -0.0738903,
          -0.00729707,
          0.01347737,
          -0.01916902,
          -0.11487816,
          0.02824216,
          0.10151643,
          -0.05972592,
          -0.02114397,
          -0.08651608,
          0.07424342,
          -0.05495579,
          -0.08143839,
          0.12313292,
          -0.05329577,
          0.04164009,
          -0.09455762,
          0.07229731,
          -0.0432492,
          0.11089844,
          0.02311778,
          0.10500993,
          0.04006192,
          0.1039176,
          0.01552502,
          -0.02315232,
          -0.08182342,
          0.02469336,
          -0.11603034,
          0.06997973
        ]
      ],
      "weight_matrix_norm": [
        [
          0.77813536,
          0.19923963,
          -0.01264797,
          -0.31230867,
          0.18476751,
          0.52570111,
          0.73090816,
          0.33513495,
          -0.58048725,
          0.70533168,
          0.41522497,
          -0.68099362,
          0.0646906,
          0.94945633,
          -0.69851029,
          0.8522647,
          -0.40280735,
          0.0228145,
          0.04223536,
          0.21393792,
          -0.80975515,
          0.92915916,
          -0.31636539,
          0.32927409,
          0.81903863,
          0.64454883,
          -0.12966551,
          0.13732406,
          -0.26320803,
          0.4625569,
          -0.71031332,
          0.75599301,
          0.0868514,
          0.07468007,
          -0.57271802,
          -0.80861479,
          -0.50293851,
          -0.48898131,
          -0.96270138,
          1.0,
          0.27673128,
          -0.56255567,
          0.42455924,
          0.97386712,
          -0.2312001,
          -0.44582486,
          -0.82367295,
          0.90056348,
          -0.66513968,
          0.73895848,
          -0.16412871,
          -0.55243695,
          0.10435296,
          -0.94518071,
          -0.83608735,
          0.64596784,
          0.48825654,
          0.49962705,
          0.94275254,
          -0.60290611
        ],
        [
          0.09560288,
          0.07941308,
          -0.05736922,
          0.66420943,
          0.36888939,
          0.88796902,
          0.71446782,
          -0.88134319,
          -0.84624809,
          0.37582985,
          0.3834255,
          0.83206296,
          -0.01293608,
          0.8503691,
          -0.1156454,
          -0.27955225,
          -0.63632357,
          0.69478768,
          0.19273974,
          0.93262923,
          0.22317104,
          -0.73554695,
          0.23093952,
          -0.01616454,
          -0.34201649,
          0.21123108,
          0.78703189,
          0.25328749,
          -0.36705625,
          0.63537228,
          -0.36274058,
          0.55855054,
          0.19896491,
          0.2609928,
          0.75447047,
          0.70113301,
          0.93513775,
          0.4793421,
          -0.71994406,
          0.52537972,
          -0.33325082,
          -0.43149656,
          0.51916534,
          0.61410457,
          -0.57447904,
          0.86493558,
          -0.47436807,
          -0.57911938,
          -0.82459939,
          -0.36890414,
          0.52746499,
          0.40207884,
          0.20804587,
          -0.70846045,
          -0.18443473,
          -0.88634264,
          -0.83233827,
          -0.28939515,
          -1.0,
          -0.2636666
        ],
        [
          0.38381398,
          0.24532327,
          -0.41724467,
          0.88059914,
          -0.98905051,
          0.07507568,
          -0.34953579,
          -0.33646929,
          -0.05896818,
          0.83193099,
          -0.23197836,
          0.64709592,
          0.75942415,
          -0.47398525,
          -0.03553906,
          0.52775276,
          0.8595922,
          0.63607055,
          -0.20472547,
          -0.64633185,
          -0.62193531,
          0.13822122,
          0.90293854,
          -0.51919228,
          0.43981776,
          0.18519728,
          0.57954973,
          -0.15600494,
          -0.47377193,
          -0.57084268,
          -0.26962468,
          0.75751454,
          -0.14307,
          -0.04723678,
          -0.69837141,
          -0.46289316,
          0.60833418,
          0.15795594,
          -0.39644432,
          0.10159966,
          0.60108501,
          -0.85368651,
          -0.38525492,
          0.01223758,
          -0.11800259,
          1.0,
          0.80412781,
          -0.17032506,
          -0.91497231,
          -0.75543636,
          0.40620223,
          0.66636276,
          -0.71858621,
          0.10950784,
          -0.73231614,
          0.51988667,
          0.90157384,
          -0.79385924,
          -0.30288064,
          0.66220319
        ],
        [
          0.95712888,
          -0.05785437,
          0.87977731,
          -0.93413299,
          0.80088085,
          -0.3569209,
          -0.48145476,
          -0.00217498,
          -1.0,
          0.28347689,
          -0.11967143,
          -0.19793387,
          -0.57115948,
          0.48648402,
          -0.80224079,
          0.11756939,
          -0.27789393,
          0.38866225,
          0.04059198,
          0.63558763,
          0.03998232,
          -0.84624726,
          -0.40459153,
          0.2939443,
          -0.27780244,
          -0.4311451,
          0.75347215,
          -0.6381346,
          -0.32377884,
          -0.20389263,
          -0.57109857,
          -0.05639912,
          0.1041667,
          -0.14815745,
          -0.88789392,
          0.21828382,
          0.78462106,
          -0.461622,
          -0.16342187,
          -0.66868329,
          0.5738278,
          -0.42475364,
          -0.6294378,
          0.95169508,
          -0.41192329,
          0.3218365,
          -0.73083639,
          0.55878633,
          -0.33427334,
          0.85713464,
          0.17867742,
          0.81162238,
          0.3096388,
          0.80317974,
          0.11999294,
          -0.17894444,
          -0.63241374,
          0.1908551,
          -0.89679921,
          0.54087371
        ]
      ],
      "channel_abs_mean": [
        0.07141373,
        0.01866206,
        0.04390758,
        0.0897869,
        0.07513902,
        0.05990113,
        0.07358863,
        0.05028446,
        0.08060938,
        0.0705439,
        0.03715165,
        0.07602594,
        0.04496466,
        0.0891939,
        0.05348267,
        0.05720035,
        0.06992178,
        0.05603756,
        0.01542719,
        0.0782968,
        0.0544478,
        0.08583127,
        0.05937143,
        0.03709658,
        0.0605667,
        0.0475701,
        0.072524,
        0.03827325,
        0.04592475,
        0.06031942,
        0.06183262,
        0.06844843,
        0.01718652,
        0.01721188,
        0.09392262,
        0.07073851,
        0.09136763,
        0.05139322,
        0.07247436,
        0.07437712,
        0.0573678,
        0.07298689,
        0.06320604,
        0.08275575,
        0.0432699,
        0.08462185,
        0.09118458,
        0.07152037,
        0.08813435,
        0.08754891,
        0.04111586,
        0.07830052,
        0.04286236,
        0.08316824,
        0.06011083,
        0.07203037,
        0.09187363,
        0.05686077,
        0.10172521,
        0.06653566
      ],
      "channel_signed_mean": [
        0.07141373,
        0.01491938,
        0.01300642,
        0.00910974,
        0.01269956,
        0.03681143,
        0.02037622,
        -0.02855784,
        -0.08060938,
        0.0705439,
        0.01476499,
        0.01907286,
        0.00717218,
        0.05927087,
        -0.05348267,
        0.03897466,
        -0.01565512,
        0.05603756,
        0.00250272,
        0.03749342,
        -0.03731142,
        -0.01686835,
        0.01268804,
        0.00326575,
        0.02029717,
        0.01967873,
        0.06411786,
        -0.01285726,
        -0.04592475,
        0.01109163,
        -0.06183262,
        0.0647999,
        0.00815441,
        0.00464528,
        -0.04473416,
        -0.01090635,
        0.05876239,
        -0.01017015,
        -0.07247436,
        0.03111908,
        0.03564118,
        -0.07298689,
        -0.00183457,
        0.08275575,
        -0.0432699,
        0.05571925,
        -0.04041943,
        0.02301136,
        -0.08813435,
        0.01580661,
        0.03047547,
        0.04248632,
        -0.00250249,
        -0.02429613,
        -0.05234832,
        0.00266821,
        -0.00330322,
        -0.01212353,
        -0.04060704,
        0.01025955
      ],
      "channel_l2": [
        0.08369356,
        0.02115449,
        0.06283081,
        0.09501338,
        0.08546847,
        0.07119407,
        0.0766291,
        0.06499945,
        0.09305375,
        0.07606553,
        0.04029792,
        0.082004,
        0.06068001,
        0.09353204,
        0.06932485,
        0.06747476,
        0.07530639,
        0.06556437,
        0.01842106,
        0.08511744,
        0.06719985,
        0.09487512,
        0.0676887,
        0.04350536,
        0.06641167,
        0.05338844,
        0.08011272,
        0.04640185,
        0.04687371,
        0.06393638,
        0.06583691,
        0.07764284,
        0.01808196,
        0.02034033,
        0.09508485,
        0.07675254,
        0.0939756,
        0.05452328,
        0.08268297,
        0.08537275,
        0.06009902,
        0.07603326,
        0.06444227,
        0.09685075,
        0.04891877,
        0.09183785,
        0.09284524,
        0.07909782,
        0.09248655,
        0.09067821,
        0.04568379,
        0.0805997,
        0.0518551,
        0.09292799,
        0.07266488,
        0.07939888,
        0.09412733,
        0.06379084,
        0.10824659,
        0.06924736
      ],
      "top_channels_by_abs_weight": [
        {
          "rank": 1,
          "channel_index": 58,
          "channel_name": "Oz",
          "abs_mean_weight": 0.10172521,
          "signed_mean_weight": -0.04060704,
          "l2_weight": 0.10824659
        },
        {
          "rank": 2,
          "channel_index": 34,
          "channel_name": "CP3",
          "abs_mean_weight": 0.09392262,
          "signed_mean_weight": -0.04473416,
          "l2_weight": 0.09508485
        },
        {
          "rank": 3,
          "channel_index": 56,
          "channel_name": "PO8",
          "abs_mean_weight": 0.09187363,
          "signed_mean_weight": -0.00330322,
          "l2_weight": 0.09412733
        },
        {
          "rank": 4,
          "channel_index": 36,
          "channel_name": "CPz",
          "abs_mean_weight": 0.09136763,
          "signed_mean_weight": 0.05876239,
          "l2_weight": 0.0939756
        },
        {
          "rank": 5,
          "channel_index": 46,
          "channel_name": "P2",
          "abs_mean_weight": 0.09118458,
          "signed_mean_weight": -0.04041943,
          "l2_weight": 0.09284524
        },
        {
          "rank": 6,
          "channel_index": 3,
          "channel_name": "AF3",
          "abs_mean_weight": 0.0897869,
          "signed_mean_weight": 0.00910974,
          "l2_weight": 0.09501338
        },
        {
          "rank": 7,
          "channel_index": 13,
          "channel_name": "F8",
          "abs_mean_weight": 0.0891939,
          "signed_mean_weight": 0.05927087,
          "l2_weight": 0.09353204
        },
        {
          "rank": 8,
          "channel_index": 48,
          "channel_name": "P6",
          "abs_mean_weight": 0.08813435,
          "signed_mean_weight": -0.08813435,
          "l2_weight": 0.09248655
        },
        {
          "rank": 9,
          "channel_index": 49,
          "channel_name": "P8",
          "abs_mean_weight": 0.08754891,
          "signed_mean_weight": 0.01580661,
          "l2_weight": 0.09067821
        },
        {
          "rank": 10,
          "channel_index": 21,
          "channel_name": "FC6",
          "abs_mean_weight": 0.08583127,
          "signed_mean_weight": -0.01686835,
          "l2_weight": 0.09487512
        },
        {
          "rank": 11,
          "channel_index": 45,
          "channel_name": "Pz",
          "abs_mean_weight": 0.08462185,
          "signed_mean_weight": 0.05571925,
          "l2_weight": 0.09183785
        },
        {
          "rank": 12,
          "channel_index": 53,
          "channel_name": "POz",
          "abs_mean_weight": 0.08316824,
          "signed_mean_weight": -0.02429613,
          "l2_weight": 0.09292799
        },
        {
          "rank": 13,
          "channel_index": 43,
          "channel_name": "P3",
          "abs_mean_weight": 0.08275575,
          "signed_mean_weight": 0.08275575,
          "l2_weight": 0.09685075
        },
        {
          "rank": 14,
          "channel_index": 8,
          "channel_name": "F1",
          "abs_mean_weight": 0.08060938,
          "signed_mean_weight": -0.08060938,
          "l2_weight": 0.09305375
        },
        {
          "rank": 15,
          "channel_index": 51,
          "channel_name": "PO5",
          "abs_mean_weight": 0.07830052,
          "signed_mean_weight": 0.04248632,
          "l2_weight": 0.0805997
        }
      ]
    }
  },
  {
    "subject_id": "1",
    "fold_id": 5,
    "accuracy": 0.625,
    "balanced_accuracy": 0.625,
    "prediction_histogram": [
      14,
      18
    ],
    "collapse_diagnostics": {
      "prediction_histogram": [
        14,
        18
      ],
      "collapse_ratio": 0.5625,
      "collapse_threshold": 0.9,
      "collapse_flag": false,
      "majority_predicted_class": 1
    },
    "probability_diagnostics": {
      "available": true,
      "probability_shape": [
        32,
        2
      ],
      "mean_probability_by_class": [
        0.49611043,
        0.50388956
      ],
      "std_probability_by_class": [
        0.04018823,
        0.04018823
      ],
      "mean_confidence": 0.53112096,
      "std_confidence": 0.02572368,
      "mean_prediction_entropy": 0.68987626,
      "mean_normalized_prediction_entropy": 0.99528106,
      "mean_predicted_class_probability": 0.53112096
    },
    "spatial_update_stats": {
      "available": true,
      "parameter_name": "spatial_conv.1.weight",
      "initial_shape": [
        4,
        60
      ],
      "final_shape": [
        4,
        60
      ],
      "initial_l2": 1.1395002,
      "final_l2": 1.13920677,
      "delta_l2": 0.04404445,
      "delta_max_abs": 0.00585231,
      "relative_delta": 0.03865243,
      "changed": true
    },
    "n_trainable_params_final": 4342,
    "spatial_conv": {
      "available": true,
      "parameter_name": "spatial_conv.1.weight",
      "raw_weight_shape": [
        4,
        1,
        60,
        1
      ],
      "weight_matrix_shape": [
        4,
        60
      ],
      "n_virtual_filters": 4,
      "n_input_channels": 60,
      "channel_names": [
        "Fp1",
        "Fpz",
        "Fp2",
        "AF3",
        "AF4",
        "F7",
        "F5",
        "F3",
        "F1",
        "Fz",
        "F2",
        "F4",
        "F6",
        "F8",
        "FT7",
        "FC5",
        "FC3",
        "FC1",
        "FCz",
        "FC2",
        "FC4",
        "FC6",
        "FT8",
        "T7",
        "C5",
        "C3",
        "C1",
        "Cz",
        "C2",
        "C4",
        "C6",
        "T8",
        "TP7",
        "CP5",
        "CP3",
        "CP1",
        "CPz",
        "CP2",
        "CP4",
        "CP6",
        "TP8",
        "P7",
        "P5",
        "P3",
        "P1",
        "Pz",
        "P2",
        "P4",
        "P6",
        "P8",
        "PO7",
        "PO5",
        "PO3",
        "POz",
        "PO4",
        "PO6",
        "PO8",
        "O1",
        "Oz",
        "O2"
      ],
      "weight_matrix": [
        [
          0.09522462,
          0.02383329,
          -0.00691915,
          -0.04387893,
          0.02295847,
          0.06711546,
          0.09380628,
          0.0406886,
          -0.07392478,
          0.08770911,
          0.05636892,
          -0.08986347,
          0.00856742,
          0.12131691,
          -0.09358945,
          0.11014442,
          -0.05375189,
          0.00318549,
          0.00767204,
          0.02577714,
          -0.10527498,
          0.12202979,
          -0.04106353,
          0.04193108,
          0.10745818,
          0.08262346,
          -0.01724644,
          0.02015842,
          -0.03574143,
          0.05794811,
          -0.08848166,
          0.09559909,
          0.01158775,
          0.01198185,
          -0.07364593,
          -0.10196191,
          -0.06816313,
          -0.06393385,
          -0.12720084,
          0.13219428,
          0.03560853,
          -0.07128161,
          0.05385978,
          0.12849624,
          -0.02503034,
          -0.06010313,
          -0.10950185,
          0.11868872,
          -0.08410367,
          0.0969254,
          -0.0185822,
          -0.06883782,
          0.01852492,
          -0.11875749,
          -0.10558351,
          0.08550449,
          0.06502657,
          0.06724966,
          0.12498786,
          -0.07470062
        ],
        [
          0.00844878,
          0.00631093,
          -0.01053548,
          0.0830947,
          0.04724614,
          0.11075509,
          0.0905345,
          -0.11490287,
          -0.10895811,
          0.052098,
          0.05313818,
          0.10752377,
          -0.0017612,
          0.10876023,
          -0.01652968,
          -0.03258377,
          -0.07793744,
          0.09390295,
          0.02608887,
          0.12148924,
          0.02936002,
          -0.09378201,
          0.0283234,
          -0.00299866,
          -0.04304069,
          0.02995533,
          0.10793024,
          0.0314066,
          -0.04650541,
          0.0817887,
          -0.04747342,
          0.07075176,
          0.02485095,
          0.032569,
          0.10050225,
          0.09243267,
          0.12860189,
          0.06321552,
          -0.09427007,
          0.07397622,
          -0.04581897,
          -0.05592474,
          0.06482992,
          0.08074912,
          -0.07454828,
          0.11811628,
          -0.05721417,
          -0.0765768,
          -0.10624172,
          -0.05144836,
          0.07357744,
          0.05326004,
          0.0270754,
          -0.0895775,
          -0.02395154,
          -0.11812019,
          -0.11074153,
          -0.03683032,
          -0.12967743,
          -0.03311358
        ],
        [
          0.05073483,
          0.03252105,
          -0.04961143,
          0.1136184,
          -0.12200083,
          0.00441458,
          -0.04334041,
          -0.04185079,
          -0.00987673,
          0.10248446,
          -0.02914178,
          0.08160209,
          0.09702946,
          -0.05804968,
          -0.00615206,
          0.0674911,
          0.10691197,
          0.07796847,
          -0.02753153,
          -0.08355934,
          -0.08108162,
          0.01770458,
          0.11395912,
          -0.06401634,
          0.05375664,
          0.02240292,
          0.07264464,
          -0.0191811,
          -0.06034743,
          -0.07240316,
          -0.0312225,
          0.09748054,
          -0.01885075,
          -0.00706059,
          -0.08728911,
          -0.05692198,
          0.07551926,
          0.02027343,
          -0.04924266,
          0.01916174,
          0.07484083,
          -0.11008912,
          -0.04601269,
          0.00155608,
          -0.01369158,
          0.12614097,
          0.10336286,
          -0.01999936,
          -0.11212273,
          -0.09583518,
          0.05191334,
          0.08332142,
          -0.09383693,
          0.01503414,
          -0.0893871,
          0.06581116,
          0.11400423,
          -0.1006879,
          -0.03889802,
          0.08398165
        ],
        [
          0.12448251,
          -0.0045859,
          0.11539987,
          -0.11937922,
          0.10696407,
          -0.04209383,
          -0.05793182,
          -0.00148914,
          -0.12847804,
          0.03490862,
          -0.01755972,
          -0.02373135,
          -0.07088273,
          0.06551298,
          -0.09651496,
          0.02308836,
          -0.03395493,
          0.05139215,
          0.00149995,
          0.0822866,
          0.00554468,
          -0.1081739,
          -0.04975435,
          0.04154306,
          -0.03421447,
          -0.05474939,
          0.096262,
          -0.08731751,
          -0.04362733,
          -0.02526918,
          -0.07803983,
          -0.00390646,
          0.01530598,
          -0.0205527,
          -0.11652242,
          0.02659389,
          0.10113247,
          -0.06005589,
          -0.02007484,
          -0.08774803,
          0.0762594,
          -0.05359008,
          -0.08205637,
          0.11612608,
          -0.06122356,
          0.04063048,
          -0.09409823,
          0.07018405,
          -0.04370791,
          0.11023615,
          0.02249094,
          0.10134827,
          0.03165371,
          0.09977598,
          0.01200554,
          -0.02445588,
          -0.08313856,
          0.01942014,
          -0.12059341,
          0.0662442
        ]
      ],
      "weight_matrix_norm": [
        [
          0.7203384,
          0.18028989,
          -0.05234078,
          -0.33192757,
          0.1736722,
          0.50770324,
          0.70960921,
          0.30779392,
          -0.55921316,
          0.66348642,
          0.42640969,
          -0.67978334,
          0.06480928,
          0.9177168,
          -0.70796901,
          0.83320111,
          -0.40661281,
          0.02409702,
          0.05803607,
          0.1949944,
          -0.79636562,
          0.92310947,
          -0.31063014,
          0.31719282,
          0.81288069,
          0.62501538,
          -0.1304628,
          0.15249088,
          -0.27037048,
          0.43835565,
          -0.66933048,
          0.72317111,
          0.08765696,
          0.09063818,
          -0.55710375,
          -0.77130347,
          -0.5156284,
          -0.48363551,
          -0.96222651,
          1.0,
          0.26936516,
          -0.5392186,
          0.40742895,
          0.97202575,
          -0.18934509,
          -0.45465758,
          -0.82834035,
          0.89783555,
          -0.63621265,
          0.73320419,
          -0.14056739,
          -0.52073222,
          0.14013402,
          -0.89835578,
          -0.79869956,
          0.64680928,
          0.49190152,
          0.50871843,
          0.94548613,
          -0.56508213
        ],
        [
          0.06515226,
          0.04866636,
          -0.08124373,
          0.64077997,
          0.36433583,
          0.85408145,
          0.69815159,
          -0.88606685,
          -0.84022415,
          0.40175074,
          0.40977198,
          0.82916331,
          -0.01358137,
          0.83869821,
          -0.12746765,
          -0.25126782,
          -0.60101002,
          0.72412717,
          0.2011828,
          0.93685728,
          0.22640811,
          -0.72319454,
          0.21841423,
          -0.023124,
          -0.33190581,
          0.23099881,
          0.83229774,
          0.24219018,
          -0.35862374,
          0.63070881,
          -0.36608857,
          0.54559809,
          0.19163665,
          0.25115398,
          0.77501726,
          0.71278918,
          0.99170607,
          0.48748285,
          -0.72695816,
          0.57046336,
          -0.35333031,
          -0.43126041,
          0.4999322,
          0.62269223,
          -0.57487476,
          0.91084689,
          -0.44120374,
          -0.59051758,
          -0.81927687,
          -0.39674103,
          0.56738818,
          0.41071174,
          0.20879041,
          -0.6907717,
          -0.18470091,
          -0.91087699,
          -0.85397685,
          -0.28401488,
          -1.0,
          -0.25535345
        ],
        [
          0.4022074,
          0.25781512,
          -0.39330149,
          0.90072566,
          -0.96717846,
          0.03499723,
          -0.34358713,
          -0.33177796,
          -0.07829918,
          0.81245983,
          -0.23102553,
          0.64691186,
          0.76921445,
          -0.46019691,
          -0.04877129,
          0.53504503,
          0.84755945,
          0.61810589,
          -0.21825999,
          -0.66242826,
          -0.64278579,
          0.14035553,
          0.90342671,
          -0.50749844,
          0.42616323,
          0.17760226,
          0.57590044,
          -0.15206082,
          -0.47841263,
          -0.57398605,
          -0.24752073,
          0.77279049,
          -0.14944194,
          -0.05597382,
          -0.69199651,
          -0.4512569,
          0.59868944,
          0.16072041,
          -0.390378,
          0.15190737,
          0.59331107,
          -0.87274671,
          -0.36477196,
          0.01233605,
          -0.10854187,
          1.0,
          0.81942338,
          -0.1585477,
          -0.88886845,
          -0.75974667,
          0.41155016,
          0.66054213,
          -0.74390531,
          0.11918524,
          -0.70862865,
          0.52172709,
          0.90378433,
          -0.7982173,
          -0.30836949,
          0.66577613
        ],
        [
          0.9689011,
          -0.03569405,
          0.89820695,
          -0.92918003,
          0.83254749,
          -0.32763445,
          -0.45090836,
          -0.01159063,
          -1.0,
          0.27170888,
          -0.13667491,
          -0.18471131,
          -0.5517109,
          0.50991583,
          -0.75121754,
          0.17970669,
          -0.26428586,
          0.40000731,
          0.01167473,
          0.64047211,
          0.04315661,
          -0.84196413,
          -0.3872596,
          0.32334754,
          -0.26630595,
          -0.42613813,
          0.74924868,
          -0.67962986,
          -0.33957034,
          -0.19668092,
          -0.6074177,
          -0.03040569,
          0.11913302,
          -0.15997051,
          -0.90694427,
          0.20699173,
          0.78715771,
          -0.46744093,
          -0.15625118,
          -0.68298078,
          0.59355986,
          -0.4171147,
          -0.63868016,
          0.90385938,
          -0.47652939,
          0.31624457,
          -0.73240709,
          0.54627275,
          -0.34019753,
          0.85801548,
          0.17505671,
          0.78883731,
          0.24637449,
          0.77659953,
          0.09344432,
          -0.19035064,
          -0.64710331,
          0.15115535,
          -0.93863058,
          0.51560718
        ]
      ],
      "channel_abs_mean": [
        0.06972268,
        0.01681279,
        0.04561648,
        0.08999281,
        0.07479237,
        0.05609474,
        0.07140325,
        0.04973285,
        0.08030941,
        0.06930006,
        0.03905215,
        0.07568017,
        0.0445602,
        0.08840995,
        0.05319653,
        0.05832691,
        0.06813905,
        0.05661226,
        0.01569809,
        0.07827808,
        0.05531533,
        0.08542257,
        0.0582751,
        0.03762228,
        0.05961749,
        0.04743278,
        0.07352082,
        0.03951591,
        0.0465554,
        0.05935229,
        0.06130436,
        0.06693446,
        0.01764886,
        0.01804104,
        0.09448993,
        0.06947762,
        0.09335419,
        0.05186968,
        0.0726971,
        0.07827007,
        0.05813193,
        0.07272139,
        0.06168969,
        0.08173189,
        0.04362344,
        0.08624772,
        0.09104428,
        0.07136223,
        0.08654401,
        0.08861127,
        0.04164098,
        0.07669189,
        0.04277274,
        0.08078627,
        0.05773192,
        0.07347292,
        0.09322772,
        0.05604701,
        0.10353918,
        0.06451002
      ],
      "channel_signed_mean": [
        0.06972268,
        0.01451984,
        0.01208345,
        0.00836374,
        0.01379196,
        0.03504783,
        0.02076713,
        -0.02938855,
        -0.08030941,
        0.06930006,
        0.0157014,
        0.01888276,
        0.00823824,
        0.05938511,
        -0.05319653,
        0.04203503,
        -0.01468307,
        0.05661226,
        0.00193233,
        0.03649841,
        -0.03786298,
        -0.01555538,
        0.01286616,
        0.00411478,
        0.02098992,
        0.02005808,
        0.06489761,
        -0.0137334,
        -0.0465554,
        0.01051612,
        -0.06130436,
        0.06498123,
        0.00822348,
        0.00423439,
        -0.0442388,
        -0.00996433,
        0.05927262,
        -0.0101252,
        -0.0726971,
        0.03439605,
        0.03522245,
        -0.07272139,
        -0.00234484,
        0.08173189,
        -0.04362344,
        0.05619615,
        -0.03936285,
        0.02307415,
        -0.08654401,
        0.0149695,
        0.03234988,
        0.04227298,
        -0.00414573,
        -0.02338121,
        -0.05172915,
        0.0021849,
        -0.00371232,
        -0.0127121,
        -0.04104525,
        0.01060291
      ],
      "channel_l2": [
        0.0824758,
        0.02053353,
        0.0631215,
        0.09485598,
        0.08527134,
        0.06812224,
        0.07454965,
        0.06444366,
        0.09211528,
        0.07437871,
        0.04230458,
        0.0819434,
        0.06024031,
        0.09247742,
        0.06779602,
        0.06760477,
        0.07339383,
        0.06623471,
        0.01936314,
        0.08540688,
        0.06809884,
        0.09447404,
        0.06698994,
        0.04356353,
        0.06606847,
        0.05297014,
        0.08137873,
        0.0484381,
        0.04739557,
        0.06310333,
        0.06547479,
        0.07691345,
        0.01831304,
        0.02047297,
        0.095814,
        0.07564288,
        0.09632704,
        0.05500332,
        0.08350859,
        0.08805495,
        0.06079472,
        0.07615799,
        0.06315499,
        0.09555024,
        0.05029848,
        0.09370995,
        0.0932771,
        0.07949339,
        0.09061266,
        0.09134804,
        0.04732804,
        0.07872295,
        0.05216219,
        0.08987316,
        0.0704552,
        0.08092063,
        0.09539539,
        0.06401989,
        0.1101068,
        0.06730139
      ],
      "top_channels_by_abs_weight": [
        {
          "rank": 1,
          "channel_index": 58,
          "channel_name": "Oz",
          "abs_mean_weight": 0.10353918,
          "signed_mean_weight": -0.04104525,
