[
  {
    "subject_id": "1",
    "fold_id": 1,
    "accuracy": 0.6,
    "balanced_accuracy": 0.6000000000000001,
    "prediction_histogram": [
      18,
      22
    ],
    "collapse_diagnostics": {
      "prediction_histogram": [
        18,
        22
      ],
      "collapse_ratio": 0.55,
      "collapse_threshold": 0.9,
      "collapse_flag": false,
      "majority_predicted_class": 1
    },
    "probability_diagnostics": {
      "available": true,
      "probability_shape": [
        40,
        2
      ],
      "mean_probability_by_class": [
        0.48074226,
        0.51925773
      ],
      "std_probability_by_class": [
        0.23020439,
        0.23020439
      ],
      "mean_confidence": 0.68864231,
      "std_confidence": 0.13333792,
      "mean_prediction_entropy": 0.57296243,
      "mean_normalized_prediction_entropy": 0.82661005,
      "mean_predicted_class_probability": 0.68864231
    },
    "spatial_update_stats": {
      "available": true,
      "parameter_name": "spatial_conv.1.weight",
      "initial_shape": [
        4,
        64
      ],
      "final_shape": [
        4,
        64
      ],
      "initial_l2": 1.13190078,
      "final_l2": 1.45909167,
      "delta_l2": 1.48150845,
      "delta_max_abs": 0.31968763,
      "relative_delta": 1.30886778,
      "changed": true
    },
    "n_trainable_params_final": 1798,
    "spatial_conv": {
      "available": true,
      "parameter_name": "spatial_conv.1.weight",
      "raw_weight_shape": [
        4,
        1,
        64,
        1
      ],
      "weight_matrix_shape": [
        4,
        64
      ],
      "n_virtual_filters": 4,
      "n_input_channels": 64,
      "channel_names": [
        "Fp1",
        "AF7",
        "AF3",
        "F1",
        "F3",
        "F5",
        "F7",
        "FT7",
        "FC5",
        "FC3",
        "FC1",
        "C1",
        "C3",
        "C5",
        "T7",
        "TP7",
        "CP5",
        "CP3",
        "CP1",
        "P1",
        "P3",
        "P5",
        "P7",
        "P9",
        "PO7",
        "PO3",
        "O1",
        "Iz",
        "Oz",
        "POz",
        "Pz",
        "CPz",
        "Fpz",
        "Fp2",
        "AF8",
        "AF4",
        "AFz",
        "Fz",
        "F2",
        "F4",
        "F6",
        "F8",
        "FT8",
        "FC6",
        "FC4",
        "FC2",
        "FCz",
        "Cz",
        "C2",
        "C4",
        "C6",
        "T8",
        "TP8",
        "CP6",
        "CP4",
        "CP2",
        "P2",
        "P4",
        "P6",
        "P8",
        "P10",
        "PO8",
        "PO4",
        "O2"
      ],
      "weight_matrix": [
        [
          0.01546434,
          0.03122689,
          -0.05866109,
          0.00200267,
          -0.0681637,
          -0.04482362,
          0.08910877,
          0.00122875,
          -0.02796869,
          0.381235,
          0.03076975,
          -0.03621794,
          0.19729967,
          0.0424642,
          -0.07198768,
          0.01121955,
          -0.10957411,
          -0.11337006,
          -0.04834997,
          0.17245074,
          -0.21175167,
          0.17446272,
          0.01235653,
          0.03433476,
          0.03950652,
          0.08538492,
          -0.02213757,
          -0.05382358,
          -0.0689659,
          0.00482788,
          0.02034149,
          -0.09078079,
          0.04038124,
          0.00483162,
          0.0225925,
          -0.04470986,
          -0.02899786,
          -0.00313459,
          -0.00421718,
          0.00675948,
          0.08391969,
          -0.00508962,
          -0.02941384,
          -0.04482279,
          0.01051315,
          -0.12010833,
          -0.00815367,
          0.01211714,
          0.09852618,
          -0.06808122,
          0.12887736,
          0.0291496,
          -0.01546456,
          -0.06063318,
          -0.02378249,
          0.03488934,
          0.07304554,
          0.17604598,
          0.06397728,
          0.038291,
          0.00084994,
          -0.07985173,
          -0.01515016,
          0.07012158
        ],
        [
          -0.03338453,
          0.01423653,
          0.0821889,
          0.03877427,
          -0.20744795,
          -0.0590522,
          0.04555846,
          0.00623396,
          0.00510344,
          0.42432758,
          -0.04157435,
          -0.01245358,
          0.04348904,
          0.04355356,
          -0.02762907,
          0.06751954,
          -0.02383362,
          -0.12187228,
          -0.07302228,
          -0.098663,
          -0.04088503,
          -0.01345714,
          -0.01349046,
          0.00603977,
          -0.03583743,
          0.08414745,
          -0.02738799,
          0.07417899,
          0.0899884,
          0.0108019,
          0.16143773,
          0.2516312,
          0.02732953,
          0.02951369,
          -0.01742211,
          0.01265963,
          -0.06661354,
          0.09647686,
          -0.0071213,
          0.08941104,
          -0.0312895,
          0.03001326,
          0.0290904,
          -0.04064937,
          0.05923565,
          -0.05361617,
          -0.12238465,
          -0.26166904,
          0.34183285,
          -0.12284216,
          -0.079713,
          0.00564607,
          -0.03011011,
          -0.02972812,
          0.03177026,
          -0.13935718,
          -0.0036875,
          0.01013194,
          0.11027558,
          0.03893833,
          0.00701005,
          -0.05384357,
          0.03586505,
          -0.04349823
        ],
        [
          -0.04482729,
          0.07985812,
          -0.05106356,
          -0.06771772,
          0.03981409,
          0.04704178,
          0.05891668,
          0.02963967,
          0.23046939,
          0.0595929,
          -0.11045574,
          -0.03241867,
          0.02296788,
          -0.16129372,
          0.04844868,
          -0.08826322,
          -0.08216956,
          -0.04669071,
          0.0448742,
          0.0202402,
          -0.13084646,
          -0.02276278,
          0.02314031,
          -0.05826897,
          0.09653668,
          -0.00098807,
          -0.05862407,
          -0.04268237,
          0.15274936,
          0.04102478,
          0.10627308,
          -0.24401905,
          0.03220953,
          -0.00810001,
          -0.00534322,
          -0.01091685,
          -0.12709187,
          0.02678818,
          0.25086337,
          -0.06357796,
          -0.0963636,
          0.05670254,
          -0.02697733,
          -0.05067883,
          -0.20485972,
          0.13456397,
          -0.02707341,
          0.03179569,
          0.14485636,
          -0.06248643,
          0.03640048,
          0.02935726,
          0.04311588,
          0.02215748,
          -0.0485893,
          0.12900448,
          0.09194381,
          0.01566446,
          -0.0430266,
          0.02891111,
          -0.04244552,
          0.03001325,
          -0.02111577,
          -0.07794888
        ],
        [
          -0.07252986,
          0.00320126,
          0.03641268,
          0.22500747,
          -0.12074499,
          0.0711563,
          0.01524426,
          0.00283211,
          -0.10065019,
          -0.13824895,
          -0.13766935,
          0.01724195,
          -0.04684767,
          -0.01087147,
          0.02109312,
          0.06149162,
          -0.08658451,
          -0.02292027,
          -0.02363057,
          -0.06486668,
          0.07924422,
          -0.11198287,
          -0.17019705,
          0.04563294,
          0.12077337,
          -0.08194961,
          0.01208094,
          -0.07842194,
          0.03281093,
          0.07515477,
          -0.12881082,
          0.2151159,
          -0.01818232,
          -0.02708966,
          -0.01621167,
          0.0443438,
          -0.06752745,
          0.08035591,
          0.11729942,
          0.04835575,
          -0.01640069,
          -0.038132,
          0.03794646,
          0.0433638,
          -0.14406757,
          -0.14403372,
          0.02820525,
          0.06395321,
          0.0876212,
          -0.10403237,
          -0.02086444,
          -0.0059091,
          -0.06536055,
          -0.01954134,
          -0.069885,
          -0.13370681,
          -0.07430376,
          -0.05971146,
          -0.0416218,
          0.01202832,
          0.00118004,
          0.04953704,
          0.06085071,
          0.00020958
        ]
      ],
      "weight_matrix_norm": [
        [
          0.04056379,
          0.08190981,
          -0.15387121,
          0.00525312,
          -0.17879707,
          -0.11757477,
          0.2337371,
          0.00322307,
          -0.07336337,
          1.0,
          0.08071072,
          -0.09500162,
          0.5175277,
          0.11138589,
          -0.18882757,
          0.02942949,
          -0.28741881,
          -0.2973758,
          -0.12682457,
          0.45234761,
          -0.55543607,
          0.45762515,
          0.03241185,
          0.09006192,
          0.10362774,
          0.22396925,
          -0.05806804,
          -0.14118215,
          -0.18090127,
          0.01266379,
          0.05335683,
          -0.23812293,
          0.10592217,
          0.0126736,
          0.05926134,
          -0.11727637,
          -0.07606295,
          -0.00822219,
          -0.01106189,
          0.01773047,
          0.22012587,
          -0.01335036,
          -0.07715409,
          -0.11757261,
          0.02757656,
          -0.31505063,
          -0.02138751,
          0.03178391,
          0.25843948,
          -0.17858072,
          0.33805227,
          0.07646099,
          -0.04056437,
          -0.1590441,
          -0.06238275,
          0.09151662,
          0.19160239,
          0.46177813,
          0.16781586,
          0.10043935,
          0.00222943,
          -0.2094554,
          -0.03973968,
          0.18393269
        ],
        [
          -0.07867631,
          0.0335508,
          0.1936921,
          0.09137816,
          -0.4888863,
          -0.13916655,
          0.10736624,
          0.01469139,
          0.01202712,
          1.0,
          -0.09797702,
          -0.02934899,
          0.10248929,
          0.10264135,
          -0.0651126,
          0.15912126,
          -0.05616798,
          -0.2872127,
          -0.1720894,
          -0.23251612,
          -0.09635252,
          -0.03171403,
          -0.03179257,
          0.01423374,
          -0.08445698,
          0.19830774,
          -0.06454445,
          0.17481537,
          0.21207295,
          0.02545652,
          0.38045543,
          0.59301168,
          0.06440667,
          0.06955402,
          -0.04105816,
          0.02983456,
          -0.15698612,
          0.22736411,
          -0.01678254,
          0.2107123,
          -0.07373901,
          0.07073135,
          0.06855648,
          -0.09579714,
          0.13959886,
          -0.1263556,
          -0.2884202,
          -0.61666751,
          0.80558717,
          -0.28949842,
          -0.18785723,
          0.01330592,
          -0.07095958,
          -0.07005937,
          0.07487201,
          -0.32841885,
          -0.00869021,
          0.02387764,
          0.25988314,
          0.09176479,
          0.01652036,
          -0.12689151,
          0.08452208,
          -0.10251097
        ],
        [
          -0.17869206,
          0.31833312,
          -0.20355129,
          -0.26993865,
          0.15870827,
          0.18751951,
          0.23485564,
          0.11815067,
          0.91870481,
          0.2375512,
          -0.44030237,
          -0.1292284,
          0.09155531,
          -0.64295441,
          0.19312775,
          -0.35183781,
          -0.32754707,
          -0.18612008,
          0.17887905,
          0.08068214,
          -0.52158451,
          -0.09073777,
          0.0922427,
          -0.23227371,
          0.38481775,
          -0.00393867,
          -0.23368925,
          -0.17014191,
          0.60889465,
          0.16353434,
          0.42362931,
          -0.97271693,
          0.12839472,
          -0.03228853,
          -0.02129931,
          -0.04351711,
          -0.5066179,
          0.10678396,
          1.0,
          -0.25343663,
          -0.3841278,
          0.22602955,
          -0.10753793,
          -0.20201766,
          -0.81661868,
          0.53640342,
          -0.10792091,
          0.12674505,
          0.57743132,
          -0.24908552,
          0.14510082,
          0.11702491,
          0.17186995,
          0.08832487,
          -0.19368832,
          0.51424199,
          0.3665095,
          0.06244221,
          -0.17151409,
          0.11524643,
          -0.16919777,
          0.11963982,
          -0.08417238,
          -0.31072241
        ],
        [
          -0.32234421,
          0.01422734,
          0.16182876,
          1.0,
          -0.53662658,
          0.31623971,
          0.06775002,
          0.01258674,
          -0.44731933,
          -0.61441934,
          -0.61184347,
          0.07662836,
          -0.20820495,
          -0.04831605,
          0.09374406,
          0.273287,
          -0.38480726,
          -0.10186448,
          -0.10502127,
          -0.28828678,
          0.35218483,
          -0.4976851,
          -0.75640625,
          0.20280634,
          0.5367527,
          -0.36420837,
          0.05369129,
          -0.34853035,
          0.14582153,
          0.33401009,
          -0.57247353,
          0.95603895,
          -0.08080763,
          -0.12039451,
          -0.07204948,
          0.19707702,
          -0.30011204,
          0.35712552,
          0.52131343,
          0.21490732,
          -0.07288951,
          -0.16946991,
          0.16864532,
          0.19272161,
          -0.64027905,
          -0.64012855,
          0.1253525,
          0.28422704,
          0.38941464,
          -0.46235073,
          -0.09272775,
          -0.02626179,
          -0.29048169,
          -0.08684751,
          -0.31058967,
          -0.59423274,
          -0.33022797,
          -0.26537547,
          -0.18497962,
          0.05345743,
          0.00524443,
          0.2201573,
          0.27043861,
          0.00093144
        ]
      ],
      "channel_abs_mean": [
        0.0415515,
        0.0321307,
        0.05708156,
        0.08337554,
        0.10904267,
        0.05551847,
        0.05220704,
        0.00998362,
        0.09104793,
        0.25085112,
        0.0801173,
        0.02458304,
        0.07765106,
        0.06454574,
        0.04228964,
        0.05712349,
        0.07554045,
        0.07621333,
        0.04746925,
        0.08905515,
        0.11568185,
        0.08066638,
        0.05479609,
        0.03606911,
        0.0731635,
        0.0631175,
        0.03005765,
        0.06227672,
        0.08612864,
        0.03295233,
        0.10421578,
        0.20038673,
        0.02952566,
        0.01738374,
        0.01539237,
        0.02815753,
        0.07255768,
        0.05168889,
        0.09487532,
        0.05202606,
        0.05699337,
        0.03248435,
        0.03085701,
        0.0448787,
        0.10466902,
        0.11308055,
        0.04645424,
        0.09238377,
        0.16820915,
        0.08936055,
        0.06646382,
        0.01751551,
        0.03851277,
        0.03301503,
        0.04350676,
        0.10923945,
        0.06074515,
        0.06538846,
        0.06472532,
        0.02954219,
        0.01287139,
        0.0533114,
        0.03324542,
        0.04794457
      ],
      "channel_signed_mean": [
        -0.03381934,
        0.0321307,
        0.00221923,
        0.04951668,
        -0.08913563,
        0.00358057,
        0.05220704,
        0.00998362,
        0.02673849,
        0.18172663,
        -0.06473242,
        -0.01596206,
        0.05422723,
        -0.02153686,
        -0.00751874,
        0.01299187,
        -0.07554045,
        -0.07621333,
        -0.02503215,
        0.00729031,
        -0.07605974,
        0.00656498,
        -0.03704767,
        0.00693463,
        0.05524479,
        0.02164867,
        -0.02401717,
        -0.02518722,
        0.0516457,
        0.03295233,
        0.03981037,
        0.03298682,
        0.0204345,
        -0.00021109,
        -0.00409613,
        0.00034418,
        -0.07255768,
        0.05012159,
        0.08920608,
        0.02023708,
        -0.01503352,
        0.01087354,
        0.00266142,
        -0.0231968,
        -0.06979463,
        -0.04579856,
        -0.03235162,
        -0.03845075,
        0.16820915,
        -0.08936055,
        0.0161751,
        0.01456096,
        -0.01695484,
        -0.02193629,
        -0.02762163,
        -0.02729254,
        0.02174952,
        0.03553273,
        0.02240112,
        0.02954219,
        -0.00835138,
        -0.01353625,
        0.01511246,
        -0.01277899
      ],
      "channel_l2": [
        0.04643205,
        0.04348955,
        0.05943381,
        0.11908139,
        0.12633829,
        0.05650767,
        0.05856515,
        0.01522254,
        0.12654534,
        0.29498225,
        0.09196267,
        0.02652869,
        0.10433202,
        0.08636256,
        0.04673806,
        0.06375026,
        0.08188901,
        0.08719373,
        0.05060156,
        0.10498928,
        0.13220325,
        0.10449479,
        0.08636723,
        0.04090536,
        0.08177809,
        0.07260869,
        0.03472357,
        0.06397516,
        0.09651831,
        0.04321823,
        0.11657842,
        0.21058227,
        0.03060065,
        0.02057828,
        0.01662317,
        0.03257602,
        0.08060791,
        0.06421115,
        0.13852805,
        0.06004261,
        0.06628814,
        0.03740297,
        0.03114136,
        0.04502837,
        0.12878504,
        0.11848405,
        0.06436806,
        0.13575575,
        0.19698855,
        0.09280697,
        0.0786191,
        0.02108521,
        0.04265194,
        0.03685431,
        0.04695687,
        0.11742802,
        0.06950533,
        0.09341531,
        0.07042275,
        0.03147589,
        0.02152254,
        0.05619195,
        0.03763148,
        0.0567565
      ],
      "top_channels_by_abs_weight": [
        {
          "rank": 1,
          "channel_index": 9,
          "channel_name": "FC3",
          "abs_mean_weight": 0.25085112,
          "signed_mean_weight": 0.18172663,
          "l2_weight": 0.29498225
        },
        {
          "rank": 2,
          "channel_index": 31,
          "channel_name": "CPz",
          "abs_mean_weight": 0.20038673,
          "signed_mean_weight": 0.03298682,
          "l2_weight": 0.21058227
        },
        {
          "rank": 3,
          "channel_index": 48,
          "channel_name": "C2",
          "abs_mean_weight": 0.16820915,
          "signed_mean_weight": 0.16820915,
          "l2_weight": 0.19698855
        },
        {
          "rank": 4,
          "channel_index": 20,
          "channel_name": "P3",
          "abs_mean_weight": 0.11568185,
          "signed_mean_weight": -0.07605974,
          "l2_weight": 0.13220325
        },
        {
          "rank": 5,
          "channel_index": 45,
          "channel_name": "FC2",
          "abs_mean_weight": 0.11308055,
          "signed_mean_weight": -0.04579856,
          "l2_weight": 0.11848405
        },
        {
          "rank": 6,
          "channel_index": 55,
          "channel_name": "CP2",
          "abs_mean_weight": 0.10923945,
          "signed_mean_weight": -0.02729254,
          "l2_weight": 0.11742802
        },
        {
          "rank": 7,
          "channel_index": 4,
          "channel_name": "F3",
          "abs_mean_weight": 0.10904267,
          "signed_mean_weight": -0.08913563,
          "l2_weight": 0.12633829
        },
        {
          "rank": 8,
          "channel_index": 44,
          "channel_name": "FC4",
          "abs_mean_weight": 0.10466902,
          "signed_mean_weight": -0.06979463,
          "l2_weight": 0.12878504
        },
        {
          "rank": 9,
          "channel_index": 30,
          "channel_name": "Pz",
          "abs_mean_weight": 0.10421578,
          "signed_mean_weight": 0.03981037,
          "l2_weight": 0.11657842
        },
        {
          "rank": 10,
          "channel_index": 38,
          "channel_name": "F2",
          "abs_mean_weight": 0.09487532,
          "signed_mean_weight": 0.08920608,
          "l2_weight": 0.13852805
        },
        {
          "rank": 11,
          "channel_index": 47,
          "channel_name": "Cz",
          "abs_mean_weight": 0.09238377,
          "signed_mean_weight": -0.03845075,
          "l2_weight": 0.13575575
        },
        {
          "rank": 12,
          "channel_index": 8,
          "channel_name": "FC5",
          "abs_mean_weight": 0.09104793,
          "signed_mean_weight": 0.02673849,
          "l2_weight": 0.12654534
        },
        {
          "rank": 13,
          "channel_index": 49,
          "channel_name": "C4",
          "abs_mean_weight": 0.08936055,
          "signed_mean_weight": -0.08936055,
          "l2_weight": 0.09280697
        },
        {
          "rank": 14,
          "channel_index": 19,
          "channel_name": "P1",
          "abs_mean_weight": 0.08905515,
          "signed_mean_weight": 0.00729031,
          "l2_weight": 0.10498928
        },
        {
          "rank": 15,
          "channel_index": 28,
          "channel_name": "Oz",
          "abs_mean_weight": 0.08612864,
          "signed_mean_weight": 0.0516457,
          "l2_weight": 0.09651831
        }
      ]
    }
  },
  {
    "subject_id": "1",
    "fold_id": 2,
    "accuracy": 0.775,
    "balanced_accuracy": 0.775,
    "prediction_histogram": [
      19,
      21
    ],
    "collapse_diagnostics": {
      "prediction_histogram": [
        19,
        21
      ],
      "collapse_ratio": 0.525,
      "collapse_threshold": 0.9,
      "collapse_flag": false,
      "majority_predicted_class": 1
    },
    "probability_diagnostics": {
      "available": true,
      "probability_shape": [
        40,
        2
      ],
      "mean_probability_by_class": [
        0.49131673,
        0.50868328
      ],
      "std_probability_by_class": [
        0.12002057,
        0.12002057
      ],
      "mean_confidence": 0.59849491,
      "std_confidence": 0.06913096,
      "mean_prediction_entropy": 0.66349168,
      "mean_normalized_prediction_entropy": 0.95721616,
      "mean_predicted_class_probability": 0.59849491
    },
    "spatial_update_stats": {
      "available": true,
      "parameter_name": "spatial_conv.1.weight",
      "initial_shape": [
        4,
        64
      ],
      "final_shape": [
        4,
        64
      ],
      "initial_l2": 1.13190078,
      "final_l2": 1.34931036,
      "delta_l2": 1.25654701,
      "delta_max_abs": 0.28502382,
      "relative_delta": 1.11012116,
      "changed": true
    },
    "n_trainable_params_final": 1798,
    "spatial_conv": {
      "available": true,
      "parameter_name": "spatial_conv.1.weight",
      "raw_weight_shape": [
        4,
        1,
        64,
        1
      ],
      "weight_matrix_shape": [
        4,
        64
      ],
      "n_virtual_filters": 4,
      "n_input_channels": 64,
      "channel_names": [
        "Fp1",
        "AF7",
        "AF3",
        "F1",
        "F3",
        "F5",
        "F7",
        "FT7",
        "FC5",
        "FC3",
        "FC1",
        "C1",
        "C3",
        "C5",
        "T7",
        "TP7",
        "CP5",
        "CP3",
        "CP1",
        "P1",
        "P3",
        "P5",
        "P7",
        "P9",
        "PO7",
        "PO3",
        "O1",
        "Iz",
        "Oz",
        "POz",
        "Pz",
        "CPz",
        "Fpz",
        "Fp2",
        "AF8",
        "AF4",
        "AFz",
        "Fz",
        "F2",
        "F4",
        "F6",
        "F8",
        "FT8",
        "FC6",
        "FC4",
        "FC2",
        "FCz",
        "Cz",
        "C2",
        "C4",
        "C6",
        "T8",
        "TP8",
        "CP6",
        "CP4",
        "CP2",
        "P2",
        "P4",
        "P6",
        "P8",
        "P10",
        "PO8",
        "PO4",
        "O2"
      ],
      "weight_matrix": [
        [
          0.0658825,
          0.07197583,
          -0.0153552,
          -0.03128327,
          -0.00994367,
          0.02936919,
          0.05414779,
          -0.02948505,
          -0.12425654,
          0.16738886,
          0.13416222,
          -0.10795158,
          0.03343468,
          0.06113057,
          0.04167461,
          0.09902383,
          0.04601088,
          0.06057735,
          -0.04679727,
          0.01492917,
          -0.15031849,
          0.03479518,
          -0.1039129,
          0.02703121,
          0.08859848,
          0.08223971,
          -0.01652705,
          -0.00835578,
          -0.0535915,
          0.01956886,
          -0.04696582,
          -0.0540358,
          -0.03468426,
          0.04360367,
          -0.10056624,
          -0.00216969,
          -0.10426338,
          0.16713984,
          -0.0479825,
          -0.01903909,
          0.08920828,
          -0.05382361,
          0.05182596,
          -0.04668711,
          -0.09759253,
          -0.0933601,
          0.08396355,
          -0.01025165,
          -0.06733559,
          0.11321317,
          2.99e-05,
          -0.03703538,
          0.04425178,
          0.0191243,
          -0.02966021,
          0.13424557,
          0.12992999,
          0.17169026,
          0.10189165,
          -0.09636369,
          -0.00793796,
          -0.06314274,
          -0.04383915,
          0.13381703
        ],
        [
          0.02063979,
          0.12365089,
          -0.01698792,
          -0.08156753,
          0.0497917,
          -0.00310163,
          0.07296053,
          -0.03369644,
          0.06388656,
          0.09620754,
          0.03599949,
          0.13284226,
          -0.07529386,
          0.1687696,
          -0.093393,
          0.04250128,
          -0.25519568,
          -0.29545054,
          0.11439476,
          -0.04794588,
          0.005304,
          -0.03665888,
          0.03737367,
          -0.02489834,
          0.02456876,
          0.11687476,
          0.02181133,
          0.05854226,
          0.01986536,
          -0.03014009,
          0.12873939,
          0.09396133,
          -0.01145298,
          0.00407184,
          -0.02135522,
          -0.0032882,
          -0.11535192,
          -0.02800304,
          0.07495657,
          0.16451506,
          -0.14111008,
          0.16366321,
          -0.01990028,
          -0.13145567,
          0.05536108,
          -0.02345432,
          -0.0401125,
          -0.07523857,
          0.25448781,
          -0.08961809,
          -0.06441838,
          -0.03875897,
          0.00954003,
          -0.01071949,
          0.00073557,
          -0.14154172,
          -0.03989291,
          0.00154016,
          0.07717053,
          0.0593573,
          0.0127295,
          -0.00128659,
          0.06521951,
          -0.07890268
        ],
        [
          -0.07663833,
          0.02585247,
          -0.07133571,
          -0.09710976,
          -0.04451353,
          -0.06219271,
          0.0509552,
          0.11122813,
          0.02424465,
          0.20692475,
          0.05462908,
          -0.22209448,
          -0.16885822,
          -0.03252842,
          0.11652549,
          0.00649343,
          -0.01653928,
          0.17027795,
          0.11347713,
          -0.0688856,
          -0.10362815,
          -0.11231988,
          -0.04877285,
          0.0553392,
          0.05985331,
          0.09677693,
          -0.04884105,
          -0.01450799,
          0.10401289,
          -0.00508213,
          -0.0859203,
          -0.05469083,
          0.09052868,
          -0.01636527,
          0.03949803,
          0.00035567,
          -0.00064711,
          0.21360461,
          0.01834282,
          -0.02093744,
          -0.08754247,
          -0.16606644,
          -0.03964325,
          0.05006671,
          -0.08302701,
          -0.02864056,
          -0.00479635,
          0.08150496,
          0.03324691,
          0.0121042,
          0.11113089,
          0.00428929,
          -0.00851293,
          0.1416568,
          -0.00090346,
          -0.03737913,
          0.11690792,
          0.03226932,
          -0.01981693,
          -0.00447015,
          -0.03977621,
          -0.04055304,
          -0.04355343,
          0.00679893
        ],
        [
          -0.05144053,
          0.00883506,
          -0.05696123,
          0.04316001,
          -0.01528656,
          0.0884456,
          -0.03377642,
          -0.0929153,
          -0.04308336,
          -0.15234146,
          -0.10258201,
          0.12827098,
          8.1e-05,
          -0.05110549,
          0.01382989,
          0.05247713,
          -0.04929942,
          -0.10759192,
          -0.08336388,
          0.05038576,
          0.02889814,
          0.02921254,
          -0.03767544,
          -0.00078261,
          0.04621173,
          -0.0544481,
          0.01374477,
          -0.10850041,
          0.04399213,
          -0.03233554,
          -0.09515821,
          0.16583183,
          -0.06115926,
          0.0179049,
          -0.05780598,
          0.1120878,
          -0.07452033,
          0.0345036,
          0.13101499,
          0.14691274,
          0.05302766,
          -0.05729734,
          0.07984158,
          0.11720715,
          -0.12590547,
          0.08644254,
          -0.11586434,
          0.14298457,
          -0.05205346,
          0.04492893,
          -0.07268833,
          -0.02176137,
          -0.07535246,
          -0.03698734,
          -0.05796962,
          -0.130784,
          -0.06227731,
          -0.15069388,
          -0.03442209,
          -0.07073659,
          -0.01026046,
          0.10131956,
          -0.0108556,
          -0.00532807
        ]
      ],
      "weight_matrix_norm": [
        [
          0.3837288,
          0.41921911,
          -0.0894355,
          -0.18220763,
          -0.05791635,
          0.17105916,
          0.31538072,
          -0.17173396,
          -0.72372508,
          0.97494674,
          0.78142011,
          -0.62875777,
          0.19473837,
          0.3560515,
          0.24273139,
          0.57675862,
          0.26798773,
          0.35282931,
          -0.27256802,
          0.08695406,
          -0.87552136,
          0.20266253,
          -0.60523474,
          0.15744172,
          0.51603675,
          0.47900045,
          -0.09626087,
          -0.04866775,
          -0.31214058,
          0.11397768,
          -0.27354974,
          -0.31472841,
          -0.20201647,
          0.25396705,
          -0.58574224,
          -0.01263721,
          -0.60727602,
          0.97349638,
          -0.27947131,
          -0.11089206,
          0.51958853,
          -0.31349254,
          0.30185729,
          -0.27192637,
          -0.56842208,
          -0.54377049,
          0.48904085,
          -0.05971016,
          -0.39219227,
          0.65940362,
          0.00017413,
          -0.21571042,
          0.25774193,
          0.1113884,
          -0.17275418,
          0.78190559,
          0.75676972,
          1.0,
          0.59346205,
          -0.56126475,
          -0.04623419,
          -0.36777124,
          -0.25533861,
          0.77940959
        ],
        [
          0.0698587,
          0.4185164,
          -0.05749835,
          -0.27607846,
          0.16852804,
          -0.01049798,
          0.24694669,
          -0.11405104,
          0.21623437,
          0.32562995,
          0.12184607,
          0.44962606,
          -0.25484422,
          0.57122791,
          -0.31610367,
          0.14385243,
          -0.86375093,
          -1.0,
          0.38718751,
          -0.16228057,
          0.01795223,
          -0.1240779,
          0.12649719,
          -0.08427244,
          0.08315694,
          0.39558148,
          0.07382397,
          0.19814573,
          0.06723752,
          -0.102014,
          0.43573922,
          0.31802726,
          -0.03876445,
          0.01378179,
          -0.0722802,
          -0.01112943,
          -0.39042717,
          -0.09478082,
          0.25370261,
          0.55682778,
          -0.47760981,
          0.55394453,
          -0.06735571,
          -0.44493294,
          0.18737853,
          -0.07938494,
          -0.13576724,
          -0.25465709,
          0.86135507,
          -0.3033269,
          -0.21803439,
          -0.13118599,
          0.03228976,
          -0.03628186,
          0.00248964,
          -0.47907078,
          -0.135024,
          0.00521293,
          0.26119611,
          0.20090437,
          0.04308504,
          -0.00435469,
          0.22074594,
          -0.26705885
        ],
        [
          -0.34507084,
          0.11640304,
          -0.32119533,
          -0.43724531,
          -0.20042612,
          -0.28002819,
          0.22943029,
          0.5008145,
          0.10916369,
          0.93169695,
          0.24597225,
          -1.0,
          -0.76029903,
          -0.14646208,
          0.52466631,
          0.02923723,
          -0.07446957,
          0.76669151,
          0.51094079,
          -0.3101635,
          -0.4665949,
          -0.50573015,
          -0.21960406,
          0.24916963,
          0.26949483,
          0.43574664,
          -0.21991113,
          -0.06532351,
          0.46832722,
          -0.02288276,
          -0.38686374,
          -0.24625032,
          0.4076134,
          -0.07368608,
          0.17784336,
          0.00160146,
          -0.00291366,
          0.96177363,
          0.08259018,
          -0.09427267,
          -0.39416772,
          -0.74772882,
          -0.17849724,
          0.22542979,
          -0.37383643,
          -0.12895663,
          -0.02159597,
          0.36698329,
          0.14969714,
          0.05450022,
          0.50037664,
          0.01931289,
          -0.03833023,
          0.63782227,
          -0.0040679,
          -0.16830285,
          0.52638823,
          0.14529546,
          -0.08922749,
          -0.02012726,
          -0.17909589,
          -0.18259364,
          -0.19610316,
          0.03061277
        ],
        [
          -0.31019697,
          0.0532772,
          -0.34348795,
          0.26026371,
          -0.09218112,
          0.5333451,
          -0.20367877,
          -0.56029838,
          -0.25980151,
          -0.91865027,
          -0.61859053,
          0.77350038,
          0.00048847,
          -0.30817661,
          0.08339705,
          0.31644788,
          -0.29728565,
          -0.64880139,
          -0.50270128,
          0.30383649,
          0.17426172,
          0.17615761,
          -0.22719064,
          -0.00471932,
          0.27866626,
          -0.3283332,
          0.0828838,
          -0.65427977,
          0.26528159,
          -0.19498995,
          -0.57382357,
          1.0,
          -0.36880291,
          0.10797022,
          -0.34858194,
          0.67591244,
          -0.44937286,
          0.2080638,
          0.79004729,
          0.88591397,
          0.31976765,
          -0.34551471,
          0.48146111,
          0.70678318,
          -0.7592358,
          0.52126622,
          -0.69868577,
          0.86222631,
          -0.31389305,
          0.27093071,
          -0.43832558,
          -0.13122556,
          -0.45439079,
          -0.22304124,
          -0.34956872,
          -0.78865439,
          -0.37554494,
          -0.90871501,
          -0.20757225,
          -0.42655614,
          -0.06187271,
          0.61097771,
          -0.06546152,
          -0.03212936
        ]
      ],
      "channel_abs_mean": [
        0.05365029,
        0.05757857,
        0.04016002,
        0.06328015,
        0.02988387,
        0.04577728,
        0.05295999,
        0.06683123,
        0.06386778,
        0.15571564,
        0.0818432,
        0.14778982,
        0.06941694,
        0.07838352,
        0.06635575,
        0.05012392,
        0.09176131,
        0.15847445,
        0.08950827,
        0.0455366,
        0.0720372,
        0.05324662,
        0.05693372,
        0.02701284,
        0.05480807,
        0.08758488,
        0.02523105,
        0.04747661,
        0.05536547,
        0.02178166,
        0.08919593,
        0.09212995,
        0.04945629,
        0.02048642,
        0.05480637,
        0.02947534,
        0.07369568,
        0.11081278,
        0.06807423,
        0.08785108,
        0.09272213,
        0.11021265,
        0.04780277,
        0.08635416,
        0.09047152,
        0.05797438,
        0.06118418,
        0.07749494,
        0.10178094,
        0.0649661,
        0.06206688,
        0.02546125,
        0.0344143,
        0.05212198,
        0.02231721,
        0.11098761,
        0.08725204,
        0.0890484,
        0.0583253,
        0.05773193,
        0.01767603,
        0.05157548,
        0.04086692,
        0.05621168
      ],
      "channel_signed_mean": [
        -0.01038914,
        0.05757857,
        -0.04016002,
        -0.04170014,
        -0.00498802,
        0.01313011,
        0.03607178,
        -0.01121717,
        -0.01980217,
        0.07954492,
        0.03055219,
        -0.0172332,
        -0.0526591,
        0.03656656,
        0.01965925,
        0.05012392,
        -0.06875587,
        -0.04304679,
        0.02442769,
        -0.01287914,
        -0.05493613,
        -0.02124276,
        -0.03824688,
        0.01417236,
        0.05480807,
        0.06036083,
        -0.007453,
        -0.01820548,
        0.02856972,
        -0.01199723,
        -0.02482624,
        0.03776663,
        -0.00419195,
        0.01230378,
        -0.03505735,
        0.0267464,
        -0.07369568,
        0.09681126,
        0.04408297,
        0.06786282,
        -0.02160415,
        -0.02838105,
        0.018031,
        -0.00271723,
        -0.06279097,
        -0.01475311,
        -0.01920241,
        0.03474983,
        0.04208641,
        0.02015705,
        -0.00648648,
        -0.02331661,
        -0.0075184,
        0.02826857,
        -0.02194943,
        -0.04386482,
        0.03616692,
        0.01370146,
        0.03120579,
        -0.02805328,
        -0.01131128,
        -0.0009157,
        -0.00825717,
        0.0140963
      ],
      "channel_l2": [
        0.0576326,
        0.07282938,
        0.04705778,
        0.06878408,
        0.03461656,
        0.05604178,
        0.05475514,
        0.07584485,
        0.07410324,
        0.16070212,
        0.09055781,
        0.15417524,
        0.09394167,
        0.09472328,
        0.0778275,
        0.06001686,
        0.13223635,
        0.18133618,
        0.09367863,
        0.04951172,
        0.09246307,
        0.06329239,
        0.06323154,
        0.03321766,
        0.05952155,
        0.09048957,
        0.02882379,
        0.062209,
        0.06328639,
        0.02430422,
        0.09383097,
        0.10276172,
        0.05759789,
        0.02503132,
        0.06219172,
        0.05607878,
        0.08621284,
        0.13742027,
        0.0797217,
        0.11118613,
        0.0979104,
        0.12302812,
        0.05250765,
        0.09447813,
        0.09398779,
        0.06625482,
        0.07434118,
        0.09062779,
        0.13519712,
        0.07585141,
        0.073796,
        0.0290079,
        0.04415794,
        0.07401919,
        0.03256364,
        0.1189092,
        0.09489359,
        0.115358,
        0.06692307,
        0.06676994,
        0.02186593,
        0.06304535,
        0.04524986,
        0.07779339
      ],
      "top_channels_by_abs_weight": [
        {
          "rank": 1,
          "channel_index": 17,
          "channel_name": "CP3",
          "abs_mean_weight": 0.15847445,
          "signed_mean_weight": -0.04304679,
          "l2_weight": 0.18133618
        },
        {
          "rank": 2,
          "channel_index": 9,
          "channel_name": "FC3",
          "abs_mean_weight": 0.15571564,
          "signed_mean_weight": 0.07954492,
          "l2_weight": 0.16070212
        },
        {
          "rank": 3,
          "channel_index": 11,
          "channel_name": "C1",
          "abs_mean_weight": 0.14778982,
          "signed_mean_weight": -0.0172332,
          "l2_weight": 0.15417524
        },
        {
          "rank": 4,
          "channel_index": 55,
          "channel_name": "CP2",
          "abs_mean_weight": 0.11098761,
          "signed_mean_weight": -0.04386482,
          "l2_weight": 0.1189092
        },
        {
          "rank": 5,
          "channel_index": 37,
          "channel_name": "Fz",
          "abs_mean_weight": 0.11081278,
          "signed_mean_weight": 0.09681126,
          "l2_weight": 0.13742027
        },
        {
          "rank": 6,
          "channel_index": 41,
          "channel_name": "F8",
          "abs_mean_weight": 0.11021265,
          "signed_mean_weight": -0.02838105,
          "l2_weight": 0.12302812
        },
        {
          "rank": 7,
          "channel_index": 48,
          "channel_name": "C2",
          "abs_mean_weight": 0.10178094,
          "signed_mean_weight": 0.04208641,
          "l2_weight": 0.13519712
        },
        {
          "rank": 8,
          "channel_index": 40,
          "channel_name": "F6",
          "abs_mean_weight": 0.09272213,
          "signed_mean_weight": -0.02160415,
          "l2_weight": 0.0979104
        },
        {
          "rank": 9,
          "channel_index": 31,
          "channel_name": "CPz",
          "abs_mean_weight": 0.09212995,
          "signed_mean_weight": 0.03776663,
          "l2_weight": 0.10276172
        },
        {
          "rank": 10,
          "channel_index": 16,
          "channel_name": "CP5",
          "abs_mean_weight": 0.09176131,
          "signed_mean_weight": -0.06875587,
          "l2_weight": 0.13223635
        },
        {
          "rank": 11,
          "channel_index": 44,
          "channel_name": "FC4",
          "abs_mean_weight": 0.09047152,
          "signed_mean_weight": -0.06279097,
          "l2_weight": 0.09398779
        },
        {
          "rank": 12,
          "channel_index": 18,
          "channel_name": "CP1",
          "abs_mean_weight": 0.08950827,
          "signed_mean_weight": 0.02442769,
          "l2_weight": 0.09367863
        },
        {
          "rank": 13,
          "channel_index": 30,
          "channel_name": "Pz",
          "abs_mean_weight": 0.08919593,
          "signed_mean_weight": -0.02482624,
          "l2_weight": 0.09383097
        },
        {
          "rank": 14,
          "channel_index": 57,
          "channel_name": "P4",
          "abs_mean_weight": 0.0890484,
          "signed_mean_weight": 0.01370146,
          "l2_weight": 0.115358
        },
        {
          "rank": 15,
          "channel_index": 39,
          "channel_name": "F4",
          "abs_mean_weight": 0.08785108,
          "signed_mean_weight": 0.06786282,
          "l2_weight": 0.11118613
        }
      ]
    }
  },
  {
    "subject_id": "1",
    "fold_id": 3,
    "accuracy": 0.55,
    "balanced_accuracy": 0.55,
    "prediction_histogram": [
      24,
      16
    ],
    "collapse_diagnostics": {
      "prediction_histogram": [
        24,
        16
      ],
      "collapse_ratio": 0.6,
      "collapse_threshold": 0.9,
      "collapse_flag": false,
      "majority_predicted_class": 0
    },
    "probability_diagnostics": {
      "available": true,
      "probability_shape": [
        40,
        2
      ],
      "mean_probability_by_class": [
        0.54891718,
        0.45108282
      ],
      "std_probability_by_class": [
        0.16438374,
        0.16438373
      ],
      "mean_confidence": 0.6377736,
      "std_confidence": 0.10214371,
      "mean_prediction_entropy": 0.63072591,
      "mean_normalized_prediction_entropy": 0.90994515,
      "mean_predicted_class_probability": 0.6377736
    },
    "spatial_update_stats": {
      "available": true,
      "parameter_name": "spatial_conv.1.weight",
      "initial_shape": [
        4,
        64
      ],
      "final_shape": [
        4,
        64
      ],
      "initial_l2": 1.13190078,
      "final_l2": 1.37530895,
      "delta_l2": 1.35734149,
      "delta_max_abs": 0.33440615,
      "relative_delta": 1.19917003,
      "changed": true
    },
    "n_trainable_params_final": 1798,
    "spatial_conv": {
      "available": true,
      "parameter_name": "spatial_conv.1.weight",
      "raw_weight_shape": [
        4,
        1,
        64,
        1
      ],
      "weight_matrix_shape": [
        4,
        64
      ],
      "n_virtual_filters": 4,
      "n_input_channels": 64,
      "channel_names": [
        "Fp1",
        "AF7",
        "AF3",
        "F1",
        "F3",
        "F5",
        "F7",
        "FT7",
        "FC5",
        "FC3",
        "FC1",
        "C1",
        "C3",
        "C5",
        "T7",
        "TP7",
        "CP5",
        "CP3",
        "CP1",
        "P1",
        "P3",
        "P5",
        "P7",
        "P9",
        "PO7",
        "PO3",
        "O1",
        "Iz",
        "Oz",
        "POz",
        "Pz",
        "CPz",
        "Fpz",
        "Fp2",
        "AF8",
        "AF4",
        "AFz",
        "Fz",
        "F2",
        "F4",
        "F6",
        "F8",
        "FT8",
        "FC6",
        "FC4",
        "FC2",
        "FCz",
        "Cz",
        "C2",
        "C4",
        "C6",
        "T8",
        "TP8",
        "CP6",
        "CP4",
        "CP2",
        "P2",
        "P4",
        "P6",
        "P8",
        "P10",
        "PO8",
        "PO4",
        "O2"
      ],
      "weight_matrix": [
        [
          0.09562808,
          -0.01091272,
          -0.0010297,
          -0.05797356,
          0.03724369,
          0.05832328,
          -0.03708458,
          0.02057536,
          -0.12068484,
          0.18426432,
          0.1986669,
          0.03504636,
          -0.07070167,
          0.10361005,
          -0.01609603,
          0.10180111,
          0.03362316,
          -0.02138649,
          0.08831144,
          0.06679841,
          -0.08447897,
          0.11762612,
          -0.04050982,
          -0.01787347,
          0.03139869,
          0.06347378,
          -0.03822438,
          0.03755959,
          -0.03555106,
          -0.09555955,
          -3.419e-05,
          -0.03829661,
          -0.02052926,
          0.00369664,
          -0.06184854,
          -0.0119076,
          -0.01301221,
          0.03313665,
          -0.15147558,
          0.11636123,
          0.03931863,
          0.01470353,
          0.06278045,
          -0.07806914,
          -0.0963308,
          0.0280749,
          0.01566237,
          -0.15063967,
          -0.13948925,
          0.090211,
          0.09880905,
          -0.02770111,
          0.03045116,
          0.05422754,
          -0.05642261,
          0.15508808,
          0.11751924,
          0.02449634,
          0.1243692,
          -0.13332649,
          -0.00296195,
          -0.08114668,
          -0.05687162,
          0.13140571
        ],
        [
          0.00385724,
          0.07359101,
          -0.04000069,
          -0.00804124,
          -0.04965755,
          0.00353965,
          0.15259516,
          -0.05237216,
          0.0898352,
          0.10163508,
          -0.01935285,
          0.04761739,
          -0.0324381,
          0.12238498,
          0.00011561,
          0.02926164,
          -0.10864016,
          -0.21743055,
          0.15140374,
          0.05525408,
          0.04926961,
          0.0080184,
          0.06613183,
          -0.09822398,
          -0.0395138,
          0.00978056,
          -0.02417288,
          0.08337458,
          0.07392485,
          0.07359809,
          0.11296166,
          -0.00971694,
          0.01368436,
          0.01909962,
          0.053622,
          0.03867749,
          -0.15871496,
          0.06297054,
          0.08962369,
          0.11736281,
          -0.16414408,
          0.12506679,
          0.0030756,
          -0.13459082,
          -0.01282229,
          0.06559204,
          -0.06281712,
          -0.11400151,
          0.36329585,
          -0.1134534,
          0.01868271,
          -0.06823976,
          0.04197904,
          0.00833594,
          -0.00905563,
          -0.17705828,
          -0.00826146,
          -0.01980796,
          -0.01286186,
          0.14455333,
          0.00733708,
          0.07355388,
          0.00910689,
          -0.1076844
        ],
        [
          -0.05835813,
          0.10177894,
          -0.02101247,
          -0.13473174,
          -0.02616035,
          -0.12191764,
          0.0543582,
          0.05558318,
          0.15999521,
          0.07798861,
          0.10724007,
          0.15331456,
          0.05477623,
          -0.05472538,
          0.00421964,
          -0.04554925,
          0.02148876,
          -0.08188087,
          0.00992665,
          0.03844706,
          -0.13234,
          -0.02544424,
          0.05019466,
          -0.08987979,
          0.04436983,
          0.01557125,
          -0.02674674,
          -0.04639335,
          0.07077883,
          0.04848564,
          -0.01567198,
          -0.14153405,
          0.03056104,
          -0.02871135,
          0.04578615,
          0.04663453,
          -0.0888752,
          0.06369208,
          0.11327261,
          -0.00349219,
          -0.07740642,
          -0.0916763,
          0.03985071,
          0.00584252,
          -0.04319295,
          -0.11433381,
          -0.07689158,
          0.08757426,
          0.34377259,
          -0.17625341,
          0.03516955,
          0.01738343,
          -0.02898851,
          0.13068703,
          -0.03224483,
          -0.1346526,
          0.02132608,
          -0.00752785,
          -0.03752315,
          0.13777491,
          -0.0274409,
          0.00256796,
          -0.03630112,
          0.0296154
        ],
        [
          -0.01879912,
          0.01252671,
          -0.04349232,
          0.0101823,
          0.07710934,
          0.13747406,
          -0.03335337,
          0.0123631,
          -0.06067413,
          -0.1701545,
          -0.23183048,
          0.02973798,
          -0.13626353,
          -0.05692653,
          -0.07518426,
          -0.03162072,
          0.06503965,
          0.12443844,
          -0.14265345,
          0.04339474,
          0.07135519,
          -0.03396093,
          -0.05277609,
          0.07509141,
          0.06268058,
          -0.12703414,
          -0.05521453,
          -0.1086693,
          0.02305966,
          -0.02929047,
          -0.04761629,
          0.14299579,
          -0.08688073,
          0.00966272,
          -0.05859526,
          -0.01926232,
          0.03179618,
          0.03195855,
          0.0455174,
          0.09885226,
          -0.00120626,
          0.0413416,
          0.05584821,
          0.00211481,
          0.04906587,
          0.0597665,
          0.04542416,
          0.12902108,
          -0.19200289,
          0.00904825,
          -0.08127734,
          -0.01593671,
          -0.05181257,
          -0.1076275,
          -0.08666836,
          0.01656833,
          -0.07712027,
          -0.04816833,
          -0.02194354,
          -0.11690713,
          0.02154009,
          0.08772568,
          0.06357776,
          -0.00705772
        ]
      ],
      "weight_matrix_norm": [
        [
          0.48134881,
          -0.05492974,
          -0.00518307,
          -0.29181287,
          0.18746804,
          0.29357323,
          -0.18666713,
          0.10356715,
          -0.60747331,
          0.92750388,
          1.0,
          0.17640765,
          -0.35588044,
          0.52152652,
          -0.08102018,
          0.51242113,
          0.16924389,
          -0.10765,
          0.44452015,
          0.33623323,
          -0.42522922,
          0.59207708,
          -0.20390825,
          -0.08996703,
          0.15804692,
          0.31949851,
          -0.19240437,
          0.18905813,
          -0.17894807,
          -0.48100388,
          -0.00017208,
          -0.19276793,
          -0.10333508,
          0.01860725,
          -0.3113178,
          -0.05993753,
          -0.06549764,
          0.16679505,
          -0.76246005,
          0.58571023,
          0.19791232,
          0.07401098,
          0.31600863,
          -0.39296502,
          -0.48488599,
          0.14131646,
          0.07883732,
          -0.75825244,
          -0.70212626,
          0.45408171,
          0.49736041,
          -0.13943496,
          0.15327749,
          0.27295709,
          -0.28400609,
          0.78064376,
          0.59153914,
          0.12330358,
          0.62601876,
          -0.67110568,
          -0.01490914,
          -0.40845597,
          -0.28626621,
          0.66143739
        ],
        [
          0.01061735,
          0.20256495,
          -0.11010499,
          -0.02213413,
          -0.13668625,
          0.00974315,
          0.42003003,
          -0.14415842,
          0.24727836,
          0.27975845,
          -0.05327023,
          0.13107055,
          -0.08928839,
          0.33687416,
          0.00031822,
          0.08054494,
          -0.29904047,
          -0.59849441,
          0.41675052,
          0.15209113,
          0.1356184,
          0.02207127,
          0.18203299,
          -0.27036914,
          -0.1087648,
          0.02692176,
          -0.06653773,
          0.229495,
          0.20348389,
          0.20258446,
          0.31093574,
          -0.02674662,
          0.03766727,
          0.05257318,
          0.14759871,
          0.10646278,
          -0.43687525,
          0.17333129,
          0.24669616,
          0.32305023,
          -0.45181933,
          0.34425601,
          0.00846583,
          -0.37047166,
          -0.03529435,
          0.18054716,
          -0.17290899,
          -0.31379798,
          1.0,
          -0.3122893,
          0.05142562,
          -0.18783522,
          0.11555058,
          0.02294532,
          -0.02492632,
          -0.48736665,
          -0.0227403,
          -0.05452295,
          -0.03540326,
          0.39789426,
          0.02019588,
          0.20246276,
          0.02506742,
          -0.29640967
        ],
        [
          -0.16975796,
          0.29606473,
          -0.06112316,
          -0.39192113,
          -0.07609784,
          -0.35464621,
          0.15812255,
          0.1616859,
          0.46541002,
          0.22686104,
          0.31195059,
          0.44597667,
          0.15933856,
          -0.15919065,
          0.0122745,
          -0.1324982,
          0.06250865,
          -0.23818323,
          0.02887562,
          0.11183863,
          -0.38496378,
          -0.07401474,
          0.14601123,
          -0.2614513,
          0.12906739,
          0.04529521,
          -0.07780358,
          -0.13495359,
          0.20588852,
          0.14103986,
          -0.04558822,
          -0.41170835,
          0.088899,
          -0.08351844,
          0.13318732,
          0.13565516,
          -0.25852904,
          0.18527387,
          0.32949868,
          -0.01015844,
          -0.22516751,
          -0.26667717,
          0.11592171,
          0.01699531,
          -0.12564395,
          -0.33258557,
          -0.22366989,
          0.25474474,
          1.0,
          -0.51270348,
          0.10230468,
          0.05056665,
          -0.08432467,
          0.38015547,
          -0.09379697,
          -0.39169091,
          0.06203543,
          -0.02189776,
          -0.10915107,
          0.40077341,
          -0.07982282,
          0.00746994,
          -0.10559632,
          0.08614823
        ],
        [
          -0.08108994,
          0.05403392,
          -0.18760397,
          0.04392133,
          0.33261091,
          0.59299392,
          -0.14386964,
          0.0533282,
          -0.26171768,
          -0.73396087,
          -1.0,
          0.12827468,
          -0.58777231,
          -0.24555241,
          -0.32430702,
          -0.13639589,
          0.2805483,
          0.5367648,
          -0.61533517,
          0.18718305,
          0.3077904,
          -0.14649037,
          -0.2276495,
          0.32390654,
          0.27037248,
          -0.54796135,
          -0.2381677,
          -0.4687447,
          0.09946778,
          -0.12634434,
          -0.20539272,
          0.61681187,
          -0.37475973,
          0.04168012,
          -0.25275046,
          -0.08308794,
          0.13715273,
          0.13785312,
          0.19633916,
          0.4263989,
          -0.00520319,
          0.17832683,
          0.24090108,
          0.00912223,
          0.21164548,
          0.25780261,
          0.19593696,
          0.55653197,
          -0.82820386,
          0.03902959,
          -0.35058954,
          -0.06874296,
          -0.22349334,
          -0.46425086,
          -0.37384367,
          0.07146744,
          -0.33265805,
          -0.20777392,
          -0.09465338,
          -0.50427848,
          0.0929131,
          0.37840444,
          0.27424246,
          -0.03044345
        ]
      ],
      "channel_abs_mean": [
        0.04416064,
        0.04970234,
        0.02638379,
        0.05273221,
        0.04754274,
        0.08031365,
        0.06934783,
        0.03522345,
        0.10779735,
        0.13351063,
        0.13927257,
        0.06642907,
        0.07354489,
        0.08441173,
        0.02390388,
        0.05205819,
        0.05719793,
        0.11128408,
        0.09807383,
        0.05097357,
        0.08436094,
        0.04626242,
        0.0524031,
        0.07026716,
        0.04449072,
        0.05396494,
        0.03608964,
        0.06899921,
        0.0508286,
        0.06173344,
        0.04407103,
        0.08313584,
        0.03791385,
        0.01529258,
        0.05496299,
        0.02912048,
        0.07309964,
        0.04793946,
        0.09997232,
        0.08401713,
        0.07051884,
        0.06819706,
        0.04038874,
        0.05515432,
        0.05035298,
        0.06694181,
        0.05019881,
        0.12030912,
        0.25964016,
        0.09724151,
        0.05848466,
        0.03231525,
        0.03830782,
        0.0752195,
        0.04609786,
        0.12084182,
        0.05605676,
        0.02500012,
        0.04917444,
        0.13314047,
        0.01482001,
        0.06124855,
        0.04146435,
        0.06894081
      ],
      "channel_signed_mean": [
        0.00558202,
        0.04424598,
        -0.02638379,
        -0.04764106,
        0.00963379,
        0.01935484,
        0.03412885,
        0.00903737,
        0.01711786,
        0.04843338,
        0.01368091,
        0.06642907,
        -0.04615677,
        0.02858578,
        -0.02173626,
        0.0134732,
        0.00287785,
        -0.04906487,
        0.0267471,
        0.05097357,
        -0.02404854,
        0.01655984,
        0.00576015,
        -0.03272146,
        0.02473383,
        -0.00955214,
        -0.03608964,
        -0.00853212,
        0.03305307,
        -0.00069157,
        0.0124098,
        -0.01163795,
        -0.01579115,
        0.00093691,
        -0.00525891,
        0.01353552,
        -0.05720155,
        0.04793946,
        0.02423453,
        0.08227102,
        -0.05085954,
        0.0223589,
        0.04038874,
        -0.05117565,
        -0.02582004,
        0.00977491,
        -0.01965554,
        -0.01201146,
        0.09389408,
        -0.04761189,
        0.01784599,
        -0.02362354,
        -0.00209272,
        0.02140575,
        -0.04609786,
        -0.03501362,
        0.0133659,
        -0.01275195,
        0.01301016,
        0.00802366,
        -0.00038142,
        0.02067521,
        -0.00512202,
        0.01156975
      ],
      "channel_l2": [
        0.0568302,
        0.06334547,
        0.03136168,
        0.0736239,
        0.0511937,
        0.09640691,
        0.0847464,
        0.04002663,
        0.11392433,
        0.14081708,
        0.16208707,
        0.08349456,
        0.08309504,
        0.08937089,
        0.03850186,
        0.05977942,
        0.06637982,
        0.13221462,
        0.11310454,
        0.0521448,
        0.08967947,
        0.06265172,
        0.05319606,
        0.07694886,
        0.04594767,
        0.07159734,
        0.03810992,
        0.07470509,
        0.05538536,
        0.06662788,
        0.06179252,
        0.10251918,
        0.04767324,
        0.01800118,
        0.05529543,
        0.0323402,
        0.09256019,
        0.05035215,
        0.10709783,
        0.09630412,
        0.09284725,
        0.08057848,
        0.04652404,
        0.07785898,
        0.05856006,
        0.07371359,
        0.05515199,
        0.12247892,
        0.27680582,
        0.11418935,
        0.06699846,
        0.03866581,
        0.0394157,
        0.0889844,
        0.05435221,
        0.13583793,
        0.07120632,
        0.02902276,
        0.06618654,
        0.13352978,
        0.01788564,
        0.07017362,
        0.0465758,
        0.08629929
      ],
      "top_channels_by_abs_weight": [
        {
          "rank": 1,
          "channel_index": 48,
          "channel_name": "C2",
          "abs_mean_weight": 0.25964016,
          "signed_mean_weight": 0.09389408,
          "l2_weight": 0.27680582
        },
        {
          "rank": 2,
          "channel_index": 10,
          "channel_name": "FC1",
          "abs_mean_weight": 0.13927257,
          "signed_mean_weight": 0.01368091,
          "l2_weight": 0.16208707
        },
        {
          "rank": 3,
          "channel_index": 9,
          "channel_name": "FC3",
          "abs_mean_weight": 0.13351063,
          "signed_mean_weight": 0.04843338,
          "l2_weight": 0.14081708
        },
        {
          "rank": 4,
          "channel_index": 59,
          "channel_name": "P8",
          "abs_mean_weight": 0.13314047,
          "signed_mean_weight": 0.00802366,
          "l2_weight": 0.13352978
        },
        {
          "rank": 5,
          "channel_index": 55,
          "channel_name": "CP2",
          "abs_mean_weight": 0.12084182,
          "signed_mean_weight": -0.03501362,
          "l2_weight": 0.13583793
        },
        {
          "rank": 6,
          "channel_index": 47,
          "channel_name": "Cz",
          "abs_mean_weight": 0.12030912,
          "signed_mean_weight": -0.01201146,
          "l2_weight": 0.12247892
        },
        {
          "rank": 7,
          "channel_index": 17,
          "channel_name": "CP3",
          "abs_mean_weight": 0.11128408,
          "signed_mean_weight": -0.04906487,
          "l2_weight": 0.13221462
        },
        {
          "rank": 8,
          "channel_index": 8,
          "channel_name": "FC5",
          "abs_mean_weight": 0.10779735,
          "signed_mean_weight": 0.01711786,
          "l2_weight": 0.11392433
        },
        {
          "rank": 9,
          "channel_index": 38,
          "channel_name": "F2",
          "abs_mean_weight": 0.09997232,
          "signed_mean_weight": 0.02423453,
          "l2_weight": 0.10709783
        },
        {
          "rank": 10,
          "channel_index": 18,
          "channel_name": "CP1",
          "abs_mean_weight": 0.09807383,
          "signed_mean_weight": 0.0267471,
          "l2_weight": 0.11310454
        },
        {
          "rank": 11,
          "channel_index": 49,
          "channel_name": "C4",
          "abs_mean_weight": 0.09724151,
          "signed_mean_weight": -0.04761189,
          "l2_weight": 0.11418935
        },
        {
          "rank": 12,
          "channel_index": 13,
          "channel_name": "C5",
          "abs_mean_weight": 0.08441173,
          "signed_mean_weight": 0.02858578,
          "l2_weight": 0.08937089
        },
        {
          "rank": 13,
          "channel_index": 20,
          "channel_name": "P3",
          "abs_mean_weight": 0.08436094,
          "signed_mean_weight": -0.02404854,
          "l2_weight": 0.08967947
        },
        {
          "rank": 14,
          "channel_index": 39,
          "channel_name": "F4",
          "abs_mean_weight": 0.08401713,
          "signed_mean_weight": 0.08227102,
          "l2_weight": 0.09630412
        },
        {
          "rank": 15,
          "channel_index": 31,
          "channel_name": "CPz",
          "abs_mean_weight": 0.08313584,
          "signed_mean_weight": -0.01163795,
          "l2_weight": 0.10251918
        }
      ]
    }
  },
  {
    "subject_id": "1",
    "fold_id": 4,
    "accuracy": 0.625,
    "balanced_accuracy": 0.625,
    "prediction_histogram": [
      19,
      21
    ],
    "collapse_diagnostics": {
      "prediction_histogram": [
        19,
        21
      ],
      "collapse_ratio": 0.525,
      "collapse_threshold": 0.9,
      "collapse_flag": false,
      "majority_predicted_class": 1
    },
    "probability_diagnostics": {
      "available": true,
      "probability_shape": [
        40,
        2
      ],
      "mean_probability_by_class": [
        0.4761155,
        0.52388451
      ],
      "std_probability_by_class": [
        0.22018751,
        0.22018751
      ],
      "mean_confidence": 0.68484531,
      "std_confidence": 0.12200501,
      "mean_prediction_entropy": 0.58660092,
      "mean_normalized_prediction_entropy": 0.84628624,
      "mean_predicted_class_probability": 0.68484531
    },
    "spatial_update_stats": {
      "available": true,
      "parameter_name": "spatial_conv.1.weight",
      "initial_shape": [
        4,
        64
      ],
      "final_shape": [
        4,
        64
      ],
      "initial_l2": 1.13190078,
      "final_l2": 1.37179608,
      "delta_l2": 1.39389277,
      "delta_max_abs": 0.26048259,
      "relative_delta": 1.23146197,
      "changed": true
    },
    "n_trainable_params_final": 1798,
    "spatial_conv": {
      "available": true,
      "parameter_name": "spatial_conv.1.weight",
      "raw_weight_shape": [
        4,
        1,
        64,
        1
      ],
      "weight_matrix_shape": [
        4,
        64
      ],
      "n_virtual_filters": 4,
      "n_input_channels": 64,
      "channel_names": [
        "Fp1",
        "AF7",
        "AF3",
        "F1",
        "F3",
        "F5",
        "F7",
        "FT7",
        "FC5",
        "FC3",
        "FC1",
        "C1",
        "C3",
        "C5",
        "T7",
        "TP7",
        "CP5",
        "CP3",
        "CP1",
        "P1",
        "P3",
        "P5",
        "P7",
        "P9",
        "PO7",
        "PO3",
        "O1",
        "Iz",
        "Oz",
        "POz",
        "Pz",
        "CPz",
        "Fpz",
        "Fp2",
        "AF8",
        "AF4",
        "AFz",
        "Fz",
        "F2",
        "F4",
        "F6",
        "F8",
        "FT8",
        "FC6",
        "FC4",
        "FC2",
        "FCz",
        "Cz",
        "C2",
        "C4",
        "C6",
        "T8",
        "TP8",
        "CP6",
        "CP4",
        "CP2",
        "P2",
        "P4",
        "P6",
        "P8",
        "P10",
        "PO8",
        "PO4",
        "O2"
      ],
      "weight_matrix": [
        [
          0.04165238,
          -0.00406782,
          -0.00477765,
          0.00999315,
          -0.10239864,
          0.06382421,
          0.09386376,
          -0.02289745,
          -0.07910218,
          0.19430971,
          0.07606781,
          0.02649518,
          0.07745192,
          0.17786486,
          0.01495194,
          0.08925087,
          -0.12044989,
          -0.17032333,
          -0.11458501,
          -0.04871543,
          -0.02578977,
          0.07677035,
          -0.10809337,
          -0.02786808,
          0.12304204,
          0.06057341,
          -0.04625674,
          -0.01391386,
          -0.04840035,
          0.0406692,
          0.0573634,
          0.15924022,
          0.00289644,
          0.01262254,
          -0.03650781,
          0.01442524,
          -0.1100955,
          0.08927337,
          -0.03150963,
          0.1114695,
          0.01283283,
          0.06788424,
          -0.01701087,
          -0.09173229,
          -0.05429893,
          -0.17899315,
          0.06221108,
          -0.11357065,
          -0.01504532,
          -0.12712881,
          0.14822739,
          -0.02318972,
          0.0469465,
          -0.01475043,
          -0.02266638,
          0.12854412,
          0.19916004,
          0.03200388,
          0.06333543,
          -0.03877304,
          0.00045764,
          0.01060106,
          -0.09035958,
          0.066323
        ],
        [
          -0.00287878,
          0.0385536,
          0.06095192,
          -0.10273913,
          0.00392156,
          -0.01101419,
          0.17535195,
          -0.02145962,
          0.02581053,
          0.08466329,
          -0.01824241,
          0.12050577,
          0.02736075,
          0.03761818,
          -0.02225058,
          0.01254882,
          -0.15306158,
          -0.12958801,
          -0.05099774,
          -0.11776679,
          0.19036005,
          -0.02687435,
          -0.01931907,
          -0.00687533,
          0.02757652,
          0.05494855,
          -0.036581,
          0.07020064,
          0.07144346,
          -0.03493458,
          0.195969,
          0.059812,
          0.00097359,
          0.02087483,
          0.03043446,
          0.0012052,
          -0.14597249,
          0.11556157,
          0.04472703,
          0.12210721,
          -0.11228466,
          0.08993702,
          0.00522725,
          -0.06623989,
          0.1340397,
          -0.13002977,
          0.07663939,
          -0.10788968,
          0.2893723,
          -0.06954063,
          -0.01203801,
          -0.02509611,
          -0.00364697,
          -0.17611708,
          0.01490089,
          -0.24728064,
          -0.01608441,
          0.04501337,
          0.10914314,
          0.07468158,
          0.01768574,
          0.0027616,
          0.10852896,
          -0.08618685
        ],
        [
          -0.06755111,
          0.11044022,
          -0.08381763,
          -0.0075125,
          -0.07155892,
          -0.03440074,
          0.04092774,
          0.02528012,
          0.01942017,
          0.22160794,
          0.02255496,
          -0.17172466,
          -0.07905313,
          -0.03957703,
          0.13259181,
          -0.10676219,
          0.04513988,
          0.01891488,
          0.06682046,
          -0.02921886,
          -0.17860284,
          0.03764803,
          0.00983078,
          -0.00639072,
          0.0109104,
          0.09267326,
          -0.05893998,
          0.01820364,
          0.10781815,
          0.02114254,
          -0.14215314,
          -0.1451765,
          0.05625715,
          -0.00521875,
          -0.01401414,
          0.00544686,
          -0.0679512,
          0.15748145,
          -0.09631123,
          -0.04358686,
          -0.0164149,
          0.00745683,
          -0.07604218,
          0.00037446,
          -0.03269483,
          0.00875038,
          0.01779851,
          0.09564463,
          0.11305319,
          -0.09542672,
          0.09349416,
          -0.03786638,
          0.04055179,
          0.06531575,
          0.04107018,
          -0.03762248,
          0.15174918,
          0.16936415,
          0.0117039,
          -0.08308318,
          -0.02677948,
          -0.04903096,
          -0.03674522,
          -0.05765078
        ],
        [
          -0.00672897,
          0.0141966,
          -0.08563471,
          -0.11429158,
          -0.01548017,
          0.03175183,
          -0.11040052,
          -0.00265075,
          0.06042774,
          -0.01090213,
          -0.00616912,
          -0.15014704,
          -0.03597974,
          -0.16872326,
          0.14569961,
          -0.0267973,
          -0.03974807,
          0.04873982,
          -0.20501405,
          0.00785067,
          0.02043171,
          -0.03138804,
          -0.07935485,
          0.07227096,
          0.04087993,
          0.05069369,
          0.07579611,
          -0.13306415,
          -0.01401127,
          -0.05205866,
          -0.10801239,
          0.16091958,
          -0.04417739,
          0.02528149,
          -0.06838473,
          0.05929194,
          0.05729777,
          0.08955098,
          -0.07486617,
          0.01248061,
          -0.01490411,
          0.06217394,
          0.00435904,
          -0.12411608,
          0.02345349,
          0.03005368,
          -0.1127735,
          0.21637179,
          -0.11014412,
          0.11847899,
          0.03460627,
          -0.0159033,
          -0.07314722,
          -0.04396652,
          -0.09742253,
          0.08975753,
          0.00826771,
          -0.05291838,
          -0.01542695,
          -0.04413462,
          -0.04197531,
          -0.00063365,
          0.05141298,
          -0.0056473
        ]
      ],
      "weight_matrix_norm": [
        [
          0.20914024,
          -0.02042486,
          -0.023989,
          0.05017647,
          -0.51415253,
          0.32046694,
          0.47129819,
          -0.11497011,
          -0.39717898,
          0.97564608,
          0.38194311,
          0.13303463,
          0.38889289,
          0.89307505,
          0.07507502,
          0.44813645,
          -0.60478944,
          -0.85520834,
          -0.5753414,
          -0.24460445,
          -0.12949269,
          0.38547066,
          -0.54274625,
          -0.13992806,
          0.61780488,
          0.30414438,
          -0.23225914,
          -0.06986272,
          -0.24302238,
          0.20420359,
          0.28802666,
          0.79955906,
          0.01454329,
          0.06337887,
          -0.1833089,
          0.07243038,
          -0.55279917,
          0.4482494,
          -0.15821263,
          0.5596981,
          0.06443474,
          0.34085274,
          -0.08541307,
          -0.46059585,
          -0.27263966,
          -0.89874029,
          0.31236726,
          -0.57024819,
          -0.07554389,
          -0.63832492,
          0.7442627,
          -0.11643761,
          0.23572247,
          -0.0740632,
          -0.1138099,
          0.64543128,
          1.0,
          0.1606943,
          0.31801274,
          -0.19468284,
          0.00229783,
          0.05322884,
          -0.45370334,
          0.33301356
        ],
        [
          -0.00994836,
          0.13323182,
          0.21063496,
          -0.35504135,
          0.01355195,
          -0.03806235,
          0.60597354,
          -0.07415921,
          0.08919489,
          0.29257569,
          -0.06304132,
          0.41643852,
          0.09455207,
          0.12999924,
          -0.07689255,
          0.04336565,
          -0.52894348,
          -0.44782451,
          -0.17623574,
          -0.40697327,
          0.65783787,
          -0.0928712,
          -0.066762,
          -0.02375947,
          0.0952977,
          0.18988879,
          -0.126415,
          0.24259627,
          0.24689116,
          -0.12072537,
          0.677221,
          0.20669568,
          0.00336448,
          0.07213832,
          0.10517405,
          0.00416487,
          -0.50444531,
          0.39935255,
          0.15456571,
          0.42197269,
          -0.38802838,
          0.3108004,
          0.01806411,
          -0.2289089,
          0.46320847,
          -0.44935113,
          0.26484701,
          -0.3728404,
          1.0,
          -0.24031545,
          -0.04160041,
          -0.08672602,
          -0.01260305,
          -0.6086176,
          0.05149383,
          -0.85454154,
          -0.05558379,
          0.1555552,
          0.37717202,
          0.25808132,
          0.0611176,
          0.00954342,
          0.37504959,
          -0.29784071
        ],
        [
          -0.30482262,
          0.49835861,
          -0.37822485,
          -0.03389994,
          -0.32290772,
          -0.15523243,
          0.18468536,
          0.11407587,
          0.08763303,
          1.0,
          0.10177866,
          -0.774903,
          -0.35672519,
          -0.17859031,
          0.59831709,
          -0.48176154,
          0.20369251,
          0.08535291,
          0.30152556,
          -0.13184935,
          -0.80594063,
          0.16988574,
          0.04436115,
          -0.02883795,
          0.04923289,
          0.41818565,
          -0.2659651,
          0.08214346,
          0.48652658,
          0.09540515,
          -0.64146233,
          -0.65510511,
          0.25385889,
          -0.02354945,
          -0.06323846,
          0.02457882,
          -0.30662802,
          0.71063089,
          -0.43460187,
          -0.19668455,
          -0.07407181,
          0.03364873,
          -0.34313834,
          0.00168976,
          -0.14753456,
          0.03948584,
          0.08031531,
          0.43159389,
          0.51014954,
          -0.43061054,
          0.42188996,
          -0.17087103,
          0.18298888,
          0.29473558,
          0.1853281,
          -0.16977045,
          0.68476421,
          0.76425129,
          0.05281355,
          -0.37491065,
          -0.1208417,
          -0.22125094,
          -0.16581185,
          -0.26014763
        ],
        [
          -0.03109909,
          0.06561209,
          -0.39577577,
          -0.52821851,
          -0.07154429,
          0.14674662,
          -0.51023525,
          -0.01225088,
          0.27927735,
          -0.0503861,
          -0.02851168,
          -0.69393075,
          -0.16628663,
          -0.77978396,
          0.67337614,
          -0.12384841,
          -0.18370263,
          0.22525957,
          -0.94750822,
          0.03628323,
          0.09442873,
          -0.14506529,
          -0.3667523,
          0.33401287,
          0.18893375,
          0.23428972,
          0.35030496,
          -0.61497921,
          -0.06475553,
          -0.24059819,
          -0.49919814,
          0.74371791,
          -0.20417354,
          0.1168428,
          -0.31605196,
          0.27402803,
          0.26481164,
          0.41387549,
          -0.34600708,
          0.05768134,
          -0.06888193,
          0.2873477,
          0.02014608,
          -0.57362413,
          0.10839442,
          0.13889831,
          -0.52120245,
          1.0,
          -0.50905025,
          0.54757136,
          0.15993892,
          -0.07349987,
          -0.33806264,
          -0.20319895,
          -0.45025524,
          0.41483012,
          0.03821069,
          -0.24457154,
          -0.07129834,
          -0.20397587,
          -0.19399624,
          -0.00292854,
          0.23761407,
          -0.02609998
        ]
      ],
      "channel_abs_mean": [
        0.02970281,
        0.04181456,
        0.05879548,
        0.05863409,
        0.04833982,
        0.03524774,
        0.10513599,
        0.01807198,
        0.04619016,
        0.12787077,
        0.03075857,
        0.11721817,
        0.05496138,
        0.10594583,
        0.07887349,
        0.05883979,
        0.08959986,
        0.0918915,
        0.10935432,
        0.05088794,
        0.10379609,
        0.04317019,
        0.05414952,
        0.02835127,
        0.05060222,
        0.06472223,
        0.05439346,
        0.05884557,
        0.06041831,
        0.03720124,
        0.12587449,
        0.13128707,
        0.02607614,
        0.0159994,
        0.03733528,
        0.02009231,
        0.09532924,
        0.11296684,
        0.06185351,
        0.07241105,
        0.03910912,
        0.05686301,
        0.02565984,
        0.07061568,
        0.06112174,
        0.08695674,
        0.06735562,
        0.13336919,
        0.13190374,
        0.10264379,
        0.07209146,
        0.02551388,
        0.04107312,
        0.07503745,
        0.044015,
        0.12580119,
        0.09381533,
        0.07482494,
        0.04990236,
        0.0601681,
        0.02172454,
        0.01575682,
        0.07176168,
        0.05395198
      ],
      "channel_signed_mean": [
        -0.00887662,
        0.03978065,
        -0.02831952,
        -0.05363751,
        -0.04637904,
        0.01254028,
        0.04993573,
        -0.00543192,
        0.00663907,
        0.12241971,
        0.01855281,
        -0.04371769,
        -0.00255505,
        0.00179569,
        0.0677482,
        -0.00793995,
        -0.06702992,
        -0.05806416,
        -0.07594408,
        -0.04696261,
        0.00159979,
        0.014039,
        -0.04923413,
        0.00778421,
        0.05060222,
        0.06472223,
        -0.0164954,
        -0.01464343,
        0.0292125,
        -0.00629538,
        0.00079172,
        0.05869883,
        0.00398745,
        0.01339003,
        -0.02211806,
        0.02009231,
        -0.06668036,
        0.11296684,
        -0.03949,
        0.05061762,
        -0.03269271,
        0.05686301,
        -0.02086669,
        -0.07042845,
        0.01762486,
        -0.06755471,
        0.01096887,
        0.02263902,
        0.06930902,
        -0.0434043,
        0.06607246,
        -0.02551388,
        0.00267602,
        -0.04237957,
        -0.01602946,
        -0.01665037,
        0.08577313,
        0.04836576,
        0.04218888,
        -0.02282732,
        -0.01265285,
        -0.00907549,
        0.00820928,
        -0.02079048
      ],
      "channel_l2": [
        0.03984859,
        0.05895234,
        0.06726192,
        0.07709441,
        0.06297058,
        0.03995758,
        0.11556607,
        0.02019232,
        0.05232589,
        0.15342186,
        0.04082242,
        0.12966989,
        0.05977322,
        0.12558356,
        0.09940776,
        0.07113271,
        0.10192343,
        0.11015492,
        0.12472593,
        0.06549348,
        0.13154703,
        0.04748289,
        0.06791767,
        0.03901228,
        0.0665019,
        0.06679571,
        0.0563401,
        0.07609068,
        0.0694043,
        0.03883143,
        0.13561766,
        0.13775544,
        0.03579751,
        0.01775863,
        0.04222542,
        0.03063797,
        0.10164815,
        0.11634431,
        0.06684714,
        0.08571931,
        0.05758495,
        0.06445569,
        0.03910917,
        0.08397541,
        0.0750567,
        0.11172073,
        0.07546268,
        0.14186536,
        0.1649814,
        0.10504899,
        0.08951959,
        0.02671308,
        0.0479902,
        0.09673934,
        0.05457497,
        0.14760011,
        0.12551852,
        0.09291801,
        0.06383293,
        0.06310976,
        0.02641998,
        0.02512193,
        0.07735776,
        0.06160847
      ],
      "top_channels_by_abs_weight": [
        {
          "rank": 1,
          "channel_index": 47,
          "channel_name": "Cz",
          "abs_mean_weight": 0.13336919,
          "signed_mean_weight": 0.02263902,
          "l2_weight": 0.14186536
        },
        {
          "rank": 2,
          "channel_index": 48,
          "channel_name": "C2",
          "abs_mean_weight": 0.13190374,
          "signed_mean_weight": 0.06930902,
          "l2_weight": 0.1649814
        },
        {
          "rank": 3,
          "channel_index": 31,
          "channel_name": "CPz",
          "abs_mean_weight": 0.13128707,
          "signed_mean_weight": 0.05869883,
          "l2_weight": 0.13775544
        },
        {
          "rank": 4,
          "channel_index": 9,
          "channel_name": "FC3",
          "abs_mean_weight": 0.12787077,
          "signed_mean_weight": 0.12241971,
          "l2_weight": 0.15342186
        },
        {
          "rank": 5,
          "channel_index": 30,
          "channel_name": "Pz",
          "abs_mean_weight": 0.12587449,
          "signed_mean_weight": 0.00079172,
          "l2_weight": 0.13561766
        },
        {
          "rank": 6,
          "channel_index": 55,
          "channel_name": "CP2",
          "abs_mean_weight": 0.12580119,
          "signed_mean_weight": -0.01665037,
          "l2_weight": 0.14760011
        },
        {
          "rank": 7,
          "channel_index": 11,
          "channel_name": "C1",
          "abs_mean_weight": 0.11721817,
          "signed_mean_weight": -0.04371769,
          "l2_weight": 0.12966989
        },
        {
          "rank": 8,
          "channel_index": 37,
          "channel_name": "Fz",
          "abs_mean_weight": 0.11296684,
          "signed_mean_weight": 0.11296684,
          "l2_weight": 0.11634431
        },
        {
          "rank": 9,
          "channel_index": 18,
          "channel_name": "CP1",
          "abs_mean_weight": 0.10935432,
          "signed_mean_weight": -0.07594408,
          "l2_weight": 0.12472593
        },
        {
          "rank": 10,
          "channel_index": 13,
          "channel_name": "C5",
          "abs_mean_weight": 0.10594583,
          "signed_mean_weight": 0.00179569,
          "l2_weight": 0.12558356
        },
        {
          "rank": 11,
          "channel_index": 6,
          "channel_name": "F7",
          "abs_mean_weight": 0.10513599,
          "signed_mean_weight": 0.04993573,
          "l2_weight": 0.11556607
        },
        {
          "rank": 12,
          "channel_index": 20,
          "channel_name": "P3",
          "abs_mean_weight": 0.10379609,
          "signed_mean_weight": 0.00159979,
          "l2_weight": 0.13154703
        },
        {
          "rank": 13,
          "channel_index": 49,
          "channel_name": "C4",
          "abs_mean_weight": 0.10264379,
          "signed_mean_weight": -0.0434043,
          "l2_weight": 0.10504899
        },
        {
          "rank": 14,
          "channel_index": 36,
          "channel_name": "AFz",
          "abs_mean_weight": 0.09532924,
          "signed_mean_weight": -0.06668036,
          "l2_weight": 0.10164815
        },
        {
          "rank": 15,
          "channel_index": 56,
          "channel_name": "P2",
          "abs_mean_weight": 0.09381533,
          "signed_mean_weight": 0.08577313,
          "l2_weight": 0.12551852
        }
      ]
    }
  },
  {
    "subject_id": "1",
    "fold_id": 5,
    "accuracy": 0.65,
    "balanced_accuracy": 0.65,
    "prediction_histogram": [
      20,
      20
    ],
    "collapse_diagnostics": {
      "prediction_histogram": [
        20,
        20
      ],
      "collapse_ratio": 0.5,
      "collapse_threshold": 0.9,
      "collapse_flag": false,
      "majority_predicted_class": 0
    },
    "probability_diagnostics": {
      "available": true,
      "probability_shape": [
        40,
        2
      ],
      "mean_probability_by_class": [
        0.49649329,
        0.50350671
      ],
      "std_probability_by_class": [
        0.15944902,
        0.15944902
      ],
      "mean_confidence": 0.63406552,
      "std_confidence": 0.08638706,
      "mean_prediction_entropy": 0.64005581,
      "mean_normalized_prediction_entropy": 0.92340534,
      "mean_predicted_class_probability": 0.63406552
    },
    "spatial_update_stats": {
      "available": true,
      "parameter_name": "spatial_conv.1.weight",
      "initial_shape": [
        4,
        64
      ],
      "final_shape": [
        4,
        64
      ],
      "initial_l2": 1.13190078,
      "final_l2": 1.37325336,
      "delta_l2": 1.34168035,
      "delta_max_abs": 0.23958875,
      "relative_delta": 1.18533389,
      "changed": true
    },
    "n_trainable_params_final": 1798,
    "spatial_conv": {
      "available": true,
      "parameter_name": "spatial_conv.1.weight",
      "raw_weight_shape": [
        4,
        1,
        64,
        1
      ],
      "weight_matrix_shape": [
        4,
        64
      ],
      "n_virtual_filters": 4,
      "n_input_channels": 64,
      "channel_names": [
        "Fp1",
        "AF7",
        "AF3",
        "F1",
        "F3",
        "F5",
        "F7",
        "FT7",
        "FC5",
        "FC3",
        "FC1",
        "C1",
        "C3",
        "C5",
        "T7",
        "TP7",
        "CP5",
        "CP3",
        "CP1",
        "P1",
        "P3",
        "P5",
        "P7",
        "P9",
        "PO7",
        "PO3",
        "O1",
        "Iz",
        "Oz",
        "POz",
        "Pz",
        "CPz",
        "Fpz",
        "Fp2",
        "AF8",
        "AF4",
        "AFz",
        "Fz",
        "F2",
        "F4",
        "F6",
        "F8",
        "FT8",
        "FC6",
        "FC4",
        "FC2",
        "FCz",
        "Cz",
        "C2",
        "C4",
        "C6",
        "T8",
        "TP8",
        "CP6",
        "CP4",
        "CP2",
        "P2",
        "P4",
        "P6",
        "P8",
        "P10",
        "PO8",
        "PO4",
        "O2"
      ],
      "weight_matrix": [
        [
          0.03468956,
          0.10249485,
          -0.01778976,
          0.12879077,
          0.0457933,
          0.02806553,
          0.02216934,
          0.09944627,
          -0.11373111,
          0.09159527,
          0.15848517,
          -0.21838239,
          0.07116722,
          0.07750934,
          -0.13000484,
          0.05987569,
          -0.02748541,
          -0.04950656,
          -0.12000744,
          0.08702336,
          -0.06319075,
          0.08329293,
          -0.09881151,
          -0.04607978,
          0.0415345,
          0.06342553,
          0.02064105,
          0.06959999,
          0.01373191,
          0.05725619,
          0.09700755,
          -0.03248275,
          -0.03191732,
          0.0366808,
          -0.03010884,
          -0.03385487,
          -0.16931759,
          0.10991361,
          -0.02430082,
          0.10148803,
          0.02803505,
          -0.02064197,
          0.00322104,
          0.01943946,
          -0.05613549,
          -0.0252474,
          -0.08957031,
          0.00570953,
          -0.02353735,
          0.05920079,
          -0.08219222,
          -0.0105074,
          0.13956255,
          0.07463254,
          -0.10334051,
          -0.03727567,
          0.12118133,
          0.07989316,
          0.11322688,
          -0.01127393,
          -0.00344938,
          -0.0277093,
          0.0354925,
          -0.07540973
        ],
        [
          0.00676255,
          0.07209955,
          0.0378859,
          0.02120894,
          -0.05498986,
          -0.03030817,
          0.1142235,
          0.01177191,
          0.01635953,
          0.12107728,
          -0.13646683,
          0.11065736,
          0.02227094,
          0.1797771,
          -0.03985924,
          -0.00429895,
          -0.11445071,
          -0.20130616,
          -0.07752475,
          -0.03340154,
          0.08580811,
          -0.00396521,
          0.01224209,
          -0.02509935,
          -0.02464682,
          0.06087727,
          -0.04097801,
          0.12175042,
          0.08523123,
          0.00654426,
          0.24309386,
          0.08022698,
          0.03647168,
          0.02886303,
          -0.05589348,
          -0.00238388,
          -0.14170216,
          0.09773505,
          0.12725651,
          0.08812044,
          -0.11166474,
          0.13984859,
          0.01595369,
          0.00277585,
          -0.05730089,
          -0.11067642,
          0.03613079,
          -0.0758765,
          0.23461904,
          -0.12871556,
          -0.01610099,
          -0.03932345,
          0.04299455,
          -0.03697201,
          -0.00781162,
          -0.11719982,
          -0.00030942,
          0.08236721,
          0.0638041,
          0.12002399,
          -0.0120404,
          -0.03013828,
          0.04151998,
          -0.16002993
        ],
        [
          -0.07276439,
          0.11601236,
          0.01277979,
          -0.01262932,
          -0.03864283,
          0.06559967,
          -0.09363811,
          0.04380383,
          -0.02521622,
          0.28653046,
          0.08421194,
          -0.19684763,
          -0.05842869,
          -0.0845743,
          0.02833832,
          -0.12024648,
          -0.03703453,
          0.18095168,
          0.03972451,
          -0.06242454,
          -0.05718577,
          0.00110017,
          0.06322828,
          0.00537443,
          0.00102509,
          0.03194182,
          -0.08786909,
          0.02403298,
          0.16533221,
          -0.0405339,
          0.02489799,
          -0.11173659,
          0.03194671,
          -0.03727856,
          -0.03485999,
          0.02274975,
          0.01396195,
          0.13443275,
          -0.01582049,
          -0.04168007,
          -0.08394211,
          -0.10846715,
          0.0113274,
          -0.02787789,
          0.00707444,
          0.02551804,
          -0.11759541,
          0.10355922,
          -0.02752114,
          -0.00221113,
          0.1120763,
          0.06945017,
          0.02784267,
          0.08740787,
          -0.04847979,
          0.01931627,
          0.13629353,
          0.01655794,
          -0.11025893,
          0.00266862,
          -0.04807164,
          0.06447273,
          -0.10970138,
          -0.00830857
        ],
        [
          -0.06214842,
          -0.01861557,
          -0.01495731,
          0.18172269,
          -0.04899202,
          0.10406714,
          0.04346843,
          -0.1339504,
          0.11514564,
          -0.32508069,
          -0.28764284,
          0.142581,
          -0.10013311,
          -0.07273872,
          -0.01592525,
          0.11331802,
          -0.00140438,
          0.03059298,
          -0.06070481,
          0.02260011,
          0.11242983,
          -0.04587333,
          -0.05183761,
          0.01870464,
          0.06147793,
          -0.11369135,
          0.02346644,
          -0.13047992,
          0.02210796,
          -0.02833351,
          -0.15783074,
          0.11933886,
          -0.04075517,
          -0.000291,
          -0.03027998,
          0.03219611,
          -0.01782387,
          0.0158668,
          0.13780726,
          0.01049145,
          -0.03879935,
          -0.03832845,
          0.05198472,
          0.10310327,
          0.08245476,
          0.04574738,
          0.00228914,
          0.05096702,
          -0.01572007,
          -0.05958556,
          -0.13904056,
          0.03351912,
          -0.03734348,
          -0.10135824,
          -0.09749509,
          -0.0627467,
          -0.02909364,
          -0.02037681,
          -0.0272883,
          -0.00844577,
          -0.00783395,
          0.04922971,
          -0.0146494,
          0.02897146
        ]
      ],
      "weight_matrix_norm": [
        [
          0.15884778,
          0.46933663,
          -0.08146152,
          0.58974886,
          0.20969321,
          0.12851556,
          0.10151615,
          0.4553768,
          -0.52078885,
          0.41942608,
          0.72572327,
          -1.0,
          0.32588351,
          0.35492489,
          -0.59530824,
          0.27417821,
          -0.1258591,
          -0.22669666,
          -0.54952896,
          0.39849076,
          -0.28935826,
          0.38140866,
          -0.45247012,
          -0.21100505,
          0.19019163,
          0.29043335,
          0.09451792,
          0.31870696,
          0.06288014,
          0.26218319,
          0.44420958,
          -0.14874253,
          -0.14615336,
          0.16796593,
          -0.13787211,
          -0.15502565,
          -0.77532619,
          0.50330806,
          -0.11127648,
          0.46472627,
          0.12837596,
          -0.09452212,
          0.01474953,
          0.08901571,
          -0.25705135,
          -0.11561096,
          -0.41015354,
          0.02614464,
          -0.10778043,
          0.27108774,
          -0.37636834,
          -0.04811469,
          0.63907421,
          0.34175164,
          -0.47320896,
          -0.17068991,
          0.55490434,
          0.36584067,
          0.51847994,
          -0.05162473,
          -0.01579514,
          -0.1268843,
          0.16252457,
          -0.34531048
        ],
        [
          0.02781868,
          0.2965914,
          0.15584885,
          0.08724589,
          -0.22620836,
          -0.12467684,
          0.46987405,
          0.04842535,
          0.06729719,
          0.498068,
          -0.56137508,
          0.45520428,
          0.09161457,
          0.73953778,
          -0.16396645,
          -0.01768431,
          -0.47080871,
          -0.82810056,
          -0.31890872,
          -0.13740183,
          0.35298344,
          -0.01631146,
          0.05035951,
          -0.10324962,
          -0.10138809,
          0.25042701,
          -0.16856867,
          0.50083709,
          0.35061038,
          0.02692072,
          1.0,
          0.33002469,
          0.15003127,
          0.11873202,
          -0.22992553,
          -0.00980641,
          -0.58291131,
          0.40204656,
          0.52348715,
          0.36249554,
          -0.45934826,
          0.57528639,
          0.06562769,
          0.01141885,
          -0.23571508,
          -0.45528266,
          0.14862897,
          -0.31212839,
          0.96513766,
          -0.52948916,
          -0.06623365,
          -0.16176243,
          0.17686398,
          -0.15208943,
          -0.03213418,
          -0.48211756,
          -0.00127284,
          0.33882883,
          0.26246691,
          0.49373516,
          -0.04952985,
          -0.12397797,
          0.17079812,
          -0.65830511
        ],
        [
          -0.25394991,
          0.40488666,
          0.04460185,
          -0.04407672,
          -0.13486466,
          0.22894484,
          -0.32679984,
          0.1528767,
          -0.08800538,
          1.0,
          0.29390222,
          -0.68700421,
          -0.20391789,
          -0.29516685,
          0.0989016,
          -0.41966385,
          -0.12925161,
          0.63152689,
          0.13863975,
          -0.21786354,
          -0.19958007,
          0.00383963,
          0.22066861,
          0.01875692,
          0.0035776,
          0.11147792,
          -0.30666578,
          0.08387581,
          0.57701445,
          -0.14146453,
          0.08689473,
          -0.38996407,
          0.11149497,
          -0.13010332,
          -0.12166242,
          0.07939731,
          0.04872765,
          0.46917436,
          -0.05521398,
          -0.1454647,
          -0.29296049,
          -0.37855363,
          0.03953296,
          -0.09729469,
          0.02469002,
          0.08905872,
          -0.41041154,
          0.3614248,
          -0.0960496,
          -0.00771692,
          0.3911497,
          0.2423832,
          0.09717176,
          0.30505612,
          -0.16919594,
          0.06741435,
          0.47566855,
          0.0577877,
          -0.38480699,
          0.00931357,
          -0.16777149,
          0.2250118,
          -0.38286114,
          -0.02899715
        ],
        [
          -0.19117844,
          -0.05726445,
          -0.04601106,
          0.55900794,
          -0.15070727,
          0.3201271,
          0.13371581,
          -0.41205275,
          0.35420632,
          -1.0,
          -0.88483518,
          0.43860188,
          -0.30802539,
          -0.2237559,
          -0.04898862,
          0.34858426,
          -0.0043201,
          0.09410889,
          -0.18673767,
          0.06952154,
          0.34585205,
          -0.14111368,
          -0.15946074,
          0.05753846,
