[
  {
    "fold_id": 1,
    "fold_label": "subject=1",
    "model_name": "SignalJEPA_PreLocal",
    "strategy": "new",
    "warmup_epochs": 10,
    "n_train": 128,
    "n_test": 32,
    "train_class_counts": [
      64,
      64
    ],
    "test_class_counts": [
      16,
      16
    ],
    "pretrained_load": {
      "loading_path": "from_pretrained",
      "repo_id": "braindecode/signal-jepa_without-chans",
      "mode": "from_pretrained",
      "model_name": "SignalJEPA_PreLocal"
    },
    "phase_1_trainable_groups": [
      "spatial_conv.",
      "final_layer."
    ],
    "phase_1_trainable_params": 2294,
    "phase_1_trainable_names": [
      "spatial_conv.1.weight",
      "spatial_conv.1.bias",
      "final_layer.1.weight",
      "final_layer.1.bias"
    ],
    "phase_2_trainable_groups": null,
    "phase_2_trainable_params": null,
    "phase_2_trainable_names": null,
    "final_trainable_parameters": [
      {
        "name": "feature_encoder.1.0.weight",
        "shape": [
          8,
          1,
          32
        ],
        "num_params": 256,
        "requires_grad": false
      },
      {
        "name": "feature_encoder.1.2.weight",
        "shape": [
          8
        ],
        "num_params": 8,
        "requires_grad": false
      },
      {
        "name": "feature_encoder.1.2.bias",
        "shape": [
          8
        ],
        "num_params": 8,
        "requires_grad": false
      },
      {
        "name": "feature_encoder.2.0.weight",
        "shape": [
          16,
          8,
          2
        ],
        "num_params": 256,
        "requires_grad": false
      },
      {
        "name": "feature_encoder.3.0.weight",
        "shape": [
          32,
          16,
          2
        ],
        "num_params": 1024,
        "requires_grad": false
      },
      {
        "name": "feature_encoder.4.0.weight",
        "shape": [
          64,
          32,
          2
        ],
        "num_params": 4096,
        "requires_grad": false
      },
      {
        "name": "feature_encoder.5.0.weight",
        "shape": [
          64,
          64,
          2
        ],
        "num_params": 8192,
        "requires_grad": false
      },
      {
        "name": "spatial_conv.1.weight",
        "shape": [
          4,
          1,
          60,
          1
        ],
        "num_params": 240,
        "requires_grad": true
      },
      {
        "name": "spatial_conv.1.bias",
        "shape": [
          4
        ],
        "num_params": 4,
        "requires_grad": true
      },
      {
        "name": "final_layer.1.weight",
        "shape": [
          2,
          1024
        ],
        "num_params": 2048,
        "requires_grad": true
      },
      {
        "name": "final_layer.1.bias",
        "shape": [
          2
        ],
        "num_params": 2,
        "requires_grad": true
      }
    ],
    "n_trainable_params_final": 2294,
    "best_epoch": 1,
    "stopped_epoch": 50,
    "best_valid_loss": 0.6949253082275391,
    "accuracy": 0.59375,
    "balanced_accuracy": 0.59375,
    "confusion_matrix": [
      [
        11,
        5
      ],
      [
        8,
        8
      ]
    ],
    "prediction_histogram": [
      19,
      13
    ],
    "collapse_diagnostics": {
      "prediction_histogram": [
        19,
        13
      ],
      "collapse_ratio": 0.59375,
      "collapse_threshold": 0.9,
      "collapse_flag": false,
      "majority_predicted_class": 0
    },
    "probability_diagnostics": {
      "available": true,
      "probability_shape": [
        32,
        2
      ],
      "mean_probability_by_class": [
        0.52245344,
        0.47754656
      ],
      "std_probability_by_class": [
        0.08871803,
        0.08871801
      ],
      "mean_confidence": 0.57884425,
      "std_confidence": 0.04646105,
      "mean_prediction_entropy": 0.67620402,
      "mean_normalized_prediction_entropy": 0.97555618,
      "mean_predicted_class_probability": 0.57884425
    },
    "spatial_conv_initial": {
      "available": true,
      "parameter_name": "spatial_conv.1.weight",
      "raw_weight_shape": [
        4,
        1,
        60,
        1
      ],
      "weight_matrix_shape": [
        4,
        60
      ],
      "n_virtual_filters": 4,
      "n_input_channels": 60,
      "channel_names": [
        "Fp1",
        "Fpz",
        "Fp2",
        "AF3",
        "AF4",
        "F7",
        "F5",
        "F3",
        "F1",
        "Fz",
        "F2",
        "F4",
        "F6",
        "F8",
        "FT7",
        "FC5",
        "FC3",
        "FC1",
        "FCz",
        "FC2",
        "FC4",
        "FC6",
        "FT8",
        "T7",
        "C5",
        "C3",
        "C1",
        "Cz",
        "C2",
        "C4",
        "C6",
        "T8",
        "TP7",
        "CP5",
        "CP3",
        "CP1",
        "CPz",
        "CP2",
        "CP4",
        "CP6",
        "TP8",
        "P7",
        "P5",
        "P3",
        "P1",
        "Pz",
        "P2",
        "P4",
        "P6",
        "P8",
        "PO7",
        "PO5",
        "PO3",
        "POz",
        "PO4",
        "PO6",
        "PO8",
        "O1",
        "Oz",
        "O2"
      ],
      "weight_matrix": [
        [
          0.09860362,
          0.02757107,
          -0.00453342,
          -0.04340911,
          0.02576071,
          0.06880875,
          0.0960246,
          0.04289424,
          -0.07277799,
          0.09152263,
          0.05239789,
          -0.08542095,
          0.01087321,
          0.12446697,
          -0.08788451,
          0.11290868,
          -0.05113648,
          0.00419681,
          0.00290361,
          0.03044201,
          -0.10243709,
          0.11921524,
          -0.03911539,
          0.04228823,
          0.10331213,
          0.08389606,
          -0.01665223,
          0.01591225,
          -0.03120496,
          0.06290273,
          -0.09196522,
          0.09813812,
          0.01074813,
          0.00808492,
          -0.07376412,
          -0.10413817,
          -0.062893,
          -0.06088749,
          -0.12183961,
          0.12901251,
          0.03479216,
          -0.07470614,
          0.05674176,
          0.12395246,
          -0.0290658,
          -0.05614749,
          -0.10394765,
          0.11709003,
          -0.08659275,
          0.09497562,
          -0.0239225,
          -0.07232979,
          0.01411721,
          -0.12062103,
          -0.10999423,
          0.0829183,
          0.06248488,
          0.06250216,
          0.12028129,
          -0.08014211
        ],
        [
          0.01009926,
          0.0087412,
          -0.00977896,
          0.08421583,
          0.04553671,
          0.11333744,
          0.0909525,
          -0.11484723,
          -0.11017934,
          0.05184568,
          0.05248089,
          0.11000124,
          -0.00147277,
          0.10807167,
          -0.01666692,
          -0.03505213,
          -0.07999703,
          0.09310645,
          0.0278822,
          0.12351443,
          0.03080638,
          -0.09881285,
          0.02723894,
          -0.00470403,
          -0.04697136,
          0.03006224,
          0.10474245,
          0.03595626,
          -0.04673435,
          0.08497576,
          -0.04740096,
          0.07026555,
          0.02335858,
          0.03381139,
          0.10128237,
          0.09403583,
          0.12373872,
          0.06473045,
          -0.09133916,
          0.06924331,
          -0.04601314,
          -0.05847561,
          0.0647402,
          0.08305502,
          -0.07227547,
          0.11441143,
          -0.05989631,
          -0.07397005,
          -0.10722409,
          -0.05097675,
          0.07102665,
          0.05539307,
          0.02983716,
          -0.09010918,
          -0.02183408,
          -0.11826871,
          -0.11102631,
          -0.03497604,
          -0.12786898,
          -0.03197727
        ],
        [
          0.04709473,
          0.02920434,
          -0.05418927,
          0.10976914,
          -0.12658985,
          0.00878382,
          -0.04467642,
          -0.04240006,
          -0.00666616,
          0.10525598,
          -0.0294892,
          0.08200011,
          0.09430724,
          -0.06121391,
          -0.00176534,
          0.06909451,
          0.10997215,
          0.08174603,
          -0.02376501,
          -0.07964359,
          -0.0774474,
          0.01633754,
          0.11415614,
          -0.06285675,
          0.0570755,
          0.02552816,
          0.07502529,
          -0.01806435,
          -0.05698903,
          -0.06936607,
          -0.03224508,
          0.09792642,
          -0.01748952,
          -0.00407872,
          -0.08633603,
          -0.05719286,
          0.07931304,
          0.02280134,
          -0.04839899,
          0.01430883,
          0.07498378,
          -0.10826348,
          -0.05108214,
          0.00344549,
          -0.0129722,
          0.12906928,
          0.10434645,
          -0.02263926,
          -0.11671187,
          -0.09633882,
          0.04830891,
          0.08607472,
          -0.08869911,
          0.01658894,
          -0.09075859,
          0.06495057,
          0.11313045,
          -0.09842119,
          -0.03621754,
          0.08533759
        ],
        [
          0.12180255,
          -0.00603986,
          0.11095531,
          -0.12369663,
          0.10324408,
          -0.04422085,
          -0.06285778,
          -0.00306022,
          -0.12783846,
          0.03429446,
          -0.01821135,
          -0.02381252,
          -0.07222682,
          0.06508011,
          -0.10177355,
          0.01723605,
          -0.03398101,
          0.05306143,
          0.003645,
          0.08476456,
          0.00781615,
          -0.10806764,
          -0.04963005,
          0.0397224,
          -0.03605769,
          -0.05288761,
          0.1004701,
          -0.08451293,
          -0.03914668,
          -0.02354313,
          -0.07526991,
          -0.00433752,
          0.01454157,
          -0.0221094,
          -0.11260715,
          0.03097835,
          0.1044676,
          -0.05688865,
          -0.01832165,
          -0.08687175,
          0.07566848,
          -0.05502742,
          -0.08429559,
          0.12045878,
          -0.05579505,
          0.04463868,
          -0.09179308,
          0.07205968,
          -0.04402351,
          0.1097022,
          0.02096228,
          0.10205078,
          0.03712666,
          0.10450509,
          0.01452936,
          -0.0240638,
          -0.08278716,
          0.02288513,
          -0.1179,
          0.06873485
        ]
      ],
      "weight_matrix_norm": [
        [
          0.76429504,
          0.21370848,
          -0.03513936,
          -0.33647209,
          0.19967607,
          0.53334945,
          0.7443046,
          0.33248127,
          -0.5641157,
          0.709409,
          0.40614581,
          -0.66211373,
          0.0842803,
          0.96476668,
          -0.68120921,
          0.87517619,
          -0.39636838,
          0.03253024,
          0.02250643,
          0.23596172,
          -0.79400897,
          0.92405951,
          -0.30319068,
          0.32778394,
          0.80079162,
          0.65029395,
          -0.12907457,
          0.12333881,
          -0.24187547,
          0.48757079,
          -0.71283954,
          0.76068687,
          0.08331078,
          0.06266774,
          -0.5717594,
          -0.80719429,
          -0.48749539,
          -0.47195029,
          -0.9444015,
          1.0,
          0.26968047,
          -0.57906121,
          0.43981594,
          0.96077865,
          -0.22529446,
          -0.43520969,
          -0.80571765,
          0.90758663,
          -0.67119652,
          0.73617375,
          -0.18542773,
          -0.56064165,
          0.10942513,
          -0.93495607,
          -0.85258579,
          0.64271522,
          0.48433191,
          0.4844659,
          0.93232274,
          -0.62119645
        ],
        [
          0.07898133,
          0.0683606,
          -0.07647642,
          0.65861034,
          0.35612008,
          0.88635606,
          0.71129447,
          -0.89816332,
          -0.8616581,
          0.40545943,
          0.41042706,
          0.8602652,
          -0.01151781,
          0.84517503,
          -0.13034372,
          -0.27412534,
          -0.62561715,
          0.72813946,
          0.21805291,
          0.96594518,
          0.24092142,
          -0.77276635,
          0.21302223,
          -0.03678788,
          -0.36733973,
          0.23510192,
          0.81913888,
          0.28119615,
          -0.3654862,
          0.6645534,
          -0.37069944,
          0.54951203,
          0.18267591,
          0.26442215,
          0.79207933,
          0.73540771,
          0.96769929,
          0.50622481,
          -0.71431839,
          0.54151767,
          -0.359846,
          -0.45730877,
          0.50630105,
          0.6495322,
          -0.56523073,
          0.89475513,
          -0.46841934,
          -0.57848316,
          -0.83854657,
          -0.39866391,
          0.55546427,
          0.43320179,
          0.23334166,
          -0.70469934,
          -0.17075349,
          -0.92492104,
          -0.86828178,
          -0.2735303,
          -1.0,
          -0.25007838
        ],
        [
          0.36487949,
          0.22626869,
          -0.41984639,
          0.85046679,
          -0.9807899,
          0.06805506,
          -0.34614295,
          -0.32850623,
          -0.05164793,
          0.81549978,
          -0.22847578,
          0.63531852,
          0.73067147,
          -0.47427171,
          -0.01367746,
          0.53532881,
          0.85203964,
          0.63334996,
          -0.18412602,
          -0.61706078,
          -0.60004514,
          0.12657964,
          0.88445628,
          -0.48700005,
          0.44220823,
          0.19778651,
          0.58127922,
          -0.13995855,
          -0.44153827,
          -0.53743279,
          -0.24982771,
          0.75871205,
          -0.13550492,
          -0.03160098,
          -0.66891229,
          -0.44311753,
          0.61449975,
          0.17665969,
          -0.37498459,
          0.11086158,
          0.58095753,
          -0.83880126,
          -0.39577302,
          0.0266949,
          -0.10050569,
          1.0,
          0.80845302,
          -0.17540394,
          -0.90425754,
          -0.74641162,
          0.37428665,
          0.66688776,
          -0.68722093,
          0.12852742,
          -0.70317733,
          0.50322253,
          0.87650949,
          -0.76254541,
          -0.28060541,
          0.66117662
        ],
        [
          0.9527849,
          -0.04724601,
          0.86793375,
          -0.96760106,
          0.80761361,
          -0.34591192,
          -0.49169689,
          -0.02393819,
          -1.0,
          0.268264,
          -0.14245595,
          -0.18627037,
          -0.5649851,
          0.50908077,
          -0.79611051,
          0.13482682,
          -0.2658121,
          0.41506621,
          0.02851257,
          0.66305989,
          0.06114084,
          -0.84534526,
          -0.38822469,
          0.31072336,
          -0.28205666,
          -0.41370657,
          0.78591448,
          -0.66109163,
          -0.30621988,
          -0.18416315,
          -0.58878922,
          -0.03392969,
          0.11374954,
          -0.17294799,
          -0.88085502,
          0.24232419,
          0.81718445,
          -0.44500422,
          -0.14331874,
          -0.67954314,
          0.59190702,
          -0.43044493,
          -0.6593914,
          0.94227338,
          -0.43644965,
          0.34918034,
          -0.71803957,
          0.56367761,
          -0.34436825,
          0.85813141,
          0.16397478,
          0.79827917,
          0.29041854,
          0.8174777,
          0.11365408,
          -0.18823601,
          -0.64759195,
          0.17901599,
          -0.92225766,
          0.5376696
        ]
      ],
      "channel_abs_mean": [
        0.06940004,
        0.01788912,
        0.04486424,
        0.09027268,
        0.07528284,
        0.05878771,
        0.07362783,
        0.05080044,
        0.07936548,
        0.07072969,
        0.03814483,
        0.07530871,
        0.04472001,
        0.08970816,
        0.05202258,
        0.05857284,
        0.06877166,
        0.05802768,
        0.01454896,
        0.07959115,
        0.05462676,
        0.08560832,
        0.05753513,
        0.03739285,
        0.06085417,
        0.04809352,
        0.07422252,
        0.03861145,
        0.04351876,
        0.06019692,
        0.06172029,
        0.0676669,
        0.01653445,
        0.01702111,
        0.09349742,
        0.0715863,
        0.09260309,
        0.05132699,
        0.06997485,
        0.0748591,
        0.05786439,
        0.07411816,
        0.06421492,
        0.08272794,
        0.04252713,
        0.08606672,
        0.08999588,
        0.07143976,
        0.08863805,
        0.08799835,
        0.04105509,
        0.07896209,
        0.04244503,
        0.08295606,
        0.05927907,
        0.07255035,
        0.0923572,
        0.05469613,
        0.10056695,
        0.06654796
      ],
      "channel_signed_mean": [
        0.06940004,
        0.01486919,
        0.01061342,
        0.00671981,
        0.01198791,
        0.03667729,
        0.01986073,
        -0.02935332,
        -0.07936548,
        0.07072969,
        0.01429456,
        0.02069197,
        0.00787022,
        0.05910121,
        -0.05202258,
        0.04104678,
        -0.01378559,
        0.05802768,
        0.00266645,
        0.03976935,
        -0.03531549,
        -0.01783193,
        0.01316241,
        0.00361246,
        0.01933965,
        0.02164971,
        0.0658964,
        -0.01267719,
        -0.04351876,
        0.01374232,
        -0.06172029,
        0.06549814,
        0.00778969,
        0.00392705,
        -0.04285623,
        -0.00907921,
        0.06115659,
        -0.00756109,
        -0.06997485,
        0.03142323,
        0.03485782,
        -0.07411816,
        -0.00347394,
        0.08272794,
        -0.04252713,
        0.05799298,
        -0.03782265,
        0.0231351,
        -0.08863805,
        0.01434056,
        0.02909384,
        0.0427972,
        -0.00190452,
        -0.02240905,
        -0.05201438,
        0.00138409,
        -0.00454953,
        -0.01200248,
        -0.04042631,
        0.01048827
      ],
      "channel_l2": [
        0.08197324,
        0.02077225,
        0.06197527,
        0.09529793,
        0.08576354,
        0.0700226,
        0.0765509,
        0.06487861,
        0.09195546,
        0.07635329,
        0.04092997,
        0.08168241,
        0.0596468,
        0.0937471,
        0.06775405,
        0.06900752,
        0.07460403,
        0.06742468,
        0.01846558,
        0.08618391,
        0.06614678,
        0.09476522,
        0.06664596,
        0.04283475,
        0.06602552,
        0.05336449,
        0.08211473,
        0.04747317,
        0.0445479,
        0.06431089,
        0.06597302,
        0.07774435,
        0.01716455,
        0.02070047,
        0.09464875,
        0.07732751,
        0.0954867,
        0.05397578,
        0.08041436,
        0.08542585,
        0.06057225,
        0.0770542,
        0.06543327,
        0.09589648,
        0.04834752,
        0.0933997,
        0.09179711,
        0.07887772,
        0.09294493,
        0.09073965,
        0.04579912,
        0.08081339,
        0.05083176,
        0.09201305,
        0.07249773,
        0.0800946,
        0.09471459,
        0.06192799,
        0.10727324,
        0.06973573
      ],
      "top_channels_by_abs_weight": [
        {
          "rank": 1,
          "channel_index": 58,
          "channel_name": "Oz",
          "abs_mean_weight": 0.10056695,
          "signed_mean_weight": -0.04042631,
          "l2_weight": 0.10727324
        },
        {
          "rank": 2,
          "channel_index": 34,
          "channel_name": "CP3",
          "abs_mean_weight": 0.09349742,
          "signed_mean_weight": -0.04285623,
          "l2_weight": 0.09464875
        },
        {
          "rank": 3,
          "channel_index": 36,
          "channel_name": "CPz",
          "abs_mean_weight": 0.09260309,
          "signed_mean_weight": 0.06115659,
          "l2_weight": 0.0954867
        },
        {
          "rank": 4,
          "channel_index": 56,
          "channel_name": "PO8",
          "abs_mean_weight": 0.0923572,
          "signed_mean_weight": -0.00454953,
          "l2_weight": 0.09471459
        },
        {
          "rank": 5,
          "channel_index": 3,
          "channel_name": "AF3",
          "abs_mean_weight": 0.09027268,
          "signed_mean_weight": 0.00671981,
          "l2_weight": 0.09529793
        },
        {
          "rank": 6,
          "channel_index": 46,
          "channel_name": "P2",
          "abs_mean_weight": 0.08999588,
          "signed_mean_weight": -0.03782265,
          "l2_weight": 0.09179711
        },
        {
          "rank": 7,
          "channel_index": 13,
          "channel_name": "F8",
          "abs_mean_weight": 0.08970816,
          "signed_mean_weight": 0.05910121,
          "l2_weight": 0.0937471
        },
        {
          "rank": 8,
          "channel_index": 48,
          "channel_name": "P6",
          "abs_mean_weight": 0.08863805,
          "signed_mean_weight": -0.08863805,
          "l2_weight": 0.09294493
        },
        {
          "rank": 9,
          "channel_index": 49,
          "channel_name": "P8",
          "abs_mean_weight": 0.08799835,
          "signed_mean_weight": 0.01434056,
          "l2_weight": 0.09073965
        },
        {
          "rank": 10,
          "channel_index": 45,
          "channel_name": "Pz",
          "abs_mean_weight": 0.08606672,
          "signed_mean_weight": 0.05799298,
          "l2_weight": 0.0933997
        },
        {
          "rank": 11,
          "channel_index": 21,
          "channel_name": "FC6",
          "abs_mean_weight": 0.08560832,
          "signed_mean_weight": -0.01783193,
          "l2_weight": 0.09476522
        },
        {
          "rank": 12,
          "channel_index": 53,
          "channel_name": "POz",
          "abs_mean_weight": 0.08295606,
          "signed_mean_weight": -0.02240905,
          "l2_weight": 0.09201305
        },
        {
          "rank": 13,
          "channel_index": 43,
          "channel_name": "P3",
          "abs_mean_weight": 0.08272794,
          "signed_mean_weight": 0.08272794,
          "l2_weight": 0.09589648
        },
        {
          "rank": 14,
          "channel_index": 19,
          "channel_name": "FC2",
          "abs_mean_weight": 0.07959115,
          "signed_mean_weight": 0.03976935,
          "l2_weight": 0.08618391
        },
        {
          "rank": 15,
          "channel_index": 8,
          "channel_name": "F1",
          "abs_mean_weight": 0.07936548,
          "signed_mean_weight": -0.07936548,
          "l2_weight": 0.09195546
        }
      ]
    },
    "spatial_conv": {
      "available": true,
      "parameter_name": "spatial_conv.1.weight",
      "raw_weight_shape": [
        4,
        1,
        60,
        1
      ],
      "weight_matrix_shape": [
        4,
        60
      ],
      "n_virtual_filters": 4,
      "n_input_channels": 60,
      "channel_names": [
        "Fp1",
        "Fpz",
        "Fp2",
        "AF3",
        "AF4",
        "F7",
        "F5",
        "F3",
        "F1",
        "Fz",
        "F2",
        "F4",
        "F6",
        "F8",
        "FT7",
        "FC5",
        "FC3",
        "FC1",
        "FCz",
        "FC2",
        "FC4",
        "FC6",
        "FT8",
        "T7",
        "C5",
        "C3",
        "C1",
        "Cz",
        "C2",
        "C4",
        "C6",
        "T8",
        "TP7",
        "CP5",
        "CP3",
        "CP1",
        "CPz",
        "CP2",
        "CP4",
        "CP6",
        "TP8",
        "P7",
        "P5",
        "P3",
        "P1",
        "Pz",
        "P2",
        "P4",
        "P6",
        "P8",
        "PO7",
        "PO5",
        "PO3",
        "POz",
        "PO4",
        "PO6",
        "PO8",
        "O1",
        "Oz",
        "O2"
      ],
      "weight_matrix": [
        [
          0.00942544,
          0.09521326,
          0.07071541,
          -0.13774839,
          0.06712954,
          0.01570464,
          -0.03161576,
          0.06097102,
          -0.03571327,
          0.12600937,
          0.12018246,
          -0.02118952,
          0.00106599,
          0.0859791,
          -0.08535348,
          0.06259767,
          0.00390359,
          -0.06482371,
          -0.00637647,
          0.07191146,
          -0.10461154,
          0.01483779,
          -0.00418599,
          0.0330131,
          0.02429674,
          0.12684721,
          -0.10025867,
          0.03115563,
          0.05558295,
          0.15169321,
          -0.15938686,
          0.05071588,
          0.0560296,
          -0.03835482,
          -0.06818397,
          0.00444986,
          -0.00287789,
          -0.02587856,
          -0.08280046,
          0.09288643,
          0.0365039,
          -0.04032338,
          0.02741561,
          0.08698888,
          0.0569468,
          -0.05206627,
          -0.05283434,
          0.17518552,
          -0.0958399,
          -0.01526627,
          -0.00113615,
          0.02508132,
          0.04862042,
          -0.26210031,
          -0.20818788,
          0.01999619,
          0.00056903,
          0.11405778,
          0.09123806,
          -0.07006507
        ],
        [
          0.00320378,
          0.05849199,
          -0.0323564,
          0.10885455,
          0.06574991,
          0.22323902,
          0.09335698,
          -0.11070137,
          -0.08657815,
          0.06774735,
          0.07515346,
          0.13723566,
          -0.01596011,
          0.11644676,
          -0.00830388,
          -0.05407006,
          -0.06708016,
          0.14425048,
          -0.02362462,
          0.08999589,
          0.01598783,
          -0.10834058,
          0.02044581,
          -0.02553369,
          -0.00107005,
          0.05756209,
          0.11268354,
          -0.00899707,
          -0.0417749,
          0.08158115,
          -0.02653618,
          0.0854672,
          0.08534098,
          0.09184173,
          0.07099329,
          0.10367101,
          0.07392415,
          0.06436171,
          -0.06357561,
          0.14032158,
          -0.00108523,
          -0.03929685,
          0.0283216,
          0.10805965,
          -0.10294826,
          0.13304782,
          -0.0468784,
          -0.09789252,
          -0.14096034,
          -0.03835766,
          0.02196296,
          0.04653058,
          0.06298521,
          -0.04678986,
          -0.00098624,
          -0.12936829,
          -0.1203122,
          -0.06989218,
          -0.06778513,
          -0.04593832
        ],
        [
          -0.05784396,
          0.09394293,
          -0.10426524,
          0.10307553,
          -0.12596643,
          -0.01171598,
          -0.07102167,
          -0.05470773,
          -0.02987008,
          0.08755425,
          -0.01438568,
          0.11383998,
          0.12584177,
          -0.0370051,
          0.04356948,
          0.08201076,
          0.03661122,
          0.0930132,
          -0.01743715,
          -0.11558975,
          -0.04316635,
          0.07578991,
          0.13224494,
          -0.00046333,
          0.11721736,
          0.05963882,
          0.09100622,
          -0.03245457,
          -0.03051814,
          -0.06779544,
          -0.03512386,
          0.03646385,
          0.05312837,
          0.00494202,
          -0.07388146,
          -0.03050411,
          0.0417283,
          0.02796718,
          -0.04427113,
          0.04184351,
          0.0796097,
          -0.08799016,
          -0.0035637,
          0.03423622,
          0.02132573,
          0.15568908,
          0.12009411,
          -0.01631022,
          -0.19516894,
          -0.14986891,
          0.01327489,
          0.07656785,
          -0.04823785,
          0.06195957,
          -0.07588226,
          0.01094049,
          0.05963501,
          -0.13308369,
          -0.09247542,
          -0.00633632
        ],
        [
          0.12413018,
          0.04659896,
          0.13970198,
          -0.14182121,
          0.11012422,
          -0.08734032,
          -0.079882,
          0.03117086,
          -0.10714684,
          0.05841605,
          0.00926478,
          -0.01375969,
          -0.02758059,
          0.03504042,
          -0.17427406,
          0.05626789,
          -0.04054882,
          0.04794382,
          0.00654187,
          0.12342346,
          0.0133286,
          -0.09865074,
          -0.0399639,
          0.02011345,
          -0.04906178,
          -0.05590759,
          0.03422736,
          -0.09472834,
          -0.01117627,
          -0.017544,
          -0.0233187,
          -0.05659262,
          -0.02319538,
          -0.03249149,
          -0.10478285,
          -0.01567072,
          0.10840073,
          -0.0633098,
          -0.03220186,
          -0.06528906,
          0.04040568,
          -0.04931014,
          -0.05614865,
          0.12209077,
          -0.04028154,
          0.02350337,
          -0.09989723,
          0.12974052,
          -0.01167188,
          0.09783292,
          0.03261458,
          0.12471756,
          0.00615773,
          0.06894124,
          -0.03517859,
          0.01484667,
          -0.04433662,
          0.09337123,
          -0.11100975,
          0.05449523
        ]
      ],
      "weight_matrix_norm": [
        [
          0.03596119,
          0.36327028,
          0.26980287,
          -0.52555603,
          0.25612158,
          0.05991844,
          -0.12062465,
          0.23262475,
          -0.13625801,
          0.48076776,
          0.45853612,
          -0.08084509,
          0.0040671,
          0.32803893,
          -0.32565194,
          0.23883097,
          0.01489348,
          -0.24732405,
          -0.02432837,
          0.27436617,
          -0.39912787,
          0.05661109,
          -0.01597096,
          0.12595598,
          0.09270015,
          0.48396435,
          -0.38252023,
          0.11886911,
          0.21206748,
          0.57876015,
          -0.60811394,
          0.19349799,
          0.21377157,
          -0.14633642,
          -0.26014453,
          0.01697771,
          -0.01098011,
          -0.09873531,
          -0.31591132,
          0.35439268,
          0.13927452,
          -0.15384711,
          0.10459971,
          0.33189157,
          0.21727103,
          -0.19865015,
          -0.20158063,
          0.66839111,
          -0.36566114,
          -0.05824592,
          -0.00433478,
          0.0956936,
          0.18550311,
          -1.0,
          -0.7943061,
          0.07629211,
          0.00217104,
          0.43516842,
          0.34810358,
          -0.26732156
        ],
        [
          0.01435132,
          0.2620151,
          -0.14494061,
          0.48761433,
          0.29452696,
          1.0,
          0.41819295,
          -0.49588722,
          -0.38782716,
          0.30347452,
          0.33665022,
          0.61474764,
          -0.07149339,
          0.52162367,
          -0.03719728,
          -0.24220702,
          -0.30048579,
          0.64617056,
          -0.10582655,
          0.40313691,
          0.07161753,
          -0.48531204,
          0.09158707,
          -0.11437824,
          -0.00479327,
          0.2578496,
          0.50476635,
          -0.04030238,
          -0.18713079,
          0.36544305,
          -0.11886893,
          0.38285065,
          0.38228521,
          0.41140538,
          0.31801471,
          0.46439469,
          0.33114353,
          0.2883085,
          -0.28478718,
          0.62857103,
          -0.00486129,
          -0.17603037,
          0.12686671,
          0.48405361,
          -0.46115708,
          0.59598821,
          -0.20999195,
          -0.43850988,
          -0.63143235,
          -0.17182326,
          0.09838316,
          0.20843391,
          0.28214249,
          -0.20959535,
          -0.00441788,
          -0.57950574,
          -0.53893894,
          -0.31308228,
          -0.30364373,
          -0.20578089
        ],
        [
          -0.29637891,
          0.48134157,
          -0.53423065,
          0.52813494,
          -0.64542252,
          -0.06002996,
          -0.36389843,
          -0.28030959,
          -0.15304731,
          0.44860747,
          -0.07370885,
          0.58328938,
          0.64478379,
          -0.18960546,
          0.22323982,
          0.42020395,
          0.18758732,
          0.47657791,
          -0.08934387,
          -0.59225488,
          -0.22117428,
          0.38832977,
          0.67759216,
          -0.002374,
          0.60059434,
          0.30557537,
          0.46629459,
          -0.16628961,
          -0.15636784,
          -0.34736797,
          -0.17996643,
          0.18683223,
          0.27221736,
          0.02532173,
          -0.37855133,
          -0.1562959,
          0.21380602,
          0.1432973,
          -0.22683494,
          0.21439639,
          0.40790147,
          -0.45084098,
          -0.01825959,
          0.17541839,
          0.10926807,
          0.79771441,
          0.61533415,
          -0.08356977,
          -1.0,
          -0.7678932,
          0.06801745,
          0.39231575,
          -0.24715945,
          0.31746635,
          -0.38880292,
          0.05605651,
          0.30555585,
          -0.68188965,
          -0.47382241,
          -0.03246582
        ],
        [
          0.71227002,
          0.26738897,
          0.80162233,
          -0.81378263,
          0.63190258,
          -0.50116646,
          -0.45837003,
          0.17886119,
          -0.61481804,
          0.33519647,
          0.05316216,
          -0.07895432,
          -0.15825984,
          0.20106503,
          -1.0,
          0.32287017,
          -0.23267271,
          0.27510592,
          0.03753786,
          0.70821476,
          0.07648067,
          -0.56606668,
          -0.22931643,
          0.11541275,
          -0.28152087,
          -0.32080272,
          0.19639964,
          -0.54355961,
          -0.06413043,
          -0.10066903,
          -0.13380475,
          -0.32473347,
          -0.13309713,
          -0.18643904,
          -0.60125327,
          -0.08991998,
          0.62201303,
          -0.36327726,
          -0.18477711,
          -0.37463441,
          0.2318514,
          -0.28294593,
          -0.32218593,
          0.70056766,
          -0.23113906,
          0.13486442,
          -0.57321918,
          0.74446261,
          -0.06697428,
          0.56137395,
          0.18714534,
          0.71564043,
          0.03533359,
          0.39559093,
          -0.20185785,
          0.08519153,
          -0.2544075,
          0.53577244,
          -0.63698375,
          0.31269848
        ]
      ],
      "channel_abs_mean": [
        0.04865084,
        0.07356179,
        0.08675976,
        0.12287492,
        0.09224253,
        0.08449999,
        0.0689691,
        0.06438775,
        0.06482708,
        0.08493175,
        0.05474659,
        0.07150622,
        0.04261211,
        0.06861784,
        0.07787523,
        0.0637366,
        0.03703594,
        0.08750781,
        0.01349503,
        0.10023014,
        0.04427358,
        0.07440476,
        0.04921016,
        0.01978089,
        0.04791148,
        0.07498893,
        0.08454395,
        0.0418339,
        0.03476306,
        0.07965345,
        0.0610914,
        0.05730989,
        0.05442358,
        0.04190752,
        0.0794604,
        0.03857392,
        0.05673277,
        0.04537931,
        0.05571227,
        0.08508515,
        0.03940113,
        0.05423013,
        0.02886239,
        0.08784388,
        0.05537558,
        0.09107663,
        0.07992602,
        0.10478219,
        0.11091026,
        0.07533143,
        0.01724714,
        0.06822433,
        0.0415003,
        0.10994774,
        0.08005874,
        0.04378791,
        0.05621321,
        0.10260122,
        0.09062709,
        0.04420874
      ],
      "channel_signed_mean": [
        0.01972886,
        0.07356179,
        0.01844894,
        -0.01690988,
        0.02925931,
        0.03497184,
        -0.02229061,
        -0.01831681,
        -0.06482708,
        0.08493175,
        0.04755376,
        0.05403161,
        0.02084176,
        0.0501153,
        -0.05609049,
        0.03670157,
        -0.01677854,
        0.05509595,
        -0.01022409,
        0.04243527,
        -0.02961536,
        -0.02909091,
        0.02713522,
        0.00678238,
        0.02284557,
        0.04703514,
        0.03441461,
        -0.02625609,
        -0.00697159,
        0.03698373,
        -0.0610914,
        0.02901358,
        0.04282589,
        0.00648436,
        -0.04396375,
        0.01548651,
        0.05529382,
        0.00078513,
        -0.05571227,
        0.05244062,
        0.03885851,
        -0.05423013,
        -0.00099379,
        0.08784388,
        -0.01623932,
        0.0650435,
        -0.01987896,
        0.04768082,
        -0.11091026,
        -0.02641498,
        0.01667907,
        0.06822433,
        0.01738138,
        -0.04449734,
        -0.08005874,
        -0.02089623,
        -0.0261112,
        0.00111329,
        -0.04500806,
        -0.01696112
      ],
      "channel_l2": [
        0.06865371,
        0.07662182,
        0.09544041,
        0.1240582,
        0.09594831,
        0.12025794,
        0.07269851,
        0.0705989,
        0.07270468,
        0.08880632,
        0.07138741,
        0.09004373,
        0.06490897,
        0.07672917,
        0.09952878,
        0.06467975,
        0.04330004,
        0.0948161,
        0.01537557,
        0.10230453,
        0.05753297,
        0.08281595,
        0.06985949,
        0.0231657,
        0.06468857,
        0.08075589,
        0.089726,
        0.05262694,
        0.03837601,
        0.09296548,
        0.08349519,
        0.06001892,
        0.05870061,
        0.05240734,
        0.08081926,
        0.05464328,
        0.06885679,
        0.04899598,
        0.05893782,
        0.09264391,
        0.04822871,
        0.05775806,
        0.03434785,
        0.09397104,
        0.06308461,
        0.1063063,
        0.08571918,
        0.11976178,
        0.12969412,
        0.09183727,
        0.02075811,
        0.07779986,
        0.04662588,
        0.14095899,
        0.11218157,
        0.06609864,
        0.07070611,
        0.1052658,
        0.09191582,
        0.05007325
      ],
      "top_channels_by_abs_weight": [
        {
          "rank": 1,
          "channel_index": 3,
          "channel_name": "AF3",
          "abs_mean_weight": 0.12287492,
          "signed_mean_weight": -0.01690988,
          "l2_weight": 0.1240582
        },
        {
          "rank": 2,
          "channel_index": 48,
          "channel_name": "P6",
          "abs_mean_weight": 0.11091026,
          "signed_mean_weight": -0.11091026,
          "l2_weight": 0.12969412
        },
        {
          "rank": 3,
          "channel_index": 53,
          "channel_name": "POz",
          "abs_mean_weight": 0.10994774,
          "signed_mean_weight": -0.04449734,
          "l2_weight": 0.14095899
        },
        {
          "rank": 4,
          "channel_index": 47,
          "channel_name": "P4",
          "abs_mean_weight": 0.10478219,
          "signed_mean_weight": 0.04768082,
          "l2_weight": 0.11976178
        },
        {
          "rank": 5,
          "channel_index": 57,
          "channel_name": "O1",
          "abs_mean_weight": 0.10260122,
          "signed_mean_weight": 0.00111329,
          "l2_weight": 0.1052658
        },
        {
          "rank": 6,
          "channel_index": 19,
          "channel_name": "FC2",
          "abs_mean_weight": 0.10023014,
          "signed_mean_weight": 0.04243527,
          "l2_weight": 0.10230453
        },
        {
          "rank": 7,
          "channel_index": 4,
          "channel_name": "AF4",
          "abs_mean_weight": 0.09224253,
          "signed_mean_weight": 0.02925931,
          "l2_weight": 0.09594831
        },
        {
          "rank": 8,
          "channel_index": 45,
          "channel_name": "Pz",
          "abs_mean_weight": 0.09107663,
          "signed_mean_weight": 0.0650435,
          "l2_weight": 0.1063063
        },
        {
          "rank": 9,
          "channel_index": 58,
          "channel_name": "Oz",
          "abs_mean_weight": 0.09062709,
          "signed_mean_weight": -0.04500806,
          "l2_weight": 0.09191582
        },
        {
          "rank": 10,
          "channel_index": 43,
          "channel_name": "P3",
          "abs_mean_weight": 0.08784388,
          "signed_mean_weight": 0.08784388,
          "l2_weight": 0.09397104
        },
        {
          "rank": 11,
          "channel_index": 17,
          "channel_name": "FC1",
          "abs_mean_weight": 0.08750781,
          "signed_mean_weight": 0.05509595,
          "l2_weight": 0.0948161
        },
        {
          "rank": 12,
          "channel_index": 2,
          "channel_name": "Fp2",
          "abs_mean_weight": 0.08675976,
          "signed_mean_weight": 0.01844894,
          "l2_weight": 0.09544041
        },
        {
          "rank": 13,
          "channel_index": 39,
          "channel_name": "CP6",
          "abs_mean_weight": 0.08508515,
          "signed_mean_weight": 0.05244062,
          "l2_weight": 0.09264391
        },
        {
          "rank": 14,
          "channel_index": 9,
          "channel_name": "Fz",
          "abs_mean_weight": 0.08493175,
          "signed_mean_weight": 0.08493175,
          "l2_weight": 0.08880632
        },
        {
          "rank": 15,
          "channel_index": 26,
          "channel_name": "C1",
          "abs_mean_weight": 0.08454395,
          "signed_mean_weight": 0.03441461,
          "l2_weight": 0.089726
        }
      ]
    },
    "spatial_update_stats": {
      "available": true,
      "parameter_name": "spatial_conv.1.weight",
      "initial_shape": [
        4,
        60
      ],
      "final_shape": [
        4,
        60
      ],
      "initial_l2": 1.1395002,
      "final_l2": 1.23980596,
      "delta_l2": 0.67059356,
      "delta_max_abs": 0.14147928,
      "relative_delta": 0.58849797,
      "changed": true
    },
    "subject_id": "1"
  },
  {
    "fold_id": 2,
    "fold_label": "subject=1",
    "model_name": "SignalJEPA_PreLocal",
    "strategy": "new",
    "warmup_epochs": 10,
    "n_train": 128,
    "n_test": 32,
    "train_class_counts": [
      64,
      64
    ],
    "test_class_counts": [
      16,
      16
    ],
    "pretrained_load": {
      "loading_path": "from_pretrained",
      "repo_id": "braindecode/signal-jepa_without-chans",
      "mode": "from_pretrained",
      "model_name": "SignalJEPA_PreLocal"
    },
    "phase_1_trainable_groups": [
      "spatial_conv.",
      "final_layer."
    ],
    "phase_1_trainable_params": 2294,
    "phase_1_trainable_names": [
      "spatial_conv.1.weight",
      "spatial_conv.1.bias",
      "final_layer.1.weight",
      "final_layer.1.bias"
    ],
    "phase_2_trainable_groups": null,
    "phase_2_trainable_params": null,
    "phase_2_trainable_names": null,
    "final_trainable_parameters": [
      {
        "name": "feature_encoder.1.0.weight",
        "shape": [
          8,
          1,
          32
        ],
        "num_params": 256,
        "requires_grad": false
      },
      {
        "name": "feature_encoder.1.2.weight",
        "shape": [
          8
        ],
        "num_params": 8,
        "requires_grad": false
      },
      {
        "name": "feature_encoder.1.2.bias",
        "shape": [
          8
        ],
        "num_params": 8,
        "requires_grad": false
      },
      {
        "name": "feature_encoder.2.0.weight",
        "shape": [
          16,
          8,
          2
        ],
        "num_params": 256,
        "requires_grad": false
      },
      {
        "name": "feature_encoder.3.0.weight",
        "shape": [
          32,
          16,
          2
        ],
        "num_params": 1024,
        "requires_grad": false
      },
      {
        "name": "feature_encoder.4.0.weight",
        "shape": [
          64,
          32,
          2
        ],
        "num_params": 4096,
        "requires_grad": false
      },
      {
        "name": "feature_encoder.5.0.weight",
        "shape": [
          64,
          64,
          2
        ],
        "num_params": 8192,
        "requires_grad": false
      },
      {
        "name": "spatial_conv.1.weight",
        "shape": [
          4,
          1,
          60,
          1
        ],
        "num_params": 240,
        "requires_grad": true
      },
      {
        "name": "spatial_conv.1.bias",
        "shape": [
          4
        ],
        "num_params": 4,
        "requires_grad": true
      },
      {
        "name": "final_layer.1.weight",
        "shape": [
          2,
          1024
        ],
        "num_params": 2048,
        "requires_grad": true
      },
      {
        "name": "final_layer.1.bias",
        "shape": [
          2
        ],
        "num_params": 2,
        "requires_grad": true
      }
    ],
    "n_trainable_params_final": 2294,
    "best_epoch": 11,
    "stopped_epoch": 50,
    "best_valid_loss": 0.6891224384307861,
    "accuracy": 0.4375,
    "balanced_accuracy": 0.4375,
    "confusion_matrix": [
      [
        5,
        11
      ],
      [
        7,
        9
      ]
    ],
    "prediction_histogram": [
      12,
      20
    ],
    "collapse_diagnostics": {
      "prediction_histogram": [
        12,
        20
      ],
      "collapse_ratio": 0.625,
      "collapse_threshold": 0.9,
      "collapse_flag": false,
      "majority_predicted_class": 1
    },
    "probability_diagnostics": {
      "available": true,
      "probability_shape": [
        32,
        2
      ],
      "mean_probability_by_class": [
        0.50016413,
        0.49983588
      ],
      "std_probability_by_class": [
        0.11522149,
        0.11522149
      ],
      "mean_confidence": 0.59084829,
      "std_confidence": 0.07087036,
      "mean_prediction_entropy": 0.66575867,
      "mean_normalized_prediction_entropy": 0.96048673,
      "mean_predicted_class_probability": 0.59084829
    },
    "spatial_conv_initial": {
      "available": true,
      "parameter_name": "spatial_conv.1.weight",
      "raw_weight_shape": [
        4,
        1,
        60,
        1
      ],
      "weight_matrix_shape": [
        4,
        60
      ],
      "n_virtual_filters": 4,
      "n_input_channels": 60,
      "channel_names": [
        "Fp1",
        "Fpz",
        "Fp2",
        "AF3",
        "AF4",
        "F7",
        "F5",
        "F3",
        "F1",
        "Fz",
        "F2",
        "F4",
        "F6",
        "F8",
        "FT7",
        "FC5",
        "FC3",
        "FC1",
        "FCz",
        "FC2",
        "FC4",
        "FC6",
        "FT8",
        "T7",
        "C5",
        "C3",
        "C1",
        "Cz",
        "C2",
        "C4",
        "C6",
        "T8",
        "TP7",
        "CP5",
        "CP3",
        "CP1",
        "CPz",
        "CP2",
        "CP4",
        "CP6",
        "TP8",
        "P7",
        "P5",
        "P3",
        "P1",
        "Pz",
        "P2",
        "P4",
        "P6",
        "P8",
        "PO7",
        "PO5",
        "PO3",
        "POz",
        "PO4",
        "PO6",
        "PO8",
        "O1",
        "Oz",
        "O2"
      ],
      "weight_matrix": [
        [
          0.09860362,
          0.02757107,
          -0.00453342,
          -0.04340911,
          0.02576071,
          0.06880875,
          0.0960246,
          0.04289424,
          -0.07277799,
          0.09152263,
          0.05239789,
          -0.08542095,
          0.01087321,
          0.12446697,
          -0.08788451,
          0.11290868,
          -0.05113648,
          0.00419681,
          0.00290361,
          0.03044201,
          -0.10243709,
          0.11921524,
          -0.03911539,
          0.04228823,
          0.10331213,
          0.08389606,
          -0.01665223,
          0.01591225,
          -0.03120496,
          0.06290273,
          -0.09196522,
          0.09813812,
          0.01074813,
          0.00808492,
          -0.07376412,
          -0.10413817,
          -0.062893,
          -0.06088749,
          -0.12183961,
          0.12901251,
          0.03479216,
          -0.07470614,
          0.05674176,
          0.12395246,
          -0.0290658,
          -0.05614749,
          -0.10394765,
          0.11709003,
          -0.08659275,
          0.09497562,
          -0.0239225,
          -0.07232979,
          0.01411721,
          -0.12062103,
          -0.10999423,
          0.0829183,
          0.06248488,
          0.06250216,
          0.12028129,
          -0.08014211
        ],
        [
          0.01009926,
          0.0087412,
          -0.00977896,
          0.08421583,
          0.04553671,
          0.11333744,
          0.0909525,
          -0.11484723,
          -0.11017934,
          0.05184568,
          0.05248089,
          0.11000124,
          -0.00147277,
          0.10807167,
          -0.01666692,
          -0.03505213,
          -0.07999703,
          0.09310645,
          0.0278822,
          0.12351443,
          0.03080638,
          -0.09881285,
          0.02723894,
          -0.00470403,
          -0.04697136,
          0.03006224,
          0.10474245,
          0.03595626,
          -0.04673435,
          0.08497576,
          -0.04740096,
          0.07026555,
          0.02335858,
          0.03381139,
          0.10128237,
          0.09403583,
          0.12373872,
          0.06473045,
          -0.09133916,
          0.06924331,
          -0.04601314,
          -0.05847561,
          0.0647402,
          0.08305502,
          -0.07227547,
          0.11441143,
          -0.05989631,
          -0.07397005,
          -0.10722409,
          -0.05097675,
          0.07102665,
          0.05539307,
          0.02983716,
          -0.09010918,
          -0.02183408,
          -0.11826871,
          -0.11102631,
          -0.03497604,
          -0.12786898,
          -0.03197727
        ],
        [
          0.04709473,
          0.02920434,
          -0.05418927,
          0.10976914,
          -0.12658985,
          0.00878382,
          -0.04467642,
          -0.04240006,
          -0.00666616,
          0.10525598,
          -0.0294892,
          0.08200011,
          0.09430724,
          -0.06121391,
          -0.00176534,
          0.06909451,
          0.10997215,
          0.08174603,
          -0.02376501,
          -0.07964359,
          -0.0774474,
          0.01633754,
          0.11415614,
          -0.06285675,
          0.0570755,
          0.02552816,
          0.07502529,
          -0.01806435,
          -0.05698903,
          -0.06936607,
          -0.03224508,
          0.09792642,
          -0.01748952,
          -0.00407872,
          -0.08633603,
          -0.05719286,
          0.07931304,
          0.02280134,
          -0.04839899,
          0.01430883,
          0.07498378,
          -0.10826348,
          -0.05108214,
          0.00344549,
          -0.0129722,
          0.12906928,
          0.10434645,
          -0.02263926,
          -0.11671187,
          -0.09633882,
          0.04830891,
          0.08607472,
          -0.08869911,
          0.01658894,
          -0.09075859,
          0.06495057,
          0.11313045,
          -0.09842119,
          -0.03621754,
          0.08533759
        ],
        [
          0.12180255,
          -0.00603986,
          0.11095531,
          -0.12369663,
          0.10324408,
          -0.04422085,
          -0.06285778,
          -0.00306022,
          -0.12783846,
          0.03429446,
          -0.01821135,
          -0.02381252,
          -0.07222682,
          0.06508011,
          -0.10177355,
          0.01723605,
          -0.03398101,
          0.05306143,
          0.003645,
          0.08476456,
          0.00781615,
          -0.10806764,
          -0.04963005,
          0.0397224,
          -0.03605769,
          -0.05288761,
          0.1004701,
          -0.08451293,
          -0.03914668,
          -0.02354313,
          -0.07526991,
          -0.00433752,
          0.01454157,
          -0.0221094,
          -0.11260715,
          0.03097835,
          0.1044676,
          -0.05688865,
          -0.01832165,
          -0.08687175,
          0.07566848,
          -0.05502742,
          -0.08429559,
          0.12045878,
          -0.05579505,
          0.04463868,
          -0.09179308,
          0.07205968,
          -0.04402351,
          0.1097022,
          0.02096228,
          0.10205078,
          0.03712666,
          0.10450509,
          0.01452936,
          -0.0240638,
          -0.08278716,
          0.02288513,
          -0.1179,
          0.06873485
        ]
      ],
      "weight_matrix_norm": [
        [
          0.76429504,
          0.21370848,
          -0.03513936,
          -0.33647209,
          0.19967607,
          0.53334945,
          0.7443046,
          0.33248127,
          -0.5641157,
          0.709409,
          0.40614581,
          -0.66211373,
          0.0842803,
          0.96476668,
          -0.68120921,
          0.87517619,
          -0.39636838,
          0.03253024,
          0.02250643,
          0.23596172,
          -0.79400897,
          0.92405951,
          -0.30319068,
          0.32778394,
          0.80079162,
          0.65029395,
          -0.12907457,
          0.12333881,
          -0.24187547,
          0.48757079,
          -0.71283954,
          0.76068687,
          0.08331078,
          0.06266774,
          -0.5717594,
          -0.80719429,
          -0.48749539,
          -0.47195029,
          -0.9444015,
          1.0,
          0.26968047,
          -0.57906121,
          0.43981594,
          0.96077865,
          -0.22529446,
          -0.43520969,
          -0.80571765,
          0.90758663,
          -0.67119652,
          0.73617375,
          -0.18542773,
          -0.56064165,
          0.10942513,
          -0.93495607,
          -0.85258579,
          0.64271522,
          0.48433191,
          0.4844659,
          0.93232274,
          -0.62119645
        ],
        [
          0.07898133,
          0.0683606,
          -0.07647642,
          0.65861034,
          0.35612008,
          0.88635606,
          0.71129447,
          -0.89816332,
          -0.8616581,
          0.40545943,
          0.41042706,
          0.8602652,
          -0.01151781,
          0.84517503,
          -0.13034372,
          -0.27412534,
          -0.62561715,
          0.72813946,
          0.21805291,
          0.96594518,
          0.24092142,
          -0.77276635,
          0.21302223,
          -0.03678788,
          -0.36733973,
          0.23510192,
          0.81913888,
          0.28119615,
          -0.3654862,
          0.6645534,
          -0.37069944,
          0.54951203,
          0.18267591,
          0.26442215,
          0.79207933,
          0.73540771,
          0.96769929,
          0.50622481,
          -0.71431839,
          0.54151767,
          -0.359846,
          -0.45730877,
          0.50630105,
          0.6495322,
          -0.56523073,
          0.89475513,
          -0.46841934,
          -0.57848316,
          -0.83854657,
          -0.39866391,
          0.55546427,
          0.43320179,
          0.23334166,
          -0.70469934,
          -0.17075349,
          -0.92492104,
          -0.86828178,
          -0.2735303,
          -1.0,
          -0.25007838
        ],
        [
          0.36487949,
          0.22626869,
          -0.41984639,
          0.85046679,
          -0.9807899,
          0.06805506,
          -0.34614295,
          -0.32850623,
          -0.05164793,
          0.81549978,
          -0.22847578,
          0.63531852,
          0.73067147,
          -0.47427171,
          -0.01367746,
          0.53532881,
          0.85203964,
          0.63334996,
          -0.18412602,
          -0.61706078,
          -0.60004514,
          0.12657964,
          0.88445628,
          -0.48700005,
          0.44220823,
          0.19778651,
          0.58127922,
          -0.13995855,
          -0.44153827,
          -0.53743279,
          -0.24982771,
          0.75871205,
          -0.13550492,
          -0.03160098,
          -0.66891229,
          -0.44311753,
          0.61449975,
          0.17665969,
          -0.37498459,
          0.11086158,
          0.58095753,
          -0.83880126,
          -0.39577302,
          0.0266949,
          -0.10050569,
          1.0,
          0.80845302,
          -0.17540394,
          -0.90425754,
          -0.74641162,
          0.37428665,
          0.66688776,
          -0.68722093,
          0.12852742,
          -0.70317733,
          0.50322253,
          0.87650949,
          -0.76254541,
          -0.28060541,
          0.66117662
        ],
        [
          0.9527849,
          -0.04724601,
          0.86793375,
          -0.96760106,
          0.80761361,
          -0.34591192,
          -0.49169689,
          -0.02393819,
          -1.0,
          0.268264,
          -0.14245595,
          -0.18627037,
          -0.5649851,
          0.50908077,
          -0.79611051,
          0.13482682,
          -0.2658121,
          0.41506621,
          0.02851257,
          0.66305989,
          0.06114084,
          -0.84534526,
          -0.38822469,
          0.31072336,
          -0.28205666,
          -0.41370657,
          0.78591448,
          -0.66109163,
          -0.30621988,
          -0.18416315,
          -0.58878922,
          -0.03392969,
          0.11374954,
          -0.17294799,
          -0.88085502,
          0.24232419,
          0.81718445,
          -0.44500422,
          -0.14331874,
          -0.67954314,
          0.59190702,
          -0.43044493,
          -0.6593914,
          0.94227338,
          -0.43644965,
          0.34918034,
          -0.71803957,
          0.56367761,
          -0.34436825,
          0.85813141,
          0.16397478,
          0.79827917,
          0.29041854,
          0.8174777,
          0.11365408,
          -0.18823601,
          -0.64759195,
          0.17901599,
          -0.92225766,
          0.5376696
        ]
      ],
      "channel_abs_mean": [
        0.06940004,
        0.01788912,
        0.04486424,
        0.09027268,
        0.07528284,
        0.05878771,
        0.07362783,
        0.05080044,
        0.07936548,
        0.07072969,
        0.03814483,
        0.07530871,
        0.04472001,
        0.08970816,
        0.05202258,
        0.05857284,
        0.06877166,
        0.05802768,
        0.01454896,
        0.07959115,
        0.05462676,
        0.08560832,
        0.05753513,
        0.03739285,
        0.06085417,
        0.04809352,
        0.07422252,
        0.03861145,
        0.04351876,
        0.06019692,
        0.06172029,
        0.0676669,
        0.01653445,
        0.01702111,
        0.09349742,
        0.0715863,
        0.09260309,
        0.05132699,
        0.06997485,
        0.0748591,
        0.05786439,
        0.07411816,
        0.06421492,
        0.08272794,
        0.04252713,
        0.08606672,
        0.08999588,
        0.07143976,
        0.08863805,
        0.08799835,
        0.04105509,
        0.07896209,
        0.04244503,
        0.08295606,
        0.05927907,
        0.07255035,
        0.0923572,
        0.05469613,
        0.10056695,
        0.06654796
      ],
      "channel_signed_mean": [
        0.06940004,
        0.01486919,
        0.01061342,
        0.00671981,
        0.01198791,
        0.03667729,
        0.01986073,
        -0.02935332,
        -0.07936548,
        0.07072969,
        0.01429456,
        0.02069197,
        0.00787022,
        0.05910121,
        -0.05202258,
        0.04104678,
        -0.01378559,
        0.05802768,
        0.00266645,
        0.03976935,
        -0.03531549,
        -0.01783193,
        0.01316241,
        0.00361246,
        0.01933965,
        0.02164971,
        0.0658964,
        -0.01267719,
        -0.04351876,
        0.01374232,
        -0.06172029,
        0.06549814,
        0.00778969,
        0.00392705,
        -0.04285623,
        -0.00907921,
        0.06115659,
        -0.00756109,
        -0.06997485,
        0.03142323,
        0.03485782,
        -0.07411816,
        -0.00347394,
        0.08272794,
        -0.04252713,
        0.05799298,
        -0.03782265,
        0.0231351,
        -0.08863805,
        0.01434056,
        0.02909384,
        0.0427972,
        -0.00190452,
        -0.02240905,
        -0.05201438,
        0.00138409,
        -0.00454953,
        -0.01200248,
        -0.04042631,
        0.01048827
      ],
      "channel_l2": [
        0.08197324,
        0.02077225,
        0.06197527,
        0.09529793,
        0.08576354,
        0.0700226,
        0.0765509,
        0.06487861,
        0.09195546,
        0.07635329,
        0.04092997,
        0.08168241,
        0.0596468,
        0.0937471,
        0.06775405,
        0.06900752,
        0.07460403,
        0.06742468,
        0.01846558,
        0.08618391,
        0.06614678,
        0.09476522,
        0.06664596,
        0.04283475,
        0.06602552,
        0.05336449,
        0.08211473,
        0.04747317,
        0.0445479,
        0.06431089,
        0.06597302,
        0.07774435,
        0.01716455,
        0.02070047,
        0.09464875,
        0.07732751,
        0.0954867,
        0.05397578,
        0.08041436,
        0.08542585,
        0.06057225,
        0.0770542,
        0.06543327,
        0.09589648,
        0.04834752,
        0.0933997,
        0.09179711,
        0.07887772,
        0.09294493,
        0.09073965,
        0.04579912,
        0.08081339,
        0.05083176,
        0.09201305,
        0.07249773,
        0.0800946,
        0.09471459,
        0.06192799,
        0.10727324,
        0.06973573
      ],
      "top_channels_by_abs_weight": [
        {
          "rank": 1,
          "channel_index": 58,
          "channel_name": "Oz",
          "abs_mean_weight": 0.10056695,
          "signed_mean_weight": -0.04042631,
          "l2_weight": 0.10727324
        },
        {
          "rank": 2,
          "channel_index": 34,
          "channel_name": "CP3",
          "abs_mean_weight": 0.09349742,
          "signed_mean_weight": -0.04285623,
          "l2_weight": 0.09464875
        },
        {
          "rank": 3,
          "channel_index": 36,
          "channel_name": "CPz",
          "abs_mean_weight": 0.09260309,
          "signed_mean_weight": 0.06115659,
          "l2_weight": 0.0954867
        },
        {
          "rank": 4,
          "channel_index": 56,
          "channel_name": "PO8",
          "abs_mean_weight": 0.0923572,
          "signed_mean_weight": -0.00454953,
          "l2_weight": 0.09471459
        },
        {
          "rank": 5,
          "channel_index": 3,
          "channel_name": "AF3",
          "abs_mean_weight": 0.09027268,
          "signed_mean_weight": 0.00671981,
          "l2_weight": 0.09529793
        },
        {
          "rank": 6,
          "channel_index": 46,
          "channel_name": "P2",
          "abs_mean_weight": 0.08999588,
          "signed_mean_weight": -0.03782265,
          "l2_weight": 0.09179711
        },
        {
          "rank": 7,
          "channel_index": 13,
          "channel_name": "F8",
          "abs_mean_weight": 0.08970816,
          "signed_mean_weight": 0.05910121,
          "l2_weight": 0.0937471
        },
        {
          "rank": 8,
          "channel_index": 48,
          "channel_name": "P6",
          "abs_mean_weight": 0.08863805,
          "signed_mean_weight": -0.08863805,
          "l2_weight": 0.09294493
        },
        {
          "rank": 9,
          "channel_index": 49,
          "channel_name": "P8",
          "abs_mean_weight": 0.08799835,
          "signed_mean_weight": 0.01434056,
          "l2_weight": 0.09073965
        },
        {
          "rank": 10,
          "channel_index": 45,
          "channel_name": "Pz",
          "abs_mean_weight": 0.08606672,
          "signed_mean_weight": 0.05799298,
          "l2_weight": 0.0933997
        },
        {
          "rank": 11,
          "channel_index": 21,
          "channel_name": "FC6",
          "abs_mean_weight": 0.08560832,
          "signed_mean_weight": -0.01783193,
          "l2_weight": 0.09476522
        },
        {
          "rank": 12,
          "channel_index": 53,
          "channel_name": "POz",
          "abs_mean_weight": 0.08295606,
          "signed_mean_weight": -0.02240905,
          "l2_weight": 0.09201305
        },
        {
          "rank": 13,
          "channel_index": 43,
          "channel_name": "P3",
          "abs_mean_weight": 0.08272794,
          "signed_mean_weight": 0.08272794,
          "l2_weight": 0.09589648
        },
        {
          "rank": 14,
          "channel_index": 19,
          "channel_name": "FC2",
          "abs_mean_weight": 0.07959115,
          "signed_mean_weight": 0.03976935,
          "l2_weight": 0.08618391
        },
        {
          "rank": 15,
          "channel_index": 8,
          "channel_name": "F1",
          "abs_mean_weight": 0.07936548,
          "signed_mean_weight": -0.07936548,
          "l2_weight": 0.09195546
        }
      ]
    },
    "spatial_conv": {
      "available": true,
      "parameter_name": "spatial_conv.1.weight",
      "raw_weight_shape": [
        4,
        1,
        60,
        1
      ],
      "weight_matrix_shape": [
        4,
        60
      ],
      "n_virtual_filters": 4,
      "n_input_channels": 60,
      "channel_names": [
        "Fp1",
        "Fpz",
        "Fp2",
        "AF3",
        "AF4",
        "F7",
        "F5",
        "F3",
        "F1",
        "Fz",
        "F2",
        "F4",
        "F6",
        "F8",
        "FT7",
        "FC5",
        "FC3",
        "FC1",
        "FCz",
        "FC2",
        "FC4",
        "FC6",
        "FT8",
        "T7",
        "C5",
        "C3",
        "C1",
        "Cz",
        "C2",
        "C4",
        "C6",
        "T8",
        "TP7",
        "CP5",
        "CP3",
        "CP1",
        "CPz",
        "CP2",
        "CP4",
        "CP6",
        "TP8",
        "P7",
        "P5",
        "P3",
        "P1",
        "Pz",
        "P2",
        "P4",
        "P6",
        "P8",
        "PO7",
        "PO5",
        "PO3",
        "POz",
        "PO4",
        "PO6",
        "PO8",
        "O1",
        "Oz",
        "O2"
      ],
      "weight_matrix": [
        [
          -0.01527232,
          0.09090534,
          0.02484914,
          -0.17696498,
          0.0319756,
          4.896e-05,
          -0.04950993,
          0.02163029,
          -0.03540612,
          0.07377618,
          0.03162094,
          -0.10532131,
          0.04203263,
          0.10526723,
          -0.1612639,
          0.09288782,
          0.00670243,
          0.06888696,
          -0.0494422,
          0.08201988,
          -0.09480608,
          0.09298812,
          -0.00346955,
          -0.01945758,
          0.0317999,
          0.13048597,
          -0.02050521,
          -0.0230224,
          0.0212689,
          0.14864966,
          -0.13962846,
          0.01420971,
          0.0459101,
          -0.09021921,
          -0.09643959,
          -0.08178804,
          -0.07206643,
          -0.04427165,
          -0.05772995,
          0.01627641,
          -0.00182632,
          -0.08764835,
          0.09660731,
          0.04407269,
          0.04338806,
          0.021418,
          -0.07020749,
          0.15181607,
          -0.08586531,
          0.00253715,
          0.0011959,
          -0.03880809,
          0.03544896,
          -0.07612719,
          -0.14023922,
          0.05648971,
          0.03832773,
          0.08720342,
          0.12074821,
          -0.07084251
        ],
        [
          -0.0850551,
          -0.05330323,
          -0.01527094,
          0.07157297,
          0.01880621,
          0.09266314,
          0.09053423,
          -0.15339208,
          -0.11026538,
          0.04464788,
          0.01472717,
          0.09273232,
          -0.05292538,
          0.10771047,
          -0.0345086,
          -0.02973441,
          -0.10604279,
          0.08457961,
          0.03174344,
          0.11175995,
          0.03452625,
          -0.05492085,
          0.03351057,
          0.03249802,
          -0.04642744,
          0.05615313,
          0.11651432,
          -0.02111259,
          0.01101739,
          0.06298111,
          -0.15491693,
          0.07101271,
          0.0393777,
          0.08836191,
          0.077332,
          0.09578516,
          0.15823036,
          0.08261295,
          -0.12244543,
          0.08150917,
          -0.02397981,
          -0.00532716,
          0.03801844,
          0.15466197,
          -0.0434032,
          0.16063268,
          -0.05188119,
          -0.08556675,
          -0.12991971,
          -0.06163593,
          0.02736184,
          0.134914,
          0.1080722,
          -0.02547384,
          0.06543963,
          -0.10793556,
          -0.09827574,
          0.05402507,
          -0.06347968,
          -0.07390302
        ],
        [
          0.00035819,
          0.01739839,
          -0.07512698,
          0.16707124,
          -0.16614515,
          0.00111495,
          0.01796922,
          -0.06571086,
          -0.0086625,
          0.07046098,
          -0.08667625,
          0.07048661,
          0.02091492,
          -0.07596698,
          -0.01858679,
          0.09507465,
          0.06353422,
          0.07401498,
          -0.0035058,
          -0.06024863,
          -0.05499568,
          0.03288146,
          0.09556104,
          -0.019151,
          0.07598998,
          0.04428644,
          0.07141388,
          -0.0602976,
          -0.01934783,
          -0.06947084,
          -0.11042204,
          0.04427203,
          -0.02200592,
          0.02176705,
          -0.12390695,
          -0.060992,
          0.11954392,
          0.04278949,
          -0.0577271,
          0.06748345,
          0.05431733,
          -0.06708295,
          -0.03238812,
          0.03672644,
          -0.02403779,
          0.16231984,
          0.13166158,
          -0.0033891,
          -0.1206189,
          -0.09317679,
          0.01335138,
          0.12226203,
          -0.05580854,
          0.04832121,
          0.00786802,
          0.05851185,
          0.10580299,
          -0.03848165,
          -0.04895871,
          0.08891439
        ],
        [
          0.0899697,
          0.00485299,
          0.14102526,
          -0.1094382,
          0.10847915,
          -0.07844859,
          -0.09224297,
          -0.01486123,
          -0.0861292,
          0.03499163,
          -0.03047729,
          0.00948158,
          -0.01797415,
          0.06141886,
          -0.16834152,
          -0.00738335,
          -0.04849306,
          0.0510503,
          0.01218629,
          0.09977203,
          0.01403052,
          -0.0670591,
          -0.02887432,
          0.0091155,
          -0.0731371,
          -0.04473893,
          0.08237411,
          -0.12685426,
          -0.00682005,
          -0.01452405,
          -0.10419143,
          0.00030368,
          -0.01688233,
          -0.05369316,
          -0.13350566,
          0.0378943,
          0.10525408,
          -0.06193092,
          -0.02843675,
          -0.08603231,
          0.04902909,
          -0.06230078,
          -0.02408656,
          0.14872395,
          -0.03513633,
          0.06383202,
          -0.09049387,
          0.06350456,
          -0.05938192,
          0.06773131,
          0.00859031,
          0.12777251,
          0.09236383,
          0.09120051,
          0.04666587,
          -0.01739981,
          -0.07768833,
          0.08737399,
          -0.12124389,
          0.04322616
        ]
      ],
      "weight_matrix_norm": [
        [
          -0.08630137,
          0.51369113,
          0.1404184,
          -1.0,
          0.18068884,
          0.00027664,
          -0.27977246,
          0.12222918,
          -0.20007414,
          0.41689703,
          0.17868474,
          -0.59515339,
          0.23751949,
          0.5948478,
          -0.91127574,
          0.52489376,
          0.03787435,
          0.38926888,
          -0.27938974,
          0.46348086,
          -0.53573358,
          0.52546054,
          -0.01960583,
          -0.10995156,
          0.17969601,
          0.73735476,
          -0.11587155,
          -0.13009581,
          0.12018704,
          0.83999479,
          -0.78901744,
          0.08029673,
          0.25943044,
          -0.5098139,
          -0.54496425,
          -0.46217075,
          -0.4072355,
          -0.25017181,
          -0.32622245,
          0.09197532,
          -0.01032022,
          -0.49528638,
          0.54591203,
          0.2490475,
          0.24517882,
          0.1210296,
          -0.39673099,
          0.85788763,
          -0.48521075,
          0.01433704,
          0.00675783,
          -0.21929811,
          0.20031625,
          -0.43018225,
          -0.79246879,
          0.31921405,
          0.2165837,
          0.49277219,
          0.68232828,
          -0.40031937
        ],
        [
          -0.52950054,
          -0.331833,
          -0.09506746,
          0.44556919,
          0.11707586,
          0.57686353,
          0.56361026,
          -0.95492446,
          -0.68644422,
          0.27795014,
          0.09168226,
          0.57729423,
          -0.32948077,
          0.67053896,
          -0.21482928,
          -0.18510807,
          -0.66015697,
          0.52654046,
          0.19761506,
          0.69574851,
          0.21493912,
          -0.34190333,
          0.20861614,
          0.2023126,
          -0.28902861,
          0.34957474,
          0.72534627,
          -0.13143395,
          0.06858744,
          0.39208156,
          -0.96441722,
          0.4420813,
          0.2451413,
          0.55008674,
          0.48142132,
          0.59629929,
          0.98504466,
          0.51429725,
          -0.76226974,
          0.50742579,
          -0.14928351,
          -0.03316362,
          0.23667938,
          0.96283001,
          -0.27020156,
          1.0,
          -0.32298031,
          -0.53268582,
          -0.80879992,
          -0.38370726,
          0.17033795,
          0.83989131,
          0.67279083,
          -0.15858443,
          0.40738678,
          -0.67194021,
          -0.61180413,
          0.33632672,
          -0.39518532,
          -0.46007463
        ],
        [
          0.00214395,
          0.10413758,
          -0.44967034,
          1.0,
          -0.99445689,
          0.00667351,
          0.10755421,
          -0.3933104,
          -0.05184915,
          0.42174211,
          -0.51879811,
          0.4218955,
          0.12518564,
          -0.45469815,
          -0.11125068,
          0.56906652,
          0.38028222,
          0.44301447,
          -0.02098388,
          -0.36061639,
          -0.32917506,
          0.19681105,
          0.57197779,
          -0.11462774,
          0.45483583,
          0.26507521,
          0.42744571,
          -0.36090955,
          -0.11580586,
          -0.41581565,
          -0.66092789,
          0.26498893,
          -0.13171579,
          0.13028605,
          -0.7416414,
          -0.36506584,
          0.71552664,
          0.25611526,
          -0.34552386,
          0.4039202,
          0.32511476,
          -0.40152302,
          -0.19385818,
          0.21982504,
          -0.14387749,
          0.97156066,
          0.78805655,
          -0.02028534,
          -0.7219609,
          -0.55770695,
          0.07991427,
          0.73179579,
          -0.3340404,
          0.28922516,
          0.0470938,
          0.35022098,
          0.63328069,
          -0.23033077,
          -0.29304093,
          0.53219444
        ],
        [
          0.53444749,
          0.02882825,
          0.83773309,
          -0.6500963,
          0.64439929,
          -0.4660086,
          -0.5479514,
          -0.08828024,
          -0.51163375,
          0.20786098,
          -0.18104438,
          0.05632349,
          -0.10677193,
          0.36484677,
          -1.0,
          -0.04385933,
          -0.28806362,
          0.30325437,
          0.07239028,
          0.59267628,
          0.08334554,
          -0.39835152,
          -0.17152229,
          0.05414885,
          -0.43445668,
          -0.26576293,
          0.48932737,
          -0.75355297,
          -0.04051316,
          -0.08627731,
          -0.61892891,
          0.00180394,
          -0.10028622,
          -0.31895375,
          -0.79306436,
          0.22510374,
          0.6252414,
          -0.3678886,
          -0.16892301,
          -0.51105815,
          0.29124776,
          -0.37008566,
          -0.14308149,
          0.88346565,
          -0.20872051,
          0.37918168,
          -0.53756118,
          0.37723649,
          -0.35274673,
          0.40234467,
          0.05102906,
          0.75900769,
          0.5486694,
          0.54175884,
          0.27720949,
          -0.10336018,
          -0.46149239,
          0.51902813,
          -0.72022569,
          0.25677657
        ]
      ],
      "channel_abs_mean": [
        0.04766383,
        0.04161499,
        0.06406808,
        0.13126184,
        0.08135153,
        0.04306891,
        0.06256409,
        0.06389862,
        0.0601158,
        0.05596917,
        0.04087541,
        0.06950545,
        0.03346177,
        0.08759089,
        0.0956752,
        0.05627006,
        0.05619313,
        0.06963296,
        0.02421943,
        0.08845012,
        0.04958963,
        0.06196238,
        0.04035387,
        0.02005553,
        0.05683861,
        0.06891612,
        0.07270189,
        0.05782171,
        0.01461354,
        0.07390641,
        0.12728971,
        0.03244953,
        0.03104402,
        0.06351033,
        0.10779604,
        0.06911488,
        0.1137737,
        0.05790125,
        0.06658481,
        0.06282533,
        0.03228813,
        0.05558981,
        0.04777511,
        0.09604626,
        0.03649135,
        0.10205064,
        0.08606103,
        0.07606912,
        0.09894647,
        0.05627029,
        0.01262486,
        0.10593916,
        0.07292338,
        0.06028069,
        0.06505319,
        0.06008423,
        0.0800237,
        0.06677103,
        0.08860762,
        0.06922152
      ],
      "channel_signed_mean": [
        -0.00249988,
        0.01496337,
        0.01886912,
        -0.01193974,
        -0.00172105,
        0.00384461,
        -0.00831236,
        -0.05308347,
        -0.0601158,
        0.05596917,
        -0.01770136,
        0.0168448,
        -0.00198799,
        0.0496074,
        -0.0956752,
        0.03771118,
        -0.0210748,
        0.06963296,
        -0.00225457,
        0.0583258,
        -0.02531125,
        0.00097241,
        0.02418194,
        0.00075124,
        -0.00294366,
        0.04654665,
        0.06244928,
        -0.05782171,
        0.0015296,
        0.03190897,
        -0.12728971,
        0.03244953,
        0.01159989,
        -0.00844585,
        -0.06913005,
        -0.00227515,
        0.07774048,
        0.00479997,
        -0.06658481,
        0.01980918,
        0.01938507,
        -0.05558981,
        0.01953777,
        0.09604626,
        -0.01479731,
        0.10205064,
        -0.02023024,
        0.0315912,
        -0.09894647,
        -0.02113606,
        0.01262486,
        0.08653511,
        0.04501911,
        0.00948017,
        -0.00506643,
        -0.00258345,
        -0.00795834,
        0.0475302,
        -0.02823352,
        -0.00315125
      ],
      "channel_l2": [
        0.06237445,
        0.05345856,
        0.08121402,
        0.13813835,
        0.10093073,
        0.06070808,
        0.0697842,
        0.08446267,
        0.07229337,
        0.0583642,
        0.04913861,
        0.07866086,
        0.03649775,
        0.089758,
        0.11819605,
        0.06820188,
        0.06647965,
        0.07068145,
        0.03005401,
        0.09055648,
        0.05788272,
        0.06565288,
        0.05267978,
        0.02170583,
        0.05977092,
        0.07768948,
        0.08043862,
        0.07194369,
        0.01576864,
        0.08817665,
        0.12898086,
        0.04244062,
        0.03327016,
        0.06946959,
        0.11006535,
        0.07249152,
        0.11789782,
        0.06010669,
        0.07494448,
        0.06867357,
        0.03851165,
        0.06342737,
        0.05569454,
        0.11105221,
        0.03734548,
        0.11904185,
        0.09102838,
        0.09275519,
        0.10286777,
        0.06533542,
        0.0158284,
        0.11289561,
        0.07839308,
        0.06537725,
        0.08091507,
        0.06813142,
        0.08419751,
        0.07006817,
        0.09448127,
        0.0711593
      ],
      "top_channels_by_abs_weight": [
        {
          "rank": 1,
          "channel_index": 3,
          "channel_name": "AF3",
          "abs_mean_weight": 0.13126184,
          "signed_mean_weight": -0.01193974,
          "l2_weight": 0.13813835
        },
        {
          "rank": 2,
          "channel_index": 30,
          "channel_name": "C6",
          "abs_mean_weight": 0.12728971,
          "signed_mean_weight": -0.12728971,
          "l2_weight": 0.12898086
        },
        {
          "rank": 3,
          "channel_index": 36,
          "channel_name": "CPz",
          "abs_mean_weight": 0.1137737,
          "signed_mean_weight": 0.07774048,
          "l2_weight": 0.11789782
        },
        {
          "rank": 4,
          "channel_index": 34,
          "channel_name": "CP3",
          "abs_mean_weight": 0.10779604,
          "signed_mean_weight": -0.06913005,
          "l2_weight": 0.11006535
        },
        {
          "rank": 5,
          "channel_index": 51,
          "channel_name": "PO5",
          "abs_mean_weight": 0.10593916,
          "signed_mean_weight": 0.08653511,
          "l2_weight": 0.11289561
        },
        {
          "rank": 6,
          "channel_index": 45,
          "channel_name": "Pz",
          "abs_mean_weight": 0.10205064,
          "signed_mean_weight": 0.10205064,
          "l2_weight": 0.11904185
        },
        {
          "rank": 7,
          "channel_index": 48,
          "channel_name": "P6",
          "abs_mean_weight": 0.09894647,
          "signed_mean_weight": -0.09894647,
          "l2_weight": 0.10286777
        },
        {
          "rank": 8,
          "channel_index": 43,
          "channel_name": "P3",
          "abs_mean_weight": 0.09604626,
          "signed_mean_weight": 0.09604626,
          "l2_weight": 0.11105221
        },
        {
          "rank": 9,
          "channel_index": 14,
          "channel_name": "FT7",
          "abs_mean_weight": 0.0956752,
          "signed_mean_weight": -0.0956752,
          "l2_weight": 0.11819605
        },
        {
          "rank": 10,
          "channel_index": 58,
          "channel_name": "Oz",
          "abs_mean_weight": 0.08860762,
          "signed_mean_weight": -0.02823352,
          "l2_weight": 0.09448127
        },
        {
          "rank": 11,
          "channel_index": 19,
          "channel_name": "FC2",
          "abs_mean_weight": 0.08845012,
          "signed_mean_weight": 0.0583258,
          "l2_weight": 0.09055648
        },
        {
          "rank": 12,
          "channel_index": 13,
          "channel_name": "F8",
          "abs_mean_weight": 0.08759089,
          "signed_mean_weight": 0.0496074,
          "l2_weight": 0.089758
        },
        {
          "rank": 13,
          "channel_index": 46,
          "channel_name": "P2",
          "abs_mean_weight": 0.08606103,
          "signed_mean_weight": -0.02023024,
          "l2_weight": 0.09102838
        },
        {
          "rank": 14,
          "channel_index": 4,
          "channel_name": "AF4",
          "abs_mean_weight": 0.08135153,
          "signed_mean_weight": -0.00172105,
          "l2_weight": 0.10093073
        },
        {
          "rank": 15,
          "channel_index": 56,
          "channel_name": "PO8",
          "abs_mean_weight": 0.0800237,
          "signed_mean_weight": -0.00795834,
          "l2_weight": 0.08419751
        }
      ]
    },
    "spatial_update_stats": {
      "available": true,
      "parameter_name": "spatial_conv.1.weight",
      "initial_shape": [
        4,
        60
      ],
      "final_shape": [
        4,
        60
      ],
      "initial_l2": 1.1395002,
      "final_l2": 1.20112882,
      "delta_l2": 0.63958208,
      "delta_max_abs": 0.14553453,
      "relative_delta": 0.56128299,
      "changed": true
    },
    "subject_id": "1"
  },
  {
    "fold_id": 3,
    "fold_label": "subject=1",
    "model_name": "SignalJEPA_PreLocal",
    "strategy": "new",
    "warmup_epochs": 10,
    "n_train": 128,
    "n_test": 32,
    "train_class_counts": [
      64,
      64
    ],
    "test_class_counts": [
      16,
      16
    ],
    "pretrained_load": {
      "loading_path": "from_pretrained",
      "repo_id": "braindecode/signal-jepa_without-chans",
      "mode": "from_pretrained",
      "model_name": "SignalJEPA_PreLocal"
    },
    "phase_1_trainable_groups": [
      "spatial_conv.",
      "final_layer."
    ],
    "phase_1_trainable_params": 2294,
    "phase_1_trainable_names": [
      "spatial_conv.1.weight",
      "spatial_conv.1.bias",
      "final_layer.1.weight",
      "final_layer.1.bias"
    ],
    "phase_2_trainable_groups": null,
    "phase_2_trainable_params": null,
    "phase_2_trainable_names": null,
    "final_trainable_parameters": [
      {
        "name": "feature_encoder.1.0.weight",
        "shape": [
          8,
          1,
          32
        ],
        "num_params": 256,
        "requires_grad": false
      },
      {
        "name": "feature_encoder.1.2.weight",
        "shape": [
          8
        ],
        "num_params": 8,
        "requires_grad": false
      },
      {
        "name": "feature_encoder.1.2.bias",
        "shape": [
          8
        ],
        "num_params": 8,
        "requires_grad": false
      },
      {
        "name": "feature_encoder.2.0.weight",
        "shape": [
          16,
          8,
          2
        ],
        "num_params": 256,
        "requires_grad": false
      },
      {
        "name": "feature_encoder.3.0.weight",
        "shape": [
          32,
          16,
          2
        ],
        "num_params": 1024,
        "requires_grad": false
      },
      {
        "name": "feature_encoder.4.0.weight",
        "shape": [
          64,
          32,
          2
        ],
        "num_params": 4096,
        "requires_grad": false
      },
      {
        "name": "feature_encoder.5.0.weight",
        "shape": [
          64,
          64,
          2
        ],
        "num_params": 8192,
        "requires_grad": false
      },
      {
        "name": "spatial_conv.1.weight",
        "shape": [
          4,
          1,
          60,
          1
        ],
        "num_params": 240,
        "requires_grad": true
      },
      {
        "name": "spatial_conv.1.bias",
        "shape": [
          4
        ],
        "num_params": 4,
        "requires_grad": true
      },
      {
        "name": "final_layer.1.weight",
        "shape": [
          2,
          1024
        ],
        "num_params": 2048,
        "requires_grad": true
      },
      {
        "name": "final_layer.1.bias",
        "shape": [
          2
        ],
        "num_params": 2,
        "requires_grad": true
      }
    ],
    "n_trainable_params_final": 2294,
    "best_epoch": 22,
    "stopped_epoch": 50,
    "best_valid_loss": 0.6901134252548218,
    "accuracy": 0.5625,
    "balanced_accuracy": 0.5625,
    "confusion_matrix": [
      [
        6,
        10
      ],
      [
        4,
        12
      ]
    ],
    "prediction_histogram": [
      10,
      22
    ],
    "collapse_diagnostics": {
      "prediction_histogram": [
        10,
        22
      ],
      "collapse_ratio": 0.6875,
      "collapse_threshold": 0.9,
      "collapse_flag": false,
      "majority_predicted_class": 1
    },
    "probability_diagnostics": {
      "available": true,
      "probability_shape": [
        32,
        2
      ],
      "mean_probability_by_class": [
        0.44837195,
        0.55162805
      ],
      "std_probability_by_class": [
        0.10926059,
        0.10926059
      ],
      "mean_confidence": 0.60108893,
      "std_confidence": 0.06621451,
      "mean_prediction_entropy": 0.66329023,
      "mean_normalized_prediction_entropy": 0.95692552,
      "mean_predicted_class_probability": 0.60108893
    },
    "spatial_conv_initial": {
      "available": true,
      "parameter_name": "spatial_conv.1.weight",
      "raw_weight_shape": [
        4,
        1,
        60,
        1
      ],
      "weight_matrix_shape": [
        4,
        60
      ],
      "n_virtual_filters": 4,
      "n_input_channels": 60,
      "channel_names": [
        "Fp1",
        "Fpz",
        "Fp2",
        "AF3",
        "AF4",
        "F7",
        "F5",
        "F3",
        "F1",
        "Fz",
        "F2",
        "F4",
        "F6",
        "F8",
        "FT7",
        "FC5",
        "FC3",
        "FC1",
        "FCz",
        "FC2",
        "FC4",
        "FC6",
        "FT8",
        "T7",
        "C5",
        "C3",
        "C1",
        "Cz",
        "C2",
        "C4",
        "C6",
        "T8",
        "TP7",
        "CP5",
        "CP3",
        "CP1",
        "CPz",
        "CP2",
        "CP4",
        "CP6",
        "TP8",
        "P7",
        "P5",
        "P3",
        "P1",
        "Pz",
        "P2",
        "P4",
        "P6",
        "P8",
        "PO7",
        "PO5",
        "PO3",
        "POz",
        "PO4",
        "PO6",
        "PO8",
        "O1",
        "Oz",
        "O2"
      ],
      "weight_matrix": [
        [
          0.09860362,
          0.02757107,
          -0.00453342,
          -0.04340911,
          0.02576071,
          0.06880875,
          0.0960246,
          0.04289424,
          -0.07277799,
          0.09152263,
          0.05239789,
          -0.08542095,
          0.01087321,
          0.12446697,
          -0.08788451,
          0.11290868,
          -0.05113648,
          0.00419681,
          0.00290361,
          0.03044201,
          -0.10243709,
          0.11921524,
          -0.03911539,
          0.04228823,
          0.10331213,
          0.08389606,
          -0.01665223,
          0.01591225,
          -0.03120496,
          0.06290273,
          -0.09196522,
          0.09813812,
          0.01074813,
          0.00808492,
          -0.07376412,
          -0.10413817,
          -0.062893,
          -0.06088749,
          -0.12183961,
          0.12901251,
          0.03479216,
          -0.07470614,
          0.05674176,
          0.12395246,
          -0.0290658,
          -0.05614749,
          -0.10394765,
          0.11709003,
          -0.08659275,
          0.09497562,
          -0.0239225,
          -0.07232979,
          0.01411721,
          -0.12062103,
          -0.10999423,
          0.0829183,
          0.06248488,
          0.06250216,
          0.12028129,
          -0.08014211
        ],
        [
          0.01009926,
          0.0087412,
          -0.00977896,
          0.08421583,
          0.04553671,
          0.11333744,
          0.0909525,
          -0.11484723,
          -0.11017934,
          0.05184568,
          0.05248089,
          0.11000124,
          -0.00147277,
          0.10807167,
          -0.01666692,
          -0.03505213,
          -0.07999703,
          0.09310645,
          0.0278822,
          0.12351443,
          0.03080638,
          -0.09881285,
          0.02723894,
          -0.00470403,
          -0.04697136,
          0.03006224,
          0.10474245,
          0.03595626,
          -0.04673435,
          0.08497576,
          -0.04740096,
          0.07026555,
          0.02335858,
          0.03381139,
          0.10128237,
          0.09403583,
          0.12373872,
          0.06473045,
          -0.09133916,
          0.06924331,
          -0.04601314,
          -0.05847561,
          0.0647402,
          0.08305502,
          -0.07227547,
          0.11441143,
          -0.05989631,
          -0.07397005,
          -0.10722409,
          -0.05097675,
          0.07102665,
          0.05539307,
          0.02983716,
          -0.09010918,
          -0.02183408,
          -0.11826871,
          -0.11102631,
          -0.03497604,
          -0.12786898,
          -0.03197727
        ],
        [
          0.04709473,
          0.02920434,
          -0.05418927,
          0.10976914,
          -0.12658985,
          0.00878382,
          -0.04467642,
          -0.04240006,
          -0.00666616,
          0.10525598,
          -0.0294892,
          0.08200011,
          0.09430724,
          -0.06121391,
          -0.00176534,
          0.06909451,
          0.10997215,
          0.08174603,
          -0.02376501,
          -0.07964359,
          -0.0774474,
          0.01633754,
          0.11415614,
          -0.06285675,
          0.0570755,
          0.02552816,
          0.07502529,
          -0.01806435,
          -0.05698903,
          -0.06936607,
          -0.03224508,
          0.09792642,
          -0.01748952,
          -0.00407872,
          -0.08633603,
          -0.05719286,
          0.07931304,
          0.02280134,
          -0.04839899,
          0.01430883,
          0.07498378,
          -0.10826348,
          -0.05108214,
          0.00344549,
          -0.0129722,
          0.12906928,
          0.10434645,
          -0.02263926,
          -0.11671187,
          -0.09633882,
          0.04830891,
          0.08607472,
          -0.08869911,
          0.01658894,
          -0.09075859,
          0.06495057,
          0.11313045,
          -0.09842119,
          -0.03621754,
          0.08533759
        ],
        [
          0.12180255,
          -0.00603986,
          0.11095531,
          -0.12369663,
          0.10324408,
          -0.04422085,
          -0.06285778,
          -0.00306022,
          -0.12783846,
          0.03429446,
          -0.01821135,
          -0.02381252,
          -0.07222682,
          0.06508011,
          -0.10177355,
          0.01723605,
          -0.03398101,
          0.05306143,
          0.003645,
          0.08476456,
          0.00781615,
          -0.10806764,
          -0.04963005,
          0.0397224,
          -0.03605769,
          -0.05288761,
          0.1004701,
          -0.08451293,
          -0.03914668,
          -0.02354313,
          -0.07526991,
          -0.00433752,
          0.01454157,
          -0.0221094,
          -0.11260715,
          0.03097835,
          0.1044676,
          -0.05688865,
          -0.01832165,
          -0.08687175,
          0.07566848,
          -0.05502742,
          -0.08429559,
          0.12045878,
          -0.05579505,
          0.04463868,
          -0.09179308,
          0.07205968,
          -0.04402351,
          0.1097022,
          0.02096228,
          0.10205078,
          0.03712666,
          0.10450509,
          0.01452936,
          -0.0240638,
          -0.08278716,
          0.02288513,
          -0.1179,
          0.06873485
        ]
      ],
      "weight_matrix_norm": [
        [
          0.76429504,
          0.21370848,
          -0.03513936,
          -0.33647209,
          0.19967607,
          0.53334945,
          0.7443046,
          0.33248127,
          -0.5641157,
          0.709409,
          0.40614581,
          -0.66211373,
          0.0842803,
          0.96476668,
          -0.68120921,
          0.87517619,
          -0.39636838,
          0.03253024,
          0.02250643,
          0.23596172,
          -0.79400897,
          0.92405951,
          -0.30319068,
          0.32778394,
          0.80079162,
          0.65029395,
          -0.12907457,
          0.12333881,
          -0.24187547,
          0.48757079,
          -0.71283954,
          0.76068687,
          0.08331078,
          0.06266774,
          -0.5717594,
          -0.80719429,
          -0.48749539,
          -0.47195029,
          -0.9444015,
          1.0,
          0.26968047,
          -0.57906121,
          0.43981594,
          0.96077865,
          -0.22529446,
          -0.43520969,
          -0.80571765,
          0.90758663,
          -0.67119652,
          0.73617375,
          -0.18542773,
          -0.56064165,
          0.10942513,
          -0.93495607,
          -0.85258579,
          0.64271522,
          0.48433191,
          0.4844659,
          0.93232274,
          -0.62119645
        ],
        [
          0.07898133,
          0.0683606,
          -0.07647642,
          0.65861034,
          0.35612008,
          0.88635606,
          0.71129447,
          -0.89816332,
          -0.8616581,
          0.40545943,
          0.41042706,
          0.8602652,
          -0.01151781,
          0.84517503,
          -0.13034372,
          -0.27412534,
          -0.62561715,
          0.72813946,
          0.21805291,
          0.96594518,
          0.24092142,
          -0.77276635,
          0.21302223,
          -0.03678788,
          -0.36733973,
          0.23510192,
          0.81913888,
          0.28119615,
          -0.3654862,
          0.6645534,
          -0.37069944,
          0.54951203,
          0.18267591,
          0.26442215,
          0.79207933,
          0.73540771,
          0.96769929,
          0.50622481,
          -0.71431839,
          0.54151767,
          -0.359846,
          -0.45730877,
          0.50630105,
          0.6495322,
          -0.56523073,
          0.89475513,
          -0.46841934,
          -0.57848316,
          -0.83854657,
          -0.39866391,
          0.55546427,
          0.43320179,
          0.23334166,
          -0.70469934,
          -0.17075349,
          -0.92492104,
          -0.86828178,
          -0.2735303,
          -1.0,
          -0.25007838
        ],
        [
          0.36487949,
          0.22626869,
          -0.41984639,
          0.85046679,
          -0.9807899,
          0.06805506,
          -0.34614295,
          -0.32850623,
          -0.05164793,
          0.81549978,
          -0.22847578,
          0.63531852,
          0.73067147,
          -0.47427171,
          -0.01367746,
          0.53532881,
          0.85203964,
          0.63334996,
          -0.18412602,
          -0.61706078,
          -0.60004514,
          0.12657964,
          0.88445628,
          -0.48700005,
          0.44220823,
          0.19778651,
