[
  {
    "subject_id": "1",
    "fold_id": 1,
    "accuracy": 0.65625,
    "balanced_accuracy": 0.65625,
    "prediction_histogram": [
      7,
      25
    ],
    "collapse_diagnostics": {
      "prediction_histogram": [
        7,
        25
      ],
      "collapse_ratio": 0.78125,
      "collapse_threshold": 0.9,
      "collapse_flag": false,
      "majority_predicted_class": 1
    },
    "probability_diagnostics": {
      "available": true,
      "probability_shape": [
        32,
        2
      ],
      "mean_probability_by_class": [
        0.49685047,
        0.50314954
      ],
      "std_probability_by_class": [
        0.00369403,
        0.00369403
      ],
      "mean_confidence": 0.50409723,
      "std_confidence": 0.00260347,
      "mean_prediction_entropy": 0.69310005,
      "mean_normalized_prediction_entropy": 0.999932,
      "mean_predicted_class_probability": 0.50409723
    },
    "spatial_update_stats": {
      "available": true,
      "parameter_name": "spatial_conv.1.weight",
      "initial_shape": [
        4,
        60
      ],
      "final_shape": [
        4,
        60
      ],
      "initial_l2": 1.1395002,
      "final_l2": 1.13811211,
      "delta_l2": 0.03364625,
      "delta_max_abs": 0.00300453,
      "relative_delta": 0.0295272,
      "changed": true
    },
    "n_trainable_params_final": 4342,
    "spatial_conv": {
      "available": true,
      "parameter_name": "spatial_conv.1.weight",
      "raw_weight_shape": [
        4,
        1,
        60,
        1
      ],
      "weight_matrix_shape": [
        4,
        60
      ],
      "n_virtual_filters": 4,
      "n_input_channels": 60,
      "channel_names": [
        "Fp1",
        "Fpz",
        "Fp2",
        "AF3",
        "AF4",
        "F7",
        "F5",
        "F3",
        "F1",
        "Fz",
        "F2",
        "F4",
        "F6",
        "F8",
        "FT7",
        "FC5",
        "FC3",
        "FC1",
        "FCz",
        "FC2",
        "FC4",
        "FC6",
        "FT8",
        "T7",
        "C5",
        "C3",
        "C1",
        "Cz",
        "C2",
        "C4",
        "C6",
        "T8",
        "TP7",
        "CP5",
        "CP3",
        "CP1",
        "CPz",
        "CP2",
        "CP4",
        "CP6",
        "TP8",
        "P7",
        "P5",
        "P3",
        "P1",
        "Pz",
        "P2",
        "P4",
        "P6",
        "P8",
        "PO7",
        "PO5",
        "PO3",
        "POz",
        "PO4",
        "PO6",
        "PO8",
        "O1",
        "Oz",
        "O2"
      ],
      "weight_matrix": [
        [
          0.10034524,
          0.02938192,
          -0.00456422,
          -0.04323592,
          0.02659084,
          0.07057016,
          0.09826916,
          0.04569662,
          -0.07015461,
          0.09424189,
          0.0549972,
          -0.08268736,
          0.01000196,
          0.12180214,
          -0.08866239,
          0.11459055,
          -0.04851675,
          0.00475947,
          0.0058176,
          0.03330359,
          -0.09985935,
          0.1163975,
          -0.04182038,
          0.04056625,
          0.10541872,
          0.08676442,
          -0.01381986,
          0.01869385,
          -0.02864695,
          0.06562856,
          -0.08921515,
          0.1003383,
          0.0078385,
          0.01064729,
          -0.07088022,
          -0.10121498,
          -0.06097414,
          -0.05816613,
          -0.11925742,
          0.12932825,
          0.03186673,
          -0.0776593,
          0.0577924,
          0.12676868,
          -0.02611686,
          -0.05421904,
          -0.10140031,
          0.11739576,
          -0.08771662,
          0.09278302,
          -0.0265545,
          -0.07416393,
          0.01695341,
          -0.11788914,
          -0.10939844,
          0.08134808,
          0.06092038,
          0.06507596,
          0.1230768,
          -0.07754405
        ],
        [
          0.01250012,
          0.00805147,
          -0.00682892,
          0.08697132,
          0.04268117,
          0.11570831,
          0.09375996,
          -0.11451805,
          -0.11022972,
          0.05196731,
          0.05217385,
          0.10871714,
          -0.00414601,
          0.10809747,
          -0.01374209,
          -0.03224586,
          -0.08051715,
          0.09253804,
          0.02772366,
          0.12092116,
          0.02820437,
          -0.10147966,
          0.02740392,
          -0.00443133,
          -0.04478038,
          0.02884026,
          0.10337256,
          0.03623064,
          -0.04972658,
          0.08208378,
          -0.04529315,
          0.07259582,
          0.02356361,
          0.03628981,
          0.10032226,
          0.09268831,
          0.12074038,
          0.06179547,
          -0.09423602,
          0.07173755,
          -0.04513725,
          -0.05816959,
          0.06742145,
          0.08594865,
          -0.07383086,
          0.11148893,
          -0.0625799,
          -0.07603189,
          -0.10768186,
          -0.04896636,
          0.073534,
          0.05768394,
          0.03186069,
          -0.09294661,
          -0.02343146,
          -0.12094476,
          -0.11368063,
          -0.03198308,
          -0.12507324,
          -0.02897321
        ],
        [
          0.04864221,
          0.0261998,
          -0.05209643,
          0.1116877,
          -0.12757868,
          0.00591644,
          -0.04371171,
          -0.04535215,
          -0.00966202,
          0.10229918,
          -0.03238176,
          0.0790626,
          0.09216733,
          -0.05857435,
          -0.00418388,
          0.0665904,
          0.10713638,
          0.07876735,
          -0.0266647,
          -0.08243346,
          -0.08027274,
          0.01913661,
          0.11462506,
          -0.06019298,
          0.05969625,
          0.02313803,
          0.07271888,
          -0.02089238,
          -0.05966104,
          -0.07208455,
          -0.02997918,
          0.09702089,
          -0.0171811,
          -0.0011722,
          -0.08822042,
          -0.0595202,
          0.07713495,
          0.02030265,
          -0.05102007,
          0.01708697,
          0.07788473,
          -0.10529952,
          -0.05385795,
          0.00639687,
          -0.01428381,
          0.12667438,
          0.10176342,
          -0.02372348,
          -0.11377621,
          -0.09336312,
          0.05054828,
          0.08897352,
          -0.08570176,
          0.01422575,
          -0.08793123,
          0.06794887,
          0.11612818,
          -0.09594529,
          -0.03356951,
          0.08805129
        ],
        [
          0.11937408,
          -0.00738241,
          0.10811608,
          -0.12311993,
          0.10035876,
          -0.04444173,
          -0.06554991,
          -0.00526444,
          -0.12897103,
          0.03392993,
          -0.0181486,
          -0.02479395,
          -0.07360576,
          0.06219607,
          -0.10278554,
          0.01480811,
          -0.03542129,
          0.05171819,
          0.00375977,
          0.08391065,
          0.0069453,
          -0.10812325,
          -0.05240885,
          0.04083823,
          -0.03507959,
          -0.05404801,
          0.09865863,
          -0.08237674,
          -0.04013562,
          -0.02461466,
          -0.07317047,
          -0.00341357,
          0.0147721,
          -0.02082139,
          -0.11370973,
          0.02970746,
          0.1035057,
          -0.05823982,
          -0.01955084,
          -0.08503219,
          0.07602398,
          -0.05472402,
          -0.08383299,
          0.12200052,
          -0.0530475,
          0.04354103,
          -0.09276298,
          0.07169349,
          -0.0421003,
          0.11079518,
          0.02329753,
          0.1032782,
          0.03926625,
          0.1064178,
          0.01635576,
          -0.0227464,
          -0.08149201,
          0.02472833,
          -0.11597029,
          0.07106464
        ]
      ],
      "weight_matrix_norm": [
        [
          0.77589571,
          0.22718872,
          -0.03529176,
          -0.33431149,
          0.2056074,
          0.54566699,
          0.75984299,
          0.35333824,
          -0.54245383,
          0.72870302,
          0.4252528,
          -0.63936043,
          0.07733777,
          0.94180608,
          -0.68556088,
          0.8860442,
          -0.37514424,
          0.03680144,
          0.04498323,
          0.25751209,
          -0.77213871,
          0.90001601,
          -0.32336614,
          0.31366891,
          0.81512523,
          0.67088526,
          -0.10685879,
          0.14454578,
          -0.22150572,
          0.50745726,
          -0.68983501,
          0.77584213,
          0.06060932,
          0.08232767,
          -0.54806447,
          -0.78262079,
          -0.47146806,
          -0.44975582,
          -0.92212969,
          1.0,
          0.24640192,
          -0.60048211,
          0.44686601,
          0.98020869,
          -0.2019424,
          -0.41923586,
          -0.7840538,
          0.90773481,
          -0.67824793,
          0.71742266,
          -0.20532638,
          -0.57345498,
          0.13108824,
          -0.91154981,
          -0.84589744,
          0.62900478,
          0.47105241,
          0.50318438,
          0.95166218,
          -0.59959096
        ],
        [
          0.09994242,
          0.06437407,
          -0.0545994,
          0.69536316,
          0.34124938,
          0.92512441,
          0.74964046,
          -0.91560793,
          -0.88132137,
          0.41549501,
          0.41714641,
          0.86922783,
          -0.03314862,
          0.86427337,
          -0.10987236,
          -0.25781584,
          -0.64376003,
          0.73987079,
          0.22165938,
          0.96680284,
          0.22550286,
          -0.81136191,
          0.21910296,
          -0.03542988,
          -0.35803327,
          0.23058696,
          0.82649624,
          0.28967541,
          -0.3975797,
          0.65628576,
          -0.362133,
          0.58042645,
          0.18839848,
          0.2901485,
          0.80210811,
          0.7410723,
          0.96535748,
          0.49407429,
          -0.7534467,
          0.57356435,
          -0.36088657,
          -0.46508422,
          0.53905576,
          0.68718654,
          -0.59030098,
          0.89138919,
          -0.50034606,
          -0.60789895,
          -0.86095041,
          -0.39150152,
          0.58792752,
          0.46120134,
          0.2547363,
          -0.74313748,
          -0.18734194,
          -0.96699148,
          -0.90891248,
          -0.25571483,
          -1.0,
          -0.23164995
        ],
        [
          0.38127223,
          0.20536195,
          -0.40834746,
          0.87544179,
          -1.0,
          0.04637483,
          -0.34262556,
          -0.35548374,
          -0.0757338,
          0.80185175,
          -0.25381798,
          0.61971647,
          0.72243518,
          -0.45912334,
          -0.03279453,
          0.52195555,
          0.8397671,
          0.6174022,
          -0.20900591,
          -0.64613825,
          -0.62920189,
          0.14999853,
          0.89846563,
          -0.4718107,
          0.46791711,
          0.18136281,
          0.56999242,
          -0.16376075,
          -0.46764114,
          -0.56502032,
          -0.23498583,
          0.76047885,
          -0.13467062,
          -0.00918806,
          -0.69149816,
          -0.46653724,
          0.60460693,
          0.15913825,
          -0.39991069,
          0.1339328,
          0.61048388,
          -0.82536924,
          -0.42215481,
          0.05014058,
          -0.11196076,
          0.99291188,
          0.79765224,
          -0.18595177,
          -0.89181209,
          -0.73180819,
          0.39621258,
          0.69740123,
          -0.67175615,
          0.11150571,
          -0.6892314,
          0.53260368,
          0.91024762,
          -0.75204802,
          -0.26312792,
          0.69017249
        ],
        [
          0.92558837,
          -0.05724084,
          0.83829749,
          -0.95463246,
          0.77814966,
          -0.34458691,
          -0.50825298,
          -0.0408188,
          -1.0,
          0.26308176,
          -0.1407184,
          -0.19224434,
          -0.57071549,
          0.4822484,
          -0.79696614,
          0.11481737,
          -0.2746453,
          0.40100628,
          0.02915209,
          0.65061629,
          0.05385164,
          -0.83835304,
          -0.40636143,
          0.31664652,
          -0.2719959,
          -0.4190709,
          0.76496738,
          -0.63872284,
          -0.31119874,
          -0.19085421,
          -0.56734037,
          -0.02646774,
          0.1145381,
          -0.16144235,
          -0.88166881,
          0.23034209,
          0.80255002,
          -0.4515729,
          -0.15159097,
          -0.65931231,
          0.58946556,
          -0.42431247,
          -0.65001416,
          0.94595289,
          -0.41131335,
          0.33760315,
          -0.71925443,
          0.55588835,
          -0.3264322,
          0.8590703,
          0.18064155,
          0.80078608,
          0.3044579,
          0.82512957,
          0.12681735,
          -0.17636827,
          -0.63186288,
          0.19173555,
          -0.89919645,
          0.55101246
        ]
      ],
      "channel_abs_mean": [
        0.07021541,
        0.0177539,
        0.04290141,
        0.09125372,
        0.07430236,
        0.05915916,
        0.07532269,
        0.05270781,
        0.07975434,
        0.07060958,
        0.03942535,
        0.07381526,
        0.04498027,
        0.08766751,
        0.05234348,
        0.05705873,
        0.06789789,
        0.05694576,
        0.01599143,
        0.08014221,
        0.05382044,
        0.08628426,
        0.05906455,
        0.0365072,
        0.06124374,
        0.04819768,
        0.07214248,
        0.0395484,
        0.04454254,
        0.06110289,
        0.05941449,
        0.06834214,
        0.01583882,
        0.01723267,
        0.09328316,
        0.07078274,
        0.09058879,
        0.04962602,
        0.07101609,
        0.07579624,
        0.05772818,
        0.07396311,
        0.0657262,
        0.08527867,
        0.04181975,
        0.08398084,
        0.08962665,
        0.07221116,
        0.08781874,
        0.08647692,
        0.04348358,
        0.0810249,
        0.04344553,
        0.08286983,
        0.05927923,
        0.07324702,
        0.0930553,
        0.05443317,
        0.09942246,
        0.0664083
      ],
      "channel_signed_mean": [
        0.07021541,
        0.0140627,
        0.01115663,
        0.00807579,
        0.01051302,
        0.03693829,
        0.02069187,
        -0.02985951,
        -0.07975434,
        0.07060958,
        0.01416017,
        0.02007461,
        0.00610438,
        0.05838034,
        -0.05234348,
        0.0409358,
        -0.0143297,
        0.05694576,
        0.00265908,
        0.03892548,
        -0.0362456,
        -0.0185172,
        0.01194994,
        0.00419504,
        0.02131375,
        0.02117367,
        0.06523255,
        -0.01208616,
        -0.04454254,
        0.01275329,
        -0.05941449,
        0.06663536,
        0.00724828,
        0.00623588,
        -0.04312203,
        -0.00958485,
        0.06010173,
        -0.00857696,
        -0.07101609,
        0.03328015,
        0.03515955,
        -0.07396311,
        -0.00311927,
        0.08527867,
        -0.04181975,
        0.05687132,
        -0.03874495,
        0.02233347,
        -0.08781874,
        0.01531218,
        0.03020632,
        0.04394294,
        0.00059465,
        -0.02254805,
        -0.05110134,
        0.00140145,
        -0.00453102,
        -0.00953102,
        -0.03788406,
        0.01314967
      ],
      "channel_l2": [
        0.08191711,
        0.02042702,
        0.06014689,
        0.09626269,
        0.0849661,
        0.07137687,
        0.07850998,
        0.0657402,
        0.09192272,
        0.07615526,
        0.04220412,
        0.07987843,
        0.05922384,
        0.09195125,
        0.06824998,
        0.06860093,
        0.07343323,
        0.06607762,
        0.01954218,
        0.08597577,
        0.06568737,
        0.09474089,
        0.06779659,
        0.04170196,
        0.06691899,
        0.05435159,
        0.08046495,
        0.04712891,
        0.04599915,
        0.06489784,
        0.06376418,
        0.07868074,
        0.01680841,
        0.02159409,
        0.09460617,
        0.07625743,
        0.09348705,
        0.05245487,
        0.08075897,
        0.08572414,
        0.06102978,
        0.07664426,
        0.06673504,
        0.09795728,
        0.04783082,
        0.09125748,
        0.09104811,
        0.07947543,
        0.092205,
        0.08944081,
        0.04798514,
        0.08278044,
        0.05047067,
        0.09228224,
        0.07161785,
        0.08120898,
        0.09586616,
        0.06138971,
        0.10649793,
        0.07009947
      ],
      "top_channels_by_abs_weight": [
        {
          "rank": 1,
          "channel_index": 58,
          "channel_name": "Oz",
          "abs_mean_weight": 0.09942246,
          "signed_mean_weight": -0.03788406,
          "l2_weight": 0.10649793
        },
        {
          "rank": 2,
          "channel_index": 34,
          "channel_name": "CP3",
          "abs_mean_weight": 0.09328316,
          "signed_mean_weight": -0.04312203,
          "l2_weight": 0.09460617
        },
        {
          "rank": 3,
          "channel_index": 56,
          "channel_name": "PO8",
          "abs_mean_weight": 0.0930553,
          "signed_mean_weight": -0.00453102,
          "l2_weight": 0.09586616
        },
        {
          "rank": 4,
          "channel_index": 3,
          "channel_name": "AF3",
          "abs_mean_weight": 0.09125372,
          "signed_mean_weight": 0.00807579,
          "l2_weight": 0.09626269
        },
        {
          "rank": 5,
          "channel_index": 36,
          "channel_name": "CPz",
          "abs_mean_weight": 0.09058879,
          "signed_mean_weight": 0.06010173,
          "l2_weight": 0.09348705
        },
        {
          "rank": 6,
          "channel_index": 46,
          "channel_name": "P2",
          "abs_mean_weight": 0.08962665,
          "signed_mean_weight": -0.03874495,
          "l2_weight": 0.09104811
        },
        {
          "rank": 7,
          "channel_index": 48,
          "channel_name": "P6",
          "abs_mean_weight": 0.08781874,
          "signed_mean_weight": -0.08781874,
          "l2_weight": 0.092205
        },
        {
          "rank": 8,
          "channel_index": 13,
          "channel_name": "F8",
          "abs_mean_weight": 0.08766751,
          "signed_mean_weight": 0.05838034,
          "l2_weight": 0.09195125
        },
        {
          "rank": 9,
          "channel_index": 49,
          "channel_name": "P8",
          "abs_mean_weight": 0.08647692,
          "signed_mean_weight": 0.01531218,
          "l2_weight": 0.08944081
        },
        {
          "rank": 10,
          "channel_index": 21,
          "channel_name": "FC6",
          "abs_mean_weight": 0.08628426,
          "signed_mean_weight": -0.0185172,
          "l2_weight": 0.09474089
        },
        {
          "rank": 11,
          "channel_index": 43,
          "channel_name": "P3",
          "abs_mean_weight": 0.08527867,
          "signed_mean_weight": 0.08527867,
          "l2_weight": 0.09795728
        },
        {
          "rank": 12,
          "channel_index": 45,
          "channel_name": "Pz",
          "abs_mean_weight": 0.08398084,
          "signed_mean_weight": 0.05687132,
          "l2_weight": 0.09125748
        },
        {
          "rank": 13,
          "channel_index": 53,
          "channel_name": "POz",
          "abs_mean_weight": 0.08286983,
          "signed_mean_weight": -0.02254805,
          "l2_weight": 0.09228224
        },
        {
          "rank": 14,
          "channel_index": 51,
          "channel_name": "PO5",
          "abs_mean_weight": 0.0810249,
          "signed_mean_weight": 0.04394294,
          "l2_weight": 0.08278044
        },
        {
          "rank": 15,
          "channel_index": 19,
          "channel_name": "FC2",
          "abs_mean_weight": 0.08014221,
          "signed_mean_weight": 0.03892548,
          "l2_weight": 0.08597577
        }
      ]
    }
  },
  {
    "subject_id": "1",
    "fold_id": 2,
    "accuracy": 0.40625,
    "balanced_accuracy": 0.40625,
    "prediction_histogram": [
      15,
      17
    ],
    "collapse_diagnostics": {
      "prediction_histogram": [
        15,
        17
      ],
      "collapse_ratio": 0.53125,
      "collapse_threshold": 0.9,
      "collapse_flag": false,
      "majority_predicted_class": 1
    },
    "probability_diagnostics": {
      "available": true,
      "probability_shape": [
        32,
        2
      ],
      "mean_probability_by_class": [
        0.51160008,
        0.48839992
      ],
      "std_probability_by_class": [
        0.15127466,
        0.15127466
      ],
      "mean_confidence": 0.61936704,
      "std_confidence": 0.09364879,
      "mean_prediction_entropy": 0.64471097,
      "mean_normalized_prediction_entropy": 0.93012131,
      "mean_predicted_class_probability": 0.61936704
    },
    "spatial_update_stats": {
      "available": true,
      "parameter_name": "spatial_conv.1.weight",
      "initial_shape": [
        4,
        60
      ],
      "final_shape": [
        4,
        60
      ],
      "initial_l2": 1.1395002,
      "final_l2": 1.241833,
      "delta_l2": 0.82064752,
      "delta_max_abs": 0.20520776,
      "relative_delta": 0.72018199,
      "changed": true
    },
    "n_trainable_params_final": 4342,
    "spatial_conv": {
      "available": true,
      "parameter_name": "spatial_conv.1.weight",
      "raw_weight_shape": [
        4,
        1,
        60,
        1
      ],
      "weight_matrix_shape": [
        4,
        60
      ],
      "n_virtual_filters": 4,
      "n_input_channels": 60,
      "channel_names": [
        "Fp1",
        "Fpz",
        "Fp2",
        "AF3",
        "AF4",
        "F7",
        "F5",
        "F3",
        "F1",
        "Fz",
        "F2",
        "F4",
        "F6",
        "F8",
        "FT7",
        "FC5",
        "FC3",
        "FC1",
        "FCz",
        "FC2",
        "FC4",
        "FC6",
        "FT8",
        "T7",
        "C5",
        "C3",
        "C1",
        "Cz",
        "C2",
        "C4",
        "C6",
        "T8",
        "TP7",
        "CP5",
        "CP3",
        "CP1",
        "CPz",
        "CP2",
        "CP4",
        "CP6",
        "TP8",
        "P7",
        "P5",
        "P3",
        "P1",
        "Pz",
        "P2",
        "P4",
        "P6",
        "P8",
        "PO7",
        "PO5",
        "PO3",
        "POz",
        "PO4",
        "PO6",
        "PO8",
        "O1",
        "Oz",
        "O2"
      ],
      "weight_matrix": [
        [
          0.04236389,
          0.08463065,
          0.04690043,
          -0.13734709,
          0.01297969,
          0.16649139,
          -0.00933447,
          0.0490687,
          0.01179014,
          0.14007235,
          0.08541994,
          -0.17841536,
          -0.08882253,
          0.0556899,
          -0.20749506,
          0.00921231,
          -0.02231551,
          0.10286126,
          -0.0027419,
          0.12002955,
          -0.04982829,
          0.01774463,
          0.00325147,
          -0.0486415,
          0.13134669,
          0.07178862,
          0.05626697,
          0.02486562,
          0.02409003,
          0.17197911,
          -0.12501259,
          -0.02418735,
          0.09595673,
          -0.02045141,
          -0.11239405,
          -0.12753516,
          -0.11188897,
          -0.04008542,
          0.00732067,
          0.09262984,
          0.02129912,
          -0.07630575,
          0.01939189,
          0.02401431,
          -0.10260338,
          -0.04678398,
          -0.03776977,
          0.16565217,
          -0.03359872,
          0.0574587,
          0.00333617,
          -0.03860308,
          -0.0465232,
          -0.07667827,
          -0.09702637,
          0.02895841,
          0.00982917,
          0.1306778,
          0.03208994,
          0.06074055
        ],
        [
          -0.01724587,
          0.03383404,
          0.01380044,
          0.04551603,
          0.00199714,
          0.06802997,
          0.14966807,
          -0.08634587,
          -0.06597761,
          0.06545863,
          0.00393923,
          0.11187523,
          -0.10644738,
          0.07023098,
          0.14580388,
          -0.03742065,
          -0.08709852,
          0.18133651,
          0.04786137,
          0.11326288,
          0.00055225,
          -0.04629493,
          -0.04510211,
          -0.0435449,
          -0.04381187,
          0.003263,
          -0.0039765,
          -0.00377841,
          -0.03506012,
          0.04539143,
          -0.09212171,
          0.03452307,
          0.03198713,
          0.08453462,
          -0.00655627,
          0.09447157,
          0.15379508,
          0.05172722,
          -0.13280353,
          0.27445108,
          -0.01175771,
          -0.01661192,
          0.11049037,
          0.03680169,
          -0.1359148,
          0.1242611,
          -0.07989349,
          -0.08004308,
          -0.0404717,
          0.02704166,
          0.01894589,
          0.08357797,
          0.07915676,
          -0.08345001,
          0.07120857,
          -0.0946194,
          -0.09101927,
          0.03557011,
          -0.05501973,
          -0.03649957
        ],
        [
          -0.00265247,
          0.06016684,
          -0.05828415,
          0.12038589,
          -0.12469231,
          -0.04709362,
          -0.00579261,
          -0.00153955,
          -0.01502275,
          0.09434266,
          -0.00570519,
          0.06022736,
          0.14085518,
          -0.0621512,
          -0.06938551,
          0.15746939,
          0.09436025,
          0.06070955,
          0.02343306,
          -0.09315251,
          -0.08125579,
          0.05308638,
          0.07705963,
          -0.01591381,
          0.02178214,
          0.01584797,
          -0.00981063,
          0.01547966,
          -0.01132995,
          -0.08003154,
          -0.0152728,
          0.06596842,
          0.00251813,
          -0.03055367,
          -0.06709317,
          -0.02351302,
          0.09162922,
          0.01907674,
          -0.0873148,
          0.02037251,
          0.0580446,
          -0.1073434,
          -0.03773908,
          0.06879649,
          0.10555163,
          0.10811846,
          0.11871058,
          -0.05169757,
          -0.04590667,
          -0.07951872,
          0.01465459,
          0.1185368,
          -0.06249374,
          -0.01429176,
          -0.00314304,
          0.13738936,
          0.18400759,
          -0.08302647,
          -0.1269851,
          0.04870518
        ],
        [
          0.13997746,
          -0.0361624,
          0.14734814,
          -0.12941103,
          0.08506453,
          -0.03402963,
          -0.15682502,
          0.01912959,
          -0.04801432,
          0.03706642,
          -0.02925663,
          -0.02188561,
          -0.06089211,
          0.02744696,
          -0.11181111,
          0.08219101,
          -0.06055823,
          0.06955595,
          -0.00027204,
          0.08903057,
          -0.04514157,
          -0.05396388,
          -0.00086676,
          -0.00164463,
          -0.11231807,
          -0.03898354,
          0.03825307,
          -0.1467652,
          -0.0378795,
          -0.0168495,
          -0.05645945,
          0.00168271,
          0.04837721,
          -0.04877466,
          -0.13517407,
          0.03817321,
          0.12585644,
          -0.09653337,
          -0.01101447,
          -0.03829416,
          0.05067526,
          -0.08580803,
          -0.00724807,
          0.07098887,
          -0.00359909,
          0.07547737,
          -0.09409788,
          0.03445793,
          -0.01327737,
          0.09420369,
          0.00613883,
          0.09096463,
          0.08576564,
          0.09874308,
          0.03098645,
          -0.0218708,
          -0.0821171,
          0.10964291,
          -0.12417248,
          0.07798408
        ]
      ],
      "weight_matrix_norm": [
        [
          0.20416819,
          0.40786827,
          0.22603156,
          -0.66192943,
          0.06255423,
          0.80238724,
          -0.04498645,
          0.23648131,
          0.05682131,
          0.67506349,
          0.41167215,
          -0.85985351,
          -0.42807057,
          0.26839143,
          -1.0,
          0.04439774,
          -0.10754719,
          0.49572873,
          -0.0132143,
          0.5784694,
          -0.24014206,
          0.08551832,
          0.01567009,
          -0.23442246,
          0.63301116,
          0.34597751,
          0.27117255,
          0.11983716,
          0.1160993,
          0.82883471,
          -0.60248464,
          -0.11656833,
          0.46245307,
          -0.09856337,
          -0.54167098,
          -0.6146419,
          -0.53923678,
          -0.19318734,
          0.03528118,
          0.44641951,
          0.10264879,
          -0.36774734,
          0.0934571,
          0.11573435,
          -0.49448591,
          -0.22547033,
          -0.18202731,
          0.7983427,
          -0.16192542,
          0.276916,
          0.01607832,
          -0.18604335,
          -0.22421353,
          -0.36954263,
          -0.46760809,
          0.13956194,
          0.04737064,
          0.6297875,
          0.15465401,
          0.29273251
        ],
        [
          -0.06283768,
          0.12327895,
          0.0502838,
          0.16584386,
          0.00727684,
          0.2478765,
          0.54533607,
          -0.31461298,
          -0.24039844,
          0.23850748,
          0.01435311,
          0.40763268,
          -0.38785559,
          0.25589615,
          0.53125638,
          -0.13634723,
          -0.31735533,
          0.66072434,
          0.17438947,
          0.41268879,
          0.00201222,
          -0.16868189,
          -0.1643357,
          -0.15866178,
          -0.15963455,
          0.01188919,
          -0.01448894,
          -0.01376715,
          -0.12774634,
          0.16538987,
          -0.33565804,
          0.12578952,
          0.11654947,
          0.30801341,
          -0.02388867,
          0.3442201,
          0.56037337,
          0.18847519,
          -0.48388779,
          1.0,
          -0.04284084,
          -0.0605278,
          0.40258679,
          0.13409199,
          -0.49522415,
          0.45276231,
          -0.29110286,
          -0.29164791,
          -0.14746417,
          0.09852998,
          0.06903193,
          0.30452776,
          0.28841847,
          -0.30406153,
          0.25945815,
          -0.34475872,
          -0.33164114,
          0.12960456,
          -0.20047189,
          -0.13299118
        ],
        [
          -0.01441499,
          0.3269802,
          -0.31674865,
          0.65424412,
          -0.67764765,
          -0.25593305,
          -0.03148027,
          -0.00836677,
          -0.08164199,
          0.51271069,
          -0.03100518,
          0.32730913,
          0.7654857,
          -0.33776432,
          -0.37707964,
          0.85577661,
          0.51280636,
          0.32992959,
          0.12734833,
          -0.50624275,
          -0.44158933,
          0.28850105,
          0.4187851,
          -0.08648454,
          0.11837633,
          0.08612671,
          -0.05331646,
          0.08412512,
          -0.06157325,
          -0.43493608,
          -0.08300094,
          0.35850921,
          0.01368495,
          -0.1660457,
          -0.36462176,
          -0.12778287,
          0.49796438,
          0.10367365,
          -0.47451741,
          0.11071562,
          0.31544676,
          -0.58336401,
          -0.20509522,
          0.37387854,
          0.57362652,
          0.58757609,
          0.64513958,
          -0.28095347,
          -0.24948251,
          -0.43214914,
          0.07964125,
          0.6441952,
          -0.3396259,
          -0.07766941,
          -0.01708103,
          0.74665052,
          1.0,
          -0.4512122,
          -0.690108,
          0.26469114
        ],
        [
          0.89257091,
          -0.23059078,
          0.93957031,
          -0.82519376,
          0.54241681,
          -0.2169911,
          -1.0,
          0.12198049,
          -0.30616492,
          0.23635526,
          -0.18655588,
          -0.13955432,
          -0.38828054,
          0.17501648,
          -0.71296728,
          0.52409369,
          -0.38615161,
          0.44352582,
          -0.00173469,
          0.56770641,
          -0.28784671,
          -0.34410247,
          -0.00552694,
          -0.01048706,
          -0.71619993,
          -0.24857984,
          0.24392195,
          -0.93585324,
          -0.24153991,
          -0.10744141,
          -0.36001557,
          0.01072987,
          0.30847892,
          -0.31101328,
          -0.86194193,
          0.24341278,
          0.80252784,
          -0.61554825,
          -0.07023414,
          -0.24418399,
          0.32313251,
          -0.54715776,
          -0.04621753,
          0.45266291,
          -0.02294974,
          0.48128396,
          -0.60001826,
          0.21972217,
          -0.08466359,
          0.60069299,
          0.03914448,
          0.58003902,
          0.54688752,
          0.62963855,
          0.1975861,
          -0.13945991,
          -0.52362239,
          0.69914168,
          -0.79178995,
          0.49726811
        ]
      ],
      "channel_abs_mean": [
        0.05055992,
        0.05369848,
        0.06658329,
        0.10816501,
        0.05618342,
        0.07891116,
        0.08040504,
        0.03902093,
        0.03520121,
        0.08423501,
        0.03108024,
        0.09310089,
        0.0992543,
        0.05387976,
        0.1336239,
        0.07157334,
        0.06608313,
        0.10361581,
        0.0185771,
        0.10386887,
        0.04419447,
        0.04277246,
        0.03156999,
        0.02743621,
        0.07731469,
        0.03247079,
        0.02707679,
        0.04772222,
        0.0270899,
        0.07856289,
        0.07221664,
        0.03159039,
        0.0447098,
        0.04607859,
        0.08030439,
        0.07092324,
        0.12079243,
        0.05185568,
        0.05961337,
        0.1064369,
        0.03544417,
        0.07151727,
        0.04371735,
        0.05015033,
        0.08691723,
        0.08866023,
        0.08261793,
        0.08296269,
        0.03331362,
        0.06455569,
        0.01076887,
        0.08292062,
        0.06848484,
        0.06829078,
        0.05059111,
        0.0707095,
        0.09174328,
        0.08972932,
        0.08456682,
        0.05598234
      ],
      "channel_signed_mean": [
        0.04061075,
        0.03561728,
        0.03744122,
        -0.02521405,
        -0.00616274,
        0.03834952,
        -0.005571,
        -0.00492178,
        -0.02930613,
        0.08423501,
        0.01359934,
        -0.00704959,
        -0.02882671,
        0.02280416,
        -0.06072195,
        0.05286302,
        -0.018903,
        0.10361581,
        0.01707012,
        0.05729263,
        -0.04391835,
        -0.00735695,
        0.00858556,
        -0.02743621,
        -0.00075028,
        0.01297901,
        0.02018322,
        -0.02754958,
        -0.01504488,
        0.03012237,
        -0.07221664,
        0.01949671,
        0.0447098,
        -0.00381128,
        -0.08030439,
        -0.00460085,
        0.06484795,
        -0.01645371,
        -0.05595303,
        0.08728982,
        0.02956532,
        -0.07151727,
        0.02122378,
        0.05015033,
        -0.03414141,
        0.06526824,
        -0.02326264,
        0.01709236,
        -0.03331362,
        0.02479633,
        0.01076887,
        0.06361908,
        0.01397637,
        -0.01891924,
        0.0005064,
        0.01246439,
        0.0051751,
        0.04821609,
        -0.06852184,
        0.03773256
      ],
      "channel_l2": [
        0.07364245,
        0.05752143,
        0.08291353,
        0.11421023,
        0.07575719,
        0.09450302,
        0.1085303,
        0.05057583,
        0.041902,
        0.09243856,
        0.04527853,
        0.11006182,
        0.10340275,
        0.0562358,
        0.14285399,
        0.09088061,
        0.07185974,
        0.11400335,
        0.02668057,
        0.10468931,
        0.05273383,
        0.04524477,
        0.04467581,
        0.03360844,
        0.08980707,
        0.04163871,
        0.03442866,
        0.07485355,
        0.02903776,
        0.09788533,
        0.0829691,
        0.03915206,
        0.05607488,
        0.05214608,
        0.09413943,
        0.08246235,
        0.12289002,
        0.05908713,
        0.07974265,
        0.14644553,
        0.04040128,
        0.07903187,
        0.05928942,
        0.05409119,
        0.1001928,
        0.09356281,
        0.08768713,
        0.09709213,
        0.03553359,
        0.06933671,
        0.01247517,
        0.08775108,
        0.07016305,
        0.07549489,
        0.0621587,
        0.0853604,
        0.11066066,
        0.09651021,
        0.09434108,
        0.05804167
      ],
      "top_channels_by_abs_weight": [
        {
          "rank": 1,
          "channel_index": 14,
          "channel_name": "FT7",
          "abs_mean_weight": 0.1336239,
          "signed_mean_weight": -0.06072195,
          "l2_weight": 0.14285399
        },
        {
          "rank": 2,
          "channel_index": 36,
          "channel_name": "CPz",
          "abs_mean_weight": 0.12079243,
          "signed_mean_weight": 0.06484795,
          "l2_weight": 0.12289002
        },
        {
          "rank": 3,
          "channel_index": 3,
          "channel_name": "AF3",
          "abs_mean_weight": 0.10816501,
          "signed_mean_weight": -0.02521405,
          "l2_weight": 0.11421023
        },
        {
          "rank": 4,
          "channel_index": 39,
          "channel_name": "CP6",
          "abs_mean_weight": 0.1064369,
          "signed_mean_weight": 0.08728982,
          "l2_weight": 0.14644553
        },
        {
          "rank": 5,
          "channel_index": 19,
          "channel_name": "FC2",
          "abs_mean_weight": 0.10386887,
          "signed_mean_weight": 0.05729263,
          "l2_weight": 0.10468931
        },
        {
          "rank": 6,
          "channel_index": 17,
          "channel_name": "FC1",
          "abs_mean_weight": 0.10361581,
          "signed_mean_weight": 0.10361581,
          "l2_weight": 0.11400335
        },
        {
          "rank": 7,
          "channel_index": 12,
          "channel_name": "F6",
          "abs_mean_weight": 0.0992543,
          "signed_mean_weight": -0.02882671,
          "l2_weight": 0.10340275
        },
        {
          "rank": 8,
          "channel_index": 11,
          "channel_name": "F4",
          "abs_mean_weight": 0.09310089,
          "signed_mean_weight": -0.00704959,
          "l2_weight": 0.11006182
        },
        {
          "rank": 9,
          "channel_index": 56,
          "channel_name": "PO8",
          "abs_mean_weight": 0.09174328,
          "signed_mean_weight": 0.0051751,
          "l2_weight": 0.11066066
        },
        {
          "rank": 10,
          "channel_index": 57,
          "channel_name": "O1",
          "abs_mean_weight": 0.08972932,
          "signed_mean_weight": 0.04821609,
          "l2_weight": 0.09651021
        },
        {
          "rank": 11,
          "channel_index": 45,
          "channel_name": "Pz",
          "abs_mean_weight": 0.08866023,
          "signed_mean_weight": 0.06526824,
          "l2_weight": 0.09356281
        },
        {
          "rank": 12,
          "channel_index": 44,
          "channel_name": "P1",
          "abs_mean_weight": 0.08691723,
          "signed_mean_weight": -0.03414141,
          "l2_weight": 0.1001928
        },
        {
          "rank": 13,
          "channel_index": 58,
          "channel_name": "Oz",
          "abs_mean_weight": 0.08456682,
          "signed_mean_weight": -0.06852184,
          "l2_weight": 0.09434108
        },
        {
          "rank": 14,
          "channel_index": 9,
          "channel_name": "Fz",
          "abs_mean_weight": 0.08423501,
          "signed_mean_weight": 0.08423501,
          "l2_weight": 0.09243856
        },
        {
          "rank": 15,
          "channel_index": 47,
          "channel_name": "P4",
          "abs_mean_weight": 0.08296269,
          "signed_mean_weight": 0.01709236,
          "l2_weight": 0.09709213
        }
      ]
    }
  },
  {
    "subject_id": "1",
    "fold_id": 3,
    "accuracy": 0.59375,
    "balanced_accuracy": 0.59375,
    "prediction_histogram": [
      13,
      19
    ],
    "collapse_diagnostics": {
      "prediction_histogram": [
        13,
        19
      ],
      "collapse_ratio": 0.59375,
      "collapse_threshold": 0.9,
      "collapse_flag": false,
      "majority_predicted_class": 1
    },
    "probability_diagnostics": {
      "available": true,
      "probability_shape": [
        32,
        2
      ],
      "mean_probability_by_class": [
        0.46129921,
        0.53870078
      ],
      "std_probability_by_class": [
        0.09694622,
        0.09694622
      ],
      "mean_confidence": 0.58660308,
      "std_confidence": 0.05827715,
      "mean_prediction_entropy": 0.67101869,
      "mean_normalized_prediction_entropy": 0.96807534,
      "mean_predicted_class_probability": 0.58660308
    },
    "spatial_update_stats": {
      "available": true,
      "parameter_name": "spatial_conv.1.weight",
      "initial_shape": [
        4,
        60
      ],
      "final_shape": [
        4,
        60
      ],
      "initial_l2": 1.1395002,
      "final_l2": 1.21777095,
      "delta_l2": 0.54507126,
      "delta_max_abs": 0.09476379,
      "relative_delta": 0.4783424,
      "changed": true
    },
    "n_trainable_params_final": 4342,
    "spatial_conv": {
      "available": true,
      "parameter_name": "spatial_conv.1.weight",
      "raw_weight_shape": [
        4,
        1,
        60,
        1
      ],
      "weight_matrix_shape": [
        4,
        60
      ],
      "n_virtual_filters": 4,
      "n_input_channels": 60,
      "channel_names": [
        "Fp1",
        "Fpz",
        "Fp2",
        "AF3",
        "AF4",
        "F7",
        "F5",
        "F3",
        "F1",
        "Fz",
        "F2",
        "F4",
        "F6",
        "F8",
        "FT7",
        "FC5",
        "FC3",
        "FC1",
        "FCz",
        "FC2",
        "FC4",
        "FC6",
        "FT8",
        "T7",
        "C5",
        "C3",
        "C1",
        "Cz",
        "C2",
        "C4",
        "C6",
        "T8",
        "TP7",
        "CP5",
        "CP3",
        "CP1",
        "CPz",
        "CP2",
        "CP4",
        "CP6",
        "TP8",
        "P7",
        "P5",
        "P3",
        "P1",
        "Pz",
        "P2",
        "P4",
        "P6",
        "P8",
        "PO7",
        "PO5",
        "PO3",
        "POz",
        "PO4",
        "PO6",
        "PO8",
        "O1",
        "Oz",
        "O2"
      ],
      "weight_matrix": [
        [
          0.08747655,
          0.03850403,
          0.00129953,
          -0.10094574,
          0.03022097,
          0.10441115,
          0.10511912,
          0.05086119,
          -0.04117863,
          0.11409113,
          0.05437279,
          -0.08072601,
          0.04004225,
          0.1147392,
          -0.10407555,
          0.09395447,
          -0.12813467,
          0.07028139,
          0.08504884,
          0.06036398,
          -0.08351186,
          0.10373943,
          -0.00522034,
          -0.01839299,
          0.11989267,
          0.05149149,
          0.02673422,
          0.05136001,
          0.01978215,
          0.13955587,
          -0.10947521,
          0.11386273,
          -0.00439034,
          -0.02505873,
          -0.16458279,
          -0.10456516,
          -0.05687793,
          -0.07446893,
          -0.05457497,
          0.08552557,
          0.01191604,
          -0.09767523,
          -0.00995776,
          0.09566966,
          0.01200023,
          -0.05350488,
          -0.04586503,
          0.1063785,
          -0.08315058,
          0.03372782,
          0.00724078,
          -0.03969186,
          0.00473437,
          -0.11291427,
          -0.11042865,
          0.02145015,
          0.00196882,
          0.09964137,
          0.18469846,
          -0.04647448
        ],
        [
          -0.00356557,
          -0.08049021,
          0.02393016,
          0.04782914,
          0.04083073,
          0.13559867,
          0.14013648,
          -0.07755528,
          -0.11060681,
          0.04558436,
          0.04962052,
          0.01523745,
          -0.05417973,
          0.0515035,
          -0.02686029,
          -0.05237987,
          0.00239578,
          0.15098768,
          0.03380892,
          0.07190239,
          0.0486668,
          -0.08158609,
          0.02460261,
          0.03714578,
          -0.04034448,
          -0.01029903,
          0.1259159,
          0.06566012,
          -0.01906906,
          0.06880718,
          0.04112122,
          0.12171134,
          0.06956233,
          -0.00208637,
          0.13272689,
          0.16716705,
          0.13381425,
          0.06416402,
          -0.13365315,
          0.15716045,
          -0.00937583,
          -0.02910758,
          0.0681944,
          0.06001423,
          -0.06738525,
          0.13127668,
          -0.07578096,
          -0.02244234,
          -0.10498154,
          -0.01622007,
          0.03943242,
          0.06131724,
          0.08588844,
          -0.1265794,
          0.01136803,
          -0.16257651,
          -0.15790038,
          -0.04429898,
          -0.12069815,
          -0.01843708
        ],
        [
          0.03447161,
          0.01780108,
          -0.0231244,
          0.11787898,
          -0.13070787,
          -0.01453287,
          0.02188252,
          0.02716225,
          -0.03062213,
          0.09606305,
          -0.03386501,
          0.04419232,
          0.04507829,
          -0.06884149,
          -0.02647239,
          0.07574478,
          0.14152353,
          0.1051058,
          -0.04277735,
          -0.10182497,
          -0.11085819,
          0.02459223,
          0.12026569,
          -0.06016826,
          0.03343778,
          0.03968272,
          0.07300712,
          -0.00802423,
          -0.04337901,
          -0.07973034,
          -0.04852095,
          0.0941531,
          0.01144921,
          -0.03631398,
          -0.05555124,
          -0.03226268,
          0.06780931,
          0.03092114,
          -0.08030241,
          -0.00828328,
          0.10290334,
          -0.11554715,
          -0.02895089,
          0.0279259,
          0.01983647,
          0.09530705,
          0.09618277,
          -0.01149698,
          -0.12700845,
          -0.08769568,
          0.01993433,
          0.10898234,
          -0.03622585,
          -0.00470065,
          -0.07074933,
          0.08109775,
          0.12794046,
          -0.07356238,
          0.04208746,
          0.11698291
        ],
        [
          0.14713734,
          -0.07576755,
          0.10682743,
          -0.08253965,
          0.10256002,
          0.00951961,
          -0.10477175,
          -0.03236116,
          -0.07016664,
          0.0677218,
          -0.0030372,
          -0.02368431,
          -0.14773911,
          0.07040266,
          -0.1668162,
          -0.02969607,
          -0.03471934,
          0.05485795,
          -0.02718434,
          0.08415336,
          -0.00724735,
          -0.09224285,
          -0.01056332,
          -0.00399782,
          -0.0230176,
          -0.05609053,
          0.06774342,
          -0.13326357,
          -0.04242459,
          -0.0157632,
          -0.03520431,
          -0.06254095,
          0.01218723,
          -0.01058697,
          -0.169312,
          0.03581956,
          0.10805616,
          -0.07162776,
          -0.00914088,
          -0.05155533,
          0.08007231,
          -0.04915328,
          -0.05859908,
          0.11356157,
          -0.06111677,
          0.06079784,
          -0.09586708,
          0.0556654,
          -0.0564746,
          0.06842658,
          0.00373714,
          0.1266934,
          0.01718839,
          0.11594807,
          0.04907053,
          -0.06047101,
          -0.11670034,
          0.06377101,
          -0.05331312,
          0.08130481
        ]
      ],
      "weight_matrix_norm": [
        [
          0.47361818,
          0.20846966,
          0.00703594,
          -0.54654348,
          0.16362327,
          0.56530601,
          0.56913912,
          0.27537417,
          -0.22295058,
          0.61771566,
          0.2943868,
          -0.43706918,
          0.21679796,
          0.62122446,
          -0.56348902,
          0.50869113,
          -0.69375062,
          0.38051966,
          0.46047398,
          0.32682449,
          -0.45215243,
          0.56166917,
          -0.02826413,
          -0.0995839,
          0.64912653,
          0.27878678,
          0.14474522,
          0.27807495,
          0.10710513,
          0.75558764,
          -0.59272397,
          0.61647904,
          -0.02377029,
          -0.13567375,
          -0.89108914,
          -0.56613982,
          -0.3079502,
          -0.40319189,
          -0.29548144,
          0.46305513,
          0.0645162,
          -0.52883619,
          -0.0539136,
          0.5179776,
          0.06497201,
          -0.28968775,
          -0.24832383,
          0.57595772,
          -0.45019639,
          0.18261018,
          0.03920327,
          -0.21490088,
          0.02563299,
          -0.61134386,
          -0.59788615,
          0.11613607,
          0.01065963,
          0.53948128,
          1.0,
          -0.25162354
        ],
        [
          -0.02132936,
          -0.48149565,
          0.14315119,
          0.28611583,
          0.24425107,
          0.81115669,
          0.83830202,
          -0.4639388,
          -0.66165435,
          0.27268746,
          0.29683191,
          0.09115104,
          -0.32410532,
          0.30809599,
          -0.16067936,
          -0.31333849,
          0.01433166,
          0.9032144,
          0.20224634,
          0.43012294,
          0.29112676,
          -0.48805127,
          0.14717378,
          0.22220756,
          -0.24134228,
          -0.06160921,
          0.75323397,
          0.39278147,
          -0.11407188,
          0.4116073,
          0.24598877,
          0.72808206,
          0.41612464,
          -0.01248072,
          0.79397756,
          1.0,
          0.80048215,
          0.38383174,
          -0.79951847,
          0.94014007,
          -0.0560866,
          -0.17412269,
          0.40794161,
          0.35900754,
          -0.40310127,
          0.78530234,
          -0.45332474,
          -0.13425095,
          -0.62800378,
          -0.09702911,
          0.23588632,
          0.36680216,
          0.51378804,
          -0.75720304,
          0.06800399,
          -0.97253919,
          -0.94456637,
          -0.26499826,
          -0.72202116,
          -0.11029135
        ],
        [
          0.24357511,
          0.12578177,
          -0.16339613,
          0.83292854,
          -0.92357701,
          -0.10268874,
          0.15462105,
          0.19192748,
          -0.21637484,
          0.67877793,
          -0.23928893,
          0.31226128,
          0.31852156,
          -0.48643145,
          -0.18705294,
          0.53520977,
          1.0,
          0.7426737,
          -0.30226317,
          -0.71949148,
          -0.78331989,
          0.17376782,
          0.84979296,
          -0.4251467,
          0.2362701,
          0.28039661,
          0.51586562,
          -0.05669894,
          -0.30651447,
          -0.56337166,
          -0.34284723,
          0.66528231,
          0.08089969,
          -0.25659326,
          -0.39252302,
          -0.22796692,
          0.47913811,
          0.21848765,
          -0.56741387,
          -0.05852935,
          0.72711122,
          -0.81645191,
          -0.2045659,
          0.19732338,
          0.14016373,
          0.67343611,
          0.6796239,
          -0.0812372,
          -0.89743704,
          -0.61965442,
          0.14085527,
          0.77006519,
          -0.25597051,
          -0.03321465,
          -0.49991217,
          0.57303369,
          0.90402257,
          -0.51978904,
          0.29738843,
          0.82659698
        ],
        [
          0.86903083,
          -0.44750252,
          0.63095015,
          -0.48750028,
          0.60574573,
          0.05622526,
          -0.61880875,
          -0.19113332,
          -0.41442212,
          0.39998227,
          -0.01793846,
          -0.13988557,
          -0.872585,
          0.41581613,
          -0.98525918,
          -0.17539257,
          -0.20506129,
          0.3240051,
          -0.16055766,
          0.4970313,
          -0.04280468,
          -0.54480988,
          -0.06238966,
          -0.02361213,
          -0.13594785,
          -0.33128506,
          0.40010998,
          -0.78708875,
          -0.25057051,
          -0.0931015,
          -0.20792565,
          -0.36938286,
          0.07198088,
          -0.06252934,
          -1.0,
          0.2115595,
          0.63820732,
          -0.42305186,
          -0.05398837,
          -0.30449897,
          0.47292754,
          -0.29031187,
          -0.34610114,
          0.67072368,
          -0.36097127,
          0.35908762,
          -0.56621552,
          0.32877409,
          -0.3335534,
          0.40414488,
          0.02207253,
          0.74828362,
          0.10151906,
          0.68481898,
          0.28982311,
          -0.35715723,
          -0.68926203,
          0.37664789,
          -0.31488097,
          0.48020703
        ]
      ],
      "channel_abs_mean": [
        0.06816277,
        0.05314071,
        0.03879538,
        0.08729838,
        0.0760799,
        0.06601558,
        0.09297746,
        0.04698497,
        0.06314355,
        0.08086509,
        0.03522388,
        0.04096002,
        0.07175985,
        0.07637171,
        0.08105611,
        0.0629438,
        0.07669333,
        0.09530821,
        0.04720486,
        0.07956117,
        0.06257106,
        0.07554016,
        0.04016299,
        0.02992621,
        0.05417313,
        0.03939094,
        0.07335016,
        0.06457698,
        0.0311637,
        0.07596415,
        0.05858042,
        0.09806703,
        0.02439728,
        0.01851151,
        0.13054323,
        0.08495361,
        0.09163941,
        0.06029546,
        0.06941785,
        0.07563116,
        0.05106688,
        0.07287081,
        0.04142553,
        0.07429285,
        0.04008468,
        0.08522161,
        0.07842396,
        0.0489958,
        0.09290379,
        0.05151754,
        0.01758617,
        0.08417121,
        0.03600927,
        0.0900356,
        0.06040414,
        0.08139885,
        0.10112751,
        0.07031843,
        0.1001993,
        0.06579982
      ],
      "channel_signed_mean": [
        0.06637999,
        -0.02498816,
        0.02723318,
        -0.00444432,
        0.01072596,
        0.05874914,
        0.04059159,
        -0.00797325,
        -0.06314355,
        0.08086509,
        0.01677277,
        -0.01124514,
        -0.02919957,
        0.04195097,
        -0.08105611,
        0.02190583,
        -0.00473368,
        0.09530821,
        0.01222402,
        0.02864869,
        -0.03823765,
        -0.01137432,
        0.03227116,
        -0.01135332,
        0.02249209,
        0.00619616,
        0.07335016,
        -0.00606692,
        -0.02127263,
        0.02821738,
        -0.03801981,
        0.06679656,
        0.02220211,
        -0.01851151,
        -0.06417979,
        0.01653969,
        0.06320044,
        -0.01275288,
        -0.06941785,
        0.04571185,
        0.04637896,
        -0.07287081,
        -0.00732833,
        0.07429285,
        -0.02416633,
        0.05846917,
        -0.03033257,
        0.03202615,
        -0.09290379,
        -0.00044034,
        0.01758617,
        0.06432527,
        0.01789634,
        -0.03206156,
        -0.03018486,
        -0.0301249,
        -0.03617286,
        0.01138776,
        0.01319366,
        0.03334404
      ],
      "channel_l2": [
        0.08732489,
        0.05920058,
        0.05594904,
        0.09108501,
        0.08686709,
        0.08600947,
        0.10264529,
        0.05095762,
        0.07033957,
        0.08501334,
        0.04054214,
        0.04812166,
        0.08425812,
        0.07986454,
        0.10010199,
        0.06743556,
        0.09702909,
        0.10221715,
        0.05230975,
        0.08103067,
        0.07362872,
        0.08144274,
        0.06166028,
        0.03658659,
        0.06642632,
        0.04323861,
        0.08137681,
        0.07869668,
        0.0333037,
        0.08777197,
        0.06570654,
        0.1006908,
        0.03583924,
        0.02271058,
        0.13825376,
        0.10149214,
        0.09671555,
        0.0627481,
        0.08272488,
        0.09319415,
        0.06563263,
        0.08086237,
        0.04749116,
        0.08128727,
        0.04694018,
        0.09065891,
        0.08106784,
        0.06134098,
        0.09650864,
        0.05868004,
        0.02246491,
        0.09119158,
        0.04745258,
        0.10275947,
        0.0702444,
        0.09633901,
        0.1171795,
        0.07309064,
        0.11542878,
        0.07549053
      ],
      "top_channels_by_abs_weight": [
        {
          "rank": 1,
          "channel_index": 34,
          "channel_name": "CP3",
          "abs_mean_weight": 0.13054323,
          "signed_mean_weight": -0.06417979,
          "l2_weight": 0.13825376
        },
        {
          "rank": 2,
          "channel_index": 56,
          "channel_name": "PO8",
          "abs_mean_weight": 0.10112751,
          "signed_mean_weight": -0.03617286,
          "l2_weight": 0.1171795
        },
        {
          "rank": 3,
          "channel_index": 58,
          "channel_name": "Oz",
          "abs_mean_weight": 0.1001993,
          "signed_mean_weight": 0.01319366,
          "l2_weight": 0.11542878
        },
        {
          "rank": 4,
          "channel_index": 31,
          "channel_name": "T8",
          "abs_mean_weight": 0.09806703,
          "signed_mean_weight": 0.06679656,
          "l2_weight": 0.1006908
        },
        {
          "rank": 5,
          "channel_index": 17,
          "channel_name": "FC1",
          "abs_mean_weight": 0.09530821,
          "signed_mean_weight": 0.09530821,
          "l2_weight": 0.10221715
        },
        {
          "rank": 6,
          "channel_index": 6,
          "channel_name": "F5",
          "abs_mean_weight": 0.09297746,
          "signed_mean_weight": 0.04059159,
          "l2_weight": 0.10264529
        },
        {
          "rank": 7,
          "channel_index": 48,
          "channel_name": "P6",
          "abs_mean_weight": 0.09290379,
          "signed_mean_weight": -0.09290379,
          "l2_weight": 0.09650864
        },
        {
          "rank": 8,
          "channel_index": 36,
          "channel_name": "CPz",
          "abs_mean_weight": 0.09163941,
          "signed_mean_weight": 0.06320044,
          "l2_weight": 0.09671555
        },
        {
          "rank": 9,
          "channel_index": 53,
          "channel_name": "POz",
          "abs_mean_weight": 0.0900356,
          "signed_mean_weight": -0.03206156,
          "l2_weight": 0.10275947
        },
        {
          "rank": 10,
          "channel_index": 3,
          "channel_name": "AF3",
          "abs_mean_weight": 0.08729838,
          "signed_mean_weight": -0.00444432,
          "l2_weight": 0.09108501
        },
        {
          "rank": 11,
          "channel_index": 45,
          "channel_name": "Pz",
          "abs_mean_weight": 0.08522161,
          "signed_mean_weight": 0.05846917,
          "l2_weight": 0.09065891
        },
        {
          "rank": 12,
          "channel_index": 35,
          "channel_name": "CP1",
          "abs_mean_weight": 0.08495361,
          "signed_mean_weight": 0.01653969,
          "l2_weight": 0.10149214
        },
        {
          "rank": 13,
          "channel_index": 51,
          "channel_name": "PO5",
          "abs_mean_weight": 0.08417121,
          "signed_mean_weight": 0.06432527,
          "l2_weight": 0.09119158
        },
        {
          "rank": 14,
          "channel_index": 55,
          "channel_name": "PO6",
          "abs_mean_weight": 0.08139885,
          "signed_mean_weight": -0.0301249,
          "l2_weight": 0.09633901
        },
        {
          "rank": 15,
          "channel_index": 14,
          "channel_name": "FT7",
          "abs_mean_weight": 0.08105611,
          "signed_mean_weight": -0.08105611,
          "l2_weight": 0.10010199
        }
      ]
    }
  },
  {
    "subject_id": "1",
    "fold_id": 4,
    "accuracy": 0.46875,
    "balanced_accuracy": 0.46875,
    "prediction_histogram": [
      17,
      15
    ],
    "collapse_diagnostics": {
      "prediction_histogram": [
        17,
        15
      ],
      "collapse_ratio": 0.53125,
      "collapse_threshold": 0.9,
      "collapse_flag": false,
      "majority_predicted_class": 0
    },
    "probability_diagnostics": {
      "available": true,
      "probability_shape": [
        32,
        2
      ],
      "mean_probability_by_class": [
        0.49938104,
        0.50061896
      ],
      "std_probability_by_class": [
        0.16347723,
        0.16347723
      ],
      "mean_confidence": 0.64793235,
      "std_confidence": 0.06957879,
      "mean_prediction_entropy": 0.63793974,
      "mean_normalized_prediction_entropy": 0.9203525,
      "mean_predicted_class_probability": 0.64793235
    },
    "spatial_update_stats": {
      "available": true,
      "parameter_name": "spatial_conv.1.weight",
      "initial_shape": [
        4,
        60
      ],
      "final_shape": [
        4,
        60
      ],
      "initial_l2": 1.1395002,
      "final_l2": 1.24513859,
      "delta_l2": 0.79322267,
      "delta_max_abs": 0.15502577,
      "relative_delta": 0.69611455,
      "changed": true
    },
    "n_trainable_params_final": 4342,
    "spatial_conv": {
      "available": true,
      "parameter_name": "spatial_conv.1.weight",
      "raw_weight_shape": [
        4,
        1,
        60,
        1
      ],
      "weight_matrix_shape": [
        4,
        60
      ],
      "n_virtual_filters": 4,
      "n_input_channels": 60,
      "channel_names": [
        "Fp1",
        "Fpz",
        "Fp2",
        "AF3",
        "AF4",
        "F7",
        "F5",
        "F3",
        "F1",
        "Fz",
        "F2",
        "F4",
        "F6",
        "F8",
        "FT7",
        "FC5",
        "FC3",
        "FC1",
        "FCz",
        "FC2",
        "FC4",
        "FC6",
        "FT8",
        "T7",
        "C5",
        "C3",
        "C1",
        "Cz",
        "C2",
        "C4",
        "C6",
        "T8",
        "TP7",
        "CP5",
        "CP3",
        "CP1",
        "CPz",
        "CP2",
        "CP4",
        "CP6",
        "TP8",
        "P7",
        "P5",
        "P3",
        "P1",
        "Pz",
        "P2",
        "P4",
        "P6",
        "P8",
        "PO7",
        "PO5",
        "PO3",
        "POz",
        "PO4",
        "PO6",
        "PO8",
        "O1",
        "Oz",
        "O2"
      ],
      "weight_matrix": [
        [
          0.09028561,
          0.03263939,
          -0.05943939,
          -0.08639043,
          -0.03045181,
          0.04784027,
          -0.05900116,
          0.06403899,
          0.02081718,
          0.1231231,
          0.06997751,
          -0.03567865,
          0.02950781,
          0.14996785,
          -0.1817331,
          0.03500383,
          -0.03565636,
          0.10511228,
          0.10917085,
          0.09172204,
          -0.04283111,
          0.02328845,
          -0.08087477,
          -0.05482776,
          0.01702165,
          0.11449113,
          0.02932737,
          0.02856294,
          -0.04424117,
          0.135364,
          -0.17257135,
          0.00823666,
          0.08361081,
          -0.02054906,
          -0.16912328,
          -0.03688801,
          -0.07743466,
          -0.05333256,
          -0.03917316,
          0.16482905,
          0.02837739,
          -0.01474811,
          0.01381496,
          0.07148165,
          -0.01662987,
          0.02872275,
          -0.06392378,
          0.14678852,
          -0.05271939,
          0.08154224,
          -0.00124996,
          -0.04651093,
          0.00699493,
          -0.16479728,
          -0.14289588,
          0.03101764,
          0.01298709,
          0.09308352,
          0.11568777,
          -0.10412369
        ],
        [
          -0.0540554,
          -0.02678053,
          0.01373064,
          0.09955577,
          0.09126204,
          0.02258996,
          0.16079669,
          -0.0938733,
          -0.19554366,
          0.07055698,
          0.09272768,
          0.05161978,
          -0.06478604,
          0.05808921,
          0.02340612,
          0.04964304,
          -0.11547503,
          0.09584112,
          -0.04832575,
          0.05064924,
          0.01820746,
          0.00277564,
          0.02009526,
          0.05670148,
          -0.03434212,
          -0.00187388,
          -0.00390191,
          0.07993581,
          -0.01559141,
          0.11208241,
          0.10072649,
          0.12975423,
          0.02999716,
          0.04329003,
          0.17787364,
          0.18415503,
          0.12548678,
          0.15557833,
          -0.09227846,
          0.151048,
          -0.04685028,
          -0.03036749,
          0.03980985,
          0.1159192,
          0.0166927,
          0.11463398,
          0.00307066,
          0.01925218,
          0.00366462,
          -0.09428541,
          0.03481017,
          0.01942533,
          0.09321013,
          -0.08484488,
          0.11275314,
          -0.06590512,
          -0.06350434,
          -0.12179161,
          -0.15729475,
          -0.05045138
        ],
        [
          -0.00514997,
          0.01017229,
          -0.09095533,
          0.16763875,
          -0.12751454,
          -0.03913634,
          0.03672186,
          -0.09254133,
          -0.07371801,
          0.06699278,
          -0.03727387,
          0.0721354,
          0.05900695,
          -0.13478288,
          -0.01828943,
          0.17312562,
          0.03396848,
          0.07515347,
          -0.07161883,
          -0.0892169,
          -0.04675534,
          0.03320885,
          0.06907456,
          -0.00020823,
          0.125719,
          0.04366805,
          0.00910626,
          -0.04292595,
          -0.0177484,
          -0.04145091,
          0.05170729,
          0.07856457,
          0.01896961,
          0.06299474,
          -0.01552536,
          -0.00806639,
          0.06859181,
          0.07381433,
          -0.05560608,
          0.03387047,
          0.03249668,
          -0.06481363,
          -0.01122124,
          0.04021399,
          0.05562308,
          0.13032871,
          0.14348799,
          0.00940038,
          -0.07053419,
          -0.10630631,
          0.02179804,
          0.07183673,
          -0.03987275,
          0.08091006,
          -0.03439692,
          0.06995829,
          0.11616038,
          -0.13731906,
          -0.10069944,
          0.06679951
        ],
        [
          0.1283958,
          -0.06670525,
          0.10327638,
          -0.13435759,
          0.05015402,
          0.02298339,
          -0.12361427,
          0.0312829,
          -0.07282096,
          0.06442145,
          -0.00813922,
          -0.05314206,
          -0.05570938,
          0.08086547,
          -0.12955245,
          0.00955908,
          -0.00057085,
          0.0918152,
          0.03928858,
          0.09752503,
          0.00739865,
          -0.10277795,
          -0.06078451,
          0.01124466,
          -0.00074556,
          -0.03047111,
          0.07341353,
          -0.11134737,
          -0.08464175,
          -0.00666251,
          0.01550902,
          -0.09463771,
          0.01761368,
          -0.03569317,
          -0.11988002,
          0.05845376,
          0.06878211,
          -0.08960572,
          -0.03092419,
          -0.02927801,
          0.09620286,
          -0.06904231,
          -0.03273548,
          0.08429883,
          -0.05000891,
          0.03574066,
          -0.13646601,
          0.01225395,
          0.00269405,
          0.12300266,
          0.00546814,
          0.07862949,
          0.0157478,
          0.08608291,
          0.0270522,
          -0.02778336,
          -0.084393,
          0.05511136,
          -0.08964986,
          0.14666273
        ]
      ],
      "weight_matrix_norm": [
        [
          0.49680334,
          0.1796007,
          -0.32706967,
          -0.47536981,
          -0.16756338,
          0.26324469,
          -0.3246583,
          0.35237935,
          0.11454809,
          0.67749411,
          0.38505653,
          -0.19632442,
          0.16236895,
          0.82520932,
          -1.0,
          0.19261119,
          -0.19620179,
          0.57838821,
          0.60072082,
          0.5047074,
          -0.23568138,
          0.12814644,
          -0.44501948,
          -0.30169386,
          0.0936629,
          0.629996,
          0.16137603,
          0.15716971,
          -0.24344036,
          0.74485052,
          -0.94958675,
          0.04532284,
          0.46007475,
          -0.11307277,
          -0.93061352,
          -0.20297903,
          -0.42609,
          -0.29346639,
          -0.21555322,
          0.90698415,
          0.15614869,
          -0.08115257,
          0.07601783,
          0.39333314,
          -0.09150713,
          0.15804908,
          -0.3517454,
          0.80771482,
          -0.29009238,
          0.44869226,
          -0.00687799,
          -0.25592989,
          0.03849011,
          -0.90680933,
          -0.78629529,
          0.1706769,
          0.07146244,
          0.51219904,
          0.63658059,
          -0.5729484
        ],
        [
          -0.27643648,
          -0.1369542,
          0.07021777,
          0.50912297,
          0.46670929,
          0.11552385,
          0.8223058,
          -0.48006311,
          -1.0,
          0.36082467,
          0.47420445,
          0.26398087,
          -0.33131239,
          0.29706514,
          0.11969766,
          0.25387192,
          -0.5905332,
          0.49012643,
          -0.24713537,
          0.25901756,
          0.09311201,
          0.0141945,
          0.1027661,
          0.2899684,
          -0.1756238,
          -0.00958291,
          -0.01995416,
          0.40878755,
          -0.07973366,
          0.5731836,
          0.51510996,
          0.66355634,
          0.15340391,
          0.22138292,
          0.90963644,
          0.94175917,
          0.64173275,
          0.79561937,
          -0.47190717,
          0.77245158,
          -0.23958988,
          -0.15529773,
          0.20358546,
          0.59280467,
          0.0853656,
          0.58623219,
          0.01570318,
          0.09845462,
          0.01874068,
          -0.48217064,
          0.17801739,
          0.09934009,
          0.4766717,
          -0.43389225,
          0.57661361,
          -0.3370353,
          -0.32475784,
          -0.62283587,
          -0.80439711,
          -0.25800571
        ],
        [
          -0.029747,
          0.05875669,
          -0.52537185,
          0.96830696,
          -0.73654342,
          -0.22605745,
          0.21211106,
          -0.53453285,
          -0.42580646,
          0.38696054,
          -0.21529955,
          0.41666505,
          0.34083316,
          -0.77852648,
          -0.10564253,
          1.0,
          0.19620711,
          0.43409789,
          -0.41368124,
          -0.51533043,
          -0.27006596,
          0.19181938,
          0.39898518,
          -0.00120275,
          0.72617209,
          0.25223333,
          0.05259914,
          -0.24794683,
          -0.10251747,
          -0.23942678,
          0.29866919,
          0.45380092,
          0.10957135,
          0.36386722,
          -0.08967684,
          -0.04659271,
          0.39619675,
          0.42636284,
          -0.32118919,
          0.195641,
          0.1877058,
          -0.37437341,
          -0.0648156,
          0.23228215,
          0.32128739,
          0.7527985,
          0.82880849,
          0.05429802,
          -0.40741625,
          -0.61404151,
          0.12590882,
          0.41493991,
          -0.23031111,
          0.46734881,
          -0.19868183,
          0.40408975,
          0.67096007,
          -0.79317582,
          -0.58165532,
          0.38584414
        ],
        [
          0.87544942,
          -0.45482072,
          0.70417607,
          -0.91609907,
          0.34196842,
          0.15670912,
          -0.84284723,
          0.21329822,
          -0.49651989,
          0.43924898,
          -0.0554962,
          -0.36234197,
          -0.3798469,
          0.55137032,
          -0.88333589,
          0.0651773,
          -0.00389226,
          0.62602949,
          0.26788387,
          0.66496128,
          0.05044671,
          -0.70077759,
          -0.41445097,
          0.07667021,
          -0.0050835,
          -0.20776312,
          0.50056022,
          -0.75920701,
          -0.57711834,
          -0.04542742,
          0.10574613,
          -0.64527446,
          0.12009652,
          -0.24336906,
          -0.81738573,
          0.39855906,
          0.46898156,
          -0.61096448,
          -0.2108524,
          -0.19962813,
          0.6559462,
          -0.47075567,
          -0.22320247,
          0.57478017,
          -0.34097898,
          0.24369286,
          -0.93047506,
          0.08355193,
          0.01836899,
          0.83867705,
          0.03728377,
          0.53612459,
          0.10737425,
          0.5869447,
          0.18445179,
          -0.18943708,
          -0.57542229,
          0.37576938,
          -0.61126542,
          1.0
        ]
      ],
      "channel_abs_mean": [
        0.0694717,
        0.03407437,
        0.06685043,
        0.12198563,
        0.0748456,
        0.03313749,
        0.0950335,
        0.07043413,
        0.09072495,
        0.08127358,
        0.05202957,
        0.05314397,
        0.05225255,
        0.10592636,
        0.08824527,
        0.0668329,
        0.04641768,
        0.09198052,
        0.067101,
        0.0822783,
        0.02879814,
        0.04051273,
        0.05770727,
        0.03074553,
        0.04445709,
        0.04762604,
        0.02893727,
        0.06569302,
        0.04055569,
        0.07388996,
        0.08512854,
        0.07779829,
        0.03754782,
        0.04063175,
        0.12060057,
        0.07189079,
        0.08507384,
        0.09308273,
        0.05449547,
        0.09475638,
        0.0509818,
        0.04474288,
        0.02439538,
        0.07797842,
        0.03473864,
        0.07735653,
        0.08673711,
        0.04692376,
        0.03240306,
        0.10128416,
        0.01583158,
        0.05410062,
        0.0389564,
        0.10415878,
        0.07927454,
        0.0486661,
        0.0692612,
        0.10182638,
        0.11583295,
        0.09200932
      ],
      "channel_signed_mean": [
        0.03986901,
        -0.01266852,
        -0.00834692,
        0.01161163,
        -0.00413757,
        0.01356932,
        0.00372578,
        -0.02277318,
        -0.08031636,
        0.08127358,
        0.02932302,
        0.00873362,
        -0.00799516,
        0.03853491,
        -0.07654221,
        0.0668329,
        -0.02943344,
        0.09198052,
        0.00712871,
        0.03766985,
        -0.01599508,
        -0.01087625,
        -0.01312237,
        0.00322754,
        0.02691324,
        0.03145355,
        0.02698631,
        -0.01144364,
        -0.04055569,
        0.04983325,
        -0.00115714,
        0.03047944,
        0.03754782,
        0.01251063,
        -0.03166375,
        0.0494136,
        0.04635651,
        0.0216136,
        -0.05449547,
        0.08011737,
        0.02755666,
        -0.04474288,
        0.00241702,
        0.07797842,
        0.00141925,
        0.07735653,
        -0.01345779,
        0.04692376,
        -0.02922373,
        0.00098829,
        0.0152066,
        0.03084515,
        0.01902002,
        -0.0206623,
        -0.00937186,
        0.00182186,
        -0.00468747,
        -0.02772895,
        -0.05798907,
        0.01472179
      ],
      "channel_l2": [
        0.08304439,
        0.03979822,
        0.07526695,
        0.12602516,
        0.08371299,
        0.03485286,
        0.10719806,
        0.07492614,
        0.11113945,
        0.08481707,
        0.06113686,
        0.05469269,
        0.05397522,
        0.11243927,
        0.11257565,
        0.09186071,
        0.0627695,
        0.09261774,
        0.07232998,
        0.08433425,
        0.03319193,
        0.05526344,
        0.06206972,
        0.039836,
        0.06571709,
        0.06314094,
        0.03983651,
        0.07322303,
        0.04919249,
        0.09034441,
        0.10349018,
        0.0894884,
        0.04626198,
        0.04341264,
        0.13679726,
        0.09843235,
        0.0882877,
        0.10065624,
        0.0593679,
        0.11400496,
        0.0576872,
        0.05026763,
        0.02726355,
        0.08256868,
        0.03921102,
        0.08976207,
        0.10405222,
        0.07442453,
        0.04408824,
        0.10243237,
        0.02072659,
        0.05891461,
        0.05141713,
        0.10990167,
        0.09360485,
        0.05237284,
        0.07876687,
        0.10652643,
        0.11864103,
        0.09919578
      ],
      "top_channels_by_abs_weight": [
        {
          "rank": 1,
          "channel_index": 3,
          "channel_name": "AF3",
          "abs_mean_weight": 0.12198563,
          "signed_mean_weight": 0.01161163,
          "l2_weight": 0.12602516
        },
        {
          "rank": 2,
          "channel_index": 34,
          "channel_name": "CP3",
          "abs_mean_weight": 0.12060057,
          "signed_mean_weight": -0.03166375,
          "l2_weight": 0.13679726
        },
        {
          "rank": 3,
          "channel_index": 58,
          "channel_name": "Oz",
          "abs_mean_weight": 0.11583295,
          "signed_mean_weight": -0.05798907,
          "l2_weight": 0.11864103
        },
        {
          "rank": 4,
          "channel_index": 13,
          "channel_name": "F8",
          "abs_mean_weight": 0.10592636,
          "signed_mean_weight": 0.03853491,
          "l2_weight": 0.11243927
        },
        {
          "rank": 5,
          "channel_index": 53,
          "channel_name": "POz",
          "abs_mean_weight": 0.10415878,
          "signed_mean_weight": -0.0206623,
          "l2_weight": 0.10990167
        },
        {
          "rank": 6,
          "channel_index": 57,
          "channel_name": "O1",
          "abs_mean_weight": 0.10182638,
          "signed_mean_weight": -0.02772895,
          "l2_weight": 0.10652643
        },
        {
          "rank": 7,
          "channel_index": 49,
          "channel_name": "P8",
          "abs_mean_weight": 0.10128416,
          "signed_mean_weight": 0.00098829,
          "l2_weight": 0.10243237
        },
        {
          "rank": 8,
          "channel_index": 6,
          "channel_name": "F5",
          "abs_mean_weight": 0.0950335,
          "signed_mean_weight": 0.00372578,
          "l2_weight": 0.10719806
        },
        {
          "rank": 9,
          "channel_index": 39,
          "channel_name": "CP6",
          "abs_mean_weight": 0.09475638,
          "signed_mean_weight": 0.08011737,
          "l2_weight": 0.11400496
        },
        {
          "rank": 10,
          "channel_index": 37,
          "channel_name": "CP2",
          "abs_mean_weight": 0.09308273,
          "signed_mean_weight": 0.0216136,
          "l2_weight": 0.10065624
        },
        {
          "rank": 11,
          "channel_index": 59,
          "channel_name": "O2",
          "abs_mean_weight": 0.09200932,
          "signed_mean_weight": 0.01472179,
          "l2_weight": 0.09919578
        },
        {
          "rank": 12,
          "channel_index": 17,
          "channel_name": "FC1",
          "abs_mean_weight": 0.09198052,
          "signed_mean_weight": 0.09198052,
          "l2_weight": 0.09261774
        },
        {
          "rank": 13,
          "channel_index": 8,
          "channel_name": "F1",
          "abs_mean_weight": 0.09072495,
          "signed_mean_weight": -0.08031636,
          "l2_weight": 0.11113945
        },
        {
          "rank": 14,
          "channel_index": 14,
          "channel_name": "FT7",
          "abs_mean_weight": 0.08824527,
          "signed_mean_weight": -0.07654221,
          "l2_weight": 0.11257565
        },
        {
          "rank": 15,
          "channel_index": 46,
          "channel_name": "P2",
          "abs_mean_weight": 0.08673711,
          "signed_mean_weight": -0.01345779,
          "l2_weight": 0.10405222
        }
      ]
    }
  },
  {
    "subject_id": "1",
    "fold_id": 5,
    "accuracy": 0.625,
    "balanced_accuracy": 0.625,
    "prediction_histogram": [
      10,
      22
    ],
    "collapse_diagnostics": {
      "prediction_histogram": [
        10,
        22
      ],
      "collapse_ratio": 0.6875,
      "collapse_threshold": 0.9,
      "collapse_flag": false,
      "majority_predicted_class": 1
    },
    "probability_diagnostics": {
      "available": true,
      "probability_shape": [
        32,
        2
      ],
      "mean_probability_by_class": [
        0.49728435,
        0.50271565
      ],
      "std_probability_by_class": [
        0.00495176,
        0.00495176
      ],
      "mean_confidence": 0.50455986,
      "std_confidence": 0.00333202,
      "mean_prediction_entropy": 0.69308339,
      "mean_normalized_prediction_entropy": 0.99990797,
      "mean_predicted_class_probability": 0.50455986
    },
    "spatial_update_stats": {
      "available": true,
      "parameter_name": "spatial_conv.1.weight",
      "initial_shape": [
        4,
        60
      ],
      "final_shape": [
        4,
        60
      ],
      "initial_l2": 1.1395002,
      "final_l2": 1.13897143,
      "delta_l2": 0.05307766,
      "delta_max_abs": 0.00588321,
      "relative_delta": 0.04657977,
      "changed": true
    },
    "n_trainable_params_final": 4342,
    "spatial_conv": {
      "available": true,
      "parameter_name": "spatial_conv.1.weight",
      "raw_weight_shape": [
        4,
        1,
        60,
        1
      ],
      "weight_matrix_shape": [
        4,
        60
      ],
      "n_virtual_filters": 4,
      "n_input_channels": 60,
      "channel_names": [
        "Fp1",
        "Fpz",
        "Fp2",
        "AF3",
        "AF4",
        "F7",
        "F5",
        "F3",
        "F1",
        "Fz",
        "F2",
        "F4",
        "F6",
        "F8",
        "FT7",
        "FC5",
        "FC3",
        "FC1",
        "FCz",
        "FC2",
        "FC4",
        "FC6",
        "FT8",
        "T7",
        "C5",
        "C3",
        "C1",
        "Cz",
        "C2",
        "C4",
        "C6",
        "T8",
        "TP7",
        "CP5",
        "CP3",
        "CP1",
        "CPz",
        "CP2",
        "CP4",
        "CP6",
        "TP8",
        "P7",
        "P5",
        "P3",
        "P1",
        "Pz",
        "P2",
        "P4",
        "P6",
        "P8",
        "PO7",
        "PO5",
        "PO3",
        "POz",
        "PO4",
        "PO6",
        "PO8",
        "O1",
        "Oz",
        "O2"
      ],
      "weight_matrix": [
        [
          0.09496263,
          0.02306439,
          -0.0086355,
          -0.04795073,
          0.02122943,
          0.06366908,
          0.09128288,
          0.04491739,
          -0.07329599,
          0.09336133,
          0.05344991,
          -0.08795939,
          0.0057989,
          0.11910023,
          -0.09085227,
          0.11007669,
          -0.05475752,
          0.00217363,
          0.0063376,
          0.02970883,
          -0.10760856,
          0.1140834,
          -0.04427088,
          0.03831701,
          0.10222141,
          0.08799461,
          -0.01786297,
          0.01829435,
          -0.03342204,
          0.06306215,
          -0.08661013,
          0.09935904,
          0.00586702,
          0.00913123,
          -0.0724958,
          -0.10041255,
          -0.06588766,
          -0.06376544,
          -0.12237102,
          0.13469046,
          0.02942241,
          -0.07859805,
          0.06021957,
          0.12830409,
          -0.02574905,
          -0.05870791,
          -0.10331053,
          0.12196659,
          -0.08212327,
          0.09983481,
          -0.02124254,
          -0.06798436,
          0.01858893,
          -0.1193103,
          -0.10506936,
          0.08747476,
          0.06711116,
          0.06757099,
          0.12536079,
          -0.07465604
        ],
        [
          0.01072453,
          0.01350035,
          -0.01073968,
          0.08355864,
          0.04254929,
          0.117965,
          0.09185413,
          -0.11534268,
          -0.1086453,
          0.05081407,
          0.05098874,
          0.11360716,
          -0.00034025,
          0.10894845,
          -0.01170865,
          -0.03560404,
          -0.0784297,
          0.09365992,
          0.02639094,
          0.12298088,
          0.03042095,
          -0.10087188,
          0.02871584,
          -0.00525497,
          -0.04643589,
          0.03007074,
          0.1043522,
          0.03354352,
          -0.04857602,
          0.0840518,
          -0.04391694,
          0.07222077,
          0.02517755,
          0.03442521,
          0.09592097,
          0.08880395,
          0.12220999,
          0.06220763,
          -0.09213868,
          0.07195329,
          -0.04856534,
          -0.05823918,
          0.06548487,
          0.08196253,
          -0.07790882,
          0.11330483,
          -0.06135987,
          -0.07473189,
          -0.10729586,
          -0.04779219,
          0.07328394,
          0.05702819,
          0.0250814,
          -0.09055854,
          -0.0233847,
          -0.12047046,
          -0.11323056,
          -0.03003473,
          -0.1226264,
          -0.0292606
        ],
        [
          0.04203099,
          0.02394539,
          -0.0554224,
          0.10572564,
          -0.12984306,
          0.00535389,
          -0.04996764,
          -0.04812585,
          -0.01228605,
          0.09957615,
          -0.03473678,
          0.07674826,
          0.09106333,
          -0.06044628,
          -0.00613738,
          0.06438635,
          0.1046419,
          0.0765591,
          -0.02890328,
          -0.08485357,
          -0.08250964,
          0.01843381,
          0.11520883,
          -0.06138185,
          0.06106364,
          0.02117469,
          0.0707292,
          -0.01878675,
          -0.06194198,
          -0.07390907,
          -0.02754668,
          0.0992733,
          -0.01752844,
          0.00045195,
          -0.08930487,
          -0.05902671,
          0.07495669,
          0.01806711,
          -0.05357384,
          0.01968869,
          0.07755642,
          -0.10361026,
          -0.04867943,
          0.00882269,
          -0.01127622,
          0.12450284,
          0.10019144,
          -0.01875879,
          -0.11082867,
          -0.09061995,
          0.05317478,
          0.09151033,
          -0.08416538,
          0.01314576,
          -0.08592457,
          0.07079088,
          0.11897183,
          -0.09328742,
          -0.03128628,
          0.09028912
        ],
        [
          0.11963505,
          -0.00797536,
          0.11021686,
          -0.12422997,
          0.10232729,
          -0.04437423,
          -0.06503843,
          -0.00729006,
          -0.13101695,
          0.03119376,
          -0.02120388,
          -0.02714199,
          -0.07384104,
          0.06803729,
          -0.10280154,
          0.01687164,
          -0.03706396,
          0.04954664,
          0.00173064,
          0.08211519,
          0.00461197,
          -0.10509194,
          -0.04801176,
          0.04179936,
          -0.03240468,
          -0.05559131,
          0.09852038,
          -0.08862266,
          -0.04190973,
          -0.02707835,
          -0.07409299,
          -0.00417453,
          0.01418555,
          -0.01944631,
          -0.11445781,
          0.02847835,
          0.10170129,
          -0.06087024,
          -0.02149656,
          -0.08431007,
          0.07732379,
          -0.0523837,
          -0.08063675,
          0.12494875,
          -0.05635518,
          0.04279476,
          -0.09445655,
          0.07224378,
          -0.03972833,
          0.11227977,
          0.02381645,
          0.10658868,
          0.03976534,
          0.10292339,
          0.01551656,
          -0.02018861,
          -0.07896181,
          0.02361567,
          -0.11509334,
          0.07131391
        ]
      ],
      "weight_matrix_norm": [
        [
          0.70504349,
          0.17123996,
          -0.06411365,
          -0.35600689,
          0.15761645,
          0.47270665,
          0.67772341,
          0.33348608,
          -0.54418099,
          0.69315475,
          0.39683518,
          -0.6530484,
          0.04305353,
          0.88425136,
          -0.67452633,
          0.81725675,
          -0.40654337,
          0.01613798,
          0.04705304,
          0.22057115,
          -0.79893225,
          0.84700429,
          -0.32868609,
          0.28448194,
          0.75893581,
          0.65330982,
          -0.13262238,
          0.13582514,
          -0.24813963,
          0.46820059,
          -0.64303088,
          0.73768431,
          0.04355925,
          0.06779421,
          -0.53824002,
          -0.74550599,
          -0.48917836,
          -0.47342211,
          -0.90853512,
          1.0,
          0.21844463,
          -0.5835458,
          0.44709605,
          0.95258486,
          -0.19117205,
          -0.43587282,
          -0.76702189,
          0.90553248,
          -0.60971856,
          0.74121666,
          -0.15771376,
          -0.50474519,
          0.13801222,
          -0.88581103,
          -0.7800802,
          0.6494503,
          0.4982622,
          0.50167614,
          0.93073249,
          -0.55427861
        ],
        [
          0.08720486,
          0.10977603,
          -0.08732808,
          0.67944419,
          0.345983,
          0.95921415,
          0.74689764,
          -0.93789113,
          -0.88343245,
          0.41318673,
          0.41460705,
          0.92377907,
          -0.00276666,
          0.88589752,
          -0.09520709,
          -0.28950873,
          -0.637739,
          0.76158112,
          0.21459384,
          1.0,
          0.24736328,
          -0.82022411,
          0.23349842,
          -0.04273001,
          -0.37758622,
          0.24451554,
          0.8485238,
          0.27275398,
          -0.39498839,
          0.68345422,
          -0.35710382,
          0.58725202,
          0.20472735,
          0.27992326,
          0.77996653,
          0.72209561,
          0.99373162,
          0.50583172,
          -0.74921143,
          0.58507705,
          -0.39490154,
          -0.47356287,
          0.53248012,
          0.66646564,
          -0.63350356,
          0.92132074,
          -0.49893829,
          -0.60767078,
          -0.87245965,
          -0.3886148,
          0.59589702,
          0.46371594,
          0.20394552,
          -0.73636281,
          -0.19014907,
          -0.97958696,
          -0.92071676,
          -0.24422278,
          -0.99711764,
          -0.23792806
        ],
        [
          0.32370609,
          0.18441799,
          -0.42684147,
          0.81425714,
          -1.0,
          0.04123357,
          -0.38483104,
          -0.3706463,
          -0.09462234,
          0.76689619,
          -0.26752898,
          0.59108484,
          0.70133382,
          -0.46553344,
          -0.0472677,
          0.49587822,
          0.80591065,
          0.58962804,
          -0.22260162,
          -0.65350872,
          -0.63545674,
          0.14196992,
          0.88729298,
          -0.47273883,
          0.47028804,
          0.16307908,
          0.54472834,
          -0.14468817,
          -0.47705269,
          -0.56921846,
          -0.21215367,
          0.7645638,
          -0.13499713,
          0.00348074,
          -0.68779087,
          -0.45460042,
          0.57728684,
          0.13914578,
          -0.41260454,
          0.1516345,
          0.59730893,
          -0.79796535,
          -0.37490973,
          0.0679489,
          -0.08684501,
          0.95887172,
          0.77163494,
          -0.14447281,
          -0.85355866,
          -0.69791913,
          0.40953118,
          0.70477641,
          -0.64820856,
          0.10124347,
          -0.66175711,
          0.54520345,
          0.91627413,
          -0.71846294,
          -0.24095456,
          0.69537115
        ],
        [
          0.91312647,
          -0.06087273,
          0.84124118,
          -0.94819766,
          0.78102326,
          -0.33869079,
          -0.49641231,
          -0.05564214,
          -1.0,
          0.2380895,
          -0.16184074,
          -0.20716396,
          -0.56359911,
          0.51930147,
          -0.78464299,
          0.12877448,
          -0.28289437,
          0.37816966,
          0.0132093,
          0.62675238,
          0.03520131,
          -0.80212474,
          -0.36645454,
          0.31903782,
          -0.24733199,
          -0.42430621,
          0.7519666,
          -0.67642128,
          -0.31988022,
          -0.20667818,
          -0.56552213,
          -0.03186255,
          0.10827261,
          -0.14842592,
          -0.87361068,
          0.21736383,
          0.77624524,
          -0.46459821,
          -0.16407464,
          -0.64350504,
          0.59018153,
          -0.39982381,
          -0.61546803,
          0.95368379,
          -0.43013656,
          0.32663527,
          -0.72094905,
          0.55140787,
          -0.30323043,
          0.85698658,
          0.18178146,
          0.81354874,
          0.30351296,
          0.78557301,
          0.11843172,
          -0.1540916,
          -0.6026839,
          0.18024896,
          -0.87846136,
          0.54431057
        ]
      ],
      "channel_abs_mean": [
        0.0668383,
        0.01712137,
        0.04625361,
        0.09036624,
        0.07398727,
        0.05784055,
        0.07453577,
        0.05391899,
        0.08131108,
        0.06873632,
        0.04009483,
        0.0763642,
        0.04276088,
        0.08913307,
        0.05287496,
        0.05673468,
        0.06872327,
        0.05548482,
        0.01584061,
        0.07991461,
        0.05628778,
        0.08462026,
        0.05905183,
        0.0366883,
        0.0605314,
        0.04870784,
        0.07286619,
        0.03981182,
        0.04646245,
        0.06202534,
        0.05804168,
        0.06875691,
        0.01568964,
        0.01586368,
        0.09304486,
        0.06918038,
        0.09118891,
        0.05122761,
        0.07239503,
        0.07766063,
        0.05821699,
        0.0732078,
        0.06375515,
        0.08600952,
        0.04282232,
        0.08482759,
        0.0898296,
        0.07192527,
        0.08499403,
        0.08763168,
        0.04287943,
        0.08077789,
        0.04190026,
        0.0814845,
        0.0574738,
        0.07473118,
        0.09456884,
        0.0536272,
        0.0985917,
        0.06637992
      ],
      "channel_signed_mean": [
        0.0668383,
        0.01313369,
        0.00885482,
        0.0042759,
        0.00906574,
        0.03565343,
        0.01703273,
        -0.0314603,
        -0.08131108,
        0.06873632,
        0.0121245,
        0.01881351,
        0.00567023,
        0.05890992,
        -0.05287496,
        0.03893266,
        -0.01640232,
        0.05548482,
        0.00138898,
        0.03748783,
        -0.03877132,
        -0.01836165,
        0.01291051,
        0.00336989,
        0.02111112,
        0.02091218,
        0.0639347,
        -0.01389288,
        -0.04646245,
        0.01153163,
        -0.05804168,
        0.06666964,
        0.00692542,
        0.00614052,
        -0.04508438,
        -0.01053924,
        0.05824508,
        -0.01109024,
        -0.07239503,
        0.03550559,
        0.03393432,
        -0.0732078,
        -0.00090293,
        0.08600952,
        -0.04282232,
        0.05547363,
        -0.03973388,
        0.02517992,
        -0.08499403,
        0.01842561,
        0.03225816,
        0.04678571,
        -0.00018243,
        -0.02344993,
        -0.04971552,
        0.00440164,
        -0.00152734,
        -0.00803387,
        -0.03591131,
        0.0144216
      ],
      "channel_l2": [
        0.07939154,
        0.01837943,
        0.06206712,
        0.09472634,
        0.0860105,
        0.07065272,
        0.07664285,
        0.06650329,
        0.09286077,
        0.07447629,
        0.04216928,
        0.08256879,
        0.05869151,
        0.09265184,
        0.0689149,
        0.06673601,
        0.0732688,
        0.06537023,
        0.0198434,
        0.08653026,
        0.06952364,
        0.0929708,
        0.06775455,
        0.04186504,
        0.06592485,
        0.05519525,
        0.08049434,
        0.04915986,
        0.04761801,
        0.0656455,
        0.06260712,
        0.07899474,
        0.01715231,
        0.02029062,
        0.09425023,
        0.07460561,
        0.0938591,
        0.05469787,
        0.08184812,
        0.08777048,
        0.06168111,
        0.07590882,
        0.06478163,
        0.09857716,
        0.05008956,
        0.09167463,
        0.09137623,
        0.0806718,
        0.08960743,
        0.09092552,
        0.04800146,
        0.08308034,
        0.04909103,
        0.09110685,
        0.06930045,
        0.083042,
        0.09710089,
        0.06067983,
        0.10603993,
        0.07012044
      ],
      "top_channels_by_abs_weight": [
        {
          "rank": 1,
          "channel_index": 58,
          "channel_name": "Oz",
          "abs_mean_weight": 0.0985917,
          "signed_mean_weight": -0.03591131,
