[
  {
    "fold_id": 1,
    "fold_label": "subject=1",
    "model_name": "SignalJEPA_PreLocal",
    "strategy": "new",
    "warmup_epochs": 10,
    "n_train": 1795,
    "n_test": 449,
    "train_class_counts": [
      880,
      915
    ],
    "test_class_counts": [
      220,
      229
    ],
    "pretrained_load": {
      "loading_path": "random_initialization",
      "repo_id": null,
      "mode": "random",
      "model_name": "SignalJEPA_PreLocal"
    },
    "phase_1_trainable_groups": [
      "spatial_conv.",
      "final_layer."
    ],
    "phase_1_trainable_params": 1782,
    "phase_1_trainable_names": [
      "spatial_conv.1.weight",
      "spatial_conv.1.bias",
      "final_layer.1.weight",
      "final_layer.1.bias"
    ],
    "phase_2_trainable_groups": null,
    "phase_2_trainable_params": null,
    "phase_2_trainable_names": null,
    "final_trainable_parameters": [
      {
        "name": "feature_encoder.1.0.weight",
        "shape": [
          8,
          1,
          32
        ],
        "num_params": 256,
        "requires_grad": false
      },
      {
        "name": "feature_encoder.1.2.weight",
        "shape": [
          8
        ],
        "num_params": 8,
        "requires_grad": false
      },
      {
        "name": "feature_encoder.1.2.bias",
        "shape": [
          8
        ],
        "num_params": 8,
        "requires_grad": false
      },
      {
        "name": "feature_encoder.2.0.weight",
        "shape": [
          16,
          8,
          2
        ],
        "num_params": 256,
        "requires_grad": false
      },
      {
        "name": "feature_encoder.3.0.weight",
        "shape": [
          32,
          16,
          2
        ],
        "num_params": 1024,
        "requires_grad": false
      },
      {
        "name": "feature_encoder.4.0.weight",
        "shape": [
          64,
          32,
          2
        ],
        "num_params": 4096,
        "requires_grad": false
      },
      {
        "name": "feature_encoder.5.0.weight",
        "shape": [
          64,
          64,
          2
        ],
        "num_params": 8192,
        "requires_grad": false
      },
      {
        "name": "spatial_conv.1.weight",
        "shape": [
          4,
          1,
          60,
          1
        ],
        "num_params": 240,
        "requires_grad": true
      },
      {
        "name": "spatial_conv.1.bias",
        "shape": [
          4
        ],
        "num_params": 4,
        "requires_grad": true
      },
      {
        "name": "final_layer.1.weight",
        "shape": [
          2,
          768
        ],
        "num_params": 1536,
        "requires_grad": true
      },
      {
        "name": "final_layer.1.bias",
        "shape": [
          2
        ],
        "num_params": 2,
        "requires_grad": true
      }
    ],
    "n_trainable_params_final": 1782,
    "best_epoch": 15,
    "stopped_epoch": 50,
    "best_valid_loss": 0.35721146969077977,
    "accuracy": 0.8418708240534521,
    "balanced_accuracy": 0.8421198888447796,
    "confusion_matrix": [
      [
        188,
        32
      ],
      [
        39,
        190
      ]
    ],
    "prediction_histogram": [
      227,
      222
    ],
    "collapse_diagnostics": {
      "prediction_histogram": [
        227,
        222
      ],
      "collapse_ratio": 0.50556793,
      "collapse_threshold": 0.9,
      "collapse_flag": false,
      "majority_predicted_class": 0
    },
    "probability_diagnostics": {
      "available": true,
      "probability_shape": [
        449,
        2
      ],
      "mean_probability_by_class": [
        0.50620524,
        0.49379476
      ],
      "std_probability_by_class": [
        0.41953016,
        0.41953016
      ],
      "mean_confidence": 0.89954432,
      "std_confidence": 0.12809528,
      "mean_prediction_entropy": 0.24366899,
      "mean_normalized_prediction_entropy": 0.35154004,
      "mean_predicted_class_probability": 0.89954432
    },
    "spatial_conv_initial": {
      "available": true,
      "parameter_name": "spatial_conv.1.weight",
      "raw_weight_shape": [
        4,
        1,
        60,
        1
      ],
      "weight_matrix_shape": [
        4,
        60
      ],
      "n_virtual_filters": 4,
      "n_input_channels": 60,
      "channel_names": [
        "Fp1",
        "Fpz",
        "Fp2",
        "AF3",
        "AF4",
        "F7",
        "F5",
        "F3",
        "F1",
        "Fz",
        "F2",
        "F4",
        "F6",
        "F8",
        "FT7",
        "FC5",
        "FC3",
        "FC1",
        "FCz",
        "FC2",
        "FC4",
        "FC6",
        "FT8",
        "T7",
        "C5",
        "C3",
        "C1",
        "Cz",
        "C2",
        "C4",
        "C6",
        "T8",
        "TP7",
        "CP5",
        "CP3",
        "CP1",
        "CPz",
        "CP2",
        "CP4",
        "CP6",
        "TP8",
        "P7",
        "P5",
        "P3",
        "P1",
        "Pz",
        "P2",
        "P4",
        "P6",
        "P8",
        "PO7",
        "PO5",
        "PO3",
        "POz",
        "PO4",
        "PO6",
        "PO8",
        "O1",
        "Oz",
        "O2"
      ],
      "weight_matrix": [
        [
          0.09860362,
          0.02757107,
          -0.00453342,
          -0.04340911,
          0.02576071,
          0.06880875,
          0.0960246,
          0.04289424,
          -0.07277799,
          0.09152263,
          0.05239789,
          -0.08542095,
          0.01087321,
          0.12446697,
          -0.08788451,
          0.11290868,
          -0.05113648,
          0.00419681,
          0.00290361,
          0.03044201,
          -0.10243709,
          0.11921524,
          -0.03911539,
          0.04228823,
          0.10331213,
          0.08389606,
          -0.01665223,
          0.01591225,
          -0.03120496,
          0.06290273,
          -0.09196522,
          0.09813812,
          0.01074813,
          0.00808492,
          -0.07376412,
          -0.10413817,
          -0.062893,
          -0.06088749,
          -0.12183961,
          0.12901251,
          0.03479216,
          -0.07470614,
          0.05674176,
          0.12395246,
          -0.0290658,
          -0.05614749,
          -0.10394765,
          0.11709003,
          -0.08659275,
          0.09497562,
          -0.0239225,
          -0.07232979,
          0.01411721,
          -0.12062103,
          -0.10999423,
          0.0829183,
          0.06248488,
          0.06250216,
          0.12028129,
          -0.08014211
        ],
        [
          0.01009926,
          0.0087412,
          -0.00977896,
          0.08421583,
          0.04553671,
          0.11333744,
          0.0909525,
          -0.11484723,
          -0.11017934,
          0.05184568,
          0.05248089,
          0.11000124,
          -0.00147277,
          0.10807167,
          -0.01666692,
          -0.03505213,
          -0.07999703,
          0.09310645,
          0.0278822,
          0.12351443,
          0.03080638,
          -0.09881285,
          0.02723894,
          -0.00470403,
          -0.04697136,
          0.03006224,
          0.10474245,
          0.03595626,
          -0.04673435,
          0.08497576,
          -0.04740096,
          0.07026555,
          0.02335858,
          0.03381139,
          0.10128237,
          0.09403583,
          0.12373872,
          0.06473045,
          -0.09133916,
          0.06924331,
          -0.04601314,
          -0.05847561,
          0.0647402,
          0.08305502,
          -0.07227547,
          0.11441143,
          -0.05989631,
          -0.07397005,
          -0.10722409,
          -0.05097675,
          0.07102665,
          0.05539307,
          0.02983716,
          -0.09010918,
          -0.02183408,
          -0.11826871,
          -0.11102631,
          -0.03497604,
          -0.12786898,
          -0.03197727
        ],
        [
          0.04709473,
          0.02920434,
          -0.05418927,
          0.10976914,
          -0.12658985,
          0.00878382,
          -0.04467642,
          -0.04240006,
          -0.00666616,
          0.10525598,
          -0.0294892,
          0.08200011,
          0.09430724,
          -0.06121391,
          -0.00176534,
          0.06909451,
          0.10997215,
          0.08174603,
          -0.02376501,
          -0.07964359,
          -0.0774474,
          0.01633754,
          0.11415614,
          -0.06285675,
          0.0570755,
          0.02552816,
          0.07502529,
          -0.01806435,
          -0.05698903,
          -0.06936607,
          -0.03224508,
          0.09792642,
          -0.01748952,
          -0.00407872,
          -0.08633603,
          -0.05719286,
          0.07931304,
          0.02280134,
          -0.04839899,
          0.01430883,
          0.07498378,
          -0.10826348,
          -0.05108214,
          0.00344549,
          -0.0129722,
          0.12906928,
          0.10434645,
          -0.02263926,
          -0.11671187,
          -0.09633882,
          0.04830891,
          0.08607472,
          -0.08869911,
          0.01658894,
          -0.09075859,
          0.06495057,
          0.11313045,
          -0.09842119,
          -0.03621754,
          0.08533759
        ],
        [
          0.12180255,
          -0.00603986,
          0.11095531,
          -0.12369663,
          0.10324408,
          -0.04422085,
          -0.06285778,
          -0.00306022,
          -0.12783846,
          0.03429446,
          -0.01821135,
          -0.02381252,
          -0.07222682,
          0.06508011,
          -0.10177355,
          0.01723605,
          -0.03398101,
          0.05306143,
          0.003645,
          0.08476456,
          0.00781615,
          -0.10806764,
          -0.04963005,
          0.0397224,
          -0.03605769,
          -0.05288761,
          0.1004701,
          -0.08451293,
          -0.03914668,
          -0.02354313,
          -0.07526991,
          -0.00433752,
          0.01454157,
          -0.0221094,
          -0.11260715,
          0.03097835,
          0.1044676,
          -0.05688865,
          -0.01832165,
          -0.08687175,
          0.07566848,
          -0.05502742,
          -0.08429559,
          0.12045878,
          -0.05579505,
          0.04463868,
          -0.09179308,
          0.07205968,
          -0.04402351,
          0.1097022,
          0.02096228,
          0.10205078,
          0.03712666,
          0.10450509,
          0.01452936,
          -0.0240638,
          -0.08278716,
          0.02288513,
          -0.1179,
          0.06873485
        ]
      ],
      "weight_matrix_norm": [
        [
          0.76429504,
          0.21370848,
          -0.03513936,
          -0.33647209,
          0.19967607,
          0.53334945,
          0.7443046,
          0.33248127,
          -0.5641157,
          0.709409,
          0.40614581,
          -0.66211373,
          0.0842803,
          0.96476668,
          -0.68120921,
          0.87517619,
          -0.39636838,
          0.03253024,
          0.02250643,
          0.23596172,
          -0.79400897,
          0.92405951,
          -0.30319068,
          0.32778394,
          0.80079162,
          0.65029395,
          -0.12907457,
          0.12333881,
          -0.24187547,
          0.48757079,
          -0.71283954,
          0.76068687,
          0.08331078,
          0.06266774,
          -0.5717594,
          -0.80719429,
          -0.48749539,
          -0.47195029,
          -0.9444015,
          1.0,
          0.26968047,
          -0.57906121,
          0.43981594,
          0.96077865,
          -0.22529446,
          -0.43520969,
          -0.80571765,
          0.90758663,
          -0.67119652,
          0.73617375,
          -0.18542773,
          -0.56064165,
          0.10942513,
          -0.93495607,
          -0.85258579,
          0.64271522,
          0.48433191,
          0.4844659,
          0.93232274,
          -0.62119645
        ],
        [
          0.07898133,
          0.0683606,
          -0.07647642,
          0.65861034,
          0.35612008,
          0.88635606,
          0.71129447,
          -0.89816332,
          -0.8616581,
          0.40545943,
          0.41042706,
          0.8602652,
          -0.01151781,
          0.84517503,
          -0.13034372,
          -0.27412534,
          -0.62561715,
          0.72813946,
          0.21805291,
          0.96594518,
          0.24092142,
          -0.77276635,
          0.21302223,
          -0.03678788,
          -0.36733973,
          0.23510192,
          0.81913888,
          0.28119615,
          -0.3654862,
          0.6645534,
          -0.37069944,
          0.54951203,
          0.18267591,
          0.26442215,
          0.79207933,
          0.73540771,
          0.96769929,
          0.50622481,
          -0.71431839,
          0.54151767,
          -0.359846,
          -0.45730877,
          0.50630105,
          0.6495322,
          -0.56523073,
          0.89475513,
          -0.46841934,
          -0.57848316,
          -0.83854657,
          -0.39866391,
          0.55546427,
          0.43320179,
          0.23334166,
          -0.70469934,
          -0.17075349,
          -0.92492104,
          -0.86828178,
          -0.2735303,
          -1.0,
          -0.25007838
        ],
        [
          0.36487949,
          0.22626869,
          -0.41984639,
          0.85046679,
          -0.9807899,
          0.06805506,
          -0.34614295,
          -0.32850623,
          -0.05164793,
          0.81549978,
          -0.22847578,
          0.63531852,
          0.73067147,
          -0.47427171,
          -0.01367746,
          0.53532881,
          0.85203964,
          0.63334996,
          -0.18412602,
          -0.61706078,
          -0.60004514,
          0.12657964,
          0.88445628,
          -0.48700005,
          0.44220823,
          0.19778651,
          0.58127922,
          -0.13995855,
          -0.44153827,
          -0.53743279,
          -0.24982771,
          0.75871205,
          -0.13550492,
          -0.03160098,
          -0.66891229,
          -0.44311753,
          0.61449975,
          0.17665969,
          -0.37498459,
          0.11086158,
          0.58095753,
          -0.83880126,
          -0.39577302,
          0.0266949,
          -0.10050569,
          1.0,
          0.80845302,
          -0.17540394,
          -0.90425754,
          -0.74641162,
          0.37428665,
          0.66688776,
          -0.68722093,
          0.12852742,
          -0.70317733,
          0.50322253,
          0.87650949,
          -0.76254541,
          -0.28060541,
          0.66117662
        ],
        [
          0.9527849,
          -0.04724601,
          0.86793375,
          -0.96760106,
          0.80761361,
          -0.34591192,
          -0.49169689,
          -0.02393819,
          -1.0,
          0.268264,
          -0.14245595,
          -0.18627037,
          -0.5649851,
          0.50908077,
          -0.79611051,
          0.13482682,
          -0.2658121,
          0.41506621,
          0.02851257,
          0.66305989,
          0.06114084,
          -0.84534526,
          -0.38822469,
          0.31072336,
          -0.28205666,
          -0.41370657,
          0.78591448,
          -0.66109163,
          -0.30621988,
          -0.18416315,
          -0.58878922,
          -0.03392969,
          0.11374954,
          -0.17294799,
          -0.88085502,
          0.24232419,
          0.81718445,
          -0.44500422,
          -0.14331874,
          -0.67954314,
          0.59190702,
          -0.43044493,
          -0.6593914,
          0.94227338,
          -0.43644965,
          0.34918034,
          -0.71803957,
          0.56367761,
          -0.34436825,
          0.85813141,
          0.16397478,
          0.79827917,
          0.29041854,
          0.8174777,
          0.11365408,
          -0.18823601,
          -0.64759195,
          0.17901599,
          -0.92225766,
          0.5376696
        ]
      ],
      "channel_abs_mean": [
        0.06940004,
        0.01788912,
        0.04486424,
        0.09027268,
        0.07528284,
        0.05878771,
        0.07362783,
        0.05080044,
        0.07936548,
        0.07072969,
        0.03814483,
        0.07530871,
        0.04472001,
        0.08970816,
        0.05202258,
        0.05857284,
        0.06877166,
        0.05802768,
        0.01454896,
        0.07959115,
        0.05462676,
        0.08560832,
        0.05753513,
        0.03739285,
        0.06085417,
        0.04809352,
        0.07422252,
        0.03861145,
        0.04351876,
        0.06019692,
        0.06172029,
        0.0676669,
        0.01653445,
        0.01702111,
        0.09349742,
        0.0715863,
        0.09260309,
        0.05132699,
        0.06997485,
        0.0748591,
        0.05786439,
        0.07411816,
        0.06421492,
        0.08272794,
        0.04252713,
        0.08606672,
        0.08999588,
        0.07143976,
        0.08863805,
        0.08799835,
        0.04105509,
        0.07896209,
        0.04244503,
        0.08295606,
        0.05927907,
        0.07255035,
        0.0923572,
        0.05469613,
        0.10056695,
        0.06654796
      ],
      "channel_signed_mean": [
        0.06940004,
        0.01486919,
        0.01061342,
        0.00671981,
        0.01198791,
        0.03667729,
        0.01986073,
        -0.02935332,
        -0.07936548,
        0.07072969,
        0.01429456,
        0.02069197,
        0.00787022,
        0.05910121,
        -0.05202258,
        0.04104678,
        -0.01378559,
        0.05802768,
        0.00266645,
        0.03976935,
        -0.03531549,
        -0.01783193,
        0.01316241,
        0.00361246,
        0.01933965,
        0.02164971,
        0.0658964,
        -0.01267719,
        -0.04351876,
        0.01374232,
        -0.06172029,
        0.06549814,
        0.00778969,
        0.00392705,
        -0.04285623,
        -0.00907921,
        0.06115659,
        -0.00756109,
        -0.06997485,
        0.03142323,
        0.03485782,
        -0.07411816,
        -0.00347394,
        0.08272794,
        -0.04252713,
        0.05799298,
        -0.03782265,
        0.0231351,
        -0.08863805,
        0.01434056,
        0.02909384,
        0.0427972,
        -0.00190452,
        -0.02240905,
        -0.05201438,
        0.00138409,
        -0.00454953,
        -0.01200248,
        -0.04042631,
        0.01048827
      ],
      "channel_l2": [
        0.08197324,
        0.02077225,
        0.06197527,
        0.09529793,
        0.08576354,
        0.0700226,
        0.0765509,
        0.06487861,
        0.09195546,
        0.07635329,
        0.04092997,
        0.08168241,
        0.0596468,
        0.0937471,
        0.06775405,
        0.06900752,
        0.07460403,
        0.06742468,
        0.01846558,
        0.08618391,
        0.06614678,
        0.09476522,
        0.06664596,
        0.04283475,
        0.06602552,
        0.05336449,
        0.08211473,
        0.04747317,
        0.0445479,
        0.06431089,
        0.06597302,
        0.07774435,
        0.01716455,
        0.02070047,
        0.09464875,
        0.07732751,
        0.0954867,
        0.05397578,
        0.08041436,
        0.08542585,
        0.06057225,
        0.0770542,
        0.06543327,
        0.09589648,
        0.04834752,
        0.0933997,
        0.09179711,
        0.07887772,
        0.09294493,
        0.09073965,
        0.04579912,
        0.08081339,
        0.05083176,
        0.09201305,
        0.07249773,
        0.0800946,
        0.09471459,
        0.06192799,
        0.10727324,
        0.06973573
      ],
      "top_channels_by_abs_weight": [
        {
          "rank": 1,
          "channel_index": 58,
          "channel_name": "Oz",
          "abs_mean_weight": 0.10056695,
          "signed_mean_weight": -0.04042631,
          "l2_weight": 0.10727324
        },
        {
          "rank": 2,
          "channel_index": 34,
          "channel_name": "CP3",
          "abs_mean_weight": 0.09349742,
          "signed_mean_weight": -0.04285623,
          "l2_weight": 0.09464875
        },
        {
          "rank": 3,
          "channel_index": 36,
          "channel_name": "CPz",
          "abs_mean_weight": 0.09260309,
          "signed_mean_weight": 0.06115659,
          "l2_weight": 0.0954867
        },
        {
          "rank": 4,
          "channel_index": 56,
          "channel_name": "PO8",
          "abs_mean_weight": 0.0923572,
          "signed_mean_weight": -0.00454953,
          "l2_weight": 0.09471459
        },
        {
          "rank": 5,
          "channel_index": 3,
          "channel_name": "AF3",
          "abs_mean_weight": 0.09027268,
          "signed_mean_weight": 0.00671981,
          "l2_weight": 0.09529793
        },
        {
          "rank": 6,
          "channel_index": 46,
          "channel_name": "P2",
          "abs_mean_weight": 0.08999588,
          "signed_mean_weight": -0.03782265,
          "l2_weight": 0.09179711
        },
        {
          "rank": 7,
          "channel_index": 13,
          "channel_name": "F8",
          "abs_mean_weight": 0.08970816,
          "signed_mean_weight": 0.05910121,
          "l2_weight": 0.0937471
        },
        {
          "rank": 8,
          "channel_index": 48,
          "channel_name": "P6",
          "abs_mean_weight": 0.08863805,
          "signed_mean_weight": -0.08863805,
          "l2_weight": 0.09294493
        },
        {
          "rank": 9,
          "channel_index": 49,
          "channel_name": "P8",
          "abs_mean_weight": 0.08799835,
          "signed_mean_weight": 0.01434056,
          "l2_weight": 0.09073965
        },
        {
          "rank": 10,
          "channel_index": 45,
          "channel_name": "Pz",
          "abs_mean_weight": 0.08606672,
          "signed_mean_weight": 0.05799298,
          "l2_weight": 0.0933997
        },
        {
          "rank": 11,
          "channel_index": 21,
          "channel_name": "FC6",
          "abs_mean_weight": 0.08560832,
          "signed_mean_weight": -0.01783193,
          "l2_weight": 0.09476522
        },
        {
          "rank": 12,
          "channel_index": 53,
          "channel_name": "POz",
          "abs_mean_weight": 0.08295606,
          "signed_mean_weight": -0.02240905,
          "l2_weight": 0.09201305
        },
        {
          "rank": 13,
          "channel_index": 43,
          "channel_name": "P3",
          "abs_mean_weight": 0.08272794,
          "signed_mean_weight": 0.08272794,
          "l2_weight": 0.09589648
        },
        {
          "rank": 14,
          "channel_index": 19,
          "channel_name": "FC2",
          "abs_mean_weight": 0.07959115,
          "signed_mean_weight": 0.03976935,
          "l2_weight": 0.08618391
        },
        {
          "rank": 15,
          "channel_index": 8,
          "channel_name": "F1",
          "abs_mean_weight": 0.07936548,
          "signed_mean_weight": -0.07936548,
          "l2_weight": 0.09195546
        }
      ]
    },
    "spatial_conv": {
      "available": true,
      "parameter_name": "spatial_conv.1.weight",
      "raw_weight_shape": [
        4,
        1,
        60,
        1
      ],
      "weight_matrix_shape": [
        4,
        60
      ],
      "n_virtual_filters": 4,
      "n_input_channels": 60,
      "channel_names": [
        "Fp1",
        "Fpz",
        "Fp2",
        "AF3",
        "AF4",
        "F7",
        "F5",
        "F3",
        "F1",
        "Fz",
        "F2",
        "F4",
        "F6",
        "F8",
        "FT7",
        "FC5",
        "FC3",
        "FC1",
        "FCz",
        "FC2",
        "FC4",
        "FC6",
        "FT8",
        "T7",
        "C5",
        "C3",
        "C1",
        "Cz",
        "C2",
        "C4",
        "C6",
        "T8",
        "TP7",
        "CP5",
        "CP3",
        "CP1",
        "CPz",
        "CP2",
        "CP4",
        "CP6",
        "TP8",
        "P7",
        "P5",
        "P3",
        "P1",
        "Pz",
        "P2",
        "P4",
        "P6",
        "P8",
        "PO7",
        "PO5",
        "PO3",
        "POz",
        "PO4",
        "PO6",
        "PO8",
        "O1",
        "Oz",
        "O2"
      ],
      "weight_matrix": [
        [
          0.01954847,
          -0.00953642,
          0.05160916,
          -0.10988206,
          -0.02132144,
          0.11531667,
          0.14403372,
          0.05435498,
          -0.05705223,
          -0.00210048,
          0.05261322,
          -0.11308109,
          -0.1211689,
          -0.09311886,
          -0.0207442,
          0.09851216,
          0.05125184,
          0.06251439,
          0.04237191,
          0.03125835,
          -0.10744032,
          0.00209588,
          -0.04800722,
          -0.02250291,
          0.09354192,
          0.14807682,
          0.00508016,
          0.01404366,
          0.05845481,
          0.18826196,
          0.03101963,
          0.13721292,
          0.04422194,
          -0.16974723,
          0.04037604,
          -0.01174644,
          0.00485876,
          -0.09380117,
          -0.12112011,
          0.12717924,
          0.14914034,
          -0.00698539,
          0.008583,
          0.20134129,
          -0.02462779,
          -0.08828761,
          -0.0772508,
          -0.02171689,
          -0.06632009,
          0.0851926,
          0.0183782,
          0.08797918,
          0.21766281,
          -0.18461347,
          -0.20489606,
          0.07956427,
          0.11603005,
          0.08670696,
          0.05565986,
          0.00325555
        ],
        [
          -0.027496,
          -0.02061542,
          0.03453505,
          -0.01447246,
          0.05394595,
          0.1981425,
          -0.06120989,
          -0.19250444,
          -0.15671884,
          0.07474036,
          0.09109267,
          0.16617076,
          -0.00551633,
          -0.00700213,
          0.13668557,
          0.04842827,
          -0.07705566,
          0.06817744,
          0.11773858,
          0.1281123,
          0.00477694,
          -0.14645086,
          0.09378645,
          0.00308576,
          -0.09353127,
          0.09907912,
          0.07769774,
          -0.04724661,
          -0.13270579,
          0.1605207,
          0.02805393,
          0.00285133,
          -0.03205439,
          0.14030471,
          0.16306002,
          0.05527641,
          -0.04860636,
          -0.01242753,
          -0.02916048,
          0.05980876,
          0.04298584,
          -0.08270218,
          0.03343542,
          0.12019967,
          -0.02246369,
          0.0193551,
          0.00739211,
          -0.14664695,
          -0.12148318,
          -0.05449439,
          0.11862618,
          0.15768063,
          0.10533135,
          -0.0144881,
          -0.09282397,
          -0.14116712,
          -0.10681944,
          0.07499757,
          -0.0871435,
          -0.04860939
        ],
        [
          -0.01061758,
          0.02689295,
          -0.00448259,
          0.0955554,
          -0.03759721,
          0.07818418,
          0.05949474,
          -0.03664652,
          -0.01446332,
          0.06622137,
          -0.02918844,
          0.0262171,
          -0.05819221,
          -0.25026345,
          -0.02447732,
          0.09644562,
          0.05652052,
          0.10533763,
          0.02864573,
          -0.12174063,
          -0.2119846,
          -0.06983103,
          0.23858967,
          0.00431586,
          0.09987287,
          0.14481823,
          0.1057507,
          -0.07702236,
          -0.03448695,
          -0.14838989,
          -0.04008624,
          0.09094539,
          0.01745855,
          -0.034533,
          0.00397109,
          -0.02652829,
          0.0797478,
          0.02898558,
          0.00708833,
          -0.02931423,
          0.18808077,
          -0.17723536,
          -0.13174486,
          0.02820214,
          -0.09411298,
          0.16881651,
          0.11157141,
          0.03678621,
          -0.06965057,
          -0.04315048,
          -0.04188349,
          0.06486737,
          0.07241509,
          0.08310093,
          -0.13205078,
          0.05735351,
          0.09538426,
          -0.04998949,
          -0.09130941,
          -0.01363769
        ],
        [
          0.08221583,
          -0.04461421,
          -0.05100194,
          -0.08050554,
          0.13389316,
          -0.11190511,
          -0.14110631,
          -0.02686895,
          -0.07346626,
          0.16833742,
          0.03133089,
          0.06104053,
          0.05620632,
          0.20355317,
          -0.17384075,
          0.00250721,
          -0.06538142,
          0.1112249,
          -0.01000249,
          0.10988513,
          -0.00672933,
          0.11042602,
          -0.10175119,
          0.03295583,
          0.03208476,
          0.06953266,
          0.09945542,
          -0.17242552,
          -0.14196283,
          -0.0185006,
          0.0544008,
          0.12004194,
          -0.0644209,
          0.02049385,
          -0.07806487,
          0.06297145,
          0.04185263,
          -0.06655338,
          0.00243163,
          -0.10844751,
          0.068348,
          -0.08630781,
          -0.00908999,
          0.17164779,
          -0.00098804,
          0.00313801,
          -0.10771703,
          0.06631399,
          -0.13328248,
          0.15324992,
          0.03610217,
          0.08906495,
          -0.06680417,
          0.07920969,
          0.02583793,
          0.01923881,
          -0.13364336,
          -0.01337832,
          -0.02696397,
          0.11913604
        ]
      ],
      "weight_matrix_norm": [
        [
          0.08981081,
          -0.04381281,
          0.237106,
          -0.50482702,
          -0.09795627,
          0.52979499,
          0.66172862,
          0.24972102,
          -0.26211292,
          -0.00965017,
          0.24171895,
          -0.51952416,
          -0.55668169,
          -0.42781246,
          -0.09530428,
          0.45259067,
          0.23546438,
          0.28720751,
          0.19466765,
          0.14360906,
          -0.49360901,
          0.009629,
          -0.22055775,
          -0.10338426,
          0.4297561,
          0.68030369,
          0.02333958,
          0.06452025,
          0.26855671,
          0.86492479,
          0.14251232,
          0.63039207,
          0.20316719,
          -0.7798633,
          0.18549813,
          -0.0539662,
          0.02232242,
          -0.43094715,
          -0.55645752,
          0.58429474,
          0.68518984,
          -0.03209272,
          0.03943257,
          0.92501462,
          -0.11314651,
          -0.4056164,
          -0.35491043,
          -0.09977307,
          -0.30469188,
          0.39139712,
          0.08443427,
          0.40419942,
          1.0,
          -0.84816265,
          -0.94134623,
          0.3655391,
          0.53307247,
          0.3983545,
          0.25571597,
          0.01495687
        ],
        [
          -0.13876882,
          -0.10404343,
          0.17429402,
          -0.07304065,
          0.27225837,
          1.0,
          -0.30891851,
          -0.9715454,
          -0.79094005,
          0.37720507,
          0.45973313,
          0.83864272,
          -0.02784023,
          -0.03533886,
          0.68983465,
          0.24441132,
          -0.38889009,
          0.34408286,
          0.59421164,
          0.64656651,
          0.02410863,
          -0.73911887,
          0.47332829,
          0.01557345,
          -0.47204044,
          0.50003976,
          0.39213061,
          -0.23844762,
          -0.66974926,
          0.81012756,
          0.1415846,
          0.01439032,
          -0.16177441,
          0.70810008,
          0.82294321,
          0.27897301,
          -0.24531011,
          -0.06272016,
          -0.14716922,
          0.30184719,
          0.21694408,
          -0.4173874,
          0.1687443,
          0.60663241,
          -0.11337137,
          0.09768274,
          0.03730703,
          -0.74010849,
          -0.61311018,
          -0.27502626,
          0.59869123,
          0.79579407,
          0.53159392,
          -0.07311957,
          -0.46847075,
          -0.71245253,
          -0.53910416,
          0.37850323,
          -0.43980217,
          -0.2453254
        ],
        [
          -0.04242562,
          0.10745857,
          -0.01791147,
          0.38181925,
          -0.15023054,
          0.31240749,
          0.23772843,
          -0.14643174,
          -0.05779236,
          0.26460665,
          -0.11663084,
          0.10475799,
          -0.23252381,
          -1.0,
          -0.0978062,
          0.38537636,
          0.22584409,
          0.42090699,
          0.11446229,
          -0.4864499,
          -0.84704578,
          -0.27903005,
          0.95335406,
          0.01724526,
          0.39907095,
          0.57866311,
          0.4225575,
          -0.3077651,
          -0.13780257,
          -0.59293473,
          -0.16017616,
          0.36339858,
          0.06976068,
          -0.13798659,
          0.01586764,
          -0.10600146,
          0.3186554,
          0.11582025,
          0.02832346,
          -0.11713351,
          0.75153112,
          -0.70819515,
          -0.52642471,
          0.11268982,
          -0.37605563,
          0.67455518,
          0.44581583,
          0.14698993,
          -0.27830899,
          -0.17242022,
          -0.16735761,
          0.25919634,
          0.28935543,
          0.33205381,
          -0.52764708,
          0.22917254,
          0.38113537,
          -0.19974747,
          -0.36485314,
          -0.05449334
        ],
        [
          0.40390345,
          -0.21917717,
          -0.25055832,
          -0.39550129,
          0.65777981,
          -0.54975861,
          -0.69321597,
          -0.13199967,
          -0.36091927,
          0.82699484,
          0.15391995,
          0.29987511,
          0.27612597,
          1.0,
          -0.85403115,
          0.01231722,
          -0.32120067,
          0.54641694,
          -0.04913945,
          0.53983498,
          -0.03305932,
          0.54249227,
          -0.49987525,
          0.16190279,
          0.15762347,
          0.34159455,
          0.48859674,
          -0.84707856,
          -0.69742382,
          -0.09088831,
          0.26725596,
          0.58973259,
          -0.31648195,
          0.10068058,
          -0.38351098,
          0.30936119,
          0.20561031,
          -0.32695824,
          0.01194593,
          -0.53277242,
          0.33577466,
          -0.42400622,
          -0.04465659,
          0.84325773,
          -0.00485398,
          0.01541618,
          -0.52918375,
          0.32578215,
          -0.65477967,
          0.75287414,
          0.17735989,
          0.43755126,
          -0.32819027,
          0.38913515,
          0.12693454,
          0.0945149,
          -0.65655255,
          -0.06572396,
          -0.13246645,
          0.58528215
        ]
      ],
      "channel_abs_mean": [
        0.03496947,
        0.02541475,
        0.03540718,
        0.07510386,
        0.06168944,
        0.12588711,
        0.10146116,
        0.07759371,
        0.07542516,
        0.07784991,
        0.05105631,
        0.09162737,
        0.06027094,
        0.1384844,
        0.08893695,
        0.06147331,
        0.06255236,
        0.08681359,
        0.04968968,
        0.09774911,
        0.0827328,
        0.08220094,
        0.12053363,
        0.01571509,
        0.07975771,
        0.1153767,
        0.071996,
        0.07768454,
        0.0919026,
        0.12891829,
        0.03839015,
        0.08776289,
        0.03953895,
        0.0912697,
        0.07136801,
        0.03913065,
        0.04376639,
        0.05044192,
        0.03995014,
        0.08118743,
        0.11213873,
        0.08830769,
        0.04571332,
        0.13034773,
        0.03554812,
        0.06989931,
        0.07598284,
        0.06786601,
        0.09768408,
        0.08402185,
        0.05374751,
        0.09989803,
        0.11555336,
        0.09035304,
        0.11390218,
        0.07433092,
        0.11296927,
        0.05626809,
        0.06526919,
        0.04615967
      ],
      "channel_signed_mean": [
        0.01591268,
        -0.01196827,
        0.00766492,
        -0.02732616,
        0.03223012,
        0.06993456,
        0.00030306,
        -0.05041623,
        -0.07542516,
        0.07679966,
        0.03646209,
        0.03508683,
        -0.03216778,
        -0.03670782,
        -0.02059417,
        0.06147331,
        -0.00866618,
        0.08681359,
        0.04468843,
        0.03687879,
        -0.08034433,
        -0.02594,
        0.04565443,
        0.00446363,
        0.03299207,
        0.1153767,
        0.071996,
        -0.07066271,
        -0.06267519,
        0.04547304,
        0.01834703,
        0.08776289,
        -0.0086987,
        -0.01087042,
        0.03233557,
        0.01999328,
        0.01946321,
        -0.03594913,
        -0.03519016,
        0.01230656,
        0.11213873,
        -0.08830769,
        -0.02470411,
        0.13034773,
        -0.03554812,
        0.0257555,
        -0.01650108,
        -0.01631591,
        -0.09768408,
        0.03519941,
        0.03280576,
        0.09989803,
        0.08215127,
        -0.00919774,
        -0.10098322,
        0.00374737,
        -0.00726212,
        0.02458418,
        -0.03743925,
        0.01503613
      ],
      "channel_l2": [
        0.04475027,
        0.02841477,
        0.04024136,
        0.08350973,
        0.07534205,
        0.13341093,
        0.10947942,
        0.1025638,
        0.09140874,
        0.0978689,
        0.05678824,
        0.1058458,
        0.0729003,
        0.16791801,
        0.11172847,
        0.07307186,
        0.06331197,
        0.08947515,
        0.06437853,
        0.10522044,
        0.11890016,
        0.09813578,
        0.13998118,
        0.02012844,
        0.08441299,
        0.11994845,
        0.08236707,
        0.09758646,
        0.10292058,
        0.1445435,
        0.03973535,
        0.10187817,
        0.04312168,
        0.11192862,
        0.09264002,
        0.04433569,
        0.05122875,
        0.05962931,
        0.06240307,
        0.08996087,
        0.12662588,
        0.10694608,
        0.06824759,
        0.14598338,
        0.04992338,
        0.09575774,
        0.08670852,
        0.08325821,
        0.10219093,
        0.09430657,
        0.06608237,
        0.10576372,
        0.13055509,
        0.10894033,
        0.13105695,
        0.08648437,
        0.11383329,
        0.0628901,
        0.07027886,
        0.06471641
      ],
      "top_channels_by_abs_weight": [
        {
          "rank": 1,
          "channel_index": 13,
          "channel_name": "F8",
          "abs_mean_weight": 0.1384844,
          "signed_mean_weight": -0.03670782,
          "l2_weight": 0.16791801
        },
        {
          "rank": 2,
          "channel_index": 43,
          "channel_name": "P3",
          "abs_mean_weight": 0.13034773,
          "signed_mean_weight": 0.13034773,
          "l2_weight": 0.14598338
        },
        {
          "rank": 3,
          "channel_index": 29,
          "channel_name": "C4",
          "abs_mean_weight": 0.12891829,
          "signed_mean_weight": 0.04547304,
          "l2_weight": 0.1445435
        },
        {
          "rank": 4,
          "channel_index": 5,
          "channel_name": "F7",
          "abs_mean_weight": 0.12588711,
          "signed_mean_weight": 0.06993456,
          "l2_weight": 0.13341093
        },
        {
          "rank": 5,
          "channel_index": 22,
          "channel_name": "FT8",
          "abs_mean_weight": 0.12053363,
          "signed_mean_weight": 0.04565443,
          "l2_weight": 0.13998118
        },
        {
          "rank": 6,
          "channel_index": 52,
          "channel_name": "PO3",
          "abs_mean_weight": 0.11555336,
          "signed_mean_weight": 0.08215127,
          "l2_weight": 0.13055509
        },
        {
          "rank": 7,
          "channel_index": 25,
          "channel_name": "C3",
          "abs_mean_weight": 0.1153767,
          "signed_mean_weight": 0.1153767,
          "l2_weight": 0.11994845
        },
        {
          "rank": 8,
          "channel_index": 54,
          "channel_name": "PO4",
          "abs_mean_weight": 0.11390218,
          "signed_mean_weight": -0.10098322,
          "l2_weight": 0.13105695
        },
        {
          "rank": 9,
          "channel_index": 56,
          "channel_name": "PO8",
          "abs_mean_weight": 0.11296927,
          "signed_mean_weight": -0.00726212,
          "l2_weight": 0.11383329
        },
        {
          "rank": 10,
          "channel_index": 40,
          "channel_name": "TP8",
          "abs_mean_weight": 0.11213873,
          "signed_mean_weight": 0.11213873,
          "l2_weight": 0.12662588
        },
        {
          "rank": 11,
          "channel_index": 6,
          "channel_name": "F5",
          "abs_mean_weight": 0.10146116,
          "signed_mean_weight": 0.00030306,
          "l2_weight": 0.10947942
        },
        {
          "rank": 12,
          "channel_index": 51,
          "channel_name": "PO5",
          "abs_mean_weight": 0.09989803,
          "signed_mean_weight": 0.09989803,
          "l2_weight": 0.10576372
        },
        {
          "rank": 13,
          "channel_index": 19,
          "channel_name": "FC2",
          "abs_mean_weight": 0.09774911,
          "signed_mean_weight": 0.03687879,
          "l2_weight": 0.10522044
        },
        {
          "rank": 14,
          "channel_index": 48,
          "channel_name": "P6",
          "abs_mean_weight": 0.09768408,
          "signed_mean_weight": -0.09768408,
          "l2_weight": 0.10219093
        },
        {
          "rank": 15,
          "channel_index": 28,
          "channel_name": "C2",
          "abs_mean_weight": 0.0919026,
          "signed_mean_weight": -0.06267519,
          "l2_weight": 0.10292058
        }
      ]
    },
    "spatial_update_stats": {
      "available": true,
      "parameter_name": "spatial_conv.1.weight",
      "initial_shape": [
        4,
        60
      ],
      "final_shape": [
        4,
        60
      ],
      "initial_l2": 1.1395002,
      "final_l2": 1.45670085,
      "delta_l2": 1.12847397,
      "delta_max_abs": 0.21849366,
      "relative_delta": 0.99032362,
      "changed": true
    },
    "subject_id": "1"
  },
  {
    "fold_id": 2,
    "fold_label": "subject=1",
    "model_name": "SignalJEPA_PreLocal",
    "strategy": "new",
    "warmup_epochs": 10,
    "n_train": 1795,
    "n_test": 449,
    "train_class_counts": [
      880,
      915
    ],
    "test_class_counts": [
      220,
      229
    ],
    "pretrained_load": {
      "loading_path": "random_initialization",
      "repo_id": null,
      "mode": "random",
      "model_name": "SignalJEPA_PreLocal"
    },
    "phase_1_trainable_groups": [
      "spatial_conv.",
      "final_layer."
    ],
    "phase_1_trainable_params": 1782,
    "phase_1_trainable_names": [
      "spatial_conv.1.weight",
      "spatial_conv.1.bias",
      "final_layer.1.weight",
      "final_layer.1.bias"
    ],
    "phase_2_trainable_groups": null,
    "phase_2_trainable_params": null,
    "phase_2_trainable_names": null,
    "final_trainable_parameters": [
      {
        "name": "feature_encoder.1.0.weight",
        "shape": [
          8,
          1,
          32
        ],
        "num_params": 256,
        "requires_grad": false
      },
      {
        "name": "feature_encoder.1.2.weight",
        "shape": [
          8
        ],
        "num_params": 8,
        "requires_grad": false
      },
      {
        "name": "feature_encoder.1.2.bias",
        "shape": [
          8
        ],
        "num_params": 8,
        "requires_grad": false
      },
      {
        "name": "feature_encoder.2.0.weight",
        "shape": [
          16,
          8,
          2
        ],
        "num_params": 256,
        "requires_grad": false
      },
      {
        "name": "feature_encoder.3.0.weight",
        "shape": [
          32,
          16,
          2
        ],
        "num_params": 1024,
        "requires_grad": false
      },
      {
        "name": "feature_encoder.4.0.weight",
        "shape": [
          64,
          32,
          2
        ],
        "num_params": 4096,
        "requires_grad": false
      },
      {
        "name": "feature_encoder.5.0.weight",
        "shape": [
          64,
          64,
          2
        ],
        "num_params": 8192,
        "requires_grad": false
      },
      {
        "name": "spatial_conv.1.weight",
        "shape": [
          4,
          1,
          60,
          1
        ],
        "num_params": 240,
        "requires_grad": true
      },
      {
        "name": "spatial_conv.1.bias",
        "shape": [
          4
        ],
        "num_params": 4,
        "requires_grad": true
      },
      {
        "name": "final_layer.1.weight",
        "shape": [
          2,
          768
        ],
        "num_params": 1536,
        "requires_grad": true
      },
      {
        "name": "final_layer.1.bias",
        "shape": [
          2
        ],
        "num_params": 2,
        "requires_grad": true
      }
    ],
    "n_trainable_params_final": 1782,
    "best_epoch": 9,
    "stopped_epoch": 50,
    "best_valid_loss": 0.4098383165833678,
    "accuracy": 0.8040089086859689,
    "balanced_accuracy": 0.802858277094085,
    "confusion_matrix": [
      [
        164,
        56
      ],
      [
        32,
        197
      ]
    ],
    "prediction_histogram": [
      196,
      253
    ],
    "collapse_diagnostics": {
      "prediction_histogram": [
        196,
        253
      ],
      "collapse_ratio": 0.56347439,
      "collapse_threshold": 0.9,
      "collapse_flag": false,
      "majority_predicted_class": 1
    },
    "probability_diagnostics": {
      "available": true,
      "probability_shape": [
        449,
        2
      ],
      "mean_probability_by_class": [
        0.45308414,
        0.54691586
      ],
      "std_probability_by_class": [
        0.41804017,
        0.41804016
      ],
      "mean_confidence": 0.9005129,
      "std_confidence": 0.1286394,
      "mean_prediction_entropy": 0.24040953,
      "mean_normalized_prediction_entropy": 0.34683764,
      "mean_predicted_class_probability": 0.9005129
    },
    "spatial_conv_initial": {
      "available": true,
      "parameter_name": "spatial_conv.1.weight",
      "raw_weight_shape": [
        4,
        1,
        60,
        1
      ],
      "weight_matrix_shape": [
        4,
        60
      ],
      "n_virtual_filters": 4,
      "n_input_channels": 60,
      "channel_names": [
        "Fp1",
        "Fpz",
        "Fp2",
        "AF3",
        "AF4",
        "F7",
        "F5",
        "F3",
        "F1",
        "Fz",
        "F2",
        "F4",
        "F6",
        "F8",
        "FT7",
        "FC5",
        "FC3",
        "FC1",
        "FCz",
        "FC2",
        "FC4",
        "FC6",
        "FT8",
        "T7",
        "C5",
        "C3",
        "C1",
        "Cz",
        "C2",
        "C4",
        "C6",
        "T8",
        "TP7",
        "CP5",
        "CP3",
        "CP1",
        "CPz",
        "CP2",
        "CP4",
        "CP6",
        "TP8",
        "P7",
        "P5",
        "P3",
        "P1",
        "Pz",
        "P2",
        "P4",
        "P6",
        "P8",
        "PO7",
        "PO5",
        "PO3",
        "POz",
        "PO4",
        "PO6",
        "PO8",
        "O1",
        "Oz",
        "O2"
      ],
      "weight_matrix": [
        [
          0.09860362,
          0.02757107,
          -0.00453342,
          -0.04340911,
          0.02576071,
          0.06880875,
          0.0960246,
          0.04289424,
          -0.07277799,
          0.09152263,
          0.05239789,
          -0.08542095,
          0.01087321,
          0.12446697,
          -0.08788451,
          0.11290868,
          -0.05113648,
          0.00419681,
          0.00290361,
          0.03044201,
          -0.10243709,
          0.11921524,
          -0.03911539,
          0.04228823,
          0.10331213,
          0.08389606,
          -0.01665223,
          0.01591225,
          -0.03120496,
          0.06290273,
          -0.09196522,
          0.09813812,
          0.01074813,
          0.00808492,
          -0.07376412,
          -0.10413817,
          -0.062893,
          -0.06088749,
          -0.12183961,
          0.12901251,
          0.03479216,
          -0.07470614,
          0.05674176,
          0.12395246,
          -0.0290658,
          -0.05614749,
          -0.10394765,
          0.11709003,
          -0.08659275,
          0.09497562,
          -0.0239225,
          -0.07232979,
          0.01411721,
          -0.12062103,
          -0.10999423,
          0.0829183,
          0.06248488,
          0.06250216,
          0.12028129,
          -0.08014211
        ],
        [
          0.01009926,
          0.0087412,
          -0.00977896,
          0.08421583,
          0.04553671,
          0.11333744,
          0.0909525,
          -0.11484723,
          -0.11017934,
          0.05184568,
          0.05248089,
          0.11000124,
          -0.00147277,
          0.10807167,
          -0.01666692,
          -0.03505213,
          -0.07999703,
          0.09310645,
          0.0278822,
          0.12351443,
          0.03080638,
          -0.09881285,
          0.02723894,
          -0.00470403,
          -0.04697136,
          0.03006224,
          0.10474245,
          0.03595626,
          -0.04673435,
          0.08497576,
          -0.04740096,
          0.07026555,
          0.02335858,
          0.03381139,
          0.10128237,
          0.09403583,
          0.12373872,
          0.06473045,
          -0.09133916,
          0.06924331,
          -0.04601314,
          -0.05847561,
          0.0647402,
          0.08305502,
          -0.07227547,
          0.11441143,
          -0.05989631,
          -0.07397005,
          -0.10722409,
          -0.05097675,
          0.07102665,
          0.05539307,
          0.02983716,
          -0.09010918,
          -0.02183408,
          -0.11826871,
          -0.11102631,
          -0.03497604,
          -0.12786898,
          -0.03197727
        ],
        [
          0.04709473,
          0.02920434,
          -0.05418927,
          0.10976914,
          -0.12658985,
          0.00878382,
          -0.04467642,
          -0.04240006,
          -0.00666616,
          0.10525598,
          -0.0294892,
          0.08200011,
          0.09430724,
          -0.06121391,
          -0.00176534,
          0.06909451,
          0.10997215,
          0.08174603,
          -0.02376501,
          -0.07964359,
          -0.0774474,
          0.01633754,
          0.11415614,
          -0.06285675,
          0.0570755,
          0.02552816,
          0.07502529,
          -0.01806435,
          -0.05698903,
          -0.06936607,
          -0.03224508,
          0.09792642,
          -0.01748952,
          -0.00407872,
          -0.08633603,
          -0.05719286,
          0.07931304,
          0.02280134,
          -0.04839899,
          0.01430883,
          0.07498378,
          -0.10826348,
          -0.05108214,
          0.00344549,
          -0.0129722,
          0.12906928,
          0.10434645,
          -0.02263926,
          -0.11671187,
          -0.09633882,
          0.04830891,
          0.08607472,
          -0.08869911,
          0.01658894,
          -0.09075859,
          0.06495057,
          0.11313045,
          -0.09842119,
          -0.03621754,
          0.08533759
        ],
        [
          0.12180255,
          -0.00603986,
          0.11095531,
          -0.12369663,
          0.10324408,
          -0.04422085,
          -0.06285778,
          -0.00306022,
          -0.12783846,
          0.03429446,
          -0.01821135,
          -0.02381252,
          -0.07222682,
          0.06508011,
          -0.10177355,
          0.01723605,
          -0.03398101,
          0.05306143,
          0.003645,
          0.08476456,
          0.00781615,
          -0.10806764,
          -0.04963005,
          0.0397224,
          -0.03605769,
          -0.05288761,
          0.1004701,
          -0.08451293,
          -0.03914668,
          -0.02354313,
          -0.07526991,
          -0.00433752,
          0.01454157,
          -0.0221094,
          -0.11260715,
          0.03097835,
          0.1044676,
          -0.05688865,
          -0.01832165,
          -0.08687175,
          0.07566848,
          -0.05502742,
          -0.08429559,
          0.12045878,
          -0.05579505,
          0.04463868,
          -0.09179308,
          0.07205968,
          -0.04402351,
          0.1097022,
          0.02096228,
          0.10205078,
          0.03712666,
          0.10450509,
          0.01452936,
          -0.0240638,
          -0.08278716,
          0.02288513,
          -0.1179,
          0.06873485
        ]
      ],
      "weight_matrix_norm": [
        [
          0.76429504,
          0.21370848,
          -0.03513936,
          -0.33647209,
          0.19967607,
          0.53334945,
          0.7443046,
          0.33248127,
          -0.5641157,
          0.709409,
          0.40614581,
          -0.66211373,
          0.0842803,
          0.96476668,
          -0.68120921,
          0.87517619,
          -0.39636838,
          0.03253024,
          0.02250643,
          0.23596172,
          -0.79400897,
          0.92405951,
          -0.30319068,
          0.32778394,
          0.80079162,
          0.65029395,
          -0.12907457,
          0.12333881,
          -0.24187547,
          0.48757079,
          -0.71283954,
          0.76068687,
          0.08331078,
          0.06266774,
          -0.5717594,
          -0.80719429,
          -0.48749539,
          -0.47195029,
          -0.9444015,
          1.0,
          0.26968047,
          -0.57906121,
          0.43981594,
          0.96077865,
          -0.22529446,
          -0.43520969,
          -0.80571765,
          0.90758663,
          -0.67119652,
          0.73617375,
          -0.18542773,
          -0.56064165,
          0.10942513,
          -0.93495607,
          -0.85258579,
          0.64271522,
          0.48433191,
          0.4844659,
          0.93232274,
          -0.62119645
        ],
        [
          0.07898133,
          0.0683606,
          -0.07647642,
          0.65861034,
          0.35612008,
          0.88635606,
          0.71129447,
          -0.89816332,
          -0.8616581,
          0.40545943,
          0.41042706,
          0.8602652,
          -0.01151781,
          0.84517503,
          -0.13034372,
          -0.27412534,
          -0.62561715,
          0.72813946,
          0.21805291,
          0.96594518,
          0.24092142,
          -0.77276635,
          0.21302223,
          -0.03678788,
          -0.36733973,
          0.23510192,
          0.81913888,
          0.28119615,
          -0.3654862,
          0.6645534,
          -0.37069944,
          0.54951203,
          0.18267591,
          0.26442215,
          0.79207933,
          0.73540771,
          0.96769929,
          0.50622481,
          -0.71431839,
          0.54151767,
          -0.359846,
          -0.45730877,
          0.50630105,
          0.6495322,
          -0.56523073,
          0.89475513,
          -0.46841934,
          -0.57848316,
          -0.83854657,
          -0.39866391,
          0.55546427,
          0.43320179,
          0.23334166,
          -0.70469934,
          -0.17075349,
          -0.92492104,
          -0.86828178,
          -0.2735303,
          -1.0,
          -0.25007838
        ],
        [
          0.36487949,
          0.22626869,
          -0.41984639,
          0.85046679,
          -0.9807899,
          0.06805506,
          -0.34614295,
          -0.32850623,
          -0.05164793,
          0.81549978,
          -0.22847578,
          0.63531852,
          0.73067147,
          -0.47427171,
          -0.01367746,
          0.53532881,
          0.85203964,
          0.63334996,
          -0.18412602,
          -0.61706078,
          -0.60004514,
          0.12657964,
          0.88445628,
          -0.48700005,
          0.44220823,
          0.19778651,
          0.58127922,
          -0.13995855,
          -0.44153827,
          -0.53743279,
          -0.24982771,
          0.75871205,
          -0.13550492,
          -0.03160098,
          -0.66891229,
          -0.44311753,
          0.61449975,
          0.17665969,
          -0.37498459,
          0.11086158,
          0.58095753,
          -0.83880126,
          -0.39577302,
          0.0266949,
          -0.10050569,
          1.0,
          0.80845302,
          -0.17540394,
          -0.90425754,
          -0.74641162,
          0.37428665,
          0.66688776,
          -0.68722093,
          0.12852742,
          -0.70317733,
          0.50322253,
          0.87650949,
          -0.76254541,
          -0.28060541,
          0.66117662
        ],
        [
          0.9527849,
          -0.04724601,
          0.86793375,
          -0.96760106,
          0.80761361,
          -0.34591192,
          -0.49169689,
          -0.02393819,
          -1.0,
          0.268264,
          -0.14245595,
          -0.18627037,
          -0.5649851,
          0.50908077,
          -0.79611051,
          0.13482682,
          -0.2658121,
          0.41506621,
          0.02851257,
          0.66305989,
          0.06114084,
          -0.84534526,
          -0.38822469,
          0.31072336,
          -0.28205666,
          -0.41370657,
          0.78591448,
          -0.66109163,
          -0.30621988,
          -0.18416315,
          -0.58878922,
          -0.03392969,
          0.11374954,
          -0.17294799,
          -0.88085502,
          0.24232419,
          0.81718445,
          -0.44500422,
          -0.14331874,
          -0.67954314,
          0.59190702,
          -0.43044493,
          -0.6593914,
          0.94227338,
          -0.43644965,
          0.34918034,
          -0.71803957,
          0.56367761,
          -0.34436825,
          0.85813141,
          0.16397478,
          0.79827917,
          0.29041854,
          0.8174777,
          0.11365408,
          -0.18823601,
          -0.64759195,
          0.17901599,
          -0.92225766,
          0.5376696
        ]
      ],
      "channel_abs_mean": [
        0.06940004,
        0.01788912,
        0.04486424,
        0.09027268,
        0.07528284,
        0.05878771,
        0.07362783,
        0.05080044,
        0.07936548,
        0.07072969,
        0.03814483,
        0.07530871,
        0.04472001,
        0.08970816,
        0.05202258,
        0.05857284,
        0.06877166,
        0.05802768,
        0.01454896,
        0.07959115,
        0.05462676,
        0.08560832,
        0.05753513,
        0.03739285,
        0.06085417,
        0.04809352,
        0.07422252,
        0.03861145,
        0.04351876,
        0.06019692,
        0.06172029,
        0.0676669,
        0.01653445,
        0.01702111,
        0.09349742,
        0.0715863,
        0.09260309,
        0.05132699,
        0.06997485,
        0.0748591,
        0.05786439,
        0.07411816,
        0.06421492,
        0.08272794,
        0.04252713,
        0.08606672,
        0.08999588,
        0.07143976,
        0.08863805,
        0.08799835,
        0.04105509,
        0.07896209,
        0.04244503,
        0.08295606,
        0.05927907,
        0.07255035,
        0.0923572,
        0.05469613,
        0.10056695,
        0.06654796
      ],
      "channel_signed_mean": [
        0.06940004,
        0.01486919,
        0.01061342,
        0.00671981,
        0.01198791,
        0.03667729,
        0.01986073,
        -0.02935332,
        -0.07936548,
        0.07072969,
        0.01429456,
        0.02069197,
        0.00787022,
        0.05910121,
        -0.05202258,
        0.04104678,
        -0.01378559,
        0.05802768,
        0.00266645,
        0.03976935,
        -0.03531549,
        -0.01783193,
        0.01316241,
        0.00361246,
        0.01933965,
        0.02164971,
        0.0658964,
        -0.01267719,
        -0.04351876,
        0.01374232,
        -0.06172029,
        0.06549814,
        0.00778969,
        0.00392705,
        -0.04285623,
        -0.00907921,
        0.06115659,
        -0.00756109,
        -0.06997485,
        0.03142323,
        0.03485782,
        -0.07411816,
        -0.00347394,
        0.08272794,
        -0.04252713,
        0.05799298,
        -0.03782265,
        0.0231351,
        -0.08863805,
        0.01434056,
        0.02909384,
        0.0427972,
        -0.00190452,
        -0.02240905,
        -0.05201438,
        0.00138409,
        -0.00454953,
        -0.01200248,
        -0.04042631,
        0.01048827
      ],
      "channel_l2": [
        0.08197324,
        0.02077225,
        0.06197527,
        0.09529793,
        0.08576354,
        0.0700226,
        0.0765509,
        0.06487861,
        0.09195546,
        0.07635329,
        0.04092997,
        0.08168241,
        0.0596468,
        0.0937471,
        0.06775405,
        0.06900752,
        0.07460403,
        0.06742468,
        0.01846558,
        0.08618391,
        0.06614678,
        0.09476522,
        0.06664596,
        0.04283475,
        0.06602552,
        0.05336449,
        0.08211473,
        0.04747317,
        0.0445479,
        0.06431089,
        0.06597302,
        0.07774435,
        0.01716455,
        0.02070047,
        0.09464875,
        0.07732751,
        0.0954867,
        0.05397578,
        0.08041436,
        0.08542585,
        0.06057225,
        0.0770542,
        0.06543327,
        0.09589648,
        0.04834752,
        0.0933997,
        0.09179711,
        0.07887772,
        0.09294493,
        0.09073965,
        0.04579912,
        0.08081339,
        0.05083176,
        0.09201305,
        0.07249773,
        0.0800946,
        0.09471459,
        0.06192799,
        0.10727324,
        0.06973573
      ],
      "top_channels_by_abs_weight": [
        {
          "rank": 1,
          "channel_index": 58,
          "channel_name": "Oz",
          "abs_mean_weight": 0.10056695,
          "signed_mean_weight": -0.04042631,
          "l2_weight": 0.10727324
        },
        {
          "rank": 2,
          "channel_index": 34,
          "channel_name": "CP3",
          "abs_mean_weight": 0.09349742,
          "signed_mean_weight": -0.04285623,
          "l2_weight": 0.09464875
        },
        {
          "rank": 3,
          "channel_index": 36,
          "channel_name": "CPz",
          "abs_mean_weight": 0.09260309,
          "signed_mean_weight": 0.06115659,
          "l2_weight": 0.0954867
        },
        {
          "rank": 4,
          "channel_index": 56,
          "channel_name": "PO8",
          "abs_mean_weight": 0.0923572,
          "signed_mean_weight": -0.00454953,
          "l2_weight": 0.09471459
        },
        {
          "rank": 5,
          "channel_index": 3,
          "channel_name": "AF3",
          "abs_mean_weight": 0.09027268,
          "signed_mean_weight": 0.00671981,
          "l2_weight": 0.09529793
        },
        {
          "rank": 6,
          "channel_index": 46,
          "channel_name": "P2",
          "abs_mean_weight": 0.08999588,
          "signed_mean_weight": -0.03782265,
          "l2_weight": 0.09179711
        },
        {
          "rank": 7,
          "channel_index": 13,
          "channel_name": "F8",
          "abs_mean_weight": 0.08970816,
          "signed_mean_weight": 0.05910121,
          "l2_weight": 0.0937471
        },
        {
          "rank": 8,
          "channel_index": 48,
          "channel_name": "P6",
          "abs_mean_weight": 0.08863805,
          "signed_mean_weight": -0.08863805,
          "l2_weight": 0.09294493
        },
        {
          "rank": 9,
          "channel_index": 49,
          "channel_name": "P8",
          "abs_mean_weight": 0.08799835,
          "signed_mean_weight": 0.01434056,
          "l2_weight": 0.09073965
        },
        {
          "rank": 10,
          "channel_index": 45,
          "channel_name": "Pz",
          "abs_mean_weight": 0.08606672,
          "signed_mean_weight": 0.05799298,
          "l2_weight": 0.0933997
        },
        {
          "rank": 11,
          "channel_index": 21,
          "channel_name": "FC6",
          "abs_mean_weight": 0.08560832,
          "signed_mean_weight": -0.01783193,
          "l2_weight": 0.09476522
        },
        {
          "rank": 12,
          "channel_index": 53,
          "channel_name": "POz",
          "abs_mean_weight": 0.08295606,
          "signed_mean_weight": -0.02240905,
          "l2_weight": 0.09201305
        },
        {
          "rank": 13,
          "channel_index": 43,
          "channel_name": "P3",
          "abs_mean_weight": 0.08272794,
          "signed_mean_weight": 0.08272794,
          "l2_weight": 0.09589648
        },
        {
          "rank": 14,
          "channel_index": 19,
          "channel_name": "FC2",
          "abs_mean_weight": 0.07959115,
          "signed_mean_weight": 0.03976935,
          "l2_weight": 0.08618391
        },
        {
          "rank": 15,
          "channel_index": 8,
          "channel_name": "F1",
          "abs_mean_weight": 0.07936548,
          "signed_mean_weight": -0.07936548,
          "l2_weight": 0.09195546
        }
      ]
    },
    "spatial_conv": {
      "available": true,
      "parameter_name": "spatial_conv.1.weight",
      "raw_weight_shape": [
        4,
        1,
        60,
        1
      ],
      "weight_matrix_shape": [
        4,
        60
      ],
      "n_virtual_filters": 4,
      "n_input_channels": 60,
      "channel_names": [
        "Fp1",
        "Fpz",
        "Fp2",
        "AF3",
        "AF4",
        "F7",
        "F5",
        "F3",
        "F1",
        "Fz",
        "F2",
        "F4",
        "F6",
        "F8",
        "FT7",
        "FC5",
        "FC3",
        "FC1",
        "FCz",
        "FC2",
        "FC4",
        "FC6",
        "FT8",
        "T7",
        "C5",
        "C3",
        "C1",
        "Cz",
        "C2",
        "C4",
        "C6",
        "T8",
        "TP7",
        "CP5",
        "CP3",
        "CP1",
        "CPz",
        "CP2",
        "CP4",
        "CP6",
        "TP8",
        "P7",
        "P5",
        "P3",
        "P1",
        "Pz",
        "P2",
        "P4",
        "P6",
        "P8",
        "PO7",
        "PO5",
        "PO3",
        "POz",
        "PO4",
        "PO6",
        "PO8",
        "O1",
        "Oz",
        "O2"
      ],
      "weight_matrix": [
        [
          0.10037687,
          -0.02028592,
          -0.00138412,
          -0.05933098,
          -0.0379413,
          0.1659355,
          0.10158795,
          0.02747875,
          -0.03649577,
          0.03359746,
          -0.05315779,
          -0.08777485,
          -0.0994327,
          0.01174799,
          0.00416477,
          0.10483889,
          0.03561996,
          0.07542216,
          -0.01104884,
          0.01512634,
          -0.07691675,
          -0.14769986,
          -0.07856023,
          0.09259239,
          0.10510501,
          0.16806047,
          -0.03332795,
          -0.08454266,
          0.10098203,
          0.16728787,
          -0.03691002,
          0.11970281,
          -0.01948526,
          -0.12263811,
          -0.14331061,
          -0.08514607,
          -0.05053549,
          0.07202105,
          0.01850961,
          0.01582493,
          0.00012592,
          -0.16964088,
          0.06437284,
          0.22587134,
          0.00562824,
          0.10040167,
          0.02033618,
          0.06777041,
          -0.13136634,
          0.09043442,
          0.00618906,
          0.08814926,
          0.14622164,
          -0.12286658,
          -0.14203158,
          0.03337416,
          0.15244573,
          0.17226125,
          0.06453693,
          -0.07044609
        ],
        [
          -0.02839304,
          -0.0441326,
          0.00764598,
          0.01857394,
          -0.00797506,
          0.20272769,
          0.03511465,
          -0.1261995,
          -0.09495685,
          0.16268665,
          0.10353805,
          0.18125831,
          0.07616143,
          0.0419069,
          0.03723739,
          0.01169308,
          -0.06547354,
          0.01826422,
          0.01515142,
          0.11092161,
          -0.02005081,
          -0.00309475,
          0.01224601,
          -0.05779873,
          -0.07526127,
          0.11591964,
          0.06566264,
          -0.15458377,
          -0.14079085,
          0.08713222,
          -0.06021355,
          0.05648623,
          0.00465164,
          0.15413842,
          0.12304702,
          -0.01417473,
          0.01005707,
          0.01513943,
          -0.05882613,
          0.07313327,
          0.02029336,
          -0.0469766,
          0.12356704,
          0.09374371,
          0.01139572,
          0.10728807,
          -0.08283496,
          -0.20503239,
          -0.0214858,
          0.00027048,
          0.09386601,
          0.10407659,
          0.13981061,
          -0.04574106,
          -0.0848252,
          -0.2613374,
          -0.06687095,
          0.11933018,
          -0.04121867,
          -0.09313747
        ],
        [
          -0.02894391,
          0.01039143,
          0.03749118,
          0.07681269,
          -0.08027218,
          0.00353887,
          -0.02256544,
          -0.06866942,
          -0.01886467,
          0.0050309,
          -0.10624839,
          0.079572,
          0.13322558,
          -0.18777905,
          0.1156324,
          0.10378134,
          0.16024843,
          0.05068432,
          0.01802444,
          -0.09376039,
          -0.14249045,
          -0.06636796,
          0.12760258,
          0.1192014,
          0.14226992,
          0.01951709,
          0.09957911,
          -0.04237891,
          -0.08078653,
          -0.04552988,
          0.05600674,
          0.12303431,
          -0.01532463,
          0.02838946,
          -0.0259731,
          -0.02650385,
          0.04128444,
          0.10588919,
          0.01524373,
          0.05575184,
          0.09655513,
          -0.12222745,
          -0.08583253,
          0.08436543,
          -0.05674457,
          0.11898096,
          0.20142385,
          0.0346562,
          -0.07841548,
          -0.12030812,
          -0.10019628,
          0.02392953,
          -0.09999909,
          0.07973366,
          -0.16402592,
          0.03367716,
          0.08594689,
          -0.17211547,
          -0.05792983,
          0.12091603
        ],
        [
          0.04306713,
          -0.0129617,
          0.01717057,
          -0.11283601,
          0.13700041,
          -0.15962408,
          -0.10971545,
          -0.00711619,
          -0.12281393,
          0.03682294,
          0.0791042,
          0.00882147,
          0.08233685,
          0.11084359,
          -0.16938129,
          0.03340034,
          -0.06141091,
          0.11981489,
          -0.00541548,
          0.15591912,
          0.01857901,
          0.03644726,
          0.03903146,
          -0.04754362,
          0.05247038,
          0.01907062,
          0.08551066,
          -0.14650148,
          -0.12601499,
          -0.00710183,
          0.03094695,
          0.14744397,
          -0.03276489,
          -0.07210949,
          -0.01614176,
          0.14406531,
          0.12107326,
          -0.13821015,
          -0.00104008,
          -0.06105339,
          0.08109485,
          -0.00732652,
          -0.06030848,
          0.11283628,
          0.05618474,
          0.00174771,
          -0.17829759,
          0.07102245,
          -0.13127889,
          0.14319395,
          0.07593719,
          0.0214166,
          0.00474103,
          0.11359977,
          0.01928068,
          -0.03959231,
          -0.20720683,
          0.04948592,
          -0.05401145,
          0.14414106
        ]
      ],
      "weight_matrix_norm": [
        [
          0.44439843,
          -0.08981182,
          -0.0061279,
          -0.262676,
          -0.1679775,
          0.73464614,
          0.44976026,
          0.12165663,
          -0.16157772,
          0.148746,
          -0.23534544,
          -0.38860554,
          -0.4402183,
          0.05201186,
          0.01843869,
          0.46415311,
          0.15770021,
          0.33391646,
          -0.04891654,
          0.06696881,
          -0.34053347,
          -0.65391147,
          -0.34780964,
          0.40993419,
          0.46533135,
          0.74405396,
          -0.14755282,
          -0.37429565,
          0.44707763,
          0.74063349,
          -0.16341169,
          0.52996016,
          -0.08626705,
          -0.54295558,
          -0.63447893,
          -0.37696713,
          -0.22373575,
          0.31885874,
          0.08194757,
          0.07006168,
          0.00055748,
          -0.75105095,
          0.28499785,
          1.0,
          0.02491791,
          0.44450822,
          0.09003434,
          0.30003986,
          -0.5815981,
          0.40038022,
          0.02740083,
          0.39026317,
          0.64736694,
          -0.54396713,
          -0.62881631,
          0.1477574,
          0.67492288,
          0.7626521,
          0.28572428,
          -0.31188592
        ],
        [
          -0.10864513,
          -0.1688721,
          0.02925711,
          0.07107265,
          -0.03051634,
          0.77573162,
          0.1343652,
          -0.48289874,
          -0.36334962,
          0.62251574,
          0.39618537,
          0.69357967,
          0.29142952,
          0.16035552,
          0.14248781,
          0.04474322,
          -0.25053263,
          0.06988749,
          0.05797647,
          0.42443833,
          -0.07672384,
          -0.01184197,
          0.04685898,
          -0.22116517,
          -0.28798506,
          0.44356316,
          0.2512562,
          -0.5915103,
          -0.53873211,
          0.33340889,
          -0.23040539,
          0.21614291,
          0.01779938,
          0.5898062,
          0.47083586,
          -0.05423919,
          0.0384831,
          0.05793058,
          -0.22509646,
          0.27984235,
          0.07765197,
          -0.17975461,
          0.47282574,
          0.35870761,
          0.0436054,
          0.41053471,
          -0.31696558,
          -0.78455055,
          -0.0822148,
          0.00103499,
          0.35917556,
          0.39824605,
          0.53498125,
          -0.17502682,
          -0.32458118,
          -1.0,
          -0.25587976,
          0.45661345,
          -0.15772206,
          -0.35638785
        ],
        [
          -0.14369653,
          0.05158985,
          0.18613081,
          0.38134855,
          -0.39852369,
          0.01756928,
          -0.11202961,
          -0.34092003,
          -0.09365656,
          0.02497668,
          -0.52748662,
          0.39504755,
          0.66141903,
          -0.93225825,
          0.57407498,
          0.51523858,
          0.79557818,
          0.25163016,
          0.08948512,
          -0.46548805,
          -0.70741594,
          -0.32949406,
          0.63350278,
          0.59179384,
          0.70632112,
          0.09689564,
          0.49437594,
          -0.21039669,
          -0.4010773,
          -0.22604014,
          0.27805415,
          0.61082298,
          -0.07608148,
          0.14094387,
          -0.12894747,
          -0.1315825,
          0.204963,
          0.52570337,
          0.07567988,
          0.27678868,
          0.47936293,
          -0.60681719,
          -0.42612892,
          0.41884527,
          -0.28171724,
          0.59069943,
          1.0,
          0.17205606,
          -0.3893058,
          -0.59728837,
          -0.49743998,
          0.11880187,
          -0.49646103,
          0.39585015,
          -0.81433213,
          0.16719547,
          0.42669666,
          -0.85449398,
          -0.28760165,
          0.60030639
        ],
        [
          0.20784612,
          -0.06255439,
          0.08286684,
          -0.54455739,
          0.6611771,
          -0.77036113,
          -0.52949727,
          -0.03434341,
          -0.59271175,
          0.17771102,
          0.38176444,
          0.04257327,
          0.39736551,
          0.53494179,
          -0.81745034,
          0.16119324,
          -0.29637495,
          0.57823813,
          -0.02613565,
          0.75248063,
          0.08966407,
          0.17589796,
          0.18836959,
          -0.22945008,
          0.25322708,
          0.09203663,
          0.41268262,
          -0.70703018,
          -0.60816044,
          -0.03427409,
          0.14935292,
          0.71157867,
          -0.15812647,
          -0.34800729,
          -0.07790168,
          0.69527298,
          0.58431113,
          -0.66701543,
          -0.00501955,
          -0.29464951,
          0.39137152,
          -0.03535847,
          -0.29105449,
          0.5445587,
          0.27115294,
          0.00843461,
          -0.86048126,
          0.34276116,
          -0.63356447,
          0.6910677,
          0.36648014,
          0.10335857,
          0.02288067,
          0.54824334,
          0.0930504,
          -0.19107626,
          -1.0,
          0.23882377,
          -0.26066443,
          0.6956386
        ]
      ],
      "channel_abs_mean": [
        0.05019524,
        0.02194291,
        0.01592296,
        0.06688841,
        0.06579724,
        0.13295653,
        0.06724587,
        0.05736596,
        0.0682828,
        0.05953448,
        0.0855121,
        0.08935666,
        0.09778914,
        0.08806939,
        0.08160397,
        0.06342841,
        0.08068821,
        0.06604639,
        0.01241005,
        0.09393187,
        0.06450925,
        0.06340246,
        0.06436007,
        0.07928403,
        0.09377664,
        0.08064196,
        0.0710201,
        0.10700171,
        0.11214361,
        0.07676295,
        0.04601931,
        0.11166683,
        0.0180566,
        0.09431887,
        0.07711813,
        0.06747249,
        0.05573757,
        0.08281495,
        0.02340489,
        0.05144086,
        0.04951732,
        0.08654287,
        0.08352023,
        0.1292042,
        0.03248832,
        0.0821046,
        0.12072314,
        0.09462036,
        0.09063663,
        0.08855174,
        0.06904713,
        0.059393,
        0.0976931,
        0.09048527,
        0.10254084,
        0.09199525,
        0.12811761,
        0.12829821,
        0.05442422,
        0.10716017
      ],
      "channel_signed_mean": [
        0.02152676,
        -0.0167472,
        0.0152309,
        -0.01919509,
        0.00270297,
        0.0531445,
        0.00110543,
        -0.04362659,
        -0.0682828,
        0.05953448,
        0.00580902,
        0.04546923,
        0.04807279,
        -0.00582014,
        -0.00308668,
        0.06342841,
        0.01724598,
        0.06604639,
        0.00417788,
        0.04705167,
        -0.05521975,
        -0.04517883,
        0.02507995,
        0.02661286,
        0.05614601,
        0.08064196,
        0.05435612,
        -0.10700171,
        -0.06165259,
        0.0504471,
        -0.00254247,
        0.11166683,
        -0.01573078,
        -0.00305493,
        -0.01559461,
        0.00456016,
        0.03046982,
        0.01370988,
        -0.00652822,
        0.02091416,
        0.04951732,
        -0.08654287,
        0.01044972,
        0.1292042,
        0.00411603,
        0.0821046,
        -0.00984313,
        -0.00789583,
        -0.09063663,
        0.02839768,
        0.01894899,
        0.059393,
        0.04769355,
        0.00618145,
        -0.09290051,
        -0.0584696,
        -0.00892129,
        0.04224047,
        -0.02215576,
        0.02536838
      ],
      "channel_l2": [
        0.0582542,
        0.02566706,
        0.02098091,
        0.07499552,
        0.08172496,
        0.15339938,
        0.0776206,
        0.07322486,
        0.08029302,
        0.08511312,
        0.08816472,
        0.10836111,
        0.10026943,
        0.1111772,
        0.10424112,
        0.07585194,
        0.09355002,
        0.07574067,
        0.01328392,
        0.1068108,
        0.08210805,
        0.08300292,
        0.07766522,
        0.08423689,
        0.09963081,
        0.10298822,
        0.07525026,
        0.11651423,
        0.11448327,
        0.09708329,
        0.04765105,
        0.11661541,
        0.02067423,
        0.10583536,
        0.09567348,
        0.08501182,
        0.0689531,
        0.09451296,
        0.03176701,
        0.05575547,
        0.06385747,
        0.10721248,
        0.08720237,
        0.14111635,
        0.0404296,
        0.09453934,
        0.14109996,
        0.11497429,
        0.101368,
        0.10387133,
        0.07850937,
        0.07005984,
        0.11286061,
        0.09546047,
        0.11688085,
        0.1342691,
        0.13967191,
        0.13782799,
        0.05508425,
        0.11071876
      ],
      "top_channels_by_abs_weight": [
        {
          "rank": 1,
          "channel_index": 5,
          "channel_name": "F7",
          "abs_mean_weight": 0.13295653,
          "signed_mean_weight": 0.0531445,
          "l2_weight": 0.15339938
        },
        {
          "rank": 2,
          "channel_index": 43,
          "channel_name": "P3",
          "abs_mean_weight": 0.1292042,
          "signed_mean_weight": 0.1292042,
          "l2_weight": 0.14111635
        },
        {
          "rank": 3,
          "channel_index": 57,
          "channel_name": "O1",
          "abs_mean_weight": 0.12829821,
          "signed_mean_weight": 0.04224047,
          "l2_weight": 0.13782799
        },
        {
          "rank": 4,
          "channel_index": 56,
          "channel_name": "PO8",
          "abs_mean_weight": 0.12811761,
          "signed_mean_weight": -0.00892129,
          "l2_weight": 0.13967191
        },
        {
          "rank": 5,
          "channel_index": 46,
          "channel_name": "P2",
          "abs_mean_weight": 0.12072314,
          "signed_mean_weight": -0.00984313,
          "l2_weight": 0.14109996
        },
        {
          "rank": 6,
          "channel_index": 28,
          "channel_name": "C2",
          "abs_mean_weight": 0.11214361,
          "signed_mean_weight": -0.06165259,
          "l2_weight": 0.11448327
        },
        {
          "rank": 7,
          "channel_index": 31,
          "channel_name": "T8",
          "abs_mean_weight": 0.11166683,
          "signed_mean_weight": 0.11166683,
          "l2_weight": 0.11661541
        },
        {
          "rank": 8,
          "channel_index": 59,
          "channel_name": "O2",
          "abs_mean_weight": 0.10716017,
          "signed_mean_weight": 0.02536838,
          "l2_weight": 0.11071876
        },
        {
          "rank": 9,
          "channel_index": 27,
          "channel_name": "Cz",
          "abs_mean_weight": 0.10700171,
          "signed_mean_weight": -0.10700171,
          "l2_weight": 0.11651423
        },
        {
          "rank": 10,
          "channel_index": 54,
          "channel_name": "PO4",
          "abs_mean_weight": 0.10254084,
          "signed_mean_weight": -0.09290051,
          "l2_weight": 0.11688085
        },
        {
          "rank": 11,
          "channel_index": 12,
          "channel_name": "F6",
          "abs_mean_weight": 0.09778914,
          "signed_mean_weight": 0.04807279,
          "l2_weight": 0.10026943
        },
        {
          "rank": 12,
          "channel_index": 52,
          "channel_name": "PO3",
          "abs_mean_weight": 0.0976931,
          "signed_mean_weight": 0.04769355,
          "l2_weight": 0.11286061
        },
        {
          "rank": 13,
          "channel_index": 47,
          "channel_name": "P4",
          "abs_mean_weight": 0.09462036,
          "signed_mean_weight": -0.00789583,
          "l2_weight": 0.11497429
        },
        {
          "rank": 14,
          "channel_index": 33,
          "channel_name": "CP5",
          "abs_mean_weight": 0.09431887,
          "signed_mean_weight": -0.00305493,
          "l2_weight": 0.10583536
        },
        {
          "rank": 15,
          "channel_index": 19,
          "channel_name": "FC2",
          "abs_mean_weight": 0.09393187,
          "signed_mean_weight": 0.04705167,
          "l2_weight": 0.1068108
        }
      ]
    },
    "spatial_update_stats": {
      "available": true,
      "parameter_name": "spatial_conv.1.weight",
      "initial_shape": [
        4,
        60
      ],
      "final_shape": [
        4,
        60
      ],
      "initial_l2": 1.1395002,
      "final_l2": 1.45194778,
      "delta_l2": 1.10598382,
      "delta_max_abs": 0.2669151,
      "relative_delta": 0.97058677,
      "changed": true
    },
    "subject_id": "1"
  },
  {
    "fold_id": 3,
    "fold_label": "subject=1",
    "model_name": "SignalJEPA_PreLocal",
    "strategy": "new",
    "warmup_epochs": 10,
    "n_train": 1795,
    "n_test": 449,
    "train_class_counts": [
      880,
      915
    ],
    "test_class_counts": [
      220,
      229
    ],
    "pretrained_load": {
      "loading_path": "random_initialization",
      "repo_id": null,
      "mode": "random",
      "model_name": "SignalJEPA_PreLocal"
    },
    "phase_1_trainable_groups": [
      "spatial_conv.",
      "final_layer."
    ],
    "phase_1_trainable_params": 1782,
    "phase_1_trainable_names": [
      "spatial_conv.1.weight",
      "spatial_conv.1.bias",
      "final_layer.1.weight",
      "final_layer.1.bias"
    ],
    "phase_2_trainable_groups": null,
    "phase_2_trainable_params": null,
    "phase_2_trainable_names": null,
    "final_trainable_parameters": [
      {
        "name": "feature_encoder.1.0.weight",
        "shape": [
          8,
          1,
          32
        ],
        "num_params": 256,
        "requires_grad": false
      },
      {
        "name": "feature_encoder.1.2.weight",
        "shape": [
          8
        ],
        "num_params": 8,
        "requires_grad": false
      },
      {
        "name": "feature_encoder.1.2.bias",
        "shape": [
          8
        ],
        "num_params": 8,
        "requires_grad": false
      },
      {
        "name": "feature_encoder.2.0.weight",
        "shape": [
          16,
          8,
          2
        ],
        "num_params": 256,
        "requires_grad": false
      },
      {
        "name": "feature_encoder.3.0.weight",
        "shape": [
          32,
          16,
          2
        ],
        "num_params": 1024,
        "requires_grad": false
      },
      {
        "name": "feature_encoder.4.0.weight",
        "shape": [
          64,
          32,
          2
        ],
        "num_params": 4096,
        "requires_grad": false
      },
      {
        "name": "feature_encoder.5.0.weight",
        "shape": [
          64,
          64,
          2
        ],
        "num_params": 8192,
        "requires_grad": false
      },
      {
        "name": "spatial_conv.1.weight",
        "shape": [
          4,
          1,
          60,
          1
        ],
        "num_params": 240,
        "requires_grad": true
      },
      {
        "name": "spatial_conv.1.bias",
        "shape": [
          4
        ],
        "num_params": 4,
        "requires_grad": true
      },
      {
        "name": "final_layer.1.weight",
        "shape": [
          2,
          768
        ],
        "num_params": 1536,
        "requires_grad": true
      },
      {
        "name": "final_layer.1.bias",
        "shape": [
          2
        ],
        "num_params": 2,
        "requires_grad": true
      }
    ],
    "n_trainable_params_final": 1782,
    "best_epoch": 12,
    "stopped_epoch": 50,
    "best_valid_loss": 0.3825036081430972,
    "accuracy": 0.8307349665924276,
    "balanced_accuracy": 0.8311135371179039,
    "confusion_matrix": [
      [
        187,
        33
      ],
      [
        43,
        186
      ]
    ],
    "prediction_histogram": [
      230,
      219
    ],
    "collapse_diagnostics": {
      "prediction_histogram": [
        230,
        219
      ],
      "collapse_ratio": 0.51224944,
      "collapse_threshold": 0.9,
      "collapse_flag": false,
      "majority_predicted_class": 0
    },
    "probability_diagnostics": {
      "available": true,
      "probability_shape": [
        449,
        2
      ],
      "mean_probability_by_class": [
        0.50676506,
        0.49323494
      ],
      "std_probability_by_class": [
        0.41423815,
        0.41423816
      ],
      "mean_confidence": 0.89035745,
      "std_confidence": 0.13878069,
      "mean_prediction_entropy": 0.25325088,
      "mean_normalized_prediction_entropy": 0.36536379,
      "mean_predicted_class_probability": 0.89035745
    },
    "spatial_conv_initial": {
      "available": true,
      "parameter_name": "spatial_conv.1.weight",
      "raw_weight_shape": [
        4,
        1,
        60,
        1
      ],
      "weight_matrix_shape": [
        4,
        60
      ],
      "n_virtual_filters": 4,
      "n_input_channels": 60,
      "channel_names": [
        "Fp1",
        "Fpz",
        "Fp2",
        "AF3",
        "AF4",
        "F7",
        "F5",
        "F3",
        "F1",
        "Fz",
        "F2",
        "F4",
        "F6",
        "F8",
        "FT7",
        "FC5",
        "FC3",
        "FC1",
        "FCz",
        "FC2",
        "FC4",
        "FC6",
        "FT8",
        "T7",
        "C5",
        "C3",
        "C1",
        "Cz",
        "C2",
        "C4",
        "C6",
        "T8",
        "TP7",
        "CP5",
        "CP3",
        "CP1",
        "CPz",
        "CP2",
        "CP4",
        "CP6",
        "TP8",
        "P7",
        "P5",
        "P3",
        "P1",
        "Pz",
        "P2",
        "P4",
        "P6",
        "P8",
        "PO7",
        "PO5",
        "PO3",
        "POz",
        "PO4",
        "PO6",
        "PO8",
        "O1",
        "Oz",
        "O2"
      ],
      "weight_matrix": [
        [
          0.09860362,
          0.02757107,
          -0.00453342,
          -0.04340911,
          0.02576071,
          0.06880875,
          0.0960246,
          0.04289424,
          -0.07277799,
          0.09152263,
          0.05239789,
          -0.08542095,
          0.01087321,
          0.12446697,
          -0.08788451,
          0.11290868,
          -0.05113648,
          0.00419681,
          0.00290361,
          0.03044201,
          -0.10243709,
          0.11921524,
          -0.03911539,
          0.04228823,
          0.10331213,
          0.08389606,
          -0.01665223,
          0.01591225,
          -0.03120496,
          0.06290273,
          -0.09196522,
          0.09813812,
          0.01074813,
          0.00808492,
          -0.07376412,
          -0.10413817,
          -0.062893,
          -0.06088749,
          -0.12183961,
          0.12901251,
          0.03479216,
          -0.07470614,
          0.05674176,
          0.12395246,
          -0.0290658,
          -0.05614749,
          -0.10394765,
          0.11709003,
          -0.08659275,
          0.09497562,
          -0.0239225,
          -0.07232979,
          0.01411721,
          -0.12062103,
          -0.10999423,
          0.0829183,
          0.06248488,
          0.06250216,
          0.12028129,
          -0.08014211
        ],
        [
          0.01009926,
          0.0087412,
          -0.00977896,
          0.08421583,
          0.04553671,
          0.11333744,
          0.0909525,
          -0.11484723,
          -0.11017934,
          0.05184568,
          0.05248089,
          0.11000124,
          -0.00147277,
          0.10807167,
          -0.01666692,
          -0.03505213,
          -0.07999703,
          0.09310645,
          0.0278822,
          0.12351443,
          0.03080638,
          -0.09881285,
          0.02723894,
          -0.00470403,
          -0.04697136,
          0.03006224,
          0.10474245,
          0.03595626,
          -0.04673435,
          0.08497576,
          -0.04740096,
          0.07026555,
          0.02335858,
          0.03381139,
          0.10128237,
          0.09403583,
          0.12373872,
          0.06473045,
          -0.09133916,
          0.06924331,
          -0.04601314,
          -0.05847561,
          0.0647402,
          0.08305502,
          -0.07227547,
          0.11441143,
          -0.05989631,
          -0.07397005,
          -0.10722409,
          -0.05097675,
          0.07102665,
          0.05539307,
          0.02983716,
          -0.09010918,
          -0.02183408,
          -0.11826871,
          -0.11102631,
          -0.03497604,
          -0.12786898,
          -0.03197727
        ],
        [
          0.04709473,
          0.02920434,
          -0.05418927,
          0.10976914,
          -0.12658985,
          0.00878382,
          -0.04467642,
          -0.04240006,
          -0.00666616,
          0.10525598,
          -0.0294892,
          0.08200011,
          0.09430724,
          -0.06121391,
          -0.00176534,
          0.06909451,
          0.10997215,
          0.08174603,
          -0.02376501,
          -0.07964359,
          -0.0774474,
          0.01633754,
          0.11415614,
          -0.06285675,
          0.0570755,
          0.02552816,
          0.07502529,
          -0.01806435,
          -0.05698903,
          -0.06936607,
          -0.03224508,
          0.09792642,
          -0.01748952,
          -0.00407872,
          -0.08633603,
          -0.05719286,
          0.07931304,
          0.02280134,
          -0.04839899,
          0.01430883,
          0.07498378,
          -0.10826348,
          -0.05108214,
          0.00344549,
          -0.0129722,
          0.12906928,
          0.10434645,
          -0.02263926,
          -0.11671187,
          -0.09633882,
          0.04830891,
          0.08607472,
          -0.08869911,
          0.01658894,
          -0.09075859,
          0.06495057,
          0.11313045,
          -0.09842119,
          -0.03621754,
          0.08533759
        ],
        [
          0.12180255,
          -0.00603986,
          0.11095531,
          -0.12369663,
          0.10324408,
          -0.04422085,
          -0.06285778,
          -0.00306022,
          -0.12783846,
          0.03429446,
          -0.01821135,
          -0.02381252,
          -0.07222682,
          0.06508011,
          -0.10177355,
          0.01723605,
          -0.03398101,
          0.05306143,
          0.003645,
          0.08476456,
          0.00781615,
          -0.10806764,
          -0.04963005,
          0.0397224,
          -0.03605769,
          -0.05288761,
          0.1004701,
          -0.08451293,
          -0.03914668,
          -0.02354313,
          -0.07526991,
          -0.00433752,
          0.01454157,
          -0.0221094,
          -0.11260715,
          0.03097835,
          0.1044676,
          -0.05688865,
          -0.01832165,
          -0.08687175,
          0.07566848,
          -0.05502742,
          -0.08429559,
          0.12045878,
          -0.05579505,
          0.04463868,
          -0.09179308,
          0.07205968,
          -0.04402351,
          0.1097022,
          0.02096228,
          0.10205078,
          0.03712666,
          0.10450509,
          0.01452936,
          -0.0240638,
          -0.08278716,
          0.02288513,
          -0.1179,
          0.06873485
        ]
      ],
      "weight_matrix_norm": [
        [
          0.76429504,
          0.21370848,
          -0.03513936,
          -0.33647209,
          0.19967607,
          0.53334945,
          0.7443046,
          0.33248127,
          -0.5641157,
          0.709409,
          0.40614581,
          -0.66211373,
          0.0842803,
          0.96476668,
          -0.68120921,
          0.87517619,
          -0.39636838,
          0.03253024,
          0.02250643,
          0.23596172,
          -0.79400897,
          0.92405951,
          -0.30319068,
          0.32778394,
          0.80079162,
          0.65029395,
          -0.12907457,
          0.12333881,
          -0.24187547,
          0.48757079,
          -0.71283954,
          0.76068687,
          0.08331078,
          0.06266774,
          -0.5717594,
          -0.80719429,
          -0.48749539,
          -0.47195029,
          -0.9444015,
          1.0,
          0.26968047,
          -0.57906121,
          0.43981594,
          0.96077865,
          -0.22529446,
          -0.43520969,
          -0.80571765,
          0.90758663,
          -0.67119652,
          0.73617375,
          -0.18542773,
          -0.56064165,
          0.10942513,
          -0.93495607,
          -0.85258579,
          0.64271522,
          0.48433191,
          0.4844659,
          0.93232274,
          -0.62119645
        ],
        [
          0.07898133,
          0.0683606,
          -0.07647642,
          0.65861034,
          0.35612008,
          0.88635606,
          0.71129447,
          -0.89816332,
          -0.8616581,
          0.40545943,
          0.41042706,
          0.8602652,
          -0.01151781,
          0.84517503,
          -0.13034372,
          -0.27412534,
          -0.62561715,
          0.72813946,
          0.21805291,
          0.96594518,
          0.24092142,
          -0.77276635,
          0.21302223,
          -0.03678788,
          -0.36733973,
          0.23510192,
          0.81913888,
          0.28119615,
          -0.3654862,
          0.6645534,
          -0.37069944,
          0.54951203,
          0.18267591,
          0.26442215,
          0.79207933,
          0.73540771,
          0.96769929,
          0.50622481,
          -0.71431839,
          0.54151767,
          -0.359846,
          -0.45730877,
          0.50630105,
          0.6495322,
          -0.56523073,
          0.89475513,
          -0.46841934,
          -0.57848316,
          -0.83854657,
          -0.39866391,
          0.55546427,
          0.43320179,
          0.23334166,
          -0.70469934,
          -0.17075349,
          -0.92492104,
          -0.86828178,
          -0.2735303,
          -1.0,
          -0.25007838
        ],
        [
          0.36487949,
          0.22626869,
          -0.41984639,
          0.85046679,
          -0.9807899,
          0.06805506,
          -0.34614295,
          -0.32850623,
          -0.05164793,
          0.81549978,
          -0.22847578,
          0.63531852,
          0.73067147,
          -0.47427171,
          -0.01367746,
          0.53532881,
          0.85203964,
          0.63334996,
          -0.18412602,
          -0.61706078,
          -0.60004514,
          0.12657964,
          0.88445628,
          -0.48700005,
          0.44220823,
          0.19778651,
          0.58127922,
          -0.13995855,
