[
  {
    "subject_id": "1",
    "fold_id": 1,
    "accuracy": 0.55,
    "balanced_accuracy": 0.55,
    "prediction_histogram": [
      22,
      18
    ],
    "collapse_diagnostics": {
      "prediction_histogram": [
        22,
        18
      ],
      "collapse_ratio": 0.55,
      "collapse_threshold": 0.9,
      "collapse_flag": false,
      "majority_predicted_class": 0
    },
    "probability_diagnostics": {
      "available": true,
      "probability_shape": [
        40,
        2
      ],
      "mean_probability_by_class": [
        0.47929387,
        0.52070614
      ],
      "std_probability_by_class": [
        0.17202245,
        0.17202245
      ],
      "mean_confidence": 0.65557683,
      "std_confidence": 0.0762648,
      "mean_prediction_entropy": 0.6309028,
      "mean_normalized_prediction_entropy": 0.91020035,
      "mean_predicted_class_probability": 0.65557683
    },
    "spatial_update_stats": {
      "available": true,
      "parameter_name": "spatial_conv.1.weight",
      "initial_shape": [
        4,
        64
      ],
      "final_shape": [
        4,
        64
      ],
      "initial_l2": 1.13190078,
      "final_l2": 1.15735246,
      "delta_l2": 0.38431876,
      "delta_max_abs": 0.06607264,
      "relative_delta": 0.33953397,
      "changed": true
    },
    "n_trainable_params_final": 1798,
    "spatial_conv": {
      "available": true,
      "parameter_name": "spatial_conv.1.weight",
      "raw_weight_shape": [
        4,
        1,
        64,
        1
      ],
      "weight_matrix_shape": [
        4,
        64
      ],
      "n_virtual_filters": 4,
      "n_input_channels": 64,
      "channel_names": [
        "Fp1",
        "AF7",
        "AF3",
        "F1",
        "F3",
        "F5",
        "F7",
        "FT7",
        "FC5",
        "FC3",
        "FC1",
        "C1",
        "C3",
        "C5",
        "T7",
        "TP7",
        "CP5",
        "CP3",
        "CP1",
        "P1",
        "P3",
        "P5",
        "P7",
        "P9",
        "PO7",
        "PO3",
        "O1",
        "Iz",
        "Oz",
        "POz",
        "Pz",
        "CPz",
        "Fpz",
        "Fp2",
        "AF8",
        "AF4",
        "AFz",
        "Fz",
        "F2",
        "F4",
        "F6",
        "F8",
        "FT8",
        "FC6",
        "FC4",
        "FC2",
        "FCz",
        "Cz",
        "C2",
        "C4",
        "C6",
        "T8",
        "TP8",
        "CP6",
        "CP4",
        "CP2",
        "P2",
        "P4",
        "P6",
        "P8",
        "P10",
        "PO8",
        "PO4",
        "O2"
      ],
      "weight_matrix": [
        [
          0.10597042,
          0.01132146,
          0.0077918,
          -0.01043484,
          0.05241086,
          0.05535551,
          0.09275506,
          0.00317258,
          -0.09974428,
          0.11546045,
          0.09415041,
          -0.05949157,
          0.03529856,
          0.11918721,
          -0.05649715,
          0.04811208,
          -0.05463294,
          0.01599236,
          0.03423253,
          0.04326918,
          -0.09050358,
          0.1030977,
          -0.05380176,
          -0.00590148,
          0.07292385,
          0.0625753,
          -0.03184388,
          0.01549058,
          -0.01731217,
          0.06726691,
          -0.09505848,
          0.08426304,
          0.00377491,
          -0.00907366,
          -0.10836435,
          -0.06955469,
          -0.0680448,
          -0.03197902,
          -0.10464057,
          0.14960903,
          0.07200082,
          -0.09936301,
          0.08604775,
          0.10313107,
          -0.05594692,
          -0.0482906,
          -0.08731091,
          0.11258474,
          -0.0958579,
          0.0378911,
          -0.0357047,
          -0.08457559,
          0.02338634,
          -0.12696411,
          -0.09371491,
          0.05794133,
          0.04566325,
          0.05108804,
          0.12608723,
          -0.05157919,
          0.03236379,
          0.02361212,
          -0.03653071,
          0.11113969
        ],
        [
          0.00611781,
          0.08942796,
          0.0669463,
          -0.09200219,
          -0.06072198,
          0.0467841,
          0.10518141,
          0.10533338,
          0.02921187,
          0.13769512,
          0.00668023,
          -0.04558417,
          -0.06038906,
          0.08792014,
          0.00436466,
          0.12159298,
          0.04986483,
          -0.11468948,
          0.0191129,
          -0.02410417,
          -0.03964011,
          0.04788576,
          0.11438482,
          0.02746974,
          -0.02988615,
          0.10838054,
          -0.01117785,
          0.08843438,
          0.03891177,
          0.00573217,
          0.06959685,
          0.05567162,
          0.10948985,
          0.10141265,
          -0.09513761,
          0.0684287,
          -0.06485184,
          -0.03941746,
          0.09985378,
          0.09143855,
          -0.05262946,
          0.12736055,
          -0.01282984,
          -0.10800465,
          -0.08649725,
          -0.02995224,
          0.07866321,
          0.03171948,
          0.03283526,
          -0.10266956,
          -0.02935279,
          -0.09406064,
          -0.11671779,
          -0.05125668,
          -0.11863347,
          -0.08953904,
          -0.01385617,
          -0.02971091,
          -0.10284472,
          0.05101725,
          -0.1169263,
          -0.03031263,
          -0.07655447,
          -0.03735213
        ],
        [
          -0.00613118,
          0.09317989,
          -0.00578944,
          0.10948855,
          0.13034314,
          -0.09797853,
          -0.02482964,
          0.00082784,
          0.09675907,
          0.11400938,
          -0.00879628,
          -0.06073583,
          -0.05433394,
          0.01004882,
          0.07987969,
          -0.04641736,
          0.0675666,
          0.0311312,
          0.06949568,
          -0.03593601,
          -0.03812643,
          -0.0488156,
          -0.01157248,
          0.09643148,
          0.01091171,
          -0.01548248,
          -0.08647981,
          -0.0156816,
          0.10476752,
          0.00876376,
          -0.0587646,
          0.01450465,
          0.07291956,
          -0.09109853,
          -0.03754723,
          -0.0096877,
          -0.01902873,
          0.14711034,
          0.10809733,
          0.00639595,
          -0.09477285,
          -0.07490802,
          -0.01668933,
          0.09202105,
          -0.10804626,
          0.01856745,
          -0.10598182,
          0.08045351,
          0.14247681,
          -0.07650435,
          -0.03814309,
          0.08721215,
          0.13902776,
          -0.02836624,
          0.06998702,
          -0.11262979,
          0.07367046,
          -0.04799341,
          -0.06875893,
          -0.01926127,
          -0.14711741,
          0.02856624,
          -0.02575758,
          -0.05909286
        ],
        [
          -0.07642385,
          0.04520646,
          -0.06528535,
          0.04131238,
          0.02676908,
          0.06191296,
          -0.03265693,
          0.08723855,
          0.01591153,
          -0.06584305,
          -0.02066541,
          0.04091912,
          -0.02605451,
          -0.06505232,
          0.05995621,
          -0.07639579,
          -0.02896279,
          0.01319435,
          -0.07472949,
          0.0179178,
          0.03049988,
          -0.01755049,
          -0.11121556,
          -0.01999857,
          0.09017076,
          -0.04824762,
          -0.00512617,
          -0.07586823,
          0.08409489,
          -0.01615936,
          -0.06842516,
          0.14477147,
          -0.06244885,
          0.065015,
          -0.08445852,
          0.05809657,
          -0.05110051,
          0.13198057,
          -0.01025986,
          0.0927925,
          0.03100359,
          0.04860128,
          0.01366792,
          -0.04669129,
          -0.10688046,
          0.00692591,
          -0.13983777,
          0.07696116,
          0.01015754,
          -0.03674273,
          0.03286797,
          -0.0851547,
          0.00682954,
          -0.10531638,
          -0.14932388,
          0.06708654,
          0.06051761,
          -0.07488565,
          -0.12060598,
          -0.04492618,
          -0.04297806,
          0.00563308,
          -0.01865625,
          0.03124792
        ]
      ],
      "weight_matrix_norm": [
        [
          0.70831567,
          0.07567361,
          0.05208111,
          -0.06974737,
          0.35031882,
          0.37000114,
          0.61998302,
          0.02120583,
          -0.66669959,
          0.77174789,
          0.62930965,
          -0.39764693,
          0.23593867,
          0.79665786,
          -0.37763196,
          0.32158539,
          -0.3651714,
          0.10689437,
          0.22881329,
          0.28921506,
          -0.60493398,
          0.68911415,
          -0.35961574,
          -0.039446,
          0.48742944,
          0.41825888,
          -0.21284731,
          0.10354038,
          -0.11571608,
          0.44961798,
          -0.63537931,
          0.56322163,
          0.02523185,
          -0.06064916,
          -0.7243169,
          -0.46490967,
          -0.45481744,
          -0.2137506,
          -0.69942683,
          1.0,
          0.48125988,
          -0.66415113,
          0.57515073,
          0.68933719,
          -0.37395418,
          -0.32277861,
          -0.58359385,
          0.75252634,
          -0.64072269,
          0.25326747,
          -0.23865336,
          -0.56531072,
          0.15631637,
          -0.84863931,
          -0.62639874,
          0.38728493,
          0.30521724,
          0.34147695,
          0.84277821,
          -0.34475988,
          0.21632242,
          0.15782551,
          -0.24417448,
          0.74286753
        ],
        [
          0.04443011,
          0.64946353,
          0.48619223,
          -0.66815871,
          -0.4409886,
          0.33976585,
          0.76387173,
          0.76497543,
          0.21214892,
          1.0,
          0.04851463,
          -0.33105144,
          -0.43857086,
          0.63851315,
          0.03169801,
          0.88305944,
          0.36213943,
          -0.83292335,
          0.13880596,
          -0.17505462,
          -0.28788316,
          0.34776658,
          0.83071083,
          0.19949682,
          -0.21704583,
          0.7871052,
          -0.08117826,
          0.64224774,
          0.2825937,
          0.04162941,
          0.50544167,
          0.40431079,
          0.79516143,
          0.7365014,
          -0.69092941,
          0.49695808,
          -0.47098136,
          -0.28626618,
          0.72518027,
          0.6640653,
          -0.38221732,
          0.92494601,
          -0.09317573,
          -0.78437531,
          -0.62817955,
          -0.21752581,
          0.57128537,
          0.23036025,
          0.23846352,
          -0.74562961,
          -0.2131723,
          -0.68310803,
          -0.84765375,
          -0.37224761,
          -0.86156631,
          -0.65027028,
          -0.10062938,
          -0.21577314,
          -0.74690169,
          0.37050882,
          -0.84916812,
          -0.22014309,
          -0.55597085,
          -0.27126694
        ],
        [
          -0.0416754,
          0.63337094,
          -0.0393525,
          0.74422562,
          0.88598043,
          -0.66598874,
          -0.16877431,
          0.00562706,
          0.65769964,
          0.77495509,
          -0.05979091,
          -0.41283917,
          -0.3693237,
          0.06830479,
          0.54296559,
          -0.31551236,
          0.45926991,
          0.21160784,
          0.47238243,
          -0.24426755,
          -0.2591565,
          -0.33181387,
          -0.07866153,
          0.65547293,
          0.07417011,
          -0.10523894,
          -0.58782858,
          -0.10659241,
          0.71213543,
          0.05956985,
          -0.39944014,
          0.09859233,
          0.49565557,
          -0.61922336,
          -0.25521952,
          -0.06585015,
          -0.12934382,
          0.99995202,
          0.73476917,
          0.04347512,
          -0.64419878,
          -0.50917166,
          -0.11344226,
          0.62549394,
          -0.73442203,
          0.12620836,
          -0.72038937,
          0.546866,
          0.96845651,
          -0.52002239,
          -0.25926977,
          0.59280646,
          0.94501233,
          -0.19281359,
          0.47572222,
          -0.76557761,
          0.50075966,
          -0.32622522,
          -0.46737453,
          -0.13092446,
          -1.0,
          0.19417308,
          -0.17508176,
          -0.40167144
        ],
        [
          -0.51179922,
          0.30274102,
          -0.43720633,
          0.27666289,
          0.17926861,
          0.41462198,
          -0.21869867,
          0.58422369,
          0.10655718,
          -0.44094115,
          -0.13839321,
          0.27402928,
          -0.17448322,
          -0.43564582,
          0.40151787,
          -0.51161134,
          -0.19395952,
          0.0883606,
          -0.5004524,
          0.11999285,
          0.20425317,
          -0.11753307,
          -0.74479419,
          -0.13392751,
          0.60386026,
          -0.32310721,
          -0.03432924,
          -0.50807834,
          0.56317109,
          -0.10821688,
          -0.45823324,
          0.96951318,
          -0.41821072,
          0.4353959,
          -0.56560624,
          0.38906413,
          -0.34221262,
          0.88385439,
          -0.06870877,
          0.6214177,
          0.20762648,
          0.32547557,
          0.09153205,
          -0.31268468,
          -0.71576267,
          0.04638181,
          -0.93647295,
          0.51539755,
          0.06802354,
          -0.24606062,
          0.22011194,
          -0.57026845,
          0.04573643,
          -0.70528823,
          -1.0,
          0.44926867,
          0.40527746,
          -0.50149816,
          -0.80768049,
          -0.30086398,
          -0.28781775,
          0.03772389,
          -0.12493817,
          0.20926271
        ]
      ],
      "channel_abs_mean": [
        0.04866081,
        0.05978394,
        0.03645322,
        0.06330948,
        0.06756126,
        0.06550778,
        0.06385576,
        0.04914309,
        0.06040669,
        0.108252,
        0.03257308,
        0.05168267,
        0.04401902,
        0.07055213,
        0.05017443,
        0.07312955,
        0.05025679,
        0.04375185,
        0.04939265,
        0.03030679,
        0.0496925,
        0.05433739,
        0.07274365,
        0.03745032,
        0.05097312,
        0.05867149,
        0.03365693,
        0.04886869,
        0.06127159,
        0.02448055,
        0.07296127,
        0.0748027,
        0.06215829,
        0.06664996,
        0.08137693,
        0.05144192,
        0.05075647,
        0.08762185,
        0.08071288,
        0.08505901,
        0.06260169,
        0.08755821,
        0.03230871,
        0.08746202,
        0.08934272,
        0.02593405,
        0.10294843,
        0.07542972,
        0.07033187,
        0.06345193,
        0.03401714,
        0.08775076,
        0.07149035,
        0.07797585,
        0.10791482,
        0.08179918,
        0.04842687,
        0.0509195,
        0.10457421,
        0.04169597,
        0.08484639,
        0.02203102,
        0.03937475,
        0.05970815
      ],
      "channel_signed_mean": [
        0.0073833,
        0.05978394,
        0.00091583,
        0.01209097,
        0.03720028,
        0.01651851,
        0.03511247,
        0.04914309,
        0.01053455,
        0.07533047,
        0.01784224,
        -0.03122311,
        -0.02636974,
        0.03802596,
        0.02192585,
        0.01172298,
        0.00845892,
        -0.01359289,
        0.0120279,
        0.0002867,
        -0.03444256,
        0.02115434,
        -0.01555124,
        0.02450029,
        0.03603004,
        0.02680643,
        -0.03365693,
        0.00309378,
        0.0526155,
        0.01640087,
        -0.03816285,
        0.0748027,
        0.03093387,
        0.01656386,
        -0.08137693,
        0.01182072,
        -0.05075647,
        0.05192361,
        0.02326267,
        0.08505901,
        -0.01109947,
        0.0004227,
        0.01754912,
        0.01011404,
        -0.08934272,
        -0.01318737,
        -0.06361683,
        0.07542972,
        0.02240293,
        -0.04450639,
        -0.01758315,
        -0.04414469,
        0.01313146,
        -0.07797585,
        -0.07292131,
        -0.01928524,
        0.04149879,
        -0.02537548,
        -0.0415306,
        -0.01618735,
        -0.06866449,
        0.0068747,
        -0.03937475,
        0.01148565
      ],
      "channel_l2": [
        0.06547014,
        0.06865066,
        0.04700589,
        0.0746119,
        0.07768522,
        0.06834836,
        0.07305754,
        0.06840401,
        0.07144535,
        0.11138279,
        0.04851123,
        0.05239365,
        0.04616233,
        0.08103753,
        0.05741622,
        0.07919993,
        0.05214247,
        0.06031723,
        0.05466104,
        0.03188133,
        0.05510468,
        0.06247633,
        0.08438208,
        0.05120641,
        0.06012674,
        0.06750843,
        0.04648659,
        0.0592927,
        0.07046634,
        0.03498437,
        0.07418746,
        0.08855613,
        0.0728344,
        0.07565175,
        0.08564028,
        0.05698553,
        0.05433509,
        0.10202539,
        0.09043054,
        0.09924115,
        0.06689002,
        0.09228626,
        0.04481675,
        0.09075925,
        0.09180041,
        0.03009085,
        0.10559101,
        0.08074224,
        0.08756385,
        0.06924543,
        0.03417459,
        0.08783183,
        0.09157691,
        0.08752616,
        0.11186174,
        0.08449928,
        0.0533077,
        0.05339465,
        0.10694464,
        0.04373937,
        0.09773666,
        0.02410472,
        0.04529511,
        0.06748261
      ],
      "top_channels_by_abs_weight": [
        {
          "rank": 1,
          "channel_index": 9,
          "channel_name": "FC3",
          "abs_mean_weight": 0.108252,
          "signed_mean_weight": 0.07533047,
          "l2_weight": 0.11138279
        },
        {
          "rank": 2,
          "channel_index": 54,
          "channel_name": "CP4",
          "abs_mean_weight": 0.10791482,
          "signed_mean_weight": -0.07292131,
          "l2_weight": 0.11186174
        },
        {
          "rank": 3,
          "channel_index": 58,
          "channel_name": "P6",
          "abs_mean_weight": 0.10457421,
          "signed_mean_weight": -0.0415306,
          "l2_weight": 0.10694464
        },
        {
          "rank": 4,
          "channel_index": 46,
          "channel_name": "FCz",
          "abs_mean_weight": 0.10294843,
          "signed_mean_weight": -0.06361683,
          "l2_weight": 0.10559101
        },
        {
          "rank": 5,
          "channel_index": 44,
          "channel_name": "FC4",
          "abs_mean_weight": 0.08934272,
          "signed_mean_weight": -0.08934272,
          "l2_weight": 0.09180041
        },
        {
          "rank": 6,
          "channel_index": 51,
          "channel_name": "T8",
          "abs_mean_weight": 0.08775076,
          "signed_mean_weight": -0.04414469,
          "l2_weight": 0.08783183
        },
        {
          "rank": 7,
          "channel_index": 37,
          "channel_name": "Fz",
          "abs_mean_weight": 0.08762185,
          "signed_mean_weight": 0.05192361,
          "l2_weight": 0.10202539
        },
        {
          "rank": 8,
          "channel_index": 41,
          "channel_name": "F8",
          "abs_mean_weight": 0.08755821,
          "signed_mean_weight": 0.0004227,
          "l2_weight": 0.09228626
        },
        {
          "rank": 9,
          "channel_index": 43,
          "channel_name": "FC6",
          "abs_mean_weight": 0.08746202,
          "signed_mean_weight": 0.01011404,
          "l2_weight": 0.09075925
        },
        {
          "rank": 10,
          "channel_index": 39,
          "channel_name": "F4",
          "abs_mean_weight": 0.08505901,
          "signed_mean_weight": 0.08505901,
          "l2_weight": 0.09924115
        },
        {
          "rank": 11,
          "channel_index": 60,
          "channel_name": "P10",
          "abs_mean_weight": 0.08484639,
          "signed_mean_weight": -0.06866449,
          "l2_weight": 0.09773666
        },
        {
          "rank": 12,
          "channel_index": 55,
          "channel_name": "CP2",
          "abs_mean_weight": 0.08179918,
          "signed_mean_weight": -0.01928524,
          "l2_weight": 0.08449928
        },
        {
          "rank": 13,
          "channel_index": 34,
          "channel_name": "AF8",
          "abs_mean_weight": 0.08137693,
          "signed_mean_weight": -0.08137693,
          "l2_weight": 0.08564028
        },
        {
          "rank": 14,
          "channel_index": 38,
          "channel_name": "F2",
          "abs_mean_weight": 0.08071288,
          "signed_mean_weight": 0.02326267,
          "l2_weight": 0.09043054
        },
        {
          "rank": 15,
          "channel_index": 53,
          "channel_name": "CP6",
          "abs_mean_weight": 0.07797585,
          "signed_mean_weight": -0.07797585,
          "l2_weight": 0.08752616
        }
      ]
    }
  },
  {
    "subject_id": "1",
    "fold_id": 2,
    "accuracy": 0.625,
    "balanced_accuracy": 0.625,
    "prediction_histogram": [
      21,
      19
    ],
    "collapse_diagnostics": {
      "prediction_histogram": [
        21,
        19
      ],
      "collapse_ratio": 0.525,
      "collapse_threshold": 0.9,
      "collapse_flag": false,
      "majority_predicted_class": 0
    },
    "probability_diagnostics": {
      "available": true,
      "probability_shape": [
        40,
        2
      ],
      "mean_probability_by_class": [
        0.51858564,
        0.48141437
      ],
      "std_probability_by_class": [
        0.05929938,
        0.05929938
      ],
      "mean_confidence": 0.5474745,
      "std_confidence": 0.04010005,
      "mean_prediction_entropy": 0.68534328,
      "mean_normalized_prediction_entropy": 0.98874135,
      "mean_predicted_class_probability": 0.5474745
    },
    "spatial_update_stats": {
      "available": true,
      "parameter_name": "spatial_conv.1.weight",
      "initial_shape": [
        4,
        64
      ],
      "final_shape": [
        4,
        64
      ],
      "initial_l2": 1.13190078,
      "final_l2": 1.13523473,
      "delta_l2": 0.1068033,
      "delta_max_abs": 0.01388889,
      "relative_delta": 0.09435747,
      "changed": true
    },
    "n_trainable_params_final": 1798,
    "spatial_conv": {
      "available": true,
      "parameter_name": "spatial_conv.1.weight",
      "raw_weight_shape": [
        4,
        1,
        64,
        1
      ],
      "weight_matrix_shape": [
        4,
        64
      ],
      "n_virtual_filters": 4,
      "n_input_channels": 64,
      "channel_names": [
        "Fp1",
        "AF7",
        "AF3",
        "F1",
        "F3",
        "F5",
        "F7",
        "FT7",
        "FC5",
        "FC3",
        "FC1",
        "C1",
        "C3",
        "C5",
        "T7",
        "TP7",
        "CP5",
        "CP3",
        "CP1",
        "P1",
        "P3",
        "P5",
        "P7",
        "P9",
        "PO7",
        "PO3",
        "O1",
        "Iz",
        "Oz",
        "POz",
        "Pz",
        "CPz",
        "Fpz",
        "Fp2",
        "AF8",
        "AF4",
        "AFz",
        "Fz",
        "F2",
        "F4",
        "F6",
        "F8",
        "FT8",
        "FC6",
        "FC4",
        "FC2",
        "FCz",
        "Cz",
        "C2",
        "C4",
        "C6",
        "T8",
        "TP8",
        "CP6",
        "CP4",
        "CP2",
        "P2",
        "P4",
        "P6",
        "P8",
        "P10",
        "PO8",
        "PO4",
        "O2"
      ],
      "weight_matrix": [
        [
          0.09613399,
          0.02429095,
          -0.00630751,
          -0.03762625,
          0.02717022,
          0.06164323,
          0.08611917,
          0.02978604,
          -0.07404761,
          0.09747141,
          0.05621668,
          -0.07871238,
          0.01614606,
          0.12394939,
          -0.08862667,
          0.10252804,
          -0.04324323,
          0.01193921,
          0.00729876,
          0.03339538,
          -0.09861853,
          0.11756177,
          -0.03488425,
          0.03476746,
          0.10102365,
          0.07972072,
          -0.01797406,
          0.01072024,
          -0.03433368,
          0.06532448,
          -0.08892078,
          0.09737974,
          0.00774265,
          0.00156935,
          -0.07857774,
          -0.10054223,
          -0.06040102,
          -0.05352443,
          -0.11507349,
          0.12148037,
          0.03060481,
          -0.07321513,
          0.05332637,
          0.11171526,
          -0.02633345,
          -0.05399536,
          -0.09764431,
          0.11830751,
          -0.08064999,
          0.09596156,
          -0.01685716,
          -0.07784399,
          0.01139508,
          -0.11360034,
          -0.10577077,
          0.08578649,
          0.06586067,
          0.06348228,
          0.1199108,
          -0.07590136,
          0.01248466,
          0.01247728,
          -0.00724526,
          0.08359922
        ],
        [
          0.05257764,
          0.11848216,
          0.09580304,
          -0.0994652,
          -0.09347793,
          0.05956666,
          0.06193603,
          0.11339541,
          0.0081268,
          0.1162764,
          -0.0052206,
          -0.02536085,
          -0.07131285,
          0.09426534,
          0.01613154,
          0.10939373,
          0.02142945,
          -0.10371495,
          0.01379636,
          -0.0152124,
          -0.05556943,
          0.01993519,
          0.09187533,
          0.02537721,
          -0.05434477,
          0.07193271,
          -0.05607943,
          0.05816719,
          0.01285414,
          0.02141357,
          0.08964399,
          0.08033834,
          0.12992404,
          0.07333479,
          -0.07715106,
          0.07755204,
          -0.03321736,
          -0.04710255,
          0.07321395,
          0.08692285,
          -0.05789144,
          0.11578786,
          -0.05467099,
          -0.06578642,
          -0.09473304,
          -0.03927631,
          0.07780579,
          0.05413317,
          0.03126688,
          -0.07649069,
          -0.01340444,
          -0.1050326,
          -0.12138965,
          -0.03538791,
          -0.11955137,
          -0.03558976,
          0.03638055,
          0.02307293,
          -0.06330161,
          0.09299247,
          -0.12676227,
          -0.00460589,
          -0.05328893,
          -0.05221299
        ],
        [
          -0.00479364,
          0.1010184,
          -0.02479924,
          0.08653403,
          0.09620064,
          -0.05598858,
          -0.00230042,
          0.06102608,
          0.10752706,
          0.08406226,
          -0.01947595,
          -0.06764259,
          -0.07520357,
          0.02037712,
          0.11071596,
          -0.05635677,
          0.05861497,
          0.02857852,
          0.07727955,
          -0.01179619,
          -0.05000605,
          -0.06374419,
          -0.02747747,
          0.09719023,
          -0.01299148,
          0.00050448,
          -0.0809465,
          -0.05226187,
          0.079272,
          0.02556108,
          -0.04590589,
          0.01893347,
          0.07439512,
          -0.10314409,
          -0.04999658,
          0.00133845,
          -0.01141595,
          0.13394287,
          0.10874078,
          -0.01547891,
          -0.10273849,
          -0.09875216,
          0.03849963,
          0.08906154,
          -0.08211852,
          0.01888013,
          -0.08349151,
          0.06726939,
          0.11244357,
          -0.09303132,
          -0.04698557,
          0.0742603,
          0.11144568,
          -0.0153696,
          0.10556754,
          -0.11950113,
          0.0966812,
          -0.05038036,
          -0.06941772,
          -0.01333941,
          -0.13741323,
          0.02366157,
          -0.02079715,
          -0.02849258
        ],
        [
          -0.06794018,
          0.06392322,
          -0.09262754,
          0.02698677,
          -0.02072083,
          0.06115101,
          0.00233197,
          0.08323606,
          0.01370619,
          -0.09477484,
          -0.03831456,
          0.04296284,
          -0.02995054,
          -0.04463097,
          0.09820467,
          -0.08589335,
          -0.03960413,
          -0.02267755,
          -0.07998393,
          -0.0145081,
          0.00910652,
          -0.02462862,
          -0.11245865,
          0.02304313,
          0.09827019,
          -0.05682424,
          -0.01983357,
          -0.0885503,
          0.06851961,
          -0.06163798,
          -0.08937635,
          0.11519212,
          -0.05182891,
          0.04504463,
          -0.08481919,
          0.07497111,
          -0.03322021,
          0.11583515,
          0.02755858,
          0.10090227,
          0.04016538,
          0.09661139,
          0.01840151,
          -0.0198122,
          -0.07565658,
          0.02510098,
          -0.10978937,
          0.07170072,
          0.02321737,
          -0.02481638,
          0.00314997,
          -0.0729399,
          -0.01937679,
          -0.10776,
          -0.12485754,
          0.05705615,
          0.06906605,
          -0.07834626,
          -0.12984119,
          -0.01424944,
          -0.05651816,
          0.00265733,
          -0.01134038,
          -0.0040926
        ]
      ],
      "weight_matrix_norm": [
        [
          0.77559072,
          0.19597474,
          -0.05088782,
          -0.30356142,
          0.21920416,
          0.49732581,
          0.69479299,
          0.24030808,
          -0.59740198,
          0.78638071,
          0.45354542,
          -0.63503647,
          0.1302633,
          1.0,
          -0.71502304,
          0.82717663,
          -0.34887809,
          0.09632327,
          0.058885,
          0.2694276,
          -0.79563546,
          0.94846594,
          -0.28143948,
          0.28049722,
          0.81503958,
          0.64317155,
          -0.14501131,
          0.08648881,
          -0.27699754,
          0.5270254,
          -0.7173959,
          0.78564119,
          0.06246626,
          0.0126612,
          -0.63395023,
          -0.81115556,
          -0.48730388,
          -0.43182492,
          -0.92839092,
          0.98008043,
          0.24691379,
          -0.59068573,
          0.43022698,
          0.90129739,
          -0.21245323,
          -0.43562427,
          -0.7877757,
          0.95448244,
          -0.65066874,
          0.7741996,
          -0.13600038,
          -0.62803048,
          0.09193336,
          -0.91650587,
          -0.85333842,
          0.69210905,
          0.53135127,
          0.51216292,
          0.96741748,
          -0.61235768,
          0.10072383,
          0.10066434,
          -0.05845338,
          0.67446256
        ],
        [
          0.40467986,
          0.91193402,
          0.73737729,
          -0.7655642,
          -0.71948141,
          0.45847294,
          0.47670951,
          0.87278229,
          0.06255039,
          0.89495671,
          -0.0401819,
          -0.19519752,
          -0.54888111,
          0.72554195,
          0.12416127,
          0.84198219,
          0.16493827,
          -0.79827374,
          0.10618791,
          -0.11708684,
          -0.42770702,
          0.15343726,
          0.70714647,
          0.19532345,
          -0.41828108,
          0.55365205,
          -0.43163243,
          0.44770148,
          0.09893579,
          0.16481608,
          0.68997228,
          0.61834848,
          1.0,
          0.56444359,
          -0.59381664,
          0.59690285,
          -0.25566754,
          -0.36253911,
          0.56351346,
          0.66902822,
          -0.44557914,
          0.89119661,
          -0.42079192,
          -0.50634521,
          -0.72914171,
          -0.30230206,
          0.59885603,
          0.41665247,
          0.24065509,
          -0.58873385,
          -0.10317139,
          -0.80841541,
          -0.93431246,
          -0.27237386,
          -0.92016351,
          -0.27392742,
          0.28001401,
          0.17758785,
          -0.48722011,
          0.71574491,
          -0.97566444,
          -0.03545064,
          -0.41015446,
          -0.40187317
        ],
        [
          -0.03488482,
          0.73514318,
          -0.18047199,
          0.62973577,
          0.70008278,
          -0.40744674,
          -0.01674088,
          0.44410625,
          0.78250879,
          0.61174792,
          -0.14173274,
          -0.49225676,
          -0.54728037,
          0.14829084,
          0.80571538,
          -0.41012624,
          0.4265599,
          0.20797502,
          0.56238794,
          -0.08584463,
          -0.36391002,
          -0.46388686,
          -0.19996235,
          0.70728439,
          -0.09454316,
          0.00367123,
          -0.58907354,
          -0.38032633,
          0.57688767,
          0.18601617,
          -0.33407184,
          0.1377849,
          0.54139704,
          -0.7506125,
          -0.36384109,
          0.00974031,
          -0.08307751,
          0.97474509,
          0.79134142,
          -0.11264496,
          -0.74766082,
          -0.718651,
          0.28017408,
          0.64812922,
          -0.59760267,
          0.13739672,
          -0.60759443,
          0.48954085,
          0.81828773,
          -0.67701864,
          -0.34192899,
          0.54041594,
          0.8110258,
          -0.11184949,
          0.76824868,
          -0.86964792,
          0.70357996,
          -0.36663395,
          -0.50517493,
          -0.09707512,
          -1.0,
          0.17219278,
          -0.1513475,
          -0.2073496
        ],
        [
          -0.523256,
          0.49231851,
          -0.71339101,
          0.20784444,
          -0.15958598,
          0.47096771,
          0.01796019,
          0.64106053,
          0.10556117,
          -0.72992891,
          -0.29508784,
          0.33088762,
          -0.23067059,
          -0.34373507,
          0.7563445,
          -0.66152614,
          -0.30501974,
          -0.17465602,
          -0.61601353,
          -0.11173724,
          0.07013586,
          -0.18968263,
          -0.86612457,
          0.17747162,
          0.75684911,
          -0.43764415,
          -0.15275253,
          -0.68198925,
          0.5277186,
          -0.47471824,
          -0.68835121,
          0.88717699,
          -0.39917153,
          0.346921,
          -0.65325332,
          0.57740617,
          -0.25585264,
          0.89212942,
          0.21224834,
          0.77712059,
          0.30934232,
          0.74407345,
          0.14172319,
          -0.15258797,
          -0.58268547,
          0.19332059,
          -0.84556657,
          0.55221862,
          0.17881362,
          -0.19112869,
          0.02426015,
          -0.56176239,
          -0.14923456,
          -0.82993698,
          -0.96161735,
          0.43943027,
          0.53192711,
          -0.60340065,
          -1.0,
          -0.10974514,
          -0.43528685,
          0.02046598,
          -0.08734041,
          -0.03152005
        ]
      ],
      "channel_abs_mean": [
        0.05536136,
        0.07692868,
        0.05488433,
        0.06265306,
        0.05939241,
        0.05958737,
        0.03817189,
        0.07186089,
        0.05085192,
        0.09814622,
        0.02980695,
        0.05366967,
        0.04815326,
        0.07080571,
        0.07841971,
        0.08854297,
        0.04072294,
        0.04172756,
        0.04458965,
        0.01872802,
        0.05332513,
        0.05646745,
        0.06667393,
        0.0450945,
        0.06665753,
        0.05224554,
        0.04370839,
        0.0524249,
        0.04874486,
        0.04348428,
        0.07846175,
        0.07796092,
        0.06597269,
        0.05577321,
        0.07263614,
        0.06360096,
        0.03456363,
        0.08760125,
        0.08114669,
        0.0811961,
        0.05785003,
        0.09609163,
        0.04122462,
        0.07159385,
        0.06971039,
        0.03431319,
        0.09218275,
        0.0778527,
        0.06189445,
        0.07257498,
        0.02009928,
        0.0825192,
        0.0659018,
        0.06802946,
        0.1139368,
        0.07448338,
        0.06699712,
        0.05382045,
        0.09561783,
        0.04912067,
        0.08329458,
        0.01085052,
        0.02316793,
        0.04209935
      ],
      "channel_signed_mean": [
        0.01899446,
        0.07692868,
        -0.00698281,
        -0.00589266,
        0.00229302,
        0.03159308,
        0.03702169,
        0.07186089,
        0.01382811,
        0.0507588,
        -0.00169861,
        -0.03218824,
        -0.04008023,
        0.04849022,
        0.03410637,
        0.01741791,
        -0.00070073,
        -0.02146869,
        0.00459768,
        -0.00203032,
        -0.04877187,
        0.01228104,
        -0.02073626,
        0.0450945,
        0.0329894,
        0.02383342,
        -0.04370839,
        -0.01798119,
        0.03157802,
        0.01266529,
        -0.03363976,
        0.07796092,
        0.04005823,
        0.00420117,
        -0.07263614,
        0.01332984,
        -0.03456363,
        0.03728776,
        0.02360996,
        0.07345665,
        -0.02246493,
        0.01010799,
        0.01388913,
        0.02879454,
        -0.06971039,
        -0.01232264,
        -0.05327985,
        0.0778527,
        0.02156946,
        -0.02459421,
        -0.0185243,
        -0.04538905,
        -0.00448142,
        -0.06802946,
        -0.06115304,
        -0.00306206,
        0.06699712,
        -0.01054285,
        -0.03566243,
        -0.00262443,
        -0.07705226,
        0.00854757,
        -0.02316793,
        -0.00029974
      ],
      "channel_l2": [
        0.06450775,
        0.08502789,
        0.06784702,
        0.06986681,
        0.0692103,
        0.05962852,
        0.05306438,
        0.07809954,
        0.06576287,
        0.09883017,
        0.03547847,
        0.05757634,
        0.05454088,
        0.08163418,
        0.08662721,
        0.09087455,
        0.04281764,
        0.05529543,
        0.05615418,
        0.0205931,
        0.06204255,
        0.06871694,
        0.07592751,
        0.05438223,
        0.07580393,
        0.06074322,
        0.05102371,
        0.05931021,
        0.05550455,
        0.04790208,
        0.08068214,
        0.08597203,
        0.07931121,
        0.06717175,
        0.07385916,
        0.07373181,
        0.03868327,
        0.09544893,
        0.0882981,
        0.0904626,
        0.0641415,
        0.09727928,
        0.04374202,
        0.07926638,
        0.07438947,
        0.03689392,
        0.09302244,
        0.08153716,
        0.071876,
        0.07799058,
        0.02589116,
        0.0835559,
        0.08315782,
        0.08063155,
        0.11425181,
        0.08087317,
        0.07031811,
        0.05752973,
        0.10007903,
        0.06080625,
        0.09785351,
        0.0136366,
        0.02938252,
        0.05134102
      ],
      "top_channels_by_abs_weight": [
        {
          "rank": 1,
          "channel_index": 54,
          "channel_name": "CP4",
          "abs_mean_weight": 0.1139368,
          "signed_mean_weight": -0.06115304,
          "l2_weight": 0.11425181
        },
        {
          "rank": 2,
          "channel_index": 9,
          "channel_name": "FC3",
          "abs_mean_weight": 0.09814622,
          "signed_mean_weight": 0.0507588,
          "l2_weight": 0.09883017
        },
        {
          "rank": 3,
          "channel_index": 41,
          "channel_name": "F8",
          "abs_mean_weight": 0.09609163,
          "signed_mean_weight": 0.01010799,
          "l2_weight": 0.09727928
        },
        {
          "rank": 4,
          "channel_index": 58,
          "channel_name": "P6",
          "abs_mean_weight": 0.09561783,
          "signed_mean_weight": -0.03566243,
          "l2_weight": 0.10007903
        },
        {
          "rank": 5,
          "channel_index": 46,
          "channel_name": "FCz",
          "abs_mean_weight": 0.09218275,
          "signed_mean_weight": -0.05327985,
          "l2_weight": 0.09302244
        },
        {
          "rank": 6,
          "channel_index": 15,
          "channel_name": "TP7",
          "abs_mean_weight": 0.08854297,
          "signed_mean_weight": 0.01741791,
          "l2_weight": 0.09087455
        },
        {
          "rank": 7,
          "channel_index": 37,
          "channel_name": "Fz",
          "abs_mean_weight": 0.08760125,
          "signed_mean_weight": 0.03728776,
          "l2_weight": 0.09544893
        },
        {
          "rank": 8,
          "channel_index": 60,
          "channel_name": "P10",
          "abs_mean_weight": 0.08329458,
          "signed_mean_weight": -0.07705226,
          "l2_weight": 0.09785351
        },
        {
          "rank": 9,
          "channel_index": 51,
          "channel_name": "T8",
          "abs_mean_weight": 0.0825192,
          "signed_mean_weight": -0.04538905,
          "l2_weight": 0.0835559
        },
        {
          "rank": 10,
          "channel_index": 39,
          "channel_name": "F4",
          "abs_mean_weight": 0.0811961,
          "signed_mean_weight": 0.07345665,
          "l2_weight": 0.0904626
        },
        {
          "rank": 11,
          "channel_index": 38,
          "channel_name": "F2",
          "abs_mean_weight": 0.08114669,
          "signed_mean_weight": 0.02360996,
          "l2_weight": 0.0882981
        },
        {
          "rank": 12,
          "channel_index": 30,
          "channel_name": "Pz",
          "abs_mean_weight": 0.07846175,
          "signed_mean_weight": -0.03363976,
          "l2_weight": 0.08068214
        },
        {
          "rank": 13,
          "channel_index": 14,
          "channel_name": "T7",
          "abs_mean_weight": 0.07841971,
          "signed_mean_weight": 0.03410637,
          "l2_weight": 0.08662721
        },
        {
          "rank": 14,
          "channel_index": 31,
          "channel_name": "CPz",
          "abs_mean_weight": 0.07796092,
          "signed_mean_weight": 0.07796092,
          "l2_weight": 0.08597203
        },
        {
          "rank": 15,
          "channel_index": 47,
          "channel_name": "Cz",
          "abs_mean_weight": 0.0778527,
          "signed_mean_weight": 0.0778527,
          "l2_weight": 0.08153716
        }
      ]
    }
  },
  {
    "subject_id": "1",
    "fold_id": 3,
    "accuracy": 0.575,
    "balanced_accuracy": 0.575,
    "prediction_histogram": [
      19,
      21
    ],
    "collapse_diagnostics": {
      "prediction_histogram": [
        19,
        21
      ],
      "collapse_ratio": 0.525,
      "collapse_threshold": 0.9,
      "collapse_flag": false,
      "majority_predicted_class": 1
    },
    "probability_diagnostics": {
      "available": true,
      "probability_shape": [
        40,
        2
      ],
      "mean_probability_by_class": [
        0.50275756,
        0.49724243
      ],
      "std_probability_by_class": [
        0.06187604,
        0.06187604
      ],
      "mean_confidence": 0.54992765,
      "std_confidence": 0.03665349,
      "mean_prediction_entropy": 0.68542201,
      "mean_normalized_prediction_entropy": 0.98885493,
      "mean_predicted_class_probability": 0.54992765
    },
    "spatial_update_stats": {
      "available": true,
      "parameter_name": "spatial_conv.1.weight",
      "initial_shape": [
        4,
        64
      ],
      "final_shape": [
        4,
        64
      ],
      "initial_l2": 1.13190078,
      "final_l2": 1.13381931,
      "delta_l2": 0.09602603,
      "delta_max_abs": 0.01431704,
      "relative_delta": 0.08483609,
      "changed": true
    },
    "n_trainable_params_final": 1798,
    "spatial_conv": {
      "available": true,
      "parameter_name": "spatial_conv.1.weight",
      "raw_weight_shape": [
        4,
        1,
        64,
        1
      ],
      "weight_matrix_shape": [
        4,
        64
      ],
      "n_virtual_filters": 4,
      "n_input_channels": 64,
      "channel_names": [
        "Fp1",
        "AF7",
        "AF3",
        "F1",
        "F3",
        "F5",
        "F7",
        "FT7",
        "FC5",
        "FC3",
        "FC1",
        "C1",
        "C3",
        "C5",
        "T7",
        "TP7",
        "CP5",
        "CP3",
        "CP1",
        "P1",
        "P3",
        "P5",
        "P7",
        "P9",
        "PO7",
        "PO3",
        "O1",
        "Iz",
        "Oz",
        "POz",
        "Pz",
        "CPz",
        "Fpz",
        "Fp2",
        "AF8",
        "AF4",
        "AFz",
        "Fz",
        "F2",
        "F4",
        "F6",
        "F8",
        "FT8",
        "FC6",
        "FC4",
        "FC2",
        "FCz",
        "Cz",
        "C2",
        "C4",
        "C6",
        "T8",
        "TP8",
        "CP6",
        "CP4",
        "CP2",
        "P2",
        "P4",
        "P6",
        "P8",
        "P10",
        "PO8",
        "PO4",
        "O2"
      ],
      "weight_matrix": [
        [
          0.09439021,
          0.02436478,
          0.0002175,
          -0.02957724,
          0.03320911,
          0.06997675,
          0.09283162,
          0.04475383,
          -0.06540115,
          0.098327,
          0.06180728,
          -0.07501943,
          0.01455456,
          0.12378713,
          -0.0875081,
          0.10688617,
          -0.05488375,
          0.00552201,
          0.00618873,
          0.03139861,
          -0.10094004,
          0.11064461,
          -0.04444018,
          0.04327479,
          0.09332056,
          0.07700307,
          -0.01944473,
          0.01913188,
          -0.02609752,
          0.06278769,
          -0.0876262,
          0.09886646,
          0.00528824,
          0.00107051,
          -0.07843606,
          -0.09865598,
          -0.0518255,
          -0.04659791,
          -0.10792238,
          0.12415943,
          0.03994546,
          -0.06700396,
          0.05336171,
          0.11709645,
          -0.02744225,
          -0.0436519,
          -0.09025936,
          0.12063537,
          -0.08218329,
          0.0907987,
          -0.02969165,
          -0.08435006,
          0.00728572,
          -0.12764837,
          -0.11271799,
          0.08292209,
          0.06396741,
          0.05425931,
          0.11038825,
          -0.08588336,
          0.01165042,
          -0.00019197,
          -0.01344325,
          0.0750114
        ],
        [
          0.04418016,
          0.11142515,
          0.09104619,
          -0.10946359,
          -0.09953655,
          0.05377036,
          0.05834497,
          0.11536508,
          0.00039312,
          0.10706832,
          -0.01510476,
          -0.03718967,
          -0.07753699,
          0.09103732,
          0.02449054,
          0.11677586,
          0.02788502,
          -0.09762102,
          0.01537547,
          -0.01348062,
          -0.05227671,
          0.02555393,
          0.09738835,
          0.02965948,
          -0.04868227,
          0.07462257,
          -0.05334894,
          0.06644112,
          0.0199576,
          0.02437987,
          0.09165359,
          0.07758116,
          0.12272234,
          0.07246049,
          -0.0813904,
          0.0753709,
          -0.03862315,
          -0.05546499,
          0.0659662,
          0.07908431,
          -0.05951038,
          0.11808819,
          -0.05527652,
          -0.06331983,
          -0.0969728,
          -0.05131505,
          0.06539994,
          0.04156378,
          0.02457613,
          -0.08580635,
          -0.01657877,
          -0.11178876,
          -0.10620677,
          -0.02951783,
          -0.12485296,
          -0.04200435,
          0.03255048,
          0.02978936,
          -0.04942708,
          0.10678622,
          -0.12908508,
          0.00881179,
          -0.04290932,
          -0.04201614
        ],
        [
          -0.00772685,
          0.10103927,
          -0.03055526,
          0.07799383,
          0.0912828,
          -0.05512289,
          -0.00185727,
          0.07221064,
          0.10508316,
          0.07969352,
          -0.02626844,
          -0.06983858,
          -0.06798723,
          0.02573126,
          0.12078381,
          -0.05298927,
          0.06422459,
          0.03384209,
          0.08096642,
          -0.0128993,
          -0.050254,
          -0.06372731,
          -0.02807208,
          0.09712882,
          -0.01864255,
          -0.00595716,
          -0.08602296,
          -0.05223599,
          0.07926554,
          0.02654295,
          -0.04372961,
          0.01830972,
          0.07027214,
          -0.10715291,
          -0.05079163,
          -0.00347079,
          -0.01744373,
          0.12261523,
          0.09749892,
          -0.02644625,
          -0.11021703,
          -0.10008917,
          0.03710246,
          0.08671625,
          -0.08660254,
          0.01225049,
          -0.08892462,
          0.06823136,
          0.11133519,
          -0.09553555,
          -0.03685399,
          0.08539647,
          0.12044477,
          -0.00800518,
          0.10825109,
          -0.1155285,
          0.10262062,
          -0.04329626,
          -0.0642459,
          -0.00769824,
          -0.12513106,
          0.02767646,
          -0.01673544,
          -0.02607259
        ],
        [
          -0.06911331,
          0.06522296,
          -0.09505852,
          0.02860023,
          -0.02032953,
          0.05366665,
          -0.00106685,
          0.07577648,
          0.01371139,
          -0.09117449,
          -0.03423621,
          0.05195908,
          -0.02098437,
          -0.04424017,
          0.10057469,
          -0.0833932,
          -0.03195856,
          -0.01291826,
          -0.06797408,
          -0.0046789,
          0.0201455,
          -0.02306972,
          -0.11112636,
          0.0215088,
          0.09666773,
          -0.05943144,
          -0.0219752,
          -0.09114516,
          0.06653281,
          -0.05291539,
          -0.08245799,
          0.1242949,
          -0.0538797,
          0.040734,
          -0.08540294,
          0.0730553,
          -0.0352357,
          0.11901022,
          0.03119561,
          0.10526329,
          0.03121989,
          0.09773855,
          0.01636548,
          -0.02565361,
          -0.07550658,
          0.02924176,
          -0.10245984,
          0.08055191,
          0.03767516,
          -0.02239485,
          -0.0034864,
          -0.08038987,
          -0.02264323,
          -0.10599717,
          -0.11765303,
          0.0657595,
          0.07130877,
          -0.07473558,
          -0.13117069,
          -0.01429119,
          -0.0593374,
          0.00029766,
          -0.00686012,
          -0.00680755
        ]
      ],
      "weight_matrix_norm": [
        [
          0.73945493,
          0.19087422,
          0.00170393,
          -0.23170871,
          0.26016083,
          0.5481993,
          0.72724485,
          0.35060245,
          -0.51235402,
          0.77029574,
          0.48419952,
          -0.58770376,
          0.11402076,
          0.96975094,
          -0.68554032,
          0.83734852,
          -0.42996043,
          0.04325952,
          0.04848266,
          0.24597737,
          -0.79076642,
          0.8667922,
          -0.34814534,
          0.3390156,
          0.73107517,
          0.60324365,
          -0.15233044,
          0.14987954,
          -0.20444855,
          0.49188009,
          -0.6864655,
          0.77452189,
          0.04142817,
          0.00838641,
          -0.61446977,
          -0.77287298,
          -0.40600207,
          -0.36504897,
          -0.8454662,
          0.97266757,
          0.31293359,
          -0.52491039,
          0.41803673,
          0.91733611,
          -0.21498314,
          -0.34196991,
          -0.70709372,
          0.94506001,
          -0.64382565,
          0.71131891,
          -0.232605,
          -0.6608001,
          0.0570765,
          -1.0,
          -0.88303512,
          0.64961338,
          0.50112206,
          0.42506856,
          0.86478388,
          -0.6728121,
          0.09126967,
          -0.00150389,
          -0.10531474,
          0.58764088
        ],
        [
          0.34225613,
          0.8631916,
          0.70531929,
          -0.8479957,
          -0.77109259,
          0.41654974,
          0.45198846,
          0.89371353,
          0.00304542,
          0.82943994,
          -0.11701397,
          -0.28810197,
          -0.60066575,
          0.7052505,
          0.18972406,
          0.90464258,
          0.21602049,
          -0.75625336,
          0.11911117,
          -0.10443202,
          -0.40497872,
          0.19796196,
          0.75445086,
          0.22976694,
          -0.37713322,
          0.57808828,
          -0.41328514,
          0.51470798,
          0.15460812,
          0.18886666,
          0.71002471,
          0.60100794,
          0.95070893,
          0.56133902,
          -0.63051754,
          0.58388543,
          -0.29920694,
          -0.42967775,
          0.51102883,
          0.6126526,
          -0.46101674,
          0.91480893,
          -0.42821777,
          -0.4905279,
          -0.75123167,
          -0.39752895,
          0.50664216,
          0.32198745,
          0.19038709,
          -0.66472715,
          -0.12843288,
          -0.8660084,
          -0.82276571,
          -0.2286696,
          -0.96721452,
          -0.3254005,
          0.25216302,
          0.23077311,
          -0.38290316,
          0.82725459,
          -1.0,
          0.06826343,
          -0.33241114,
          -0.32549182
        ],
        [
          -0.0617501,
          0.80746758,
          -0.24418609,
          0.62329715,
          0.72949755,
          -0.44052124,
          -0.01484257,
          0.57708007,
          0.8397848,
          0.6368804,
          -0.20992744,
          -0.55812347,
          -0.54332817,
          0.20563447,
          0.96525848,
          -0.42347017,
          0.51325864,
          0.27045313,
          0.64705294,
          -0.10308636,
          -0.40161094,
          -0.50928456,
          -0.22434144,
          0.77621669,
          -0.14898418,
          -0.04760738,
          -0.68746293,
          -0.41745028,
          0.63346016,
          0.21212123,
          -0.3494705,
          0.14632435,
          0.56158835,
          -0.85632545,
          -0.40590745,
          -0.02773726,
          -0.13940372,
          0.97989452,
          0.77917439,
          -0.21134846,
          -0.88081282,
          -0.79987472,
          0.29650882,
          0.69300342,
          -0.69209468,
          0.09790131,
          -0.71065187,
          0.5452792,
          0.88974863,
          -0.76348388,
          -0.29452312,
          0.68245625,
          0.96254897,
          -0.06397434,
          0.8651017,
          -0.92326003,
          0.82010514,
          -0.34600732,
          -0.51342893,
          -0.06152139,
          -1.0,
          0.22117975,
          -0.13374332,
          -0.20836224
        ],
        [
          -0.526896,
          0.49723732,
          -0.72469324,
          0.21803828,
          -0.15498529,
          0.40913603,
          -0.00813332,
          0.5776937,
          0.10453087,
          -0.69508278,
          -0.26100504,
          0.39611802,
          -0.15997757,
          -0.33727172,
          0.76674664,
          -0.63576096,
          -0.243641,
          -0.09848433,
          -0.51821089,
          -0.03567034,
          0.1535823,
          -0.17587556,
          -0.84718901,
          0.16397567,
          0.73696136,
          -0.45308474,
          -0.16753131,
          -0.69485921,
          0.50722319,
          -0.40340865,
          -0.62863123,
          0.94758135,
          -0.41076025,
          0.31054196,
          -0.65108252,
          0.5569483,
          -0.26862475,
          0.90729278,
          0.23782453,
          0.80249095,
          0.23800965,
          0.74512494,
          0.12476475,
          -0.19557424,
          -0.57563603,
          0.22292905,
          -0.78111839,
          0.61409992,
          0.28722245,
          -0.17073059,
          -0.02657911,
          -0.61286461,
          -0.17262413,
          -0.8080858,
          -0.89694607,
          0.50132769,
          0.5436334,
          -0.56975824,
          -1.0,
          -0.10895112,
          -0.45236784,
          0.00226926,
          -0.05229921,
          -0.05189844
        ]
      ],
      "channel_abs_mean": [
        0.05385263,
        0.07551304,
        0.05421937,
        0.06140872,
        0.06108949,
        0.05813416,
        0.03852518,
        0.07702651,
        0.0461472,
        0.09406583,
        0.03435417,
        0.05850168,
        0.04526579,
        0.07119897,
        0.08333929,
        0.09001112,
        0.04473798,
        0.03747585,
        0.04262618,
        0.01561436,
        0.05590406,
        0.0557489,
        0.07025675,
        0.04789297,
        0.06432828,
        0.05425356,
        0.04519796,
        0.05723854,
        0.04796337,
        0.04165648,
        0.07636685,
        0.07976306,
        0.06304061,
        0.05535448,
        0.07400525,
        0.06263824,
        0.03578202,
        0.08592208,
        0.07564577,
        0.08373832,
        0.06022319,
        0.09572996,
        0.04052654,
        0.07319653,
        0.07163104,
        0.0341148,
        0.08676094,
        0.0777456,
        0.06394245,
        0.07363386,
        0.0216527,
        0.0904813,
        0.06414513,
        0.06779213,
        0.11586877,
        0.07655361,
        0.06761182,
        0.05052013,
        0.08880799,
        0.05366476,
        0.081301,
        0.00924447,
        0.01998703,
        0.03747692
      ],
      "channel_signed_mean": [
        0.01543255,
        0.07551304,
        -0.00858752,
        -0.00811169,
        0.00115646,
        0.03057272,
        0.03706312,
        0.07702651,
        0.01344663,
        0.04847859,
        -0.00345053,
        -0.03252215,
        -0.0379885,
        0.04907889,
        0.03958523,
        0.02181989,
        0.00131683,
        -0.0177938,
        0.00863914,
        8.495e-05,
        -0.04583132,
        0.01235038,
        -0.02156257,
        0.04789297,
        0.03066587,
        0.02155926,
        -0.04519796,
        -0.01445204,
        0.03491461,
        0.01519878,
        -0.03054005,
        0.07976306,
        0.03610075,
        0.00177803,
        -0.07400525,
        0.01157486,
        -0.03578202,
        0.03489064,
        0.02168458,
        0.07051519,
        -0.02464052,
        0.0121834,
        0.01288828,
        0.02870982,
        -0.07163104,
        -0.01336868,
        -0.05406097,
        0.0777456,
        0.0228508,
        -0.02823451,
        -0.0216527,
        -0.04778306,
        -0.00027988,
        -0.06779213,
        -0.06174323,
        -0.00221282,
        0.06761182,
        -0.00849579,
        -0.03361386,
        -0.00027164,
        -0.07547577,
        0.00914848,
        -0.01998703,
        2.878e-05
      ],
      "channel_l2": [
        0.06264534,
        0.08287366,
        0.0675633,
        0.07028176,
        0.07027839,
        0.05853768,
        0.05483255,
        0.08103774,
        0.06226544,
        0.09459872,
        0.0384397,
        0.06039073,
        0.0531188,
        0.08097892,
        0.09077644,
        0.09330533,
        0.04726508,
        0.0521357,
        0.05350407,
        0.01841117,
        0.06295445,
        0.06612226,
        0.07841641,
        0.05623395,
        0.07206054,
        0.06137097,
        0.05269503,
        0.06288181,
        0.05428864,
        0.04483648,
        0.07872473,
        0.08885083,
        0.07571317,
        0.0678098,
        0.07524969,
        0.07204668,
        0.03782681,
        0.0927977,
        0.08136028,
        0.09144624,
        0.06756405,
        0.09747437,
        0.04343785,
        0.08046552,
        0.07641669,
        0.03722861,
        0.08779167,
        0.08280182,
        0.07275476,
        0.07942875,
        0.02513375,
        0.09133284,
        0.08116744,
        0.08435771,
        0.11603247,
        0.08110423,
        0.07205432,
        0.05313062,
        0.0948181,
        0.06899774,
        0.09483854,
        0.01452377,
        0.02423359,
        0.0450505
      ],
      "top_channels_by_abs_weight": [
        {
          "rank": 1,
          "channel_index": 54,
          "channel_name": "CP4",
          "abs_mean_weight": 0.11586877,
          "signed_mean_weight": -0.06174323,
          "l2_weight": 0.11603247
        },
        {
          "rank": 2,
          "channel_index": 41,
          "channel_name": "F8",
          "abs_mean_weight": 0.09572996,
          "signed_mean_weight": 0.0121834,
          "l2_weight": 0.09747437
        },
        {
          "rank": 3,
          "channel_index": 9,
          "channel_name": "FC3",
          "abs_mean_weight": 0.09406583,
          "signed_mean_weight": 0.04847859,
          "l2_weight": 0.09459872
        },
        {
          "rank": 4,
          "channel_index": 51,
          "channel_name": "T8",
          "abs_mean_weight": 0.0904813,
          "signed_mean_weight": -0.04778306,
          "l2_weight": 0.09133284
        },
        {
          "rank": 5,
          "channel_index": 15,
          "channel_name": "TP7",
          "abs_mean_weight": 0.09001112,
          "signed_mean_weight": 0.02181989,
          "l2_weight": 0.09330533
        },
        {
          "rank": 6,
          "channel_index": 58,
          "channel_name": "P6",
          "abs_mean_weight": 0.08880799,
          "signed_mean_weight": -0.03361386,
          "l2_weight": 0.0948181
        },
        {
          "rank": 7,
          "channel_index": 46,
          "channel_name": "FCz",
          "abs_mean_weight": 0.08676094,
          "signed_mean_weight": -0.05406097,
          "l2_weight": 0.08779167
        },
        {
          "rank": 8,
          "channel_index": 37,
          "channel_name": "Fz",
          "abs_mean_weight": 0.08592208,
          "signed_mean_weight": 0.03489064,
          "l2_weight": 0.0927977
        },
        {
          "rank": 9,
          "channel_index": 39,
          "channel_name": "F4",
          "abs_mean_weight": 0.08373832,
          "signed_mean_weight": 0.07051519,
          "l2_weight": 0.09144624
        },
        {
          "rank": 10,
          "channel_index": 14,
          "channel_name": "T7",
          "abs_mean_weight": 0.08333929,
          "signed_mean_weight": 0.03958523,
          "l2_weight": 0.09077644
        },
        {
          "rank": 11,
          "channel_index": 60,
          "channel_name": "P10",
          "abs_mean_weight": 0.081301,
          "signed_mean_weight": -0.07547577,
          "l2_weight": 0.09483854
        },
        {
          "rank": 12,
          "channel_index": 31,
          "channel_name": "CPz",
          "abs_mean_weight": 0.07976306,
          "signed_mean_weight": 0.07976306,
          "l2_weight": 0.08885083
        },
        {
          "rank": 13,
          "channel_index": 47,
          "channel_name": "Cz",
          "abs_mean_weight": 0.0777456,
          "signed_mean_weight": 0.0777456,
          "l2_weight": 0.08280182
        },
        {
          "rank": 14,
          "channel_index": 7,
          "channel_name": "FT7",
          "abs_mean_weight": 0.07702651,
          "signed_mean_weight": 0.07702651,
          "l2_weight": 0.08103774
        },
        {
          "rank": 15,
          "channel_index": 55,
          "channel_name": "CP2",
          "abs_mean_weight": 0.07655361,
          "signed_mean_weight": -0.00221282,
          "l2_weight": 0.08110423
        }
      ]
    }
  },
  {
    "subject_id": "1",
    "fold_id": 4,
    "accuracy": 0.475,
    "balanced_accuracy": 0.475,
    "prediction_histogram": [
      15,
      25
    ],
    "collapse_diagnostics": {
      "prediction_histogram": [
        15,
        25
      ],
      "collapse_ratio": 0.625,
      "collapse_threshold": 0.9,
      "collapse_flag": false,
      "majority_predicted_class": 1
    },
    "probability_diagnostics": {
      "available": true,
      "probability_shape": [
        40,
        2
      ],
      "mean_probability_by_class": [
        0.47577528,
        0.52422473
      ],
      "std_probability_by_class": [
        0.15697033,
        0.15697034
      ],
      "mean_confidence": 0.6300614,
      "std_confidence": 0.09116224,
      "mean_prediction_entropy": 0.64073606,
      "mean_normalized_prediction_entropy": 0.92438673,
      "mean_predicted_class_probability": 0.6300614
    },
    "spatial_update_stats": {
      "available": true,
      "parameter_name": "spatial_conv.1.weight",
      "initial_shape": [
        4,
        64
      ],
      "final_shape": [
        4,
        64
      ],
      "initial_l2": 1.13190078,
      "final_l2": 1.15943878,
      "delta_l2": 0.33971793,
      "delta_max_abs": 0.0628117,
      "relative_delta": 0.30013049,
      "changed": true
    },
    "n_trainable_params_final": 1798,
    "spatial_conv": {
      "available": true,
      "parameter_name": "spatial_conv.1.weight",
      "raw_weight_shape": [
        4,
        1,
        64,
        1
      ],
      "weight_matrix_shape": [
        4,
        64
      ],
      "n_virtual_filters": 4,
      "n_input_channels": 64,
      "channel_names": [
        "Fp1",
        "AF7",
        "AF3",
        "F1",
        "F3",
        "F5",
        "F7",
        "FT7",
        "FC5",
        "FC3",
        "FC1",
        "C1",
        "C3",
        "C5",
        "T7",
        "TP7",
        "CP5",
        "CP3",
        "CP1",
        "P1",
        "P3",
        "P5",
        "P7",
        "P9",
        "PO7",
        "PO3",
        "O1",
        "Iz",
        "Oz",
        "POz",
        "Pz",
        "CPz",
        "Fpz",
        "Fp2",
        "AF8",
        "AF4",
        "AFz",
        "Fz",
        "F2",
        "F4",
        "F6",
        "F8",
        "FT8",
        "FC6",
        "FC4",
        "FC2",
        "FCz",
        "Cz",
        "C2",
        "C4",
        "C6",
        "T8",
        "TP8",
        "CP6",
        "CP4",
        "CP2",
        "P2",
        "P4",
        "P6",
        "P8",
        "P10",
        "PO8",
        "PO4",
        "O2"
      ],
      "weight_matrix": [
        [
          0.09632455,
          0.03017943,
          0.00848764,
          -0.00792167,
          0.0432074,
          0.0754127,
          0.07236394,
          0.00972665,
          -0.06874664,
          0.12440012,
          0.07618071,
          -0.08621915,
          0.00209591,
          0.13110752,
          -0.07162053,
          0.0636977,
          -0.05132433,
          0.03103052,
          0.00115427,
          0.03810357,
          -0.10265921,
          0.10598436,
          -0.04973679,
          0.02437611,
          0.09077331,
          0.07167594,
          -0.02259489,
          0.02608853,
          -0.01307202,
          0.06474966,
          -0.10042723,
          0.09077861,
          -0.00235066,
          0.00482217,
          -0.08703667,
          -0.09433196,
          -0.05905937,
          -0.03047131,
          -0.10758429,
          0.0987084,
          0.0601464,
          -0.06287094,
          0.0687288,
          0.1213989,
          -0.03818249,
          -0.05473972,
          -0.09983405,
          0.10893885,
          -0.07297312,
          0.12096264,
          0.0096112,
          -0.08802161,
          0.0306644,
          -0.11473344,
          -0.10970972,
          0.07040909,
          0.03283159,
          0.06307805,
          0.12385173,
          -0.07753132,
          -0.00715112,
          0.0094501,
          -0.00923135,
          0.10339534
        ],
        [
          0.00818896,
          0.10981999,
          0.05433461,
          -0.07807011,
          -0.05844604,
          0.06918774,
          0.1136261,
          0.09159648,
          0.02222637,
          0.13954733,
          -0.00706261,
          -0.00098252,
          -0.07546026,
          0.10006138,
          0.0280568,
          0.1463308,
          0.05623296,
          -0.09703004,
          -0.01232482,
          -0.02564147,
          -0.04391303,
          0.0596505,
          0.12977272,
          0.04728836,
          -0.01601072,
          0.09774781,
          -0.0247276,
          0.09863058,
          0.05155263,
          0.00892357,
          0.07539622,
          0.04610565,
          0.09556566,
          0.04944575,
          -0.05243267,
          0.05941377,
          -0.0577902,
          -0.02903545,
          0.083559,
          0.07491745,
          -0.0537662,
          0.15207364,
          -0.00134551,
          -0.12489922,
          -0.09224358,
          -0.06204711,
          0.08970421,
          0.01573328,
          -0.01105727,
          -0.12750573,
          -0.04364504,
          -0.09121861,
          -0.14181869,
          -0.08798219,
          -0.16021526,
          -0.08079248,
          0.00203859,
          -0.01444831,
          -0.09062847,
          0.07357135,
          -0.09691426,
          -0.00435849,
          -0.07536224,
          -0.03903679
        ],
        [
          -0.00441395,
          0.10377119,
          -0.03006014,
          0.08403984,
          0.10966156,
          -0.0575166,
          -0.00271699,
          0.02147569,
          0.0838194,
          0.0791647,
          -0.03185874,
          -0.03691923,
          -0.08461654,
          0.01854282,
          0.11220086,
          -0.05029752,
          0.06365664,
          0.03267304,
          0.08519892,
          -0.01707476,
          -0.03581375,
          -0.04672498,
          -0.00979256,
          0.08663506,
          0.00943924,
          -3.6e-07,
          -0.07409845,
          -0.04897404,
          0.08038487,
          0.02527896,
          -0.04682786,
          0.01058079,
          0.07892244,
          -0.09101658,
          -0.04527828,
          0.00810334,
          -0.01201485,
          0.14788675,
          0.10894853,
          0.00468911,
          -0.09585787,
          -0.08459248,
          0.03331345,
          0.08349542,
          -0.06403312,
          0.00338604,
          -0.08448552,
          0.05153009,
          0.09448406,
          -0.10588504,
          -0.07133041,
          0.10329619,
          0.1168166,
          -0.05632355,
          0.1149081,
          -0.1201356,
          0.08694893,
          -0.05193253,
          -0.08410759,
          -0.03379198,
          -0.15974571,
          -0.00250231,
          -0.02046491,
          -0.04712256
        ],
        [
          -0.08590815,
          0.04097676,
          -0.10009202,
          0.05428448,
          0.01772404,
          0.0390344,
          0.00288948,
          0.07590641,
          -0.00993695,
          -0.05729728,
          -0.02395931,
          0.04589499,
          0.0007875,
          -0.04138197,
          0.11603487,
          -0.08321694,
          -0.02204756,
          0.00109443,
          -0.07893929,
          -0.00302407,
          0.02787067,
          -0.01003279,
          -0.09978092,
          -0.00070337,
          0.10773181,
          -0.03974057,
          -0.00306288,
          -0.09359946,
          0.06497598,
          -0.03994728,
          -0.07585891,
          0.12235703,
          -0.06637495,
          0.04793419,
          -0.08805726,
          0.05439011,
          -0.02378941,
          0.1212939,
          0.01106583,
          0.09554953,
          0.04970232,
          0.08378023,
          -0.0042442,
          -0.03555461,
          -0.07270615,
          0.01631489,
          -0.11241756,
          0.07185196,
          0.03610047,
          -0.01957032,
          0.00978113,
          -0.10432047,
          -0.02858052,
          -0.10836864,
          -0.14444429,
          0.0529543,
          0.05500888,
          -0.0885242,
          -0.13554607,
          -0.01837177,
          -0.04590757,
          -0.00819961,
          -0.01735618,
          0.01955045
        ]
      ],
      "weight_matrix_norm": [
        [
          0.73469883,
          0.23018841,
          0.06473798,
          -0.06042118,
          0.32955697,
          0.57519734,
          0.55194342,
          0.07418835,
          -0.52435315,
          0.94884038,
          0.58105522,
          -0.65762168,
          0.01598622,
          1.0,
          -0.54627323,
          0.48584324,
          -0.39146745,
          0.23667991,
          0.00880397,
          0.29062843,
          -0.78301543,
          0.80837739,
          -0.3793588,
          0.18592459,
          0.69235778,
          0.54669589,
          -0.17233863,
          0.19898573,
          -0.09970456,
          0.49386683,
          -0.76599133,
          0.69239819,
          -0.01792926,
          0.03678029,
          -0.66385716,
          -0.71950072,
          -0.45046511,
          -0.23241468,
          -0.8205806,
          0.75288129,
          0.45875624,
          -0.47953725,
          0.52421701,
          0.92594916,
          -0.29123038,
          -0.41751781,
          -0.76146698,
          0.83091229,
          -0.55658984,
          0.92262167,
          0.07330775,
          -0.67136961,
          0.23388745,
          -0.87510949,
          -0.83679193,
          0.5370332,
          0.25041732,
          0.48111689,
          0.94465768,
          -0.59135669,
          -0.05454395,
          0.07207903,
          -0.07041053,
          0.78863013
        ],
        [
          0.05111226,
          0.68545276,
          0.33913505,
          -0.48728263,
          -0.36479697,
          0.43184239,
          0.70920897,
          0.5717088,
          0.13872817,
          0.87099904,
          -0.04408204,
          -0.00613252,
          -0.47099292,
          0.62454337,
          0.17511943,
          0.91333872,
          0.3509838,
          -0.60562295,
          -0.07692666,
          -0.1600439,
          -0.27408767,
          0.37231469,
          0.80998981,
          0.29515514,
          -0.09993254,
          0.61010301,
          -0.15433986,
          0.61561286,
          0.32177106,
          0.05569736,
          0.47059324,
          0.28777316,
          0.59648287,
          0.30862075,
          -0.32726389,
          0.37083715,
          -0.3607035,
          -0.18122774,
          0.52154207,
          0.46760496,
          -0.33558726,
          0.94918323,
          -0.00839815,
          -0.77957135,
          -0.57574779,
          -0.38727343,
          0.55989802,
          0.09820089,
          -0.06901509,
          -0.79584014,
          -0.27241501,
          -0.5693503,
          -0.88517588,
          -0.54914987,
          -1.0,
          -0.50427455,
          0.01272408,
          -0.09018064,
          -0.56566691,
          0.45920315,
          -0.6049003,
          -0.02720395,
          -0.47038114,
          -0.24365212
        ],
        [
          -0.02763111,
          0.64960235,
          -0.18817496,
          0.52608508,
          0.68647575,
          -0.36005101,
          -0.01700822,
          0.13443673,
          0.52470517,
          0.49556699,
          -0.1994341,
          -0.23111247,
          -0.52969527,
          0.1160771,
          0.70237166,
          -0.31485996,
          0.3984873,
          0.20453158,
          0.53334093,
          -0.10688712,
          -0.22419222,
          -0.29249597,
          -0.0613009,
          0.54233104,
          0.05908917,
          -2.28e-06,
          -0.46385255,
          -0.30657503,
          0.50320518,
          0.15824498,
          -0.29314005,
          0.06623518,
          0.49405044,
          -0.56975913,
          -0.28343973,
          0.05072647,
          -0.07521237,
          0.92576355,
          0.68201226,
          0.02935358,
          -0.60006541,
          -0.52954459,
          0.20854047,
          0.52267712,
          -0.40084407,
          0.02119644,
          -0.52887505,
          0.32257575,
          0.59146541,
          -0.66283494,
          -0.44652477,
          0.64662892,
          0.73126596,
          -0.35258257,
          0.71931887,
          -0.75204271,
          0.54429591,
          -0.325095,
          -0.52650923,
          -0.21153608,
          -1.0,
          -0.01566434,
          -0.12810929,
          -0.29498482
        ],
        [
          -0.59474939,
          0.28368559,
          -0.69294554,
          0.37581602,
          0.12270506,
          0.27023843,
          0.0200041,
          0.5255065,
          -0.06879435,
          -0.39667392,
          -0.16587231,
          0.31773487,
          0.00545194,
          -0.28649089,
          0.80331922,
          -0.57611793,
          -0.15263708,
          0.00757684,
          -0.54650337,
          -0.02093587,
          0.19295101,
          -0.06945783,
          -0.69079179,
          -0.00486946,
          0.74583644,
          -0.27512735,
          -0.02120456,
          -0.64799696,
          0.44983423,
          -0.2765584,
          -0.52517766,
          0.84708804,
          -0.45951939,
          0.33185244,
          -0.60962784,
          0.37654737,
          -0.1646961,
          0.83972794,
          0.07660967,
          0.66149747,
          0.34409335,
          0.58001763,
          -0.02938296,
          -0.24614754,
          -0.50335079,
          0.11294939,
          -0.77827626,
          0.49743721,
          0.2499266,
          -0.13548699,
          0.0677156,
          -0.72221941,
          -0.19786535,
          -0.75024527,
          -1.0,
          0.3666071,
          0.38083112,
          -0.6128605,
          -0.93839693,
          -0.12718932,
          -0.31782198,
          -0.0567666,
          -0.12015832,
          0.13534944
        ]
      ],
      "channel_abs_mean": [
        0.0487089,
        0.07118684,
        0.0482436,
        0.05607902,
        0.05725976,
        0.06028786,
        0.04789913,
        0.04967631,
        0.04618234,
        0.10010237,
        0.03476534,
        0.04250397,
        0.04074005,
        0.07277343,
        0.08197827,
        0.08588574,
        0.04831537,
        0.04045701,
        0.04440433,
        0.02096097,
        0.05256416,
        0.05559815,
        0.07227075,
        0.03975073,
        0.05598877,
        0.05229117,
        0.03112096,
        0.06682315,
        0.05249637,
        0.03472487,
        0.07462756,
        0.06745552,
        0.06080343,
        0.04830467,
        0.06820122,
        0.0540598,
        0.03816346,
        0.08217186,
        0.07778941,
        0.06846613,
        0.0648682,
        0.09582932,
        0.02690799,
        0.09133705,
        0.06679134,
        0.03412195,
        0.09661034,
        0.06201354,
        0.05365373,
        0.09348093,
        0.03359195,
        0.09671421,
        0.07947005,
        0.09185196,
        0.13231933,
        0.08107287,
        0.044207,
        0.05449577,
        0.10853347,
        0.05081661,
        0.07742966,
        0.00612763,
        0.03060367,
        0.05227628
      ],
      "channel_signed_mean": [
        0.00354785,
        0.07118684,
        -0.01683248,
        0.01308313,
        0.02803674,
        0.03152956,
        0.04654063,
        0.04967631,
        0.00684054,
        0.07145372,
        0.00332501,
        -0.01955648,
        -0.03929835,
        0.05208244,
        0.046168,
        0.01912851,
        0.01162943,
        -0.00805801,
        -0.00122773,
        -0.00190918,
        -0.03862883,
        0.02721927,
        -0.00738439,
        0.03939904,
        0.04798342,
        0.03242071,
        -0.03112096,
        -0.0044636,
        0.04596037,
        0.01475122,
        -0.03692944,
        0.06745552,
        0.02644062,
        0.00279638,
        -0.06820122,
        0.00689382,
        -0.03816346,
        0.05241847,
        0.02399727,
        0.06846613,
        -0.00994384,
        0.02209761,
        0.02411313,
        0.01111012,
        -0.06679134,
        -0.02427148,
        -0.05175823,
        0.06201354,
        0.01163854,
        -0.03299961,
        -0.02389578,
        -0.04506612,
        -0.00572955,
        -0.09185196,
        -0.07486529,
        -0.01939117,
        0.044207,
        -0.02295675,
        -0.0466076,
        -0.01403093,
        -0.07742966,
        -0.00140258,
        -0.03060367,
        0.00919661
      ],
      "channel_l2": [
        0.06470157,
        0.07971635,
        0.05904726,
        0.06357514,
        0.06637511,
        0.06185843,
        0.06738538,
        0.06063726,
        0.05555301,
        0.10547379,
        0.0431347,
        0.05221131,
        0.05669926,
        0.08552451,
        0.08940051,
        0.09344116,
        0.0508296,
        0.05349403,
        0.0584027,
        0.02454618,
        0.06026331,
        0.06533518,
        0.08568377,
        0.05083432,
        0.07104819,
        0.06377967,
        0.04068767,
        0.0734301,
        0.0581209,
        0.04033286,
        0.07700267,
        0.07976478,
        0.07030773,
        0.05711795,
        0.07093795,
        0.06215397,
        0.04341086,
        0.09792122,
        0.08739096,
        0.07827464,
        0.06739333,
        0.1015556,
        0.03825329,
        0.09820021,
        0.06955791,
        0.04220166,
        0.09719722,
        0.0705926,
        0.06260555,
        0.10305861,
        0.04237028,
        0.09698131,
        0.09422819,
        0.09463183,
        0.13395257,
        0.08473722,
        0.05400964,
        0.0606653,
        0.11067927,
        0.05679628,
        0.09626748,
        0.00674159,
        0.04026392,
        0.06086301
      ],
      "top_channels_by_abs_weight": [
        {
          "rank": 1,
          "channel_index": 54,
          "channel_name": "CP4",
          "abs_mean_weight": 0.13231933,
          "signed_mean_weight": -0.07486529,
          "l2_weight": 0.13395257
        },
        {
          "rank": 2,
          "channel_index": 58,
          "channel_name": "P6",
          "abs_mean_weight": 0.10853347,
          "signed_mean_weight": -0.0466076,
          "l2_weight": 0.11067927
        },
        {
          "rank": 3,
          "channel_index": 9,
          "channel_name": "FC3",
          "abs_mean_weight": 0.10010237,
          "signed_mean_weight": 0.07145372,
          "l2_weight": 0.10547379
        },
        {
          "rank": 4,
          "channel_index": 51,
          "channel_name": "T8",
          "abs_mean_weight": 0.09671421,
          "signed_mean_weight": -0.04506612,
          "l2_weight": 0.09698131
        },
        {
          "rank": 5,
          "channel_index": 46,
          "channel_name": "FCz",
          "abs_mean_weight": 0.09661034,
          "signed_mean_weight": -0.05175823,
          "l2_weight": 0.09719722
        },
        {
          "rank": 6,
          "channel_index": 41,
          "channel_name": "F8",
          "abs_mean_weight": 0.09582932,
          "signed_mean_weight": 0.02209761,
          "l2_weight": 0.1015556
        },
        {
          "rank": 7,
          "channel_index": 49,
          "channel_name": "C4",
          "abs_mean_weight": 0.09348093,
          "signed_mean_weight": -0.03299961,
          "l2_weight": 0.10305861
        },
        {
          "rank": 8,
          "channel_index": 53,
          "channel_name": "CP6",
          "abs_mean_weight": 0.09185196,
          "signed_mean_weight": -0.09185196,
          "l2_weight": 0.09463183
        },
        {
          "rank": 9,
          "channel_index": 43,
          "channel_name": "FC6",
          "abs_mean_weight": 0.09133705,
          "signed_mean_weight": 0.01111012,
          "l2_weight": 0.09820021
        },
        {
          "rank": 10,
          "channel_index": 15,
          "channel_name": "TP7",
          "abs_mean_weight": 0.08588574,
          "signed_mean_weight": 0.01912851,
          "l2_weight": 0.09344116
        },
        {
          "rank": 11,
          "channel_index": 37,
          "channel_name": "Fz",
          "abs_mean_weight": 0.08217186,
          "signed_mean_weight": 0.05241847,
          "l2_weight": 0.09792122
        },
        {
          "rank": 12,
          "channel_index": 14,
          "channel_name": "T7",
          "abs_mean_weight": 0.08197827,
          "signed_mean_weight": 0.046168,
          "l2_weight": 0.08940051
        },
        {
          "rank": 13,
          "channel_index": 55,
          "channel_name": "CP2",
          "abs_mean_weight": 0.08107287,
          "signed_mean_weight": -0.01939117,
          "l2_weight": 0.08473722
        },
        {
          "rank": 14,
          "channel_index": 52,
          "channel_name": "TP8",
          "abs_mean_weight": 0.07947005,
          "signed_mean_weight": -0.00572955,
          "l2_weight": 0.09422819
        },
        {
          "rank": 15,
          "channel_index": 38,
          "channel_name": "F2",
          "abs_mean_weight": 0.07778941,
          "signed_mean_weight": 0.02399727,
          "l2_weight": 0.08739096
        }
      ]
    }
  },
  {
    "subject_id": "1",
    "fold_id": 5,
    "accuracy": 0.55,
    "balanced_accuracy": 0.55,
    "prediction_histogram": [
      24,
      16
    ],
    "collapse_diagnostics": {
      "prediction_histogram": [
        24,
        16
      ],
      "collapse_ratio": 0.6,
      "collapse_threshold": 0.9,
      "collapse_flag": false,
      "majority_predicted_class": 0
    },
    "probability_diagnostics": {
      "available": true,
      "probability_shape": [
        40,
        2
      ],
      "mean_probability_by_class": [
        0.51028788,
        0.48971211
      ],
      "std_probability_by_class": [
        0.04370303,
        0.04370302
      ],
      "mean_confidence": 0.53507071,
      "std_confidence": 0.02803284,
      "mean_prediction_entropy": 0.68910098,
      "mean_normalized_prediction_entropy": 0.99416256,
      "mean_predicted_class_probability": 0.53507071
    },
    "spatial_update_stats": {
      "available": true,
      "parameter_name": "spatial_conv.1.weight",
      "initial_shape": [
        4,
        64
      ],
      "final_shape": [
        4,
        64
      ],
      "initial_l2": 1.13190078,
      "final_l2": 1.13264564,
      "delta_l2": 0.03407726,
      "delta_max_abs": 0.00391867,
      "relative_delta": 0.03010623,
      "changed": true
    },
    "n_trainable_params_final": 1798,
    "spatial_conv": {
      "available": true,
      "parameter_name": "spatial_conv.1.weight",
      "raw_weight_shape": [
        4,
        1,
        64,
        1
      ],
      "weight_matrix_shape": [
        4,
        64
      ],
      "n_virtual_filters": 4,
      "n_input_channels": 64,
      "channel_names": [
        "Fp1",
        "AF7",
        "AF3",
        "F1",
        "F3",
        "F5",
        "F7",
        "FT7",
        "FC5",
        "FC3",
        "FC1",
        "C1",
        "C3",
        "C5",
        "T7",
        "TP7",
        "CP5",
        "CP3",
        "CP1",
        "P1",
        "P3",
        "P5",
        "P7",
        "P9",
        "PO7",
        "PO3",
        "O1",
        "Iz",
        "Oz",
        "POz",
        "Pz",
        "CPz",
        "Fpz",
        "Fp2",
        "AF8",
        "AF4",
        "AFz",
        "Fz",
        "F2",
        "F4",
        "F6",
        "F8",
        "FT8",
        "FC6",
        "FC4",
        "FC2",
        "FCz",
        "Cz",
        "C2",
        "C4",
        "C6",
        "T8",
        "TP8",
        "CP6",
        "CP4",
        "CP2",
        "P2",
        "P4",
        "P6",
        "P8",
        "P10",
        "PO8",
        "PO4",
        "O2"
      ],
      "weight_matrix": [
        [
          0.09441476,
          0.02502,
          -0.00481073,
          -0.03890875,
          0.02707361,
          0.06843634,
          0.09206896,
          0.04213089,
          -0.0694397,
          0.09088449,
          0.05289868,
          -0.07975864,
          0.01111958,
          0.1212103,
          -0.08348576,
          0.11010665,
          -0.0486568,
          0.00682344,
          0.00435243,
          0.03227281,
          -0.10117034,
          0.11393799,
          -0.03915127,
          0.04136781,
          0.09880517,
          0.08027171,
          -0.01692001,
          0.01733187,
          -0.0284439,
          0.06373758,
          -0.0887491,
          0.09661214,
          0.00896662,
          0.00618389,
          -0.07409115,
          -0.1013734,
          -0.06109483,
          -0.05626978,
          -0.11536997,
          0.12613116,
          0.03430701,
          -0.07231332,
          0.05604511,
          0.11949402,
          -0.02756869,
          -0.05181807,
          -0.09818098,
          0.11532633,
          -0.08376757,
          0.09174355,
          -0.02294716,
          -0.07190191,
          0.01173764,
          -0.11961017,
          -0.10954687,
          0.0831672,
          0.05961282,
          0.05933589,
          0.11518184,
          -0.07939406,
          0.01176596,
          0.00693161,
          -0.00980926,
          0.08090764
        ],
        [
          0.04736295,
          0.11306601,
          0.0913685,
          -0.11068206,
          -0.10580585,
          0.05096309,
          0.05473307,
          0.10811952,
          -0.00079571,
          0.10508962,
          -0.01571972,
          -0.03067607,
          -0.07756928,
          0.08927687,
          0.02494874,
          0.11725374,
          0.02776425,
          -0.09713171,
          0.02429,
          -0.00828651,
          -0.0489248,
          0.02637558,
          0.0985155,
          0.03205639,
          -0.04802735,
          0.07913712,
          -0.04906915,
          0.06510138,
          0.01967166,
          0.0292077,
          0.09708288,
          0.08762243,
          0.12285926,
          0.06602239,
          -0.08581875,
          0.06740199,
          -0.0414667,
          -0.05609115,
          0.06343123,
          0.08026465,
          -0.06719043,
          0.11229174,
          -0.05789538,
          -0.07055533,
          -0.10092647,
          -0.04903866,
          0.06901599,
          0.05194103,
          0.03146463,
          -0.08532321,
          -0.02128919,
          -0.11109639,
          -0.10793245,
          -0.03404078,
          -0.12282917,
          -0.03060582,
          0.04215241,
          0.02827502,
          -0.05282013,
          0.10585302,
          -0.12444013,
          0.00789479,
          -0.04409631,
          -0.04402111
        ],
        [
          -0.00920285,
          0.09938911,
          -0.0274065,
          0.08042803,
          0.09080482,
          -0.06290828,
          -0.0047929,
          0.06349992,
          0.1037588,
          0.07911215,
          -0.02146747,
          -0.07338635,
          -0.07264395,
          0.01798019,
          0.10914106,
          -0.06211349,
          0.05431929,
          0.02694424,
          0.07615071,
          -0.01729384,
          -0.05503372,
          -0.06782424,
          -0.03171702,
          0.09375975,
          -0.01772846,
          -0.00445441,
          -0.08423432,
          -0.05579952,
          0.07626873,
          0.02218848,
          -0.04680724,
          0.01738539,
          0.07237592,
          -0.10519742,
          -0.04923002,
          0.00382039,
          -0.01238082,
          0.12650684,
          0.10244447,
          -0.02077348,
          -0.11084102,
          -0.09262856,
          0.04345755,
          0.08519074,
          -0.08347674,
          0.01809262,
          -0.08545355,
          0.06614286,
          0.11253171,
          -0.09260206,
          -0.03412725,
          0.08427126,
          0.11700083,
          -0.00355466,
          0.10911017,
          -0.11614533,
          0.09979591,
          -0.04494421,
          -0.06326385,
          -0.00511316,
          -0.12729986,
          0.03047792,
          -0.01941247,
          -0.02525584
        ],
        [
          -0.06674925,
          0.06624572,
          -0.09527888,
          0.02012949,
          -0.02947938,
          0.05319909,
          0.00299425,
          0.08047382,
          0.00798004,
          -0.1013172,
          -0.0445365,
          0.0417871,
          -0.03187581,
          -0.05330122,
          0.09765401,
          -0.08319383,
          -0.03860942,
          -0.02243074,
          -0.07283574,
          -0.00617904,
          0.01333581,
          -0.0226141,
          -0.1103293,
          0.02726477,
          0.09985422,
          -0.05638585,
          -0.01899076,
          -0.08717662,
          0.07017379,
          -0.05539441,
          -0.08169021,
          0.11975112,
          -0.05140733,
          0.04542591,
          -0.0862505,
          0.07208512,
          -0.03926296,
          0.1090133,
          0.02311061,
          0.09903201,
          0.03288717,
          0.10138395,
          0.0154103,
          -0.02385577,
          -0.07887536,
          0.02404235,
          -0.11103483,
          0.06955285,
          0.0270844,
          -0.0254737,
          -0.00344009,
          -0.08669285,
          -0.01876638,
          -0.10380444,
          -0.11792016,
          0.06396739,
          0.06866355,
          -0.07079232,
          -0.12466533,
          -0.00710654,
          -0.0593942,
          0.00918073,
          -0.00402637,
          -0.00100705
        ]
      ],
      "weight_matrix_norm": [
        [
          0.74854428,
          0.19836491,
          -0.03814069,
          -0.30847847,
          0.21464652,
          0.54258072,
          0.7299462,
          0.3340244,
          -0.55053568,
          0.72055542,
          0.41939422,
          -0.63234681,
          0.08815882,
          0.96098614,
          -0.66189641,
          0.87295353,
          -0.38576347,
          0.054098,
          0.03450714,
          0.25586706,
          -0.80210423,
          0.90332943,
          -0.31040123,
          0.32797456,
          0.78335255,
          0.63641459,
          -0.13414615,
          0.13741152,
          -0.22551052,
          0.50532776,
          -0.70362544,
          0.7659657,
          0.07108963,
          0.04902748,
          -0.58741355,
          -0.80371416,
          -0.48437539,
          -0.44612116,
          -0.91468251,
          1.0,
          0.27199471,
          -0.57331848,
          0.44433993,
          0.94737905,
          -0.2185716,
          -0.41082683,
          -0.77840382,
          0.91433656,
          -0.66413063,
          0.72736627,
          -0.18193094,
          -0.57005668,
          0.09305903,
          -0.94829988,
          -0.86851549,
          0.65937078,
          0.47262564,
          0.47043005,
          0.91319102,
          -0.6294564,
          0.09328355,
          0.05495557,
          -0.07777032,
          0.64145643
        ],
        [
          0.38060829,
          0.90859765,
          0.7342366,
          -0.88944024,
          -0.85025507,
          0.40953901,
          0.43983456,
          0.86884767,
          -0.00639433,
          0.84449941,
          -0.12632357,
          -0.24651265,
          -0.62334621,
          0.71742827,
          0.20048788,
          0.94225013,
          0.22311333,
          -0.78054976,
          0.1951943,
          -0.06659035,
          -0.39315936,
          0.21195394,
          0.79166979,
          0.25760496,
          -0.38594741,
          0.63594526,
          -0.39431933,
          0.5231542,
          0.15808134,
          0.23471287,
          0.78015727,
          0.70413321,
          0.9872961,
          0.53055543,
          -0.68963885,
          0.54164189,
          -0.33322608,
          -0.45074806,
          0.50973284,
          0.64500612,
          -0.53994179,
          0.90237558,
          -0.46524686,
          -0.56698209,
          -0.81104434,
          -0.39407435,
          0.55461204,
          0.41739771,
          0.25284952,
          -0.68565673,
          -0.17107974,
          -0.89276975,
          -0.86734438,
          -0.27355146,
          -0.98705429,
          -0.24594817,
          0.33873644,
          0.22721784,
          -0.42446223,
          0.8506341,
          -1.0,
          0.06344244,
          -0.35435763,
          -0.35375333
        ],
        [
          -0.07229272,
          0.78074801,
          -0.2152909,
          0.63179988,
          0.71331441,
          -0.49417403,
          -0.03765045,
          0.49882162,
          0.81507397,
          0.621463,
          -0.16863704,
          -0.57648414,
          -0.57065225,
          0.14124283,
          0.8573541,
          -0.48793051,
          0.42670345,
          0.21165961,
          0.59819949,
          -0.1358512,
          -0.43231565,
          -0.53279114,
          -0.24915202,
          0.73652673,
          -0.13926536,
          -0.03499148,
          -0.66170001,
          -0.43833134,
          0.59912658,
          0.17430088,
          -0.3676928,
          0.13657036,
          0.56854671,
          -0.82637501,
          -0.38672489,
          0.03001097,
          -0.09725715,
          0.99377042,
          0.80474925,
          -0.16318539,
          -0.87070811,
          -0.72764069,
          0.34137943,
          0.66921312,
          -0.65574884,
          0.14212602,
          -0.67127764,
          0.51958317,
          0.88398921,
          -0.72743255,
          -0.26808551,
          0.66199023,
          0.91909629,
          -0.02792348,
          0.85711145,
          -0.91237593,
          0.78394359,
          -0.3530578,
          -0.49696714,
          -0.04016629,
          -1.0,
          0.23941836,
          -0.152494,
          -0.19839641
        ],
        [
          -0.53542751,
          0.53138846,
          -0.76427728,
          0.16146821,
          -0.23646814,
          0.42673519,
          0.02401829,
          0.64551878,
          0.06401172,
          -0.81271344,
          -0.35724846,
          0.3351942,
          -0.25569105,
          -0.42755443,
          0.78332931,
          -0.6673373,
          -0.30970451,
          -0.17992763,
          -0.58425009,
          -0.04956504,
          0.1069729,
          -0.18139848,
          -0.88500386,
